{"learner":{"attributes":{"scikit_learn":"{\"_estimator_type\": \"regressor\"}"},"feature_names":[],"feature_types":[],"gradient_booster":{"model":{"gbtree_model_param":{"num_parallel_tree":"1","num_trees":"100"},"iteration_indptr":[0,1,2,3,4,5,6,7,8,9,10,11,12,13,14,15,16,17,18,19,20,21,22,23,24,25,26,27,28,29,30,31,32,33,34,35,36,37,38,39,40,41,42,43,44,45,46,47,48,49,50,51,52,53,54,55,56,57,58,59,60,61,62,63,64,65,66,67,68,69,70,71,72,73,74,75,76,77,78,79,80,81,82,83,84,85,86,87,88,89,90,91,92,93,94,95,96,97,98,99,100],"tree_info":[0,0,0,0,0,0,0,0,0,0,0,0,0,0,0,0,0,0,0,0,0,0,0,0,0,0,0,0,0,0,0,0,0,0,0,0,0,0,0,0,0,0,0,0,0,0,0,0,0,0,0,0,0,0,0,0,0,0,0,0,0,0,0,0,0,0,0,0,0,0,0,0,0,0,0,0,0,0,0,0,0,0,0,0,0,0,0,0,0,0,0,0,0,0,0,0,0,0,0,0],"trees":[{"base_weights":[-1.4221127E-4,5.6309607E-2,-1.1438339E-1,1.092084E-2,9.489755E-2,-1.5519556E-1,-6.3675605E-2,-1.7615154E-2,5.23664E-2,6.4141095E-2,1.3192402E-1,-1.8685848E-1,-1.16571285E-1,-9.558847E-2,-3.187182E-2,-4.6964422E-2,6.198281E-3,3.568351E-2,8.432104E-2,4.4082973E-2,9.68098E-2,8.162465E-2,1.4901532E-1,-2.1645275E-1,-1.5887997E-1,-1.4226352E-1,-9.131564E-2,-1.2312776E-1,-7.503141E-2,-5.64272E-2,-5.083241E-4,-4.8725703E-3,-1.6558765E-3,-1.6432137E-3,1.6163267E-3,1.3512891E-3,4.055564E-3,3.6283534E-3,7.3221955E-3,1.1251876E-3,4.3863743E-3,4.9460754E-3,8.3733555E-3,3.2193642E-3,6.399735E-3,8.533877E-3,1.2380086E-2,-1.6788142E-2,-1.3161654E-2,-1.2406854E-2,-9.248382E-3,-1.1517901E-2,-7.843963E-3,-8.252365E-3,-4.5136986E-3,-1.1299891E-2,-7.6454976E-3,-6.0667596E-3,-3.053781E-3,-5.774827E-3,-2.3579898E-3,-1.1086522E-3,1.9987102E-3],"categories":[],"categories_nodes":[],"categories_segments":[],"categories_sizes":[],"default_left":[0,0,0,0,0,0,0,0,0,0,0,0,0,0,0,0,0,0,0,0,0,0,0,0,0,0,0,0,0,0,0,0,0,0,0,0,0,0,0,0,0,0,0,0,0,0,0,0,0,0,0,0,0,0,0,0,0,0,0,0,0,0,0],"id":0,"left_children":[1,3,5,7,9,11,13,15,17,19,21,23,25,27,29,31,33,35,37,39,41,43,45,47,49,51,53,55,57,59,61,-1,-1,-1,-1,-1,-1,-1,-1,-1,-1,-1,-1,-1,-1,-1,-1,-1,-1,-1,-1,-1,-1,-1,-1,-1,-1,-1,-1,-1,-1,-1,-1],"loss_changes":[7.6538185E1,1.3910809E1,8.112888E0,4.318924E0,4.880417E0,2.6369286E0,1.7751455E0,1.5120265E0,7.9077053E-1,1.533659E0,1.6616364E0,9.534149E-1,6.242037E-1,4.8555613E-1,6.7692673E-1,5.0979495E-1,5.995182E-1,3.56084E-1,3.3061814E-1,7.5668216E-1,5.236311E-1,1.6900635E-1,1.0741539E0,3.3838654E-1,2.7973843E-1,3.0794144E-1,3.475361E-1,1.8049765E-1,1.8004441E-1,2.895118E-1,1.7285977E-1,0E0,0E0,0E0,0E0,0E0,0E0,0E0,0E0,0E0,0E0,0E0,0E0,0E0,0E0,0E0,0E0,0E0,0E0,0E0,0E0,0E0,0E0,0E0,0E0,0E0,0E0,0E0,0E0,0E0,0E0,0E0,0E0],"parents":[2147483647,0,0,1,1,2,2,3,3,4,4,5,5,6,6,7,7,8,8,9,9,10,10,11,11,12,12,13,13,14,14,15,15,16,16,17,17,18,18,19,19,20,20,21,21,22,22,23,23,24,24,25,25,26,26,27,27,28,28,29,29,30,30],"right_children":[2,4,6,8,10,12,14,16,18,20,22,24,26,28,30,32,34,36,38,40,42,44,46,48,50,52,54,56,58,60,62,-1,-1,-1,-1,-1,-1,-1,-1,-1,-1,-1,-1,-1,-1,-1,-1,-1,-1,-1,-1,-1,-1,-1,-1,-1,-1,-1,-1,-1,-1,-1,-1],"split_conditions":[1E0,3.7286983E1,3.9240143E1,3.4904747E1,3.2529507E1,3.2016304E1,3.0324387E1,1.87E2,2.75E2,2.48E2,1.15E2,2.06E2,2.08E2,1.77E2,2.39E2,3.2820904E1,3.1227423E1,3.3403236E1,3.1668716E1,4.1654575E1,1.7482868E1,3.6880722E1,4.27882E1,3.4032234E1,3.4389534E1,3.460465E1,3.3190918E1,4.1587875E1,2.3726477E1,4.0543324E1,3.51E2,-4.8725703E-3,-1.6558765E-3,-1.6432137E-3,1.6163267E-3,1.3512891E-3,4.055564E-3,3.6283534E-3,7.3221955E-3,1.1251876E-3,4.3863743E-3,4.9460754E-3,8.3733555E-3,3.2193642E-3,6.399735E-3,8.533877E-3,1.2380086E-2,-1.6788142E-2,-1.3161654E-2,-1.2406854E-2,-9.248382E-3,-1.1517901E-2,-7.843963E-3,-8.252365E-3,-4.5136986E-3,-1.1299891E-2,-7.6454976E-3,-6.0667596E-3,-3.053781E-3,-5.774827E-3,-2.3579898E-3,-1.1086522E-3,1.9987102E-3],"split_indices":[4,1,1,3,3,3,3,2,2,2,2,2,2,2,2,1,1,1,1,1,3,3,1,1,1,1,1,1,3,3,2,0,0,0,0,0,0,0,0,0,0,0,0,0,0,0,0,0,0,0,0,0,0,0,0,0,0,0,0,0,0,0,0],"split_type":[0,0,0,0,0,0,0,0,0,0,0,0,0,0,0,0,0,0,0,0,0,0,0,0,0,0,0,0,0,0,0,0,0,0,0,0,0,0,0,0,0,0,0,0,0,0,0,0,0,0,0,0,0,0,0,0,0,0,0,0,0,0,0],"sum_hessian":[1.1866E4,7.942E3,3.924E3,3.65E3,4.292E3,2.173E3,1.751E3,2.162E3,1.488E3,2.346E3,1.946E3,1.192E3,9.81E2,8.73E2,8.78E2,9.68E2,1.194E3,9.79E2,5.09E2,1.455E3,8.91E2,4.95E2,1.451E3,5.76E2,6.16E2,4.84E2,4.97E2,3.71E2,5.02E2,4.92E2,3.86E2,4.9E2,4.78E2,4.33E2,7.61E2,5.65E2,4.14E2,1.97E2,3.12E2,5.81E2,8.74E2,4.17E2,4.74E2,1.08E2,3.87E2,7.38E2,7.13E2,3.12E2,2.64E2,3.62E2,2.54E2,2.76E2,2.08E2,2.48E2,2.49E2,9.6E1,2.75E2,3.65E2,1.37E2,2.28E2,2.64E2,2.53E2,1.33E2],"tree_param":{"num_deleted":"0","num_feature":"7","num_nodes":"63","size_leaf_vector":"1"}},{"base_weights":[1.3081481E-5,5.2279953E-2,-1.06426366E-1,-1.2307821E-2,1.1922579E-1,-1.6328543E-1,-2.7457945E-2,-5.226546E-2,2.867081E-2,7.782653E-2,1.5373397E-1,-2.067041E-1,-1.22563936E-1,-6.562375E-2,1.3533935E-2,-8.936299E-2,-1.49727445E-2,-1.4998765E-2,5.67717E-2,4.925254E-2,1.1255107E-1,1.2337091E-1,1.8714339E-1,-2.4917717E-1,-1.6874212E-1,-1.5597963E-1,-8.47128E-2,-9.5499694E-2,-4.5656096E-2,-2.0668512E-2,3.808302E-2,-7.956968E-3,-4.8182392E-3,-2.5533407E-3,7.235068E-4,-3.0782586E-3,1.14128285E-4,2.295456E-3,6.07573E-3,1.5889906E-3,5.013395E-3,5.7677487E-3,9.101307E-3,6.2458576E-3,9.9141365E-3,9.394652E-3,1.4088748E-2,-1.8853799E-2,-1.5429336E-2,-1.3344419E-2,-1.0301477E-2,-1.2173834E-2,-9.1329515E-3,-7.860246E-3,-4.113009E-3,-8.170326E-3,-4.451569E-3,-4.5024008E-3,-1.2174386E-3,-4.1372976E-3,1.7704786E-4,4.4507E-4,3.9214687E-3],"categories":[],"categories_nodes":[],"categories_segments":[],"categories_sizes":[],"default_left":[0,0,0,0,0,0,0,0,0,0,0,0,0,0,0,0,0,0,0,0,0,0,0,0,0,0,0,0,0,0,0,0,0,0,0,0,0,0,0,0,0,0,0,0,0,0,0,0,0,0,0,0,0,0,0,0,0,0,0,0,0,0,0],"id":1,"left_children":[1,3,5,7,9,11,13,15,17,19,21,23,25,27,29,31,33,35,37,39,41,43,45,47,49,51,53,55,57,59,61,-1,-1,-1,-1,-1,-1,-1,-1,-1,-1,-1,-1,-1,-1,-1,-1,-1,-1,-1,-1,-1,-1,-1,-1,-1,-1,-1,-1,-1,-1,-1,-1],"loss_changes":[6.625282E1,3.4536324E1,1.7605576E1,6.6592045E0,5.591053E0,4.0058746E0,2.5713425E0,2.8472219E0,2.4649768E0,1.7655659E0,2.1457253E0,1.7347755E0,1.4780102E0,5.033059E-1,6.6662073E-1,5.0721264E-1,5.598391E-1,3.7928978E-1,8.7695765E-1,5.810039E-1,4.1330433E-1,6.8751335E-1,7.326126E-1,2.4098969E-1,2.4829674E-1,2.6320553E-1,3.906498E-1,2.2276354E-1,2.689712E-1,2.9616845E-1,2.6255852E-1,0E0,0E0,0E0,0E0,0E0,0E0,0E0,0E0,0E0,0E0,0E0,0E0,0E0,0E0,0E0,0E0,0E0,0E0,0E0,0E0,0E0,0E0,0E0,0E0,0E0,0E0,0E0,0E0,0E0,0E0,0E0,0E0],"parents":[2147483647,0,0,1,1,2,2,3,3,4,4,5,5,6,6,7,7,8,8,9,9,10,10,11,11,12,12,13,13,14,14,15,15,16,16,17,17,18,18,19,19,20,20,21,21,22,22,23,23,24,24,25,25,26,26,27,27,28,28,29,29,30,30],"right_children":[2,4,6,8,10,12,14,16,18,20,22,24,26,28,30,32,34,36,38,40,42,44,46,48,50,52,54,56,58,60,62,-1,-1,-1,-1,-1,-1,-1,-1,-1,-1,-1,-1,-1,-1,-1,-1,-1,-1,-1,-1,-1,-1,-1,-1,-1,-1,-1,-1,-1,-1,-1,-1],"split_conditions":[1E0,4.0676094E1,4.594196E1,3.8307335E1,3.7286983E1,3.7831314E1,3.861681E1,1.9961811E1,1.5757317E1,6.206576E1,6.0443165E1,2.0310654E1,2.431682E1,5.918649E1,5.9832127E1,1.83E2,2.37E2,4.1965244E1,2.24E2,2.04E2,1.55E2,1.54E2,1.02E2,2.27E2,2.2E2,2.42E2,1.99E2,2.48E2,2.5E2,1.7E2,1.6E2,-7.956968E-3,-4.8182392E-3,-2.5533407E-3,7.235068E-4,-3.0782586E-3,1.14128285E-4,2.295456E-3,6.07573E-3,1.5889906E-3,5.013395E-3,5.7677487E-3,9.101307E-3,6.2458576E-3,9.9141365E-3,9.394652E-3,1.4088748E-2,-1.8853799E-2,-1.5429336E-2,-1.3344419E-2,-1.0301477E-2,-1.2173834E-2,-9.1329515E-3,-7.860246E-3,-4.113009E-3,-8.170326E-3,-4.451569E-3,-4.5024008E-3,-1.2174386E-3,-4.1372976E-3,1.7704786E-4,4.4507E-4,3.9214687E-3],"split_indices":[4,0,0,1,1,1,1,0,0,0,0,0,0,0,0,2,2,1,2,2,2,2,2,2,2,2,2,2,2,2,2,0,0,0,0,0,0,0,0,0,0,0,0,0,0,0,0,0,0,0,0,0,0,0,0,0,0,0,0,0,0,0,0],"split_type":[0,0,0,0,0,0,0,0,0,0,0,0,0,0,0,0,0,0,0,0,0,0,0,0,0,0,0,0,0,0,0,0,0,0,0,0,0,0,0,0,0,0,0,0,0,0,0,0,0,0,0,0,0,0,0,0,0,0,0,0,0,0,0],"sum_hessian":[1.1907E4,7.986E3,3.921E3,4.065E3,3.921E3,2.279E3,1.642E3,2.058E3,2.007E3,1.784E3,2.137E3,1.101E3,1.178E3,8.5E2,7.92E2,1.031E3,1.027E3,7.86E2,1.221E3,9.8E2,8.04E2,1.122E3,1.015E3,5.17E2,5.84E2,6.24E2,5.54E2,3.39E2,5.11E2,3.31E2,4.61E2,4.7E2,5.61E2,5.55E2,4.72E2,2.86E2,5E2,6.8E2,5.41E2,4.49E2,5.31E2,2.97E2,5.07E2,3.93E2,7.29E2,2.16E2,7.99E2,2.99E2,2.18E2,2.86E2,2.98E2,3.63E2,2.61E2,2.67E2,2.87E2,2.02E2,1.37E2,3.07E2,2.04E2,1.24E2,2.07E2,1.67E2,2.94E2],"tree_param":{"num_deleted":"0","num_feature":"7","num_nodes":"63","size_leaf_vector":"1"}},{"base_weights":[1.753232E-5,4.919062E-2,-9.85525E-2,-1.4184035E-2,1.09479606E-1,-1.6892114E-1,-4.2372726E-2,-5.4732874E-2,1.8664127E-2,7.7329606E-2,1.4971784E-1,-2.1068472E-1,-1.2919275E-1,-8.288426E-2,-9.097442E-3,-8.9035384E-2,-2.5403287E-2,-2.2883298E-2,4.296847E-2,4.060563E-2,1.0602801E-1,1.1343075E-1,1.7987244E-1,-2.32311E-1,-1.6120395E-1,-1.6190486E-1,-1.0303933E-1,-1.2411754E-1,-5.3502172E-2,-3.841197E-2,2.716969E-2,-8.678761E-3,-4.0599694E-3,-3.2717555E-3,6.558412E-4,-4.5370157E-3,-4.0120845E-5,9.6646964E-4,5.4832795E-3,1.1991923E-3,5.512685E-3,4.604118E-3,8.966491E-3,5.5132234E-3,9.610122E-3,9.95312E-3,1.4516993E-2,-1.7866502E-2,-1.3564869E-2,-1.2962056E-2,-8.870001E-3,-1.3329946E-2,-9.417018E-3,-9.134105E-3,-5.061207E-3,-1.0930268E-2,-6.3709957E-3,-5.8926498E-3,-1.5094719E-3,-4.7816494E-3,-1.7551027E-4,-2.6531782E-4,4.0620565E-3],"categories":[],"categories_nodes":[],"categories_segments":[],"categories_sizes":[],"default_left":[0,0,0,0,0,0,0,0,0,0,0,0,0,0,0,0,0,0,0,0,0,0,0,0,0,0,0,0,0,0,0,0,0,0,0,0,0,0,0,0,0,0,0,0,0,0,0,0,0,0,0,0,0,0,0,0,0,0,0,0,0,0,0],"id":2,"left_children":[1,3,5,7,9,11,13,15,17,19,21,23,25,27,29,31,33,35,37,39,41,43,45,47,49,51,53,55,57,59,61,-1,-1,-1,-1,-1,-1,-1,-1,-1,-1,-1,-1,-1,-1,-1,-1,-1,-1,-1,-1,-1,-1,-1,-1,-1,-1,-1,-1,-1,-1,-1,-1],"loss_changes":[5.7582283E1,3.0285164E1,1.5624168E1,5.149027E0,5.2432632E0,2.884674E0,2.9649184E0,1.7382536E0,2.1578796E0,2.377554E0,1.9524803E0,8.764038E-1,7.5500774E-1,1.1951871E0,1.2863966E0,8.572402E-1,6.933796E-1,7.380655E-1,1.3890834E0,8.8785756E-1,1.1178274E0,6.6825485E-1,9.897213E-1,4.7340775E-1,1.9394732E-1,2.8594017E-1,4.157648E-1,4.226203E-1,5.674602E-1,7.1796894E-1,5.17099E-1,0E0,0E0,0E0,0E0,0E0,0E0,0E0,0E0,0E0,0E0,0E0,0E0,0E0,0E0,0E0,0E0,0E0,0E0,0E0,0E0,0E0,0E0,0E0,0E0,0E0,0E0,0E0,0E0,0E0,0E0,0E0,0E0],"parents":[2147483647,0,0,1,1,2,2,3,3,4,4,5,5,6,6,7,7,8,8,9,9,10,10,11,11,12,12,13,13,14,14,15,15,16,16,17,17,18,18,19,19,20,20,21,21,22,22,23,23,24,24,25,25,26,26,27,27,28,28,29,29,30,30],"right_children":[2,4,6,8,10,12,14,16,18,20,22,24,26,28,30,32,34,36,38,40,42,44,46,48,50,52,54,56,58,60,62,-1,-1,-1,-1,-1,-1,-1,-1,-1,-1,-1,-1,-1,-1,-1,-1,-1,-1,-1,-1,-1,-1,-1,-1,-1,-1,-1,-1,-1,-1,-1,-1],"split_conditions":[1E0,3.8889E1,3.4948162E1,3.706147E1,3.9240143E1,3.7831314E1,3.7207745E1,1.7622519E1,2.3912819E1,2.7275623E1,2.7812069E1,3.9562275E1,2.8089453E1,5.3883076E1,5.9566902E1,2.913465E1,3.539427E1,1.3388581E1,2.0856302E1,6.452266E1,5.3227337E1,5.4866436E1,5.4543148E1,2.0856302E1,1.9174856E1,1.7877728E1,1.7877728E1,3.0922087E1,3.009539E1,3.1622915E1,2.9569698E1,-8.678761E-3,-4.0599694E-3,-3.2717555E-3,6.558412E-4,-4.5370157E-3,-4.0120845E-5,9.6646964E-4,5.4832795E-3,1.1991923E-3,5.512685E-3,4.604118E-3,8.966491E-3,5.5132234E-3,9.610122E-3,9.95312E-3,1.4516993E-2,-1.7866502E-2,-1.3564869E-2,-1.2962056E-2,-8.870001E-3,-1.3329946E-2,-9.417018E-3,-9.134105E-3,-5.061207E-3,-1.0930268E-2,-6.3709957E-3,-5.8926498E-3,-1.5094719E-3,-4.7816494E-3,-1.7551027E-4,-2.6531782E-4,4.0620565E-3],"split_indices":[4,0,0,1,1,1,1,0,3,3,3,3,3,0,0,3,3,0,0,0,0,0,0,0,0,0,0,3,3,3,3,0,0,0,0,0,0,0,0,0,0,0,0,0,0,0,0,0,0,0,0,0,0,0,0,0,0,0,0,0,0,0,0],"split_type":[0,0,0,0,0,0,0,0,0,0,0,0,0,0,0,0,0,0,0,0,0,0,0,0,0,0,0,0,0,0,0,0,0,0,0,0,0,0,0,0,0,0,0,0,0,0,0,0,0,0,0,0,0,0,0,0,0,0,0,0,0,0,0],"sum_hessian":[1.1878E4,7.925E3,3.953E3,3.864E3,4.061E3,1.754E3,2.199E3,1.729E3,2.135E3,2.259E3,1.802E3,8.53E2,9.01E2,9.91E2,1.208E3,7.96E2,9.33E2,7.88E2,1.347E3,9.92E2,1.267E3,8.2E2,9.82E2,5.91E2,2.62E2,3.98E2,5.03E2,4.11E2,5.8E2,6.68E2,5.4E2,3.73E2,4.23E2,5.78E2,3.55E2,2.73E2,5.15E2,7.39E2,6.08E2,6.15E2,3.77E2,4.5E2,8.17E2,3.36E2,4.84E2,4.17E2,5.65E2,3.67E2,2.24E2,1.52E2,1.1E2,1.92E2,2.06E2,2.64E2,2.39E2,2.07E2,2.04E2,2.95E2,2.85E2,3.64E2,3.04E2,2.7E2,2.7E2],"tree_param":{"num_deleted":"0","num_feature":"7","num_nodes":"63","size_leaf_vector":"1"}},{"base_weights":[1.9518645E-4,4.5299992E-2,-9.0598464E-2,6.948173E-3,7.52051E-2,-1.2334315E-1,-5.023746E-2,-1.7694473E-2,4.2879E-2,5.125672E-2,1.1250818E-1,-1.5042536E-1,-9.328386E-2,-8.652885E-2,-2.7379422E-2,-4.266073E-2,3.2600218E-3,1.7221393E-2,5.9733275E-2,2.8391818E-2,7.645519E-2,8.078886E-2,1.3028845E-1,-1.7453143E-1,-1.2881583E-1,-1.3192853E-1,-7.780438E-2,-1.1217189E-1,-7.104871E-2,-5.0223377E-2,-1.333784E-3,-4.3707434E-3,-1.3022512E-3,-1.5466387E-3,1.2842099E-3,-1.0613274E-3,2.2247988E-3,2.6564577E-3,5.2422322E-3,1.9681455E-4,3.2671227E-3,3.4296727E-3,6.578489E-3,4.698956E-3,8.084382E-3,7.562471E-3,1.1088466E-2,-1.3716843E-2,-1.0414322E-2,-1.0746786E-2,-7.5084628E-3,-1.0950232E-2,-7.58272E-3,-7.474129E-3,-4.312572E-3,-9.67383E-3,-6.5742726E-3,-5.8243223E-3,-2.578577E-3,-4.259095E-3,-9.2080055E-4,-1.3752737E-3,1.2350661E-3],"categories":[],"categories_nodes":[],"categories_segments":[],"categories_sizes":[],"default_left":[0,0,0,0,0,0,0,0,0,0,0,0,0,0,0,0,0,0,0,0,0,0,0,0,0,0,0,0,0,0,0,0,0,0,0,0,0,0,0,0,0,0,0,0,0,0,0,0,0,0,0,0,0,0,0,0,0,0,0,0,0,0,0],"id":3,"left_children":[1,3,5,7,9,11,13,15,17,19,21,23,25,27,29,31,33,35,37,39,41,43,45,47,49,51,53,55,57,59,61,-1,-1,-1,-1,-1,-1,-1,-1,-1,-1,-1,-1,-1,-1,-1,-1,-1,-1,-1,-1,-1,-1,-1,-1,-1,-1,-1,-1,-1,-1,-1,-1],"loss_changes":[4.8602196E1,9.093369E0,5.1996193E0,3.07763E0,3.974102E0,1.7557602E0,1.462616E0,1.0788856E0,6.1044216E-1,1.5621047E0,9.7135925E-1,5.724106E-1,6.076746E-1,2.6275587E-1,6.45492E-1,4.4657862E-1,4.2956948E-1,2.6549095E-1,2.7877736E-1,6.662568E-1,6.166067E-1,2.8996038E-1,6.7993736E-1,2.6714516E-1,3.062544E-1,1.5309715E-1,3.4061956E-1,1.08162165E-1,1.7492986E-1,2.2676098E-1,1.7689505E-1,0E0,0E0,0E0,0E0,0E0,0E0,0E0,0E0,0E0,0E0,0E0,0E0,0E0,0E0,0E0,0E0,0E0,0E0,0E0,0E0,0E0,0E0,0E0,0E0,0E0,0E0,0E0,0E0,0E0,0E0,0E0,0E0],"parents":[2147483647,0,0,1,1,2,2,3,3,4,4,5,5,6,6,7,7,8,8,9,9,10,10,11,11,12,12,13,13,14,14,15,15,16,16,17,17,18,18,19,19,20,20,21,21,22,22,23,23,24,24,25,25,26,26,27,27,28,28,29,29,30,30],"right_children":[2,4,6,8,10,12,14,16,18,20,22,24,26,28,30,32,34,36,38,40,42,44,46,48,50,52,54,56,58,60,62,-1,-1,-1,-1,-1,-1,-1,-1,-1,-1,-1,-1,-1,-1,-1,-1,-1,-1,-1,-1,-1,-1,-1,-1,-1,-1,-1,-1,-1,-1,-1,-1],"split_conditions":[1E0,3.6858982E1,3.9240143E1,3.4904747E1,3.539427E1,3.0922087E1,2.4551449E1,1.87E2,1.7E2,2.14E2,1.54E2,2.06E2,1.27E2,4.27882E1,2.24E2,3.3009136E1,3.1302856E1,3.0935514E1,3.1766531E1,4.1654575E1,4.1345764E1,4.4954117E1,4.33098E1,3.396285E1,3.3090412E1,3.362967E1,3.1916985E1,1.63E2,3E2,4.756877E1,3.999207E1,-4.3707434E-3,-1.3022512E-3,-1.5466387E-3,1.2842099E-3,-1.0613274E-3,2.2247988E-3,2.6564577E-3,5.2422322E-3,1.9681455E-4,3.2671227E-3,3.4296727E-3,6.578489E-3,4.698956E-3,8.084382E-3,7.562471E-3,1.1088466E-2,-1.3716843E-2,-1.0414322E-2,-1.0746786E-2,-7.5084628E-3,-1.0950232E-2,-7.58272E-3,-7.474129E-3,-4.312572E-3,-9.67383E-3,-6.5742726E-3,-5.8243223E-3,-2.578577E-3,-4.259095E-3,-9.2080055E-4,-1.3752737E-3,1.2350661E-3],"split_indices":[4,1,1,3,3,3,3,2,2,2,2,2,2,1,2,1,1,1,1,1,1,1,1,1,1,1,1,2,2,3,3,0,0,0,0,0,0,0,0,0,0,0,0,0,0,0,0,0,0,0,0,0,0,0,0,0,0,0,0,0,0,0,0],"split_type":[0,0,0,0,0,0,0,0,0,0,0,0,0,0,0,0,0,0,0,0,0,0,0,0,0,0,0,0,0,0,0,0,0,0,0,0,0,0,0,0,0,0,0,0,0,0,0,0,0,0,0,0,0,0,0,0,0,0,0,0,0,0,0],"sum_hessian":[1.1866E4,7.928E3,3.938E3,3.474E3,4.454E3,2.173E3,1.765E3,2.061E3,1.413E3,2.714E3,1.74E3,1.141E3,1.032E3,6.81E2,1.084E3,9.4E2,1.121E3,5.61E2,8.52E2,1.424E3,1.29E3,6.27E2,1.113E3,5.36E2,6.05E2,2.93E2,7.39E2,2.54E2,4.27E2,5.77E2,5.07E2,5.15E2,4.25E2,4.18E2,7.03E2,1.74E2,3.87E2,3.51E2,5.01E2,5.94E2,8.3E2,5.04E2,7.86E2,4.52E2,1.75E2,6.24E2,4.89E2,2.89E2,2.47E2,2.79E2,3.26E2,1.41E2,1.52E2,2.63E2,4.76E2,1.02E2,1.52E2,3.14E2,1.13E2,4.48E2,1.29E2,2.58E2,2.49E2],"tree_param":{"num_deleted":"0","num_feature":"7","num_nodes":"63","size_leaf_vector":"1"}},{"base_weights":[1.0124524E-4,4.289747E-2,-8.609981E-2,-1.917111E-2,9.448244E-2,-1.504789E-1,-3.45925E-2,-5.4864116E-2,2.7458207E-3,6.681576E-2,1.2811832E-1,-1.813002E-1,-1.24867894E-1,-6.8911895E-2,-4.3676333E-3,-8.359806E-2,-2.9185504E-2,-3.0905103E-2,2.3702286E-2,4.0366046E-2,9.641195E-2,9.4643414E-2,1.5495305E-1,-2.086728E-1,-1.5367837E-1,-1.5007812E-1,-9.350444E-2,-9.6904285E-2,-4.3392945E-2,-2.8013648E-2,2.8726313E-2,-7.324646E-3,-4.462731E-3,-3.358923E-3,-7.068076E-4,-3.9977184E-3,-7.747219E-4,-2.1909321E-4,3.0651449E-3,1.7686896E-3,4.983832E-3,5.6276773E-3,8.225837E-3,4.814116E-3,7.950193E-3,9.8184645E-3,1.2963121E-2,-1.6807547E-2,-1.3538227E-2,-1.3816923E-2,-1.0205567E-2,-1.1311379E-2,-8.328766E-3,-7.988873E-3,-4.813517E-3,-8.047193E-3,-4.8592994E-3,-4.64929E-3,-1.2034843E-3,-2.844106E-3,6.844698E-4,9.976196E-4,4.230702E-3],"categories":[],"categories_nodes":[],"categories_segments":[],"categories_sizes":[],"default_left":[0,0,0,0,0,0,0,0,0,0,0,0,0,0,0,0,0,0,0,0,0,0,0,0,0,0,0,0,0,0,0,0,0,0,0,0,0,0,0,0,0,0,0,0,0,0,0,0,0,0,0,0,0,0,0,0,0,0,0,0,0,0,0],"id":4,"left_children":[1,3,5,7,9,11,13,15,17,19,21,23,25,27,29,31,33,35,37,39,41,43,45,47,49,51,53,55,57,59,61,-1,-1,-1,-1,-1,-1,-1,-1,-1,-1,-1,-1,-1,-1,-1,-1,-1,-1,-1,-1,-1,-1,-1,-1,-1,-1,-1,-1,-1,-1,-1,-1],"loss_changes":[4.3789383E1,2.5398531E1,1.3053177E1,2.817145E0,4.02277E0,1.3587494E0,2.270347E0,1.0084114E0,1.5747489E0,1.8584156E0,1.740593E0,5.6674767E-1,7.442293E-1,7.2799015E-1,9.1246384E-1,2.6305246E-1,2.5967604E-1,4.4487834E-1,7.4171567E-1,5.838344E-1,3.697319E-1,4.1924667E-1,4.5500755E-1,1.4315987E-1,1.0837555E-1,1.7051601E-1,2.1153569E-1,2.342E-1,3.2341993E-1,3.246197E-1,2.2222373E-1,0E0,0E0,0E0,0E0,0E0,0E0,0E0,0E0,0E0,0E0,0E0,0E0,0E0,0E0,0E0,0E0,0E0,0E0,0E0,0E0,0E0,0E0,0E0,0E0,0E0,0E0,0E0,0E0,0E0,0E0,0E0,0E0],"parents":[2147483647,0,0,1,1,2,2,3,3,4,4,5,5,6,6,7,7,8,8,9,9,10,10,11,11,12,12,13,13,14,14,15,15,16,16,17,17,18,18,19,19,20,20,21,21,22,22,23,23,24,24,25,25,26,26,27,27,28,28,29,29,30,30],"right_children":[2,4,6,8,10,12,14,16,18,20,22,24,26,28,30,32,34,36,38,40,42,44,46,48,50,52,54,56,58,60,62,-1,-1,-1,-1,-1,-1,-1,-1,-1,-1,-1,-1,-1,-1,-1,-1,-1,-1,-1,-1,-1,-1,-1,-1,-1,-1,-1,-1,-1,-1,-1,-1],"split_conditions":[1E0,3.621191E1,3.4948162E1,1.3703304E1,6.0134468E1,2.8089453E1,5.5749603E1,2.8482515E1,2.5295801E1,3.1265387E1,2.7812069E1,1.7877728E1,1.7877728E1,2.7658823E1,3.4554417E1,1.96E2,2.13E2,1.87E2,1.8E2,2.75E2,2.45E2,1.76E2,2.74E2,1.44E2,8.2E1,2.85E2,2.3E2,2.37E2,2.34E2,3.04E2,2.75E2,-7.324646E-3,-4.462731E-3,-3.358923E-3,-7.068076E-4,-3.9977184E-3,-7.747219E-4,-2.1909321E-4,3.0651449E-3,1.7686896E-3,4.983832E-3,5.6276773E-3,8.225837E-3,4.814116E-3,7.950193E-3,9.8184645E-3,1.2963121E-2,-1.6807547E-2,-1.3538227E-2,-1.3816923E-2,-1.0205567E-2,-1.1311379E-2,-8.328766E-3,-7.988873E-3,-4.813517E-3,-8.047193E-3,-4.8592994E-3,-4.64929E-3,-1.2034843E-3,-2.844106E-3,6.844698E-4,9.976196E-4,4.230702E-3],"split_indices":[4,0,0,0,0,3,0,3,3,3,3,0,0,3,3,2,2,2,2,2,2,2,2,2,2,2,2,2,2,2,2,0,0,0,0,0,0,0,0,0,0,0,0,0,0,0,0,0,0,0,0,0,0,0,0,0,0,0,0,0,0,0,0],"split_type":[0,0,0,0,0,0,0,0,0,0,0,0,0,0,0,0,0,0,0,0,0,0,0,0,0,0,0,0,0,0,0,0,0,0,0,0,0,0,0,0,0,0,0,0,0,0,0,0,0,0,0,0,0,0,0,0,0,0,0,0,0,0,0],"sum_hessian":[1.1868E4,7.931E3,3.937E3,3.6E3,4.331E3,1.749E3,2.188E3,1.369E3,2.231E3,2.378E3,1.953E3,7.91E2,9.58E2,1.024E3,1.164E3,6.45E2,7.24E2,8.56E2,1.375E3,1.257E3,1.121E3,8.71E2,1.082E3,3.94E2,3.97E2,5.29E2,4.29E2,4.87E2,5.37E2,6.79E2,4.85E2,3.11E2,3.34E2,3.64E2,3.6E2,3.68E2,4.88E2,5.89E2,7.86E2,8.45E2,4.12E2,6.4E2,4.81E2,3.7E2,5.01E2,7.32E2,3.5E2,1.24E2,2.7E2,5.7E1,3.4E2,3.83E2,1.46E2,2.32E2,1.97E2,2.92E2,1.95E2,2.85E2,2.52E2,5.09E2,1.7E2,3.34E2,1.51E2],"tree_param":{"num_deleted":"0","num_feature":"7","num_nodes":"63","size_leaf_vector":"1"}},{"base_weights":[-3.3960442E-4,3.9135966E-2,-7.916234E-2,-2.0994933E-2,8.5236534E-2,-1.2778734E-1,-1.992749E-2,-4.8572235E-2,1.7072066E-3,6.1034005E-2,1.1925254E-1,-1.547824E-1,-9.702153E-2,-4.717629E-2,6.539879E-3,-7.667175E-2,-2.6612189E-2,-2.8495528E-2,2.1788022E-2,3.5741836E-2,8.83079E-2,8.9822285E-2,1.4381465E-1,-1.8036862E-1,-1.259029E-1,-1.3515489E-1,-7.5132966E-2,-6.7623205E-2,-1.3322821E-2,-1.3863664E-2,3.9574932E-2,-7.048903E-3,-4.064793E-3,-3.8170277E-3,-9.916333E-4,-3.519004E-3,-7.054449E-4,-5.0581404E-4,2.7190621E-3,-1.5616619E-4,3.3098548E-3,5.1900935E-3,7.843276E-3,4.609185E-3,7.571495E-3,7.972752E-3,1.1263453E-2,-1.4044481E-2,-1.0945634E-2,-1.0026147E-2,-7.058588E-3,-1.2140579E-2,-8.857854E-3,-6.3998587E-3,-3.530652E-3,-5.5014454E-3,-2.3097827E-3,-1.5463625E-3,1.3393519E-3,-2.0838454E-3,1.1312582E-3,1.2752383E-3,4.5788917E-3],"categories":[],"categories_nodes":[],"categories_segments":[],"categories_sizes":[],"default_left":[0,0,0,0,0,0,0,0,0,0,0,0,0,0,0,0,0,0,0,0,0,0,0,0,0,0,0,0,0,0,0,0,0,0,0,0,0,0,0,0,0,0,0,0,0,0,0,0,0,0,0,0,0,0,0,0,0,0,0,0,0,0,0],"id":5,"left_children":[1,3,5,7,9,11,13,15,17,19,21,23,25,27,29,31,33,35,37,39,41,43,45,47,49,51,53,55,57,59,61,-1,-1,-1,-1,-1,-1,-1,-1,-1,-1,-1,-1,-1,-1,-1,-1,-1,-1,-1,-1,-1,-1,-1,-1,-1,-1,-1,-1,-1,-1,-1,-1],"loss_changes":[3.728907E1,2.2136757E1,1.1515753E1,2.1700199E0,3.7139168E0,1.808815E0,1.3013606E0,9.636693E-1,1.1541754E0,1.8200283E0,1.3446293E0,8.403454E-1,8.487358E-1,6.144639E-1,6.179621E-1,3.0077982E-1,3.0498546E-1,3.0430192E-1,5.658984E-1,6.0185623E-1,4.1904068E-1,3.6977005E-1,5.042782E-1,2.687683E-1,2.2531033E-1,1.0138512E-1,2.5934434E-1,2.0782232E-1,9.6041635E-2,2.7125555E-1,1.919468E-1,0E0,0E0,0E0,0E0,0E0,0E0,0E0,0E0,0E0,0E0,0E0,0E0,0E0,0E0,0E0,0E0,0E0,0E0,0E0,0E0,0E0,0E0,0E0,0E0,0E0,0E0,0E0,0E0,0E0,0E0,0E0,0E0],"parents":[2147483647,0,0,1,1,2,2,3,3,4,4,5,5,6,6,7,7,8,8,9,9,10,10,11,11,12,12,13,13,14,14,15,15,16,16,17,17,18,18,19,19,20,20,21,21,22,22,23,23,24,24,25,25,26,26,27,27,28,28,29,29,30,30],"right_children":[2,4,6,8,10,12,14,16,18,20,22,24,26,28,30,32,34,36,38,40,42,44,46,48,50,52,54,56,58,60,62,-1,-1,-1,-1,-1,-1,-1,-1,-1,-1,-1,-1,-1,-1,-1,-1,-1,-1,-1,-1,-1,-1,-1,-1,-1,-1,-1,-1,-1,-1,-1,-1],"split_conditions":[1E0,3.434967E1,4.301648E1,1.5451507E1,6.0773815E1,2.2411072E1,2.9335186E1,2.746337E1,2.5479723E1,3.1265387E1,2.7812069E1,3.2237637E1,2.3180412E1,6.591299E1,6.591299E1,1.87E2,1.25E2,1.91E2,1.6E2,1.06E2,2.64E2,1.76E2,1.55E2,2.19E2,2.42E2,8.4E1,2.56E2,3.01E2,3.27E2,2.67E2,2.24E2,-7.048903E-3,-4.064793E-3,-3.8170277E-3,-9.916333E-4,-3.519004E-3,-7.054449E-4,-5.0581404E-4,2.7190621E-3,-1.5616619E-4,3.3098548E-3,5.1900935E-3,7.843276E-3,4.609185E-3,7.571495E-3,7.972752E-3,1.1263453E-2,-1.4044481E-2,-1.0945634E-2,-1.0026147E-2,-7.058588E-3,-1.2140579E-2,-8.857854E-3,-6.3998587E-3,-3.530652E-3,-5.5014454E-3,-2.3097827E-3,-1.5463625E-3,1.3393519E-3,-2.0838454E-3,1.1312582E-3,1.2752383E-3,4.5788917E-3],"split_indices":[4,0,0,0,0,0,3,3,3,3,3,3,3,0,0,2,2,2,2,2,2,2,2,2,2,2,2,2,2,2,2,0,0,0,0,0,0,0,0,0,0,0,0,0,0,0,0,0,0,0,0,0,0,0,0,0,0,0,0,0,0,0,0],"split_type":[0,0,0,0,0,0,0,0,0,0,0,0,0,0,0,0,0,0,0,0,0,0,0,0,0,0,0,0,0,0,0,0,0,0,0,0,0,0,0,0,0,0,0,0,0,0,0,0,0,0,0,0,0,0,0,0,0,0,0,0,0,0,0],"sum_hessian":[1.1982E4,7.984E3,3.998E3,3.465E3,4.519E3,2.195E3,1.803E3,1.564E3,1.901E3,2.642E3,1.877E3,1.167E3,1.028E3,8.88E2,9.15E2,6.85E2,8.79E2,7.59E2,1.142E3,1.372E3,1.27E3,8.56E2,1.021E3,6.16E2,5.51E2,3.73E2,6.55E2,5.53E2,3.35E2,5.66E2,3.49E2,2.97E2,3.88E2,2.7E2,6.09E2,3.47E2,4.12E2,4.23E2,7.19E2,3.2E2,1.052E3,7.98E2,4.72E2,3.73E2,4.83E2,3.74E2,6.47E2,3.3E2,2.86E2,3.23E2,2.28E2,6.5E1,3.08E2,3.93E2,2.62E2,4.19E2,1.34E2,2.64E2,7.1E1,3.7E2,1.96E2,1.92E2,1.57E2],"tree_param":{"num_deleted":"0","num_feature":"7","num_nodes":"63","size_leaf_vector":"1"}},{"base_weights":[-3.6480036E-4,-4.57112E-2,5.4530945E-2,-6.954064E-2,1.4335113E-3,3.1165546E-2,1.0099706E-1,-1.195325E-1,-1.9793864E-2,-2.381574E-2,2.8182073E-2,-1.8367888E-2,8.059844E-2,7.373829E-2,1.2379542E-1,-1.4954047E-1,-9.315834E-2,-4.559121E-2,1.9074352E-2,-6.106076E-2,-7.90439E-3,-4.188808E-3,5.0110754E-2,-4.3584734E-2,6.2555918E-3,5.607408E-2,1.08521365E-1,3.36668E-2,8.7744154E-2,9.771319E-2,1.4373596E-1,-1.2219933E-2,-8.526015E-3,-9.047364E-3,-5.0621354E-3,-5.000891E-3,-1.5467637E-3,-9.877962E-4,2.3258352E-3,-5.565257E-3,-3.0109405E-3,-2.718426E-3,3.8854123E-4,-2.558044E-3,9.973174E-4,1.4485277E-3,4.6038227E-3,-4.345247E-3,-7.864526E-4,-8.456313E-4,2.434454E-3,2.2276049E-3,5.120743E-3,6.1138286E-3,9.39893E-3,1.133609E-3,4.2360225E-3,4.9403324E-3,8.160453E-3,5.971689E-3,8.608617E-3,7.1728304E-3,1.0765786E-2],"categories":[],"categories_nodes":[],"categories_segments":[],"categories_sizes":[],"default_left":[0,0,0,0,0,0,0,0,0,0,0,0,0,0,0,0,0,0,0,0,0,0,0,0,0,0,0,0,0,0,0,0,0,0,0,0,0,0,0,0,0,0,0,0,0,0,0,0,0,0,0,0,0,0,0,0,0,0,0,0,0,0,0],"id":6,"left_children":[1,3,5,7,9,11,13,15,17,19,21,23,25,27,29,31,33,35,37,39,41,43,45,47,49,51,53,55,57,59,61,-1,-1,-1,-1,-1,-1,-1,-1,-1,-1,-1,-1,-1,-1,-1,-1,-1,-1,-1,-1,-1,-1,-1,-1,-1,-1,-1,-1,-1,-1,-1,-1],"loss_changes":[2.952837E1,7.2979155E0,5.8227158E0,1.0728754E1,1.4743528E0,8.747812E0,1.1063824E0,1.6892395E0,2.1707053E0,6.650279E-1,7.526517E-1,1.1086264E0,1.2183228E0,4.5725965E-1,4.935665E-1,6.765461E-1,8.541622E-1,7.8856707E-1,4.0623766E-1,1.0841644E-1,3.2815444E-1,2.5641796E-1,2.8975296E-1,5.2687407E-1,4.7319978E-1,3.9281392E-1,4.4367218E-1,9.940639E-2,2.922473E-1,1.23015404E-1,2.1300793E-1,0E0,0E0,0E0,0E0,0E0,0E0,0E0,0E0,0E0,0E0,0E0,0E0,0E0,0E0,0E0,0E0,0E0,0E0,0E0,0E0,0E0,0E0,0E0,0E0,0E0,0E0,0E0,0E0,0E0,0E0,0E0,0E0],"parents":[2147483647,0,0,1,1,2,2,3,3,4,4,5,5,6,6,7,7,8,8,9,9,10,10,11,11,12,12,13,13,14,14,15,15,16,16,17,17,18,18,19,19,20,20,21,21,22,22,23,23,24,24,25,25,26,26,27,27,28,28,29,29,30,30],"right_children":[2,4,6,8,10,12,14,16,18,20,22,24,26,28,30,32,34,36,38,40,42,44,46,48,50,52,54,56,58,60,62,-1,-1,-1,-1,-1,-1,-1,-1,-1,-1,-1,-1,-1,-1,-1,-1,-1,-1,-1,-1,-1,-1,-1,-1,-1,-1,-1,-1,-1,-1,-1,-1],"split_conditions":[4.3464733E1,1E0,1E0,1E0,2.2411072E1,1E0,2.8482515E1,1.9961811E1,2.6173668E1,2.0491997E1,2.5479723E1,2.9335186E1,3.144793E1,5.2631344E1,5.8885128E1,3.2237637E1,2.3180412E1,2.9569698E1,2.0056728E1,1.94E2,1.24E2,1.41E2,1.53E2,6.623035E1,6.492566E1,5.8496986E1,6.3253887E1,1.9253641E1,2.62E2,4.6053097E1,1.06E2,-1.2219933E-2,-8.526015E-3,-9.047364E-3,-5.0621354E-3,-5.000891E-3,-1.5467637E-3,-9.877962E-4,2.3258352E-3,-5.565257E-3,-3.0109405E-3,-2.718426E-3,3.8854123E-4,-2.558044E-3,9.973174E-4,1.4485277E-3,4.6038227E-3,-4.345247E-3,-7.864526E-4,-8.456313E-4,2.434454E-3,2.2276049E-3,5.120743E-3,6.1138286E-3,9.39893E-3,1.133609E-3,4.2360225E-3,4.9403324E-3,8.160453E-3,5.971689E-3,8.608617E-3,7.1728304E-3,1.0765786E-2],"split_indices":[0,5,5,6,0,6,3,0,0,3,3,3,3,0,0,3,3,3,3,2,2,2,2,0,0,0,0,3,2,3,2,0,0,0,0,0,0,0,0,0,0,0,0,0,0,0,0,0,0,0,0,0,0,0,0,0,0,0,0,0,0,0,0],"split_type":[0,0,0,0,0,0,0,0,0,0,0,0,0,0,0,0,0,0,0,0,0,0,0,0,0,0,0,0,0,0,0,0,0,0,0,0,0,0,0,0,0,0,0,0,0,0,0,0,0,0,0,0,0,0,0,0,0,0,0,0,0,0,0],"sum_hessian":[1.186E4,6.495E3,5.365E3,4.314E3,2.181E3,3.571E3,1.794E3,2.151E3,2.163E3,1.122E3,1.059E3,1.784E3,1.787E3,8.19E2,9.75E2,1.004E3,1.147E3,1.3E3,8.63E2,3.35E2,7.87E2,4.28E2,6.31E2,8.81E2,9.03E2,9.53E2,8.34E2,2.13E2,6.06E2,4.25E2,5.5E2,5.25E2,4.79E2,4.18E2,7.29E2,6.18E2,6.82E2,2.58E2,6.05E2,1.64E2,1.71E2,2.38E2,5.49E2,1.55E2,2.73E2,2.2E2,4.11E2,5.6E2,3.21E2,5.5E2,3.53E2,3.95E2,5.58E2,4.6E2,3.74E2,1.3E2,8.3E1,3.82E2,2.24E2,2.88E2,1.37E2,1.1E2,4.4E2],"tree_param":{"num_deleted":"0","num_feature":"7","num_nodes":"63","size_leaf_vector":"1"}},{"base_weights":[2.960794E-4,3.4397185E-2,-6.8423934E-2,-1.1329706E-2,8.221776E-2,-1.0769879E-1,-1.3848675E-2,-3.712E-2,1.5042462E-2,4.7300298E-2,9.768456E-2,-1.3502775E-1,-8.048965E-2,-3.6697328E-2,8.203286E-3,-7.022047E-2,-2.1138394E-2,8.5021975E-4,5.550094E-2,2.677363E-2,7.273552E-2,8.2064055E-2,1.2660478E-1,-1.5589838E-1,-1.1200645E-1,-1.01050414E-1,-5.2619167E-2,-5.881749E-2,-1.8181209E-2,-4.533208E-3,3.034146E-2,-5.9747878E-3,-3.8058707E-3,-2.5998838E-3,-4.2763771E-4,-1.1606732E-3,9.6994906E-4,2.9237645E-3,4.980706E-3,7.218097E-4,2.88123E-3,4.421916E-3,6.5238727E-3,4.994334E-3,7.913641E-3,7.6286793E-3,9.919654E-3,-1.1896898E-2,-9.579E-3,-8.571011E-3,-6.418812E-3,-8.188127E-3,-6.0349093E-3,-4.709447E-3,-2.6038552E-3,-6.767617E-3,-3.266153E-3,-2.9604132E-3,-6.667793E-4,-1.1311376E-3,1.6722915E-3,1.1554036E-3,3.513675E-3],"categories":[],"categories_nodes":[],"categories_segments":[],"categories_sizes":[],"default_left":[0,0,0,0,0,0,0,0,0,0,0,0,0,0,0,0,0,0,0,0,0,0,0,0,0,0,0,0,0,0,0,0,0,0,0,0,0,0,0,0,0,0,0,0,0,0,0,0,0,0,0,0,0,0,0,0,0,0,0,0,0,0,0],"id":7,"left_children":[1,3,5,7,9,11,13,15,17,19,21,23,25,27,29,31,33,35,37,39,41,43,45,47,49,51,53,55,57,59,61,-1,-1,-1,-1,-1,-1,-1,-1,-1,-1,-1,-1,-1,-1,-1,-1,-1,-1,-1,-1,-1,-1,-1,-1,-1,-1,-1,-1,-1,-1,-1,-1],"loss_changes":[2.7924301E1,1.7415699E1,8.469366E0,2.7701128E0,2.0978394E0,1.6979179E0,8.341854E-1,1.0877244E0,1.1563846E0,6.230068E-1,1.2079773E0,5.326767E-1,6.5596867E-1,3.3191884E-1,2.3783211E-1,1.5607977E-1,3.3408296E-1,3.3848768E-1,1.0944533E-1,1.5683493E-1,9.863329E-2,5.744028E-1,2.3584652E-1,1.3692856E-1,1.0492563E-1,1.4655161E-1,1.0871613E-1,1.6581535E-1,9.2257574E-2,1.77504E-1,8.377677E-2,0E0,0E0,0E0,0E0,0E0,0E0,0E0,0E0,0E0,0E0,0E0,0E0,0E0,0E0,0E0,0E0,0E0,0E0,0E0,0E0,0E0,0E0,0E0,0E0,0E0,0E0,0E0,0E0,0E0,0E0,0E0,0E0],"parents":[2147483647,0,0,1,1,2,2,3,3,4,4,5,5,6,6,7,7,8,8,9,9,10,10,11,11,12,12,13,13,14,14,15,15,16,16,17,17,18,18,19,19,20,20,21,21,22,22,23,23,24,24,25,25,26,26,27,27,28,28,29,29,30,30],"right_children":[2,4,6,8,10,12,14,16,18,20,22,24,26,28,30,32,34,36,38,40,42,44,46,48,50,52,54,56,58,60,62,-1,-1,-1,-1,-1,-1,-1,-1,-1,-1,-1,-1,-1,-1,-1,-1,-1,-1,-1,-1,-1,-1,-1,-1,-1,-1,-1,-1,-1,-1,-1,-1],"split_conditions":[1E0,4.0676094E1,4.594196E1,2.0310654E1,2.02396E1,2.2411072E1,2.9335186E1,2.1418432E1,4.167346E1,6.180555E1,6.623035E1,3.2237637E1,3.3656384E1,6.1481358E1,6.71809E1,9.914539E0,1.0496397E1,2.108574E1,3.0665586E1,5.031277E1,7.3976135E1,4.5813934E1,3.7722202E1,1.3388581E1,1.449647E1,1.901106E1,4.488516E1,1.0837318E1,1.1792242E1,4.776434E1,4.4207382E1,-5.9747878E-3,-3.8058707E-3,-2.5998838E-3,-4.2763771E-4,-1.1606732E-3,9.6994906E-4,2.9237645E-3,4.980706E-3,7.218097E-4,2.88123E-3,4.421916E-3,6.5238727E-3,4.994334E-3,7.913641E-3,7.6286793E-3,9.919654E-3,-1.1896898E-2,-9.579E-3,-8.571011E-3,-6.418812E-3,-8.188127E-3,-6.0349093E-3,-4.709447E-3,-2.6038552E-3,-6.767617E-3,-3.266153E-3,-2.9604132E-3,-6.667793E-4,-1.1311376E-3,1.6722915E-3,1.1554036E-3,3.513675E-3],"split_indices":[4,0,0,0,3,0,3,3,3,0,0,3,3,0,0,0,0,3,0,0,0,3,3,0,0,3,3,3,3,3,3,0,0,0,0,0,0,0,0,0,0,0,0,0,0,0,0,0,0,0,0,0,0,0,0,0,0,0,0,0,0,0,0],"split_type":[0,0,0,0,0,0,0,0,0,0,0,0,0,0,0,0,0,0,0,0,0,0,0,0,0,0,0,0,0,0,0,0,0,0,0,0,0,0,0,0,0,0,0,0,0,0,0,0,0,0,0,0,0,0,0,0,0,0,0,0,0,0,0],"sum_hessian":[1.1914E4,7.963E3,3.951E3,4.071E3,3.892E3,2.297E3,1.654E3,2.058E3,2.013E3,1.196E3,2.696E3,1.144E3,1.153E3,8.12E2,8.42E2,6.69E2,1.389E3,1.491E3,5.22E2,6.63E2,5.33E2,1.753E3,9.43E2,5.97E2,5.47E2,6.62E2,4.91E2,3.69E2,4.43E2,5.35E2,3.07E2,3.4E2,3.29E2,6.72E2,7.17E2,6.37E2,8.54E2,2.8E2,2.42E2,3.1E2,3.53E2,3.66E2,1.67E2,1.305E3,4.48E2,4.39E2,5.04E2,3.39E2,2.58E2,3.58E2,1.89E2,3.16E2,3.46E2,2.5E2,2.41E2,8.8E1,2.81E2,1.16E2,3.27E2,3.8E2,1.55E2,1.82E2,1.25E2],"tree_param":{"num_deleted":"0","num_feature":"7","num_nodes":"63","size_leaf_vector":"1"}},{"base_weights":[-4.609738E-4,3.144103E-2,-6.4280875E-2,-6.0259E-3,8.169205E-2,-1.0027022E-1,-1.0661095E-2,-3.4662317E-2,1.700545E-2,5.7022564E-2,1.0149673E-1,-1.23806305E-1,-7.6170936E-2,-3.9813608E-2,6.4199623E-3,-6.7145504E-2,-1.883376E-2,-3.9969496E-3,3.7503105E-2,4.18924E-2,8.185901E-2,8.277492E-2,1.22220114E-1,-1.4462303E-1,-9.981172E-2,-1.1131178E-1,-6.1772916E-2,-5.5405557E-2,-1.7192231E-2,-1.8019767E-2,2.2383152E-2,-5.551571E-3,-2.76795E-3,-2.5377413E-3,-1.4245494E-4,-1.99725E-3,6.730497E-4,9.076576E-4,3.638432E-3,2.1428776E-3,5.2855336E-3,4.9060765E-3,7.3828013E-3,4.7898777E-3,7.276266E-3,7.473938E-3,1.0529225E-2,-1.1703952E-2,-8.864553E-3,-9.211973E-3,-6.0649076E-3,-9.420395E-3,-6.8575377E-3,-5.1713656E-3,-2.6471722E-3,-4.8623313E-3,-2.112393E-3,-2.8268066E-3,-6.3177367E-4,-2.9898752E-3,5.567932E-5,7.848109E-4,3.5466906E-3],"categories":[],"categories_nodes":[],"categories_segments":[],"categories_sizes":[],"default_left":[0,0,0,0,0,0,0,0,0,0,0,0,0,0,0,0,0,0,0,0,0,0,0,0,0,0,0,0,0,0,0,0,0,0,0,0,0,0,0,0,0,0,0,0,0,0,0,0,0,0,0,0,0,0,0,0,0,0,0,0,0,0,0],"id":8,"left_children":[1,3,5,7,9,11,13,15,17,19,21,23,25,27,29,31,33,35,37,39,41,43,45,47,49,51,53,55,57,59,61,-1,-1,-1,-1,-1,-1,-1,-1,-1,-1,-1,-1,-1,-1,-1,-1,-1,-1,-1,-1,-1,-1,-1,-1,-1,-1,-1,-1,-1,-1,-1,-1],"loss_changes":[2.4350336E1,1.5013552E1,7.69088E0,3.014006E0,1.6582851E0,1.3433495E0,7.9798084E-1,1.0460835E0,1.0906062E0,5.6737995E-1,7.223892E-1,5.874481E-1,5.9066105E-1,2.0785254E-1,3.948309E-1,2.2079635E-1,4.0111908E-1,4.1840687E-1,4.5463395E-1,3.563881E-1,1.5214372E-1,2.9514217E-1,3.7339973E-1,2.3992825E-1,2.2429943E-1,9.301376E-2,2.4077201E-1,1.2202084E-1,4.565879E-2,1.8587331E-1,1.9280863E-1,0E0,0E0,0E0,0E0,0E0,0E0,0E0,0E0,0E0,0E0,0E0,0E0,0E0,0E0,0E0,0E0,0E0,0E0,0E0,0E0,0E0,0E0,0E0,0E0,0E0,0E0,0E0,0E0,0E0,0E0,0E0,0E0],"parents":[2147483647,0,0,1,1,2,2,3,3,4,4,5,5,6,6,7,7,8,8,9,9,10,10,11,11,12,12,13,13,14,14,15,15,16,16,17,17,18,18,19,19,20,20,21,21,22,22,23,23,24,24,25,25,26,26,27,27,28,28,29,29,30,30],"right_children":[2,4,6,8,10,12,14,16,18,20,22,24,26,28,30,32,34,36,38,40,42,44,46,48,50,52,54,56,58,60,62,-1,-1,-1,-1,-1,-1,-1,-1,-1,-1,-1,-1,-1,-1,-1,-1,-1,-1,-1,-1,-1,-1,-1,-1,-1,-1,-1,-1,-1,-1,-1,-1],"split_conditions":[1E0,4.5598633E1,4.7318188E1,2.0310654E1,2.7812069E1,2.3434872E1,2.3726477E1,2.2084513E1,2.9335186E1,2.5E2,6.3253887E1,3.2237637E1,1.901106E1,6.623035E1,1.73E2,2.81E2,2.05E2,1.53E2,1.63E2,7.093627E1,6.841312E1,2.48E2,2.62E2,1.87E2,1.31E2,3.2548466E1,2.81E2,2.71E2,1.27E2,6.206576E1,7.032031E1,-5.551571E-3,-2.76795E-3,-2.5377413E-3,-1.4245494E-4,-1.99725E-3,6.730497E-4,9.076576E-4,3.638432E-3,2.1428776E-3,5.2855336E-3,4.9060765E-3,7.3828013E-3,4.7898777E-3,7.276266E-3,7.473938E-3,1.0529225E-2,-1.1703952E-2,-8.864553E-3,-9.211973E-3,-6.0649076E-3,-9.420395E-3,-6.8575377E-3,-5.1713656E-3,-2.6471722E-3,-4.8623313E-3,-2.112393E-3,-2.8268066E-3,-6.3177367E-4,-2.9898752E-3,5.567932E-5,7.848109E-4,3.5466906E-3],"split_indices":[4,0,0,0,3,0,3,3,3,2,0,3,3,0,2,2,2,2,2,0,0,2,2,2,2,0,2,2,2,0,0,0,0,0,0,0,0,0,0,0,0,0,0,0,0,0,0,0,0,0,0,0,0,0,0,0,0,0,0,0,0,0,0],"split_type":[0,0,0,0,0,0,0,0,0,0,0,0,0,0,0,0,0,0,0,0,0,0,0,0,0,0,0,0,0,0,0,0,0,0,0,0,0,0,0,0,0,0,0,0,0,0,0,0,0,0,0,0,0,0,0,0,0,0,0,0,0,0,0],"sum_hessian":[1.1958E4,7.973E3,3.985E3,4.568E3,3.405E3,2.384E3,1.601E3,2.036E3,2.532E3,1.518E3,1.887E3,1.204E3,1.18E3,5.91E2,1.01E3,6.66E2,1.37E3,1.251E3,1.281E3,9.45E2,5.73E2,9.94E2,8.93E2,6.42E2,5.62E2,3.41E2,8.39E2,3.49E2,2.42E2,3.99E2,6.11E2,4.61E2,2.05E2,6.72E2,6.98E2,4.46E2,8.05E2,4.76E2,8.05E2,7.09E2,2.36E2,3.85E2,1.88E2,5.95E2,3.99E2,5.8E2,3.13E2,2.81E2,3.61E2,1.62E2,4E2,1.21E2,2.2E2,5.56E2,2.83E2,2.23E2,1.26E2,6.2E1,1.8E2,1.72E2,2.27E2,4.39E2,1.72E2],"tree_param":{"num_deleted":"0","num_feature":"7","num_nodes":"63","size_leaf_vector":"1"}},{"base_weights":[-1.0305865E-5,2.967997E-2,-6.0078867E-2,1.4962675E-2,5.7169877E-2,-7.7231765E-2,-3.784119E-2,-9.624546E-3,2.7742771E-2,3.0075397E-2,6.708656E-2,-9.682232E-2,-6.184684E-2,-6.1193746E-2,-2.4084596E-2,-4.3423302E-2,-4.014736E-3,1.157054E-2,4.213161E-2,2.0394992E-2,4.256112E-2,5.6576192E-2,8.385211E-2,-1.2118517E-1,-8.971062E-2,-8.256133E-2,-5.2290387E-2,-7.1448304E-2,-4.814037E-2,-3.5230916E-2,-9.729626E-3,-4.236722E-3,-2.3006229E-3,-8.621019E-4,2.3206776E-4,7.841905E-5,1.6416804E-3,2.2998545E-3,3.8780218E-3,-8.3197333E-4,1.7909831E-3,2.8727942E-3,6.3870284E-3,3.3399134E-3,5.1946365E-3,5.158805E-3,7.012143E-3,-9.524644E-3,-7.1689477E-3,-7.4269334E-3,-6.0388986E-3,-6.3168854E-3,-3.828202E-3,-3.903682E-3,-6.9567125E-4,-5.798952E-3,-4.0468704E-3,-5.5078734E-3,-2.9187785E-3,-3.2869019E-3,-1.521146E-3,-1.9204202E-3,-2.0073811E-4],"categories":[],"categories_nodes":[],"categories_segments":[],"categories_sizes":[],"default_left":[0,0,0,0,0,0,0,0,0,0,0,0,0,0,0,0,0,0,0,0,0,0,0,0,0,0,0,0,0,0,0,0,0,0,0,0,0,0,0,0,0,0,0,0,0,0,0,0,0,0,0,0,0,0,0,0,0,0,0,0,0,0,0],"id":9,"left_children":[1,3,5,7,9,11,13,15,17,19,21,23,25,27,29,31,33,35,37,39,41,43,45,47,49,51,53,55,57,59,61,-1,-1,-1,-1,-1,-1,-1,-1,-1,-1,-1,-1,-1,-1,-1,-1,-1,-1,-1,-1,-1,-1,-1,-1,-1,-1,-1,-1,-1,-1,-1,-1],"loss_changes":[2.1173143E1,3.2135096E0,1.4949942E0,1.626706E0,7.422466E-1,6.619129E-1,5.485091E-1,3.356154E-1,7.920878E-1,8.905691E-2,3.5243797E-1,1.5771198E-1,2.4194145E-1,8.142543E-2,1.7230278E-1,4.3507606E-2,9.252719E-2,1.992673E-1,2.1998358E-1,7.08428E-2,2.0249307E-2,1.9165683E-1,1.2172985E-1,4.6682358E-2,3.353119E-2,7.8762054E-2,1.2518644E-1,5.005455E-2,5.2219093E-2,9.506047E-2,5.738622E-2,0E0,0E0,0E0,0E0,0E0,0E0,0E0,0E0,0E0,0E0,0E0,0E0,0E0,0E0,0E0,0E0,0E0,0E0,0E0,0E0,0E0,0E0,0E0,0E0,0E0,0E0,0E0,0E0,0E0,0E0,0E0,0E0],"parents":[2147483647,0,0,1,1,2,2,3,3,4,4,5,5,6,6,7,7,8,8,9,9,10,10,11,11,12,12,13,13,14,14,15,15,16,16,17,17,18,18,19,19,20,20,21,21,22,22,23,23,24,24,25,25,26,26,27,27,28,28,29,29,30,30],"right_children":[2,4,6,8,10,12,14,16,18,20,22,24,26,28,30,32,34,36,38,40,42,44,46,48,50,52,54,56,58,60,62,-1,-1,-1,-1,-1,-1,-1,-1,-1,-1,-1,-1,-1,-1,-1,-1,-1,-1,-1,-1,-1,-1,-1,-1,-1,-1,-1,-1,-1,-1,-1,-1],"split_conditions":[1E0,3.7722202E1,3.296865E1,1.48E2,1.22E2,1.86E2,1.65E2,9.729199E0,2.0491997E1,4.756877E1,4.8383152E1,1.1599247E1,1.4020537E1,4.5598785E1,2.97E2,6.4E1,1E0,2.78E2,3E2,3.6E1,5.481833E1,3E2,2.85E2,1.11E2,4.6E1,3.57E2,3.83E2,9.6E1,4.1E1,4.488516E1,3.890392E1,-4.236722E-3,-2.3006229E-3,-8.621019E-4,2.3206776E-4,7.841905E-5,1.6416804E-3,2.2998545E-3,3.8780218E-3,-8.3197333E-4,1.7909831E-3,2.8727942E-3,6.3870284E-3,3.3399134E-3,5.1946365E-3,5.158805E-3,7.012143E-3,-9.524644E-3,-7.1689477E-3,-7.4269334E-3,-6.0388986E-3,-6.3168854E-3,-3.828202E-3,-3.903682E-3,-6.9567125E-4,-5.798952E-3,-4.0468704E-3,-5.5078734E-3,-2.9187785E-3,-3.2869019E-3,-1.521146E-3,-1.9204202E-3,-2.0073811E-4],"split_indices":[4,3,3,2,2,2,2,3,3,3,3,3,3,3,2,2,5,2,2,2,3,2,2,2,2,2,2,2,2,3,3,0,0,0,0,0,0,0,0,0,0,0,0,0,0,0,0,0,0,0,0,0,0,0,0,0,0,0,0,0,0,0,0],"split_type":[0,0,0,0,0,0,0,0,0,0,0,0,0,0,0,0,0,0,0,0,0,0,0,0,0,0,0,0,0,0,0,0,0,0,0,0,0,0,0,0,0,0,0,0,0,0,0,0,0,0,0,0,0,0,0,0,0,0,0,0,0,0,0],"sum_hessian":[1.187E4,7.944E3,3.926E3,5.175E3,2.769E3,2.215E3,1.711E3,1.77E3,3.405E3,7.43E2,2.026E3,9.72E2,1.243E3,6.33E2,1.078E3,2.51E2,1.519E3,1.604E3,1.801E3,4.2E2,3.23E2,1.248E3,7.78E2,2.16E2,7.56E2,3.9E2,8.53E2,3.52E2,2.81E2,6.06E2,4.72E2,9.4E1,1.57E2,7.12E2,8.07E2,8.54E2,7.5E2,1.062E3,7.39E2,5.8E1,3.62E2,3.15E2,8E0,8.33E2,4.15E2,4.83E2,2.95E2,1.17E2,9.9E1,1.26E2,6.3E2,3.04E2,8.6E1,7.88E2,6.5E1,1.89E2,1.63E2,4.7E1,2.34E2,3.23E2,2.83E2,1.31E2,3.41E2],"tree_param":{"num_deleted":"0","num_feature":"7","num_nodes":"63","size_leaf_vector":"1"}},{"base_weights":[-4.5607373E-4,2.657021E-2,-5.5100545E-2,1.1483478E-2,5.0642077E-2,-7.3059574E-2,-3.5735298E-2,-1.4730105E-3,3.1742375E-2,3.6650065E-2,6.8458796E-2,-8.657729E-2,-5.417277E-2,-6.1098464E-2,-2.1046048E-2,-1.8396461E-2,6.525156E-3,1.3881975E-2,4.4286557E-2,2.5194054E-2,5.3549346E-2,5.745015E-2,8.646229E-2,-1.0883532E-1,-7.914407E-2,-6.687935E-2,-4.1005515E-2,-6.868743E-2,-4.0792964E-2,-3.230282E-2,-5.9814723E-3,-2.0142177E-3,-4.203614E-4,-6.5283425E-4,1.0958916E-3,1.6661282E-4,1.8249035E-3,2.3659442E-3,3.8458253E-3,1.1694578E-3,2.371865E-3,2.5801389E-3,4.620377E-3,3.1750177E-3,4.842487E-3,5.3020976E-3,6.69924E-3,-8.594279E-3,-6.9342707E-3,-6.1398703E-3,-4.495042E-3,-5.0786887E-3,-2.2296456E-3,-3.786165E-3,-2.4436507E-3,-5.4029E-3,-3.880015E-3,-5.839742E-3,-2.5492932E-3,-3.0667775E-3,-9.6187316E-4,-8.550665E-4,9.903917E-4],"categories":[],"categories_nodes":[],"categories_segments":[],"categories_sizes":[],"default_left":[0,0,0,0,0,0,0,0,0,0,0,0,0,0,0,0,0,0,0,0,0,0,0,0,0,0,0,0,0,0,0,0,0,0,0,0,0,0,0,0,0,0,0,0,0,0,0,0,0,0,0,0,0,0,0,0,0,0,0,0,0,0,0],"id":10,"left_children":[1,3,5,7,9,11,13,15,17,19,21,23,25,27,29,31,33,35,37,39,41,43,45,47,49,51,53,55,57,59,61,-1,-1,-1,-1,-1,-1,-1,-1,-1,-1,-1,-1,-1,-1,-1,-1,-1,-1,-1,-1,-1,-1,-1,-1,-1,-1,-1,-1,-1,-1,-1,-1],"loss_changes":[1.752118E1,2.8822289E0,1.3627777E0,1.2812321E0,7.598262E-1,5.1511383E-1,7.0323634E-1,4.0321195E-1,4.2596483E-1,3.3067203E-1,2.6140547E-1,1.8744278E-1,1.3980651E-1,1.0398793E-1,2.0313144E-1,1.2276676E-1,2.9293448E-1,1.1026333E-1,1.23057604E-1,7.4958205E-2,1.4142978E-1,1.1557126E-1,4.306674E-2,2.7896643E-2,1.0847139E-1,8.353686E-2,3.1688273E-2,5.2387953E-2,3.2581925E-2,1.4593726E-1,6.4672224E-2,0E0,0E0,0E0,0E0,0E0,0E0,0E0,0E0,0E0,0E0,0E0,0E0,0E0,0E0,0E0,0E0,0E0,0E0,0E0,0E0,0E0,0E0,0E0,0E0,0E0,0E0,0E0,0E0,0E0,0E0,0E0,0E0],"parents":[2147483647,0,0,1,1,2,2,3,3,4,4,5,5,6,6,7,7,8,8,9,9,10,10,11,11,12,12,13,13,14,14,15,15,16,16,17,17,18,18,19,19,20,20,21,21,22,22,23,23,24,24,25,25,26,26,27,27,28,28,29,29,30,30],"right_children":[2,4,6,8,10,12,14,16,18,20,22,24,26,28,30,32,34,36,38,40,42,44,46,48,50,52,54,56,58,60,62,-1,-1,-1,-1,-1,-1,-1,-1,-1,-1,-1,-1,-1,-1,-1,-1,-1,-1,-1,-1,-1,-1,-1,-1,-1,-1,-1,-1,-1,-1,-1,-1],"split_conditions":[1E0,3.5579338E1,3.0922087E1,2.5E2,2.3E2,2.39E2,1.59E2,1.4728872E1,1.729363E1,4.702217E1,4.7385086E1,1.1599247E1,1.8017918E1,4.8383152E1,4.488516E1,1.45E2,1E2,1E0,1E0,1E0,1.15E2,1E0,1E0,1.11E2,1.62E2,3.77E2,2.91E2,1.02E2,3E1,3.11E2,3.38E2,-2.0142177E-3,-4.203614E-4,-6.5283425E-4,1.0958916E-3,1.6661282E-4,1.8249035E-3,2.3659442E-3,3.8458253E-3,1.1694578E-3,2.371865E-3,2.5801389E-3,4.620377E-3,3.1750177E-3,4.842487E-3,5.3020976E-3,6.69924E-3,-8.594279E-3,-6.9342707E-3,-6.1398703E-3,-4.495042E-3,-5.0786887E-3,-2.2296456E-3,-3.786165E-3,-2.4436507E-3,-5.4029E-3,-3.880015E-3,-5.839742E-3,-2.5492932E-3,-3.0667775E-3,-9.6187316E-4,-8.550665E-4,9.903917E-4],"split_indices":[4,3,3,2,2,2,2,3,3,3,3,3,3,3,3,2,2,5,5,5,2,5,5,2,2,2,2,2,2,2,2,0,0,0,0,0,0,0,0,0,0,0,0,0,0,0,0,0,0,0,0,0,0,0,0,0,0,0,0,0,0,0,0],"split_type":[0,0,0,0,0,0,0,0,0,0,0,0,0,0,0,0,0,0,0,0,0,0,0,0,0,0,0,0,0,0,0,0,0,0,0,0,0,0,0,0,0,0,0,0,0,0,0,0,0,0,0,0,0,0,0,0,0,0,0,0,0,0,0],"sum_hessian":[1.1862E4,7.937E3,3.925E3,4.88E3,3.057E3,2.035E3,1.89E3,2.977E3,1.903E3,1.714E3,1.343E3,1.184E3,8.51E2,6.92E2,1.198E3,9.55E2,2.022E3,7.86E2,1.117E3,1.023E3,6.91E2,8.36E2,5.07E2,2.93E2,8.91E2,4.31E2,4.2E2,5.02E2,1.9E2,6.85E2,5.13E2,5.19E2,4.36E2,7.39E2,1.283E3,4.05E2,3.81E2,5.65E2,5.52E2,5.19E2,5.04E2,2.97E2,3.94E2,4.14E2,4.22E2,2.39E2,2.68E2,1.16E2,1.77E2,5.63E2,3.28E2,3.7E2,6.1E1,1.31E2,2.89E2,3.03E2,1.99E2,1.6E1,1.74E2,4.22E2,2.63E2,3.92E2,1.21E2],"tree_param":{"num_deleted":"0","num_feature":"7","num_nodes":"63","size_leaf_vector":"1"}},{"base_weights":[1.3048254E-4,-4.502895E-2,3.7182402E-2,-8.7504156E-2,-1.8634068E-2,1.1252689E-3,6.5205775E-2,-1.0565863E-1,-4.989754E-2,-3.5963833E-2,1.4796473E-2,-1.6163267E-2,3.374137E-2,4.7794774E-2,1.0043368E-1,-1.38615E-1,-7.197067E-2,-6.666047E-2,-2.5185984E-2,-6.9495685E-2,-2.4605724E-3,-1.3822602E-3,4.22417E-2,-4.9134944E-2,1.6790392E-2,1.6437594E-2,6.711917E-2,1.5101546E-2,7.906925E-2,6.8964966E-2,1.1789955E-1,-1.1439627E-2,-8.578189E-3,-6.7421636E-3,-3.6027778E-3,-5.7875E-3,-2.6912547E-3,-4.4667274E-3,-7.2998257E-4,-6.4487015E-3,-3.5946907E-3,-2.1321345E-3,8.998218E-4,-1.5990068E-3,1.204656E-3,1.0322502E-3,4.052849E-3,-5.6440765E-3,-2.2938983E-3,-1.2582144E-3,2.3882587E-3,-7.055015E-4,2.1983457E-3,3.714267E-3,6.5169944E-3,-4.956356E-4,2.3676986E-3,3.775837E-3,6.7418963E-3,3.349821E-3,6.5631936E-3,6.478792E-3,9.452452E-3],"categories":[],"categories_nodes":[],"categories_segments":[],"categories_sizes":[],"default_left":[0,0,0,0,0,0,0,0,0,0,0,0,0,0,0,0,0,0,0,0,0,0,0,0,0,0,0,0,0,0,0,0,0,0,0,0,0,0,0,0,0,0,0,0,0,0,0,0,0,0,0,0,0,0,0,0,0,0,0,0,0,0,0],"id":11,"left_children":[1,3,5,7,9,11,13,15,17,19,21,23,25,27,29,31,33,35,37,39,41,43,45,47,49,51,53,55,57,59,61,-1,-1,-1,-1,-1,-1,-1,-1,-1,-1,-1,-1,-1,-1,-1,-1,-1,-1,-1,-1,-1,-1,-1,-1,-1,-1,-1,-1,-1,-1,-1,-1],"loss_changes":[1.9851364E1,5.99304E0,6.584981E0,1.3936386E0,1.9117864E0,1.6081804E0,2.2443638E0,1.5232544E0,2.754463E-1,2.441034E0,5.0047904E-1,2.0261307E0,5.69528E-1,2.5099764E0,6.5801907E-1,2.578354E-1,3.3696127E-1,1.7669106E-1,1.5437618E-1,4.4112682E-1,4.6692774E-1,2.8367555E-1,1.7908257E-1,4.7772002E-1,5.6264466E-1,2.5908023E-1,1.181469E-1,4.994401E-1,5.386071E-1,2.2320557E-1,3.2539177E-1,0E0,0E0,0E0,0E0,0E0,0E0,0E0,0E0,0E0,0E0,0E0,0E0,0E0,0E0,0E0,0E0,0E0,0E0,0E0,0E0,0E0,0E0,0E0,0E0,0E0,0E0,0E0,0E0,0E0,0E0,0E0,0E0],"parents":[2147483647,0,0,1,1,2,2,3,3,4,4,5,5,6,6,7,7,8,8,9,9,10,10,11,11,12,12,13,13,14,14,15,15,16,16,17,17,18,18,19,19,20,20,21,21,22,22,23,23,24,24,25,25,26,26,27,27,28,28,29,29,30,30],"right_children":[2,4,6,8,10,12,14,16,18,20,22,24,26,28,30,32,34,36,38,40,42,44,46,48,50,52,54,56,58,60,62,-1,-1,-1,-1,-1,-1,-1,-1,-1,-1,-1,-1,-1,-1,-1,-1,-1,-1,-1,-1,-1,-1,-1,-1,-1,-1,-1,-1,-1,-1,-1,-1],"split_conditions":[3.589365E1,3.5677185E1,3.6858982E1,1E0,1E0,1E0,1E0,1E0,3.4904747E1,1E0,4.3471634E1,1E0,6.492566E1,1E0,5.1187473E1,1.4213741E1,1.5451507E1,2.467677E1,9.573805E0,4.1173546E1,1.3388581E1,1.630885E1,2.5479723E1,5.1526947E1,5.0577713E1,2.3010353E1,3.3461918E1,5.640066E1,5.2631344E1,4.2839745E1,4.1654575E1,-1.1439627E-2,-8.578189E-3,-6.7421636E-3,-3.6027778E-3,-5.7875E-3,-2.6912547E-3,-4.4667274E-3,-7.2998257E-4,-6.4487015E-3,-3.5946907E-3,-2.1321345E-3,8.998218E-4,-1.5990068E-3,1.204656E-3,1.0322502E-3,4.052849E-3,-5.6440765E-3,-2.2938983E-3,-1.2582144E-3,2.3882587E-3,-7.055015E-4,2.1983457E-3,3.714267E-3,6.5169944E-3,-4.956356E-4,2.3676986E-3,3.775837E-3,6.7418963E-3,3.349821E-3,6.5631936E-3,6.478792E-3,9.452452E-3],"split_indices":[0,1,1,5,5,5,5,6,3,6,1,6,0,6,0,0,0,0,0,1,0,0,3,0,0,3,1,0,0,1,1,0,0,0,0,0,0,0,0,0,0,0,0,0,0,0,0,0,0,0,0,0,0,0,0,0,0,0,0,0,0,0,0],"split_type":[0,0,0,0,0,0,0,0,0,0,0,0,0,0,0,0,0,0,0,0,0,0,0,0,0,0,0,0,0,0,0,0,0,0,0,0,0,0,0,0,0,0,0,0,0,0,0,0,0,0,0,0,0,0,0,0,0,0,0,0,0,0,0],"sum_hessian":[1.1862E4,5.346E3,6.516E3,2.048E3,3.298E3,2.85E3,3.666E3,1.38E3,6.68E2,2.172E3,1.126E3,1.863E3,9.87E2,2.455E3,1.211E3,6.96E2,6.84E2,3.97E2,2.71E2,1.085E3,1.087E3,7.09E2,4.17E2,9.31E2,9.32E2,6.51E2,3.36E2,1.201E3,1.254E3,4.34E2,7.77E2,2.7E2,4.26E2,3.11E2,3.73E2,2.52E2,1.45E2,7.4E1,1.97E2,4.81E2,6.04E2,3.84E2,7.03E2,3.29E2,3.8E2,1.52E2,2.65E2,3.17E2,6.14E2,3.1E2,6.22E2,2.35E2,4.16E2,2.2E2,1.16E2,5.5E2,6.51E2,5.12E2,7.42E2,2.36E2,1.98E2,3.16E2,4.61E2],"tree_param":{"num_deleted":"0","num_feature":"7","num_nodes":"63","size_leaf_vector":"1"}},{"base_weights":[-4.3844627E-4,2.3356576E-2,-4.8535556E-2,-2.361705E-3,5.6594897E-2,-7.583554E-2,-1.36373425E-2,-2.4556091E-2,1.4125731E-2,4.306336E-2,8.182493E-2,-9.670091E-2,-5.9146054E-2,-2.6337367E-2,8.543899E-3,-3.915654E-2,-2.3157233E-3,-1.1109937E-3,3.1352963E-2,2.6400562E-2,6.111343E-2,6.961158E-2,1.072918E-1,-1.2477124E-1,-8.485527E-2,-7.649707E-2,-3.8890753E-2,-5.19395E-2,-1.7374154E-2,-5.6514847E-3,3.093194E-2,-3.7297946E-3,-1.4722655E-3,-1.393675E-3,7.662102E-4,-8.972275E-4,1.5866997E-3,1.4952074E-3,3.661617E-3,2.2740026E-4,2.8267284E-3,1.9901288E-3,4.863477E-3,3.5037224E-3,5.5287885E-3,5.74208E-3,8.587231E-3,-1.0727117E-2,-7.275695E-3,-6.702984E-3,-4.2236242E-3,-6.4903833E-3,-4.098428E-3,-4.211945E-3,-1.7242496E-3,-6.46304E-3,-2.9005995E-3,-1.8914767E-3,1.5889374E-4,-1.0618428E-3,1.6633811E-3,7.030746E-5,3.3599685E-3],"categories":[],"categories_nodes":[],"categories_segments":[],"categories_sizes":[],"default_left":[0,0,0,0,0,0,0,0,0,0,0,0,0,0,0,0,0,0,0,0,0,0,0,0,0,0,0,0,0,0,0,0,0,0,0,0,0,0,0,0,0,0,0,0,0,0,0,0,0,0,0,0,0,0,0,0,0,0,0,0,0,0,0],"id":12,"left_children":[1,3,5,7,9,11,13,15,17,19,21,23,25,27,29,31,33,35,37,39,41,43,45,47,49,51,53,55,57,59,61,-1,-1,-1,-1,-1,-1,-1,-1,-1,-1,-1,-1,-1,-1,-1,-1,-1,-1,-1,-1,-1,-1,-1,-1,-1,-1,-1,-1,-1,-1,-1,-1],"loss_changes":[1.3627214E1,6.8097296E0,3.7536373E0,1.6440977E0,1.1828451E0,7.642231E-1,4.878517E-1,6.21747E-1,6.767253E-1,6.793175E-1,3.6950588E-1,3.1560516E-1,4.2965984E-1,2.5175226E-1,2.0071092E-1,2.948457E-1,1.775436E-1,3.8136497E-1,2.5226724E-1,3.8150442E-1,2.9492378E-1,1.467061E-1,1.4188194E-1,1.5549994E-1,1.7945051E-1,1.8732357E-1,1.7146826E-1,1.1706734E-1,1.5488704E-1,1.0870275E-1,1.2509577E-1,0E0,0E0,0E0,0E0,0E0,0E0,0E0,0E0,0E0,0E0,0E0,0E0,0E0,0E0,0E0,0E0,0E0,0E0,0E0,0E0,0E0,0E0,0E0,0E0,0E0,0E0,0E0,0E0,0E0,0E0,0E0,0E0],"parents":[2147483647,0,0,1,1,2,2,3,3,4,4,5,5,6,6,7,7,8,8,9,9,10,10,11,11,12,12,13,13,14,14,15,15,16,16,17,17,18,18,19,19,20,20,21,21,22,22,23,23,24,24,25,25,26,26,27,27,28,28,29,29,30,30],"right_children":[2,4,6,8,10,12,14,16,18,20,22,24,26,28,30,32,34,36,38,40,42,44,46,48,50,52,54,56,58,60,62,-1,-1,-1,-1,-1,-1,-1,-1,-1,-1,-1,-1,-1,-1,-1,-1,-1,-1,-1,-1,-1,-1,-1,-1,-1,-1,-1,-1,-1,-1,-1,-1],"split_conditions":[1E0,3.93942E1,3.9240143E1,3.2904278E1,3.7722202E1,3.2904278E1,3.6452644E1,3.4904747E1,3.2237637E1,4.387255E1,2.69E2,1.9848026E1,3.144793E1,1.16E2,4.473321E1,2.3E2,1.81E2,2.75E2,4.7213596E1,1.6E2,9E1,1.01E2,4.27882E1,1.83E2,2.85E2,2.16E2,1.68E2,4.1173546E1,4.4954117E1,3.03E2,1.59E2,-3.7297946E-3,-1.4722655E-3,-1.393675E-3,7.662102E-4,-8.972275E-4,1.5866997E-3,1.4952074E-3,3.661617E-3,2.2740026E-4,2.8267284E-3,1.9901288E-3,4.863477E-3,3.5037224E-3,5.5287885E-3,5.74208E-3,8.587231E-3,-1.0727117E-2,-7.275695E-3,-6.702984E-3,-4.2236242E-3,-6.4903833E-3,-4.098428E-3,-4.211945E-3,-1.7242496E-3,-6.46304E-3,-2.9005995E-3,-1.8914767E-3,1.5889374E-4,-1.0618428E-3,1.6633811E-3,7.030746E-5,3.3599685E-3],"split_indices":[4,1,1,1,3,1,3,3,3,1,2,3,3,2,1,2,2,2,3,2,2,2,1,2,2,2,2,1,1,2,2,0,0,0,0,0,0,0,0,0,0,0,0,0,0,0,0,0,0,0,0,0,0,0,0,0,0,0,0,0,0,0,0],"split_type":[0,0,0,0,0,0,0,0,0,0,0,0,0,0,0,0,0,0,0,0,0,0,0,0,0,0,0,0,0,0,0,0,0,0,0,0,0,0,0,0,0,0,0,0,0,0,0,0,0,0,0,0,0,0,0,0,0,0,0,0,0,0,0],"sum_hessian":[1.1905E4,7.965E3,3.94E3,4.491E3,3.474E3,2.21E3,1.73E3,1.914E3,2.577E3,2.263E3,1.211E3,9.8E2,1.23E3,1.1E3,6.3E2,1.155E3,7.59E2,1.368E3,1.209E3,1.178E3,1.085E3,8.21E2,3.9E2,2.88E2,6.92E2,6.61E2,5.69E2,2.84E2,8.16E2,3.86E2,2.44E2,6.48E2,5.07E2,3.26E2,4.33E2,9.17E2,4.51E2,8.2E2,3.89E2,4.44E2,7.34E2,2.22E2,8.63E2,2.68E2,5.53E2,1.5E2,2.4E2,1.19E2,1.69E2,4.77E2,2.15E2,3.45E2,3.16E2,2.27E2,3.42E2,5.7E1,2.27E2,5.47E2,2.69E2,2.92E2,9.4E1,8.9E1,1.55E2],"tree_param":{"num_deleted":"0","num_feature":"7","num_nodes":"63","size_leaf_vector":"1"}},{"base_weights":[1.8259367E-5,-3.8510174E-2,3.7199367E-2,-7.5955644E-2,-1.5862733E-2,3.595487E-3,6.0752045E-2,-9.478341E-2,-5.51266E-2,-4.190926E-2,-5.2374613E-4,-1.351176E-2,2.7064074E-2,3.9686374E-2,7.727186E-2,-1.09243624E-1,-6.868724E-2,-6.730323E-2,-3.3081815E-2,-6.12287E-2,-2.4346467E-2,-2.2280155E-2,1.7604131E-2,-3.425554E-2,1.752776E-3,1.1951878E-2,4.5618962E-2,1.8521547E-2,5.6105815E-2,5.9654634E-2,9.370916E-2,-8.795781E-3,-6.5759188E-3,-6.2185754E-3,-3.6999986E-3,-6.0708327E-3,-3.6793791E-3,-3.577421E-3,-1.668114E-3,-5.6334576E-3,-2.9866742E-3,-3.21173E-3,-8.1607886E-4,-3.2880276E-3,-7.1157765E-4,-2.5818884E-4,2.1634498E-3,-3.4964043E-3,-1.2366618E-3,-9.27909E-4,1.3319205E-3,3.3089524E-4,3.0672357E-3,2.408913E-3,5.5197347E-3,9.54024E-5,2.684989E-3,3.0423007E-3,5.349224E-3,2.9184814E-3,5.1209433E-3,5.076928E-3,7.927979E-3],"categories":[],"categories_nodes":[],"categories_segments":[],"categories_sizes":[],"default_left":[0,0,0,0,0,0,0,0,0,0,0,0,0,0,0,0,0,0,0,0,0,0,0,0,0,0,0,0,0,0,0,0,0,0,0,0,0,0,0,0,0,0,0,0,0,0,0,0,0,0,0,0,0,0,0,0,0,0,0,0,0,0,0],"id":13,"left_children":[1,3,5,7,9,11,13,15,17,19,21,23,25,27,29,31,33,35,37,39,41,43,45,47,49,51,53,55,57,59,61,-1,-1,-1,-1,-1,-1,-1,-1,-1,-1,-1,-1,-1,-1,-1,-1,-1,-1,-1,-1,-1,-1,-1,-1,-1,-1,-1,-1,-1,-1,-1,-1],"loss_changes":[1.714595E1,4.9835987E0,4.820573E0,8.6341953E-1,1.4638462E0,1.0084893E0,1.243125E0,4.3098354E-1,2.807002E-1,4.592831E-1,9.102673E-1,4.6014407E-1,2.9640377E-1,5.46644E-1,5.7530594E-1,1.7552471E-1,1.2831461E-1,1.8955755E-1,6.164801E-2,2.2738433E-1,1.9428903E-1,3.1331372E-1,3.5671276E-1,1.5948194E-1,2.1751948E-1,1.3447386E-1,1.741867E-1,2.3478882E-1,2.2448564E-1,2.3243499E-1,4.2074394E-1,0E0,0E0,0E0,0E0,0E0,0E0,0E0,0E0,0E0,0E0,0E0,0E0,0E0,0E0,0E0,0E0,0E0,0E0,0E0,0E0,0E0,0E0,0E0,0E0,0E0,0E0,0E0,0E0,0E0,0E0,0E0,0E0],"parents":[2147483647,0,0,1,1,2,2,3,3,4,4,5,5,6,6,7,7,8,8,9,9,10,10,11,11,12,12,13,13,14,14,15,15,16,16,17,17,18,18,19,19,20,20,21,21,22,22,23,23,24,24,25,25,26,26,27,27,28,28,29,29,30,30],"right_children":[2,4,6,8,10,12,14,16,18,20,22,24,26,28,30,32,34,36,38,40,42,44,46,48,50,52,54,56,58,60,62,-1,-1,-1,-1,-1,-1,-1,-1,-1,-1,-1,-1,-1,-1,-1,-1,-1,-1,-1,-1,-1,-1,-1,-1,-1,-1,-1,-1,-1,-1,-1,-1],"split_conditions":[3.9212185E1,3.558791E1,3.6319096E1,1.9961811E1,1.4830022E1,6.237327E1,2.6805145E1,3.7722202E1,3.6452644E1,4.1587875E1,4.1438198E1,2.5806707E1,3.2529507E1,5.611129E1,4.2193676E1,1.99E2,1.91E2,3.1569403E1,2.6173668E1,3.0504711E1,2.28049E1,2.1269163E1,2.5295801E1,3.2241844E1,3.2474453E1,3.31E2,3.409537E1,4.27882E1,2.48E2,1.89E2,5.8885128E1,-8.795781E-3,-6.5759188E-3,-6.2185754E-3,-3.6999986E-3,-6.0708327E-3,-3.6793791E-3,-3.577421E-3,-1.668114E-3,-5.6334576E-3,-2.9866742E-3,-3.21173E-3,-8.1607886E-4,-3.2880276E-3,-7.1157765E-4,-2.5818884E-4,2.1634498E-3,-3.4964043E-3,-1.2366618E-3,-9.27909E-4,1.3319205E-3,3.3089524E-4,3.0672357E-3,2.408913E-3,5.5197347E-3,9.54024E-5,2.684989E-3,3.0423007E-3,5.349224E-3,2.9184814E-3,5.1209433E-3,5.076928E-3,7.927979E-3],"split_indices":[0,1,1,0,0,0,3,3,3,1,1,3,3,0,1,2,2,1,0,3,3,3,3,1,1,2,1,1,2,2,0,0,0,0,0,0,0,0,0,0,0,0,0,0,0,0,0,0,0,0,0,0,0,0,0,0,0,0,0,0,0,0,0],"split_type":[0,0,0,0,0,0,0,0,0,0,0,0,0,0,0,0,0,0,0,0,0,0,0,0,0,0,0,0,0,0,0,0,0,0,0,0,0,0,0,0,0,0,0,0,0,0,0,0,0,0,0,0,0,0,0,0,0,0,0,0,0,0,0],"sum_hessian":[1.1967E4,5.877E3,6.09E3,2.214E3,3.663E3,2.51E3,3.58E3,1.161E3,1.053E3,1.357E3,2.306E3,1.452E3,1.058E3,1.575E3,2.005E3,7.45E2,4.16E2,6.77E2,3.76E2,6.45E2,7.12E2,1.048E3,1.258E3,6.15E2,8.37E2,5.84E2,4.74E2,6.89E2,8.86E2,9.7E2,1.035E3,3.56E2,3.89E2,1.81E2,2.35E2,2.9E2,3.87E2,1.26E2,2.5E2,3.15E2,3.3E2,2.63E2,4.49E2,3.44E2,7.04E2,4.84E2,7.74E2,3.15E2,3E2,4.48E2,3.89E2,4.77E2,1.07E2,3.56E2,1.18E2,3.7E2,3.19E2,5.48E2,3.38E2,4.18E2,5.52E2,4.99E2,5.36E2],"tree_param":{"num_deleted":"0","num_feature":"7","num_nodes":"63","size_leaf_vector":"1"}},{"base_weights":[1.4428442E-4,-2.9704373E-2,4.1329805E-2,-7.940536E-3,-7.364657E-2,6.292017E-2,-2.9529557E-3,-3.3586793E-2,1.8749544E-2,-1.0182792E-1,-4.7578502E-2,4.320284E-2,9.821875E-2,-2.7495695E-2,2.5700301E-2,-5.4170668E-2,-6.3044117E-3,1.3478346E-4,4.2650536E-2,-1.2439481E-1,-8.441407E-2,-6.298818E-2,-2.3855861E-2,1.6120136E-2,5.5337574E-2,8.610764E-2,1.22167185E-1,-5.056329E-2,-1.2831335E-2,1.1427027E-2,4.8236508E-2,-5.152486E-3,-2.9986391E-3,-1.5739903E-3,7.5404684E-4,-9.18444E-4,1.2359048E-3,1.826481E-3,4.2056045E-3,-1.0853728E-2,-8.138401E-3,-6.8996614E-3,-4.850214E-3,-5.7505155E-3,-3.6418568E-3,-3.0996131E-3,-4.1513058E-4,5.732536E-5,2.5268793E-3,3.0711188E-3,5.2898214E-3,4.0623415E-3,6.5749506E-3,7.496385E-3,1.017457E-2,-4.1528847E-3,-1.5912041E-3,-1.5880466E-3,6.3786027E-4,-6.499972E-4,1.7482238E-3,2.579375E-3,4.8972922E-3],"categories":[],"categories_nodes":[],"categories_segments":[],"categories_sizes":[],"default_left":[0,0,0,0,0,0,0,0,0,0,0,0,0,0,0,0,0,0,0,0,0,0,0,0,0,0,0,0,0,0,0,0,0,0,0,0,0,0,0,0,0,0,0,0,0,0,0,0,0,0,0,0,0,0,0,0,0,0,0,0,0,0,0],"id":14,"left_children":[1,3,5,7,9,11,13,15,17,19,21,23,25,27,29,31,33,35,37,39,41,43,45,47,49,51,53,55,57,59,61,-1,-1,-1,-1,-1,-1,-1,-1,-1,-1,-1,-1,-1,-1,-1,-1,-1,-1,-1,-1,-1,-1,-1,-1,-1,-1,-1,-1,-1,-1,-1,-1],"loss_changes":[1.46659355E1,6.6144924E0,4.7930202E0,3.167814E0,1.6782007E0,2.3412542E0,1.1568158E0,1.3249805E0,1.0090529E0,4.217739E-1,4.3424273E-1,7.102876E-1,3.3956146E-1,2.990598E-1,2.4359286E-1,2.9311037E-1,2.8098112E-1,2.965802E-1,2.8500962E-1,1.0089493E-1,1.2674475E-1,1.4738035E-1,1.721774E-1,2.0508811E-1,3.4320402E-1,1.7128372E-1,1.252904E-1,8.255571E-2,1.17633395E-1,1.3099492E-1,7.016009E-2,0E0,0E0,0E0,0E0,0E0,0E0,0E0,0E0,0E0,0E0,0E0,0E0,0E0,0E0,0E0,0E0,0E0,0E0,0E0,0E0,0E0,0E0,0E0,0E0,0E0,0E0,0E0,0E0,0E0,0E0,0E0,0E0],"parents":[2147483647,0,0,1,1,2,2,3,3,4,4,5,5,6,6,7,7,8,8,9,9,10,10,11,11,12,12,13,13,14,14,15,15,16,16,17,17,18,18,19,19,20,20,21,21,22,22,23,23,24,24,25,25,26,26,27,27,28,28,29,29,30,30],"right_children":[2,4,6,8,10,12,14,16,18,20,22,24,26,28,30,32,34,36,38,40,42,44,46,48,50,52,54,56,58,60,62,-1,-1,-1,-1,-1,-1,-1,-1,-1,-1,-1,-1,-1,-1,-1,-1,-1,-1,-1,-1,-1,-1,-1,-1,-1,-1,-1,-1,-1,-1,-1,-1],"split_conditions":[4.594196E1,1E0,1E0,3.8307335E1,3.7831314E1,4.1088444E1,3.9069736E1,2.652552E1,2.5370481E1,1.9174856E1,2.8403736E1,3.2001797E1,2.69E2,3.2241844E1,6.6889565E1,3.1856672E1,3.353937E1,2.29E2,2.1E2,4.731226E0,2.22E2,1.6E2,4.300527E1,6.492566E1,6.8090485E1,5.2156834E1,6.650897E1,7.032031E1,6.871747E1,1.7E2,4.4531403E1,-5.152486E-3,-2.9986391E-3,-1.5739903E-3,7.5404684E-4,-9.18444E-4,1.2359048E-3,1.826481E-3,4.2056045E-3,-1.0853728E-2,-8.138401E-3,-6.8996614E-3,-4.850214E-3,-5.7505155E-3,-3.6418568E-3,-3.0996131E-3,-4.1513058E-4,5.732536E-5,2.5268793E-3,3.0711188E-3,5.2898214E-3,4.0623415E-3,6.5749506E-3,7.496385E-3,1.017457E-2,-4.1528847E-3,-1.5912041E-3,-1.5880466E-3,6.3786027E-4,-6.499972E-4,1.7482238E-3,2.579375E-3,4.8972922E-3],"split_indices":[0,4,4,1,1,1,1,0,0,0,0,1,2,1,0,1,1,2,2,0,2,2,1,0,0,0,0,0,0,2,1,0,0,0,0,0,0,0,0,0,0,0,0,0,0,0,0,0,0,0,0,0,0,0,0,0,0,0,0,0,0,0,0],"split_type":[0,0,0,0,0,0,0,0,0,0,0,0,0,0,0,0,0,0,0,0,0,0,0,0,0,0,0,0,0,0,0,0,0,0,0,0,0,0,0,0,0,0,0,0,0,0,0,0,0,0,0,0,0,0,0,0,0,0,0,0,0,0,0],"sum_hessian":[1.1928E4,6.916E3,5.012E3,4.626E3,2.29E3,3.369E3,1.643E3,2.359E3,2.267E3,1.099E3,1.191E3,2.163E3,1.206E3,8.85E2,7.58E2,1.344E3,1.015E3,1.275E3,9.92E2,4.76E2,6.23E2,7.21E2,4.7E2,6.7E2,1.493E3,8.04E2,4.02E2,3.43E2,5.42E2,4.65E2,2.93E2,4.93E2,8.51E2,5.21E2,4.94E2,7.26E2,5.49E2,5.1E2,4.82E2,9.6E1,3.8E2,3.19E2,3.04E2,2.6E2,4.61E2,2.19E2,2.51E2,3.8E2,2.9E2,9.55E2,5.38E2,1.77E2,6.27E2,2.47E2,1.55E2,2.6E2,8.3E1,3.74E2,1.68E2,1.84E2,2.81E2,1.94E2,9.9E1],"tree_param":{"num_deleted":"0","num_feature":"7","num_nodes":"63","size_leaf_vector":"1"}},{"base_weights":[2.936917E-5,2.044925E-2,-4.0620085E-2,2.7577607E-3,5.463645E-2,-6.275422E-2,-1.2819369E-2,-1.6430726E-2,1.7342672E-2,4.5053203E-2,8.441473E-2,-7.376131E-2,-3.6107887E-2,-2.5596406E-2,4.7620274E-3,-2.9716037E-2,2.5271382E-3,-7.0994385E-3,2.8543785E-2,2.4679441E-2,5.5417728E-2,5.0662406E-2,9.235827E-2,-9.308791E-2,-6.1590433E-2,-5.8649033E-2,-2.2704639E-2,-3.5747956E-2,-2.7627817E-3,-1.4812871E-2,1.5604258E-2,-2.5750913E-3,-3.389736E-4,-2.8284863E-4,1.988052E-3,-1.7910531E-3,2.609726E-4,1.2621064E-3,3.5238245E-3,7.690013E-4,2.3382106E-3,2.662919E-3,4.319634E-3,2.926532E-3,5.092037E-3,4.8502926E-3,7.085481E-3,-8.885421E-3,-5.8056265E-3,-5.103391E-3,-3.375765E-3,-5.257594E-3,-3.4322487E-3,-2.7202598E-3,-4.994858E-4,-3.342091E-3,-1.1661992E-3,-1.0172385E-3,9.7152515E-4,-1.639864E-3,6.337284E-4,8.4053485E-5,2.6746816E-3],"categories":[],"categories_nodes":[],"categories_segments":[],"categories_sizes":[],"default_left":[0,0,0,0,0,0,0,0,0,0,0,0,0,0,0,0,0,0,0,0,0,0,0,0,0,0,0,0,0,0,0,0,0,0,0,0,0,0,0,0,0,0,0,0,0,0,0,0,0,0,0,0,0,0,0,0,0,0,0,0,0,0,0],"id":15,"left_children":[1,3,5,7,9,11,13,15,17,19,21,23,25,27,29,31,33,35,37,39,41,43,45,47,49,51,53,55,57,59,61,-1,-1,-1,-1,-1,-1,-1,-1,-1,-1,-1,-1,-1,-1,-1,-1,-1,-1,-1,-1,-1,-1,-1,-1,-1,-1,-1,-1,-1,-1,-1,-1],"loss_changes":[9.855267E0,4.7797604E0,2.4421148E0,1.458088E0,7.6527786E-1,6.45525E-1,3.9570963E-1,5.667626E-1,8.105881E-1,4.2961836E-1,1.7093468E-1,3.6191845E-1,1.9444525E-1,2.363339E-1,1.5770993E-1,2.3251176E-1,1.5781304E-1,1.8645418E-1,4.6429217E-1,8.2059056E-2,1.4545059E-1,2.1790147E-2,1.0114145E-1,1.9629383E-1,1.4196682E-1,3.4464896E-2,1.0235028E-1,1.6086668E-1,6.1897457E-2,5.469002E-2,1.5558991E-1,0E0,0E0,0E0,0E0,0E0,0E0,0E0,0E0,0E0,0E0,0E0,0E0,0E0,0E0,0E0,0E0,0E0,0E0,0E0,0E0,0E0,0E0,0E0,0E0,0E0,0E0,0E0,0E0,0E0,0E0,0E0,0E0],"parents":[2147483647,0,0,1,1,2,2,3,3,4,4,5,5,6,6,7,7,8,8,9,9,10,10,11,11,12,12,13,13,14,14,15,15,16,16,17,17,18,18,19,19,20,20,21,21,22,22,23,23,24,24,25,25,26,26,27,27,28,28,29,29,30,30],"right_children":[2,4,6,8,10,12,14,16,18,20,22,24,26,28,30,32,34,36,38,40,42,44,46,48,50,52,54,56,58,60,62,-1,-1,-1,-1,-1,-1,-1,-1,-1,-1,-1,-1,-1,-1,-1,-1,-1,-1,-1,-1,-1,-1,-1,-1,-1,-1,-1,-1,-1,-1,-1,-1],"split_conditions":[1E0,4.1438198E1,3.9240143E1,3.3804688E1,4.2808937E1,4.1341675E1,2.4E2,3.4768272E1,2.0491997E1,1.44E2,1.01E2,3.2164803E1,1.67E2,4.5277256E1,2.3348455E1,3.14E2,3.19E2,1.6E2,2.73E2,6.2E1,1.4941589E1,4.65912E1,4.316458E1,1.18E2,2.2E2,3.2405727E1,3.362967E1,3.539427E1,3.4188526E1,3.61E2,4.4531403E1,-2.5750913E-3,-3.389736E-4,-2.8284863E-4,1.988052E-3,-1.7910531E-3,2.609726E-4,1.2621064E-3,3.5238245E-3,7.690013E-4,2.3382106E-3,2.662919E-3,4.319634E-3,2.926532E-3,5.092037E-3,4.8502926E-3,7.085481E-3,-8.885421E-3,-5.8056265E-3,-5.103391E-3,-3.375765E-3,-5.257594E-3,-3.4322487E-3,-2.7202598E-3,-4.994858E-4,-3.342091E-3,-1.1661992E-3,-1.0172385E-3,9.7152515E-4,-1.639864E-3,6.337284E-4,8.4053485E-5,2.6746816E-3],"split_indices":[4,1,1,1,3,3,2,3,3,2,2,1,2,1,3,2,2,2,2,2,3,1,1,2,2,1,1,3,3,2,1,0,0,0,0,0,0,0,0,0,0,0,0,0,0,0,0,0,0,0,0,0,0,0,0,0,0,0,0,0,0,0,0],"split_type":[0,0,0,0,0,0,0,0,0,0,0,0,0,0,0,0,0,0,0,0,0,0,0,0,0,0,0,0,0,0,0,0,0,0,0,0,0,0,0,0,0,0,0,0,0,0,0,0,0,0,0,0,0,0,0,0,0,0,0,0,0,0,0],"sum_hessian":[1.1871E4,7.902E3,3.969E3,5.208E3,2.694E3,2.209E3,1.76E3,2.249E3,2.959E3,2.04E3,6.54E2,1.562E3,6.47E2,1.019E3,7.41E2,1.322E3,9.27E2,9.3E2,2.029E3,6.89E2,1.351E3,1.26E2,5.28E2,6.01E2,9.61E2,2.4E2,4.07E2,7.05E2,3.14E2,2.64E2,4.77E2,1.029E3,2.93E2,7.4E2,1.87E2,3.43E2,5.87E2,1.37E3,6.59E2,2.69E2,4.2E2,3.61E2,9.9E2,9.2E1,3.4E1,1.49E2,3.79E2,1.36E2,4.65E2,5.18E2,4.43E2,8.6E1,1.54E2,1.99E2,2.08E2,4.32E2,2.73E2,1.84E2,1.3E2,1.94E2,7E1,2.92E2,1.85E2],"tree_param":{"num_deleted":"0","num_feature":"7","num_nodes":"63","size_leaf_vector":"1"}},{"base_weights":[-6.70854E-5,-4.018101E-2,2.6675541E-2,-5.413345E-2,-1.2321201E-2,1.29079055E-2,5.441527E-2,-7.755434E-2,-3.0484874E-2,-1.9602114E-2,1.9451428E-2,-1.1583593E-2,3.6985833E-2,3.2257862E-2,7.1805045E-2,-1.0423737E-1,-6.8331294E-2,-5.431854E-2,-1.8550374E-2,-3.4418248E-2,-5.0062193E-3,-1.824984E-3,2.6298422E-2,-3.3012655E-2,7.732594E-3,1.4841234E-2,5.2022617E-2,1.827732E-2,5.6795858E-2,4.507565E-2,7.9811074E-2,-7.936525E-3,-5.741938E-3,-6.0656173E-3,-3.7785657E-3,-4.858665E-3,-2.4367967E-3,-1.8412123E-3,5.630076E-4,-4.5822705E-3,-1.9935917E-3,-2.041792E-3,5.355794E-4,-2.5557338E-3,2.1039903E-4,1.2948198E-3,3.5360202E-3,-4.133871E-3,-1.635027E-3,-8.4929496E-5,2.2509235E-3,2.1247147E-4,2.7064555E-3,2.8282155E-3,5.106161E-3,-1.3156133E-4,2.037462E-3,3.097041E-3,5.0620777E-3,2.4412216E-3,4.8769466E-3,4.2436076E-3,6.336553E-3],"categories":[],"categories_nodes":[],"categories_segments":[],"categories_sizes":[],"default_left":[0,0,0,0,0,0,0,0,0,0,0,0,0,0,0,0,0,0,0,0,0,0,0,0,0,0,0,0,0,0,0,0,0,0,0,0,0,0,0,0,0,0,0,0,0,0,0,0,0,0,0,0,0,0,0,0,0,0,0,0,0,0,0],"id":16,"left_children":[1,3,5,7,9,11,13,15,17,19,21,23,25,27,29,31,33,35,37,39,41,43,45,47,49,51,53,55,57,59,61,-1,-1,-1,-1,-1,-1,-1,-1,-1,-1,-1,-1,-1,-1,-1,-1,-1,-1,-1,-1,-1,-1,-1,-1,-1,-1,-1,-1,-1,-1,-1,-1],"loss_changes":[1.2728197E1,1.844161E0,2.7181182E0,1.7489748E0,3.6704528E-1,2.8068323E0,9.0740633E-1,3.836832E-1,4.4699E-1,2.7879623E-1,4.316911E-2,9.771248E-1,7.983885E-1,3.5573852E-1,2.7930546E-1,7.313061E-2,3.0636883E-1,1.521343E-1,2.1689525E-1,1.1611545E-1,1.9931847E-1,1.2341233E-2,4.138148E-2,2.799877E-1,2.714025E-1,2.732535E-1,3.4445715E-1,1.4499483E-1,7.0243E-2,7.4595094E-2,2.0332623E-1,0E0,0E0,0E0,0E0,0E0,0E0,0E0,0E0,0E0,0E0,0E0,0E0,0E0,0E0,0E0,0E0,0E0,0E0,0E0,0E0,0E0,0E0,0E0,0E0,0E0,0E0,0E0,0E0,0E0,0E0,0E0,0E0],"parents":[2147483647,0,0,1,1,2,2,3,3,4,4,5,5,6,6,7,7,8,8,9,9,10,10,11,11,12,12,13,13,14,14,15,15,16,16,17,17,18,18,19,19,20,20,21,21,22,22,23,23,24,24,25,25,26,26,27,27,28,28,29,29,30,30],"right_children":[2,4,6,8,10,12,14,16,18,20,22,24,26,28,30,32,34,36,38,40,42,44,46,48,50,52,54,56,58,60,62,-1,-1,-1,-1,-1,-1,-1,-1,-1,-1,-1,-1,-1,-1,-1,-1,-1,-1,-1,-1,-1,-1,-1,-1,-1,-1,-1,-1,-1,-1,-1,-1],"split_conditions":[3.1836046E1,1E0,1E0,1E0,4.5813934E1,1E0,5.2896847E1,1.8792036E1,1.0496397E1,2.04E2,8.665814E0,5.4866436E1,5.1187473E1,3.5766033E1,1.6909184E1,2.91E2,1.4213741E1,3.296865E1,4.302838E1,5.666544E0,1.0829637E1,4.7E1,3.24E2,1.7482868E1,2.98E2,2.71E2,3.7361042E1,1.45E2,4.664361E1,2.88E2,1.55E2,-7.936525E-3,-5.741938E-3,-6.0656173E-3,-3.7785657E-3,-4.858665E-3,-2.4367967E-3,-1.8412123E-3,5.630076E-4,-4.5822705E-3,-1.9935917E-3,-2.041792E-3,5.355794E-4,-2.5557338E-3,2.1039903E-4,1.2948198E-3,3.5360202E-3,-4.133871E-3,-1.635027E-3,-8.4929496E-5,2.2509235E-3,2.1247147E-4,2.7064555E-3,2.8282155E-3,5.106161E-3,-1.3156133E-4,2.037462E-3,3.097041E-3,5.0620777E-3,2.4412216E-3,4.8769466E-3,4.2436076E-3,6.336553E-3],"split_indices":[0,5,5,6,3,6,0,3,0,2,0,0,0,3,3,2,0,3,3,0,0,2,2,3,2,2,3,2,3,2,2,0,0,0,0,0,0,0,0,0,0,0,0,0,0,0,0,0,0,0,0,0,0,0,0,0,0,0,0,0,0,0,0],"split_type":[0,0,0,0,0,0,0,0,0,0,0,0,0,0,0,0,0,0,0,0,0,0,0,0,0,0,0,0,0,0,0,0,0,0,0,0,0,0,0,0,0,0,0,0,0,0,0,0,0,0,0,0,0,0,0,0,0,0,0,0,0,0,0],"sum_hessian":[1.1863E4,4.745E3,7.118E3,3.161E3,1.584E3,4.758E3,2.36E3,1.587E3,1.574E3,1.289E3,2.95E2,2.359E3,2.399E3,1.039E3,1.321E3,4.05E2,1.182E3,5.24E2,1.05E3,6.39E2,6.5E2,7.2E1,2.23E2,1.118E3,1.241E3,9.71E2,1.428E3,6.63E2,3.76E2,3.06E2,1.015E3,2.84E2,1.21E2,5.17E2,6.65E2,2.94E2,2.3E2,8.13E2,2.37E2,1.01E2,5.38E2,2.23E2,4.27E2,8E0,6.4E1,1.7E2,5.3E1,3.01E2,8.17E2,9.09E2,3.32E2,6.5E2,3.21E2,9.2E2,5.08E2,2.32E2,4.31E2,2.1E2,1.66E2,2.18E2,8.8E1,3.66E2,6.49E2],"tree_param":{"num_deleted":"0","num_feature":"7","num_nodes":"63","size_leaf_vector":"1"}},{"base_weights":[-1.40513E-4,-3.9277125E-2,2.3948912E-2,-2.1782918E-2,-7.360798E-2,4.1997194E-2,-1.2231402E-2,-3.134631E-2,2.0672851E-3,-9.79351E-2,-6.5688446E-2,2.8975973E-2,6.580121E-2,-3.1155959E-2,5.943558E-3,-5.091021E-2,-2.1767467E-2,-1.7010164E-2,1.5398516E-2,-1.3041683E-1,-9.2129625E-2,-8.11409E-2,-5.2574825E-2,1.3493265E-2,4.1193377E-2,5.8163617E-2,9.478546E-2,-5.4236613E-2,-2.1032892E-2,-6.132421E-3,2.3793628E-2,-5.0478573E-3,-2.856176E-3,-2.4693902E-3,-6.3222524E-4,-1.810312E-3,9.1227214E-4,5.787958E-5,1.6775352E-3,-9.994282E-3,-5.943571E-3,-7.182374E-3,-5.4224823E-3,-6.824042E-3,-4.9419235E-3,-5.039047E-3,-3.129106E-3,-5.0315313E-4,1.5780345E-3,2.363943E-3,4.185567E-3,3.0892019E-3,5.0392416E-3,6.0767755E-3,9.113016E-3,-4.0064906E-3,7.2410493E-4,-2.2642864E-3,-1.6274056E-4,-1.0591021E-3,9.4796874E-4,9.018262E-4,3.2105807E-3],"categories":[],"categories_nodes":[],"categories_segments":[],"categories_sizes":[],"default_left":[0,0,0,0,0,0,0,0,0,0,0,0,0,0,0,0,0,0,0,0,0,0,0,0,0,0,0,0,0,0,0,0,0,0,0,0,0,0,0,0,0,0,0,0,0,0,0,0,0,0,0,0,0,0,0,0,0,0,0,0,0,0,0],"id":17,"left_children":[1,3,5,7,9,11,13,15,17,19,21,23,25,27,29,31,33,35,37,39,41,43,45,47,49,51,53,55,57,59,61,-1,-1,-1,-1,-1,-1,-1,-1,-1,-1,-1,-1,-1,-1,-1,-1,-1,-1,-1,-1,-1,-1,-1,-1,-1,-1,-1,-1,-1,-1,-1,-1],"loss_changes":[1.1167209E1,2.7088637E0,4.7882547E0,6.8227863E-1,2.869873E-1,1.5144053E0,8.397745E-1,3.9898968E-1,2.1821922E-1,5.8133602E-2,2.291727E-1,5.9794164E-1,3.772359E-1,2.78301E-1,2.6873E-1,1.4728463E-1,2.465775E-1,9.420692E-2,6.301675E-2,1.824814E-2,4.1060448E-2,8.392668E-2,9.2455745E-2,2.6163343E-1,2.4208212E-1,2.6280022E-1,9.004283E-2,7.109022E-2,1.7624062E-1,1.3191257E-1,1.2053767E-1,0E0,0E0,0E0,0E0,0E0,0E0,0E0,0E0,0E0,0E0,0E0,0E0,0E0,0E0,0E0,0E0,0E0,0E0,0E0,0E0,0E0,0E0,0E0,0E0,0E0,0E0,0E0,0E0,0E0,0E0,0E0,0E0],"parents":[2147483647,0,0,1,1,2,2,3,3,4,4,5,5,6,6,7,7,8,8,9,9,10,10,11,11,12,12,13,13,14,14,15,15,16,16,17,17,18,18,19,19,20,20,21,21,22,22,23,23,24,24,25,25,26,26,27,27,28,28,29,29,30,30],"right_children":[2,4,6,8,10,12,14,16,18,20,22,24,26,28,30,32,34,36,38,40,42,44,46,48,50,52,54,56,58,60,62,-1,-1,-1,-1,-1,-1,-1,-1,-1,-1,-1,-1,-1,-1,-1,-1,-1,-1,-1,-1,-1,-1,-1,-1,-1,-1,-1,-1,-1,-1,-1,-1],"split_conditions":[3.0367323E1,1E0,1E0,4.0956768E1,1.8200495E1,6.206576E1,5.4866436E1,1.0196836E1,1.3054253E1,4.4161787E0,1.3959355E1,2.7275623E1,3.14E2,1.9253641E1,3.4904747E1,1.38E2,2.04E2,2.86E2,1.62E2,3E2,2.37E2,1.68E2,1.29E2,1.33E2,2.94E2,3.0673487E1,4.756877E1,3.82E2,2.61E2,2.84E2,2.74E2,-5.0478573E-3,-2.856176E-3,-2.4693902E-3,-6.3222524E-4,-1.810312E-3,9.1227214E-4,5.787958E-5,1.6775352E-3,-9.994282E-3,-5.943571E-3,-7.182374E-3,-5.4224823E-3,-6.824042E-3,-4.9419235E-3,-5.039047E-3,-3.129106E-3,-5.0315313E-4,1.5780345E-3,2.363943E-3,4.185567E-3,3.0892019E-3,5.0392416E-3,6.0767755E-3,9.113016E-3,-4.0064906E-3,7.2410493E-4,-2.2642864E-3,-1.6274056E-4,-1.0591021E-3,9.4796874E-4,9.018262E-4,3.2105807E-3],"split_indices":[0,4,4,3,3,0,0,0,0,0,0,3,2,3,3,2,2,2,2,2,2,2,2,2,2,3,3,2,2,2,2,0,0,0,0,0,0,0,0,0,0,0,0,0,0,0,0,0,0,0,0,0,0,0,0,0,0,0,0,0,0,0,0],"split_type":[0,0,0,0,0,0,0,0,0,0,0,0,0,0,0,0,0,0,0,0,0,0,0,0,0,0,0,0,0,0,0,0,0,0,0,0,0,0,0,0,0,0,0,0,0,0,0,0,0,0,0,0,0,0,0,0,0,0,0,0,0,0,0],"sum_hessian":[1.1843E4,4.512E3,7.331E3,2.99E3,1.522E3,4.891E3,2.44E3,2.134E3,8.56E2,3.71E2,1.151E3,3.163E3,1.728E3,1.195E3,1.245E3,7E2,1.434E3,3.52E2,5.04E2,5.3E1,3.18E2,5.26E2,6.25E2,1.396E3,1.767E3,1.37E3,3.58E2,3.63E2,8.32E2,7.43E2,5.02E2,2.24E2,4.76E2,6.95E2,7.39E2,2.72E2,8E1,1.87E2,3.17E2,4E1,1.3E1,1.82E2,1.36E2,2.03E2,3.23E2,1.78E2,4.47E2,4.25E2,9.71E2,1.265E3,5.02E2,6.82E2,6.88E2,2.95E2,6.3E1,3.47E2,1.6E1,5.18E2,3.14E2,5.1E2,2.33E2,3.37E2,1.65E2],"tree_param":{"num_deleted":"0","num_feature":"7","num_nodes":"63","size_leaf_vector":"1"}},{"base_weights":[1.225299E-4,-2.4266826E-2,3.348877E-2,-8.094388E-3,-5.6777373E-2,4.999196E-2,4.0355563E-4,-2.6512712E-2,2.0862002E-2,-8.669868E-2,-3.877247E-2,2.0689227E-2,6.849491E-2,-3.139298E-2,1.6103797E-2,-4.2166676E-2,-5.6490316E-3,5.2829226E-3,3.982382E-2,-1.04420945E-1,-7.267861E-2,-6.0275372E-2,-2.5286203E-2,9.838746E-3,4.0203635E-2,5.7195112E-2,9.028982E-2,-3.9398447E-2,-2.5915862E-3,3.5829814E-3,3.469745E-2,-4.191913E-3,-1.9819487E-3,-1.460948E-3,6.795744E-4,-9.559586E-4,1.0442837E-3,2.1136263E-3,3.961196E-3,-9.003219E-3,-6.874557E-3,-6.0072728E-3,-4.4073584E-3,-4.9997107E-3,-2.8529142E-3,-2.6006538E-3,-2.3397278E-4,-5.7835336E-4,1.4196081E-3,2.267409E-3,4.1663754E-3,3.4759203E-3,5.805896E-3,5.7008727E-3,7.469382E-3,-3.3212053E-3,-1.7785793E-3,-2.0964146E-3,4.6583376E-4,-5.316563E-4,1.4163624E-3,1.7087535E-3,3.9161146E-3],"categories":[],"categories_nodes":[],"categories_segments":[],"categories_sizes":[],"default_left":[0,0,0,0,0,0,0,0,0,0,0,0,0,0,0,0,0,0,0,0,0,0,0,0,0,0,0,0,0,0,0,0,0,0,0,0,0,0,0,0,0,0,0,0,0,0,0,0,0,0,0,0,0,0,0,0,0,0,0,0,0,0,0],"id":18,"left_children":[1,3,5,7,9,11,13,15,17,19,21,23,25,27,29,31,33,35,37,39,41,43,45,47,49,51,53,55,57,59,61,-1,-1,-1,-1,-1,-1,-1,-1,-1,-1,-1,-1,-1,-1,-1,-1,-1,-1,-1,-1,-1,-1,-1,-1,-1,-1,-1,-1,-1,-1,-1,-1],"loss_changes":[9.727938E0,3.6305408E0,2.756247E0,2.4607959E0,1.2324862E0,1.8246679E0,8.396831E-1,9.207721E-1,5.29751E-1,2.0634174E-1,4.143269E-1,2.7592605E-1,5.031538E-1,1.2809402E-1,2.620171E-1,3.9371943E-1,2.830553E-1,1.801386E-1,1.2888813E-1,4.419422E-2,5.638838E-2,1.172173E-1,2.2979516E-1,1.5892637E-1,6.839061E-2,2.6025105E-1,9.342718E-2,4.7768414E-2,3.1059725E-2,1.256009E-1,9.764284E-2,0E0,0E0,0E0,0E0,0E0,0E0,0E0,0E0,0E0,0E0,0E0,0E0,0E0,0E0,0E0,0E0,0E0,0E0,0E0,0E0,0E0,0E0,0E0,0E0,0E0,0E0,0E0,0E0,0E0,0E0,0E0,0E0],"parents":[2147483647,0,0,1,1,2,2,3,3,4,4,5,5,6,6,7,7,8,8,9,9,10,10,11,11,12,12,13,13,14,14,15,15,16,16,17,17,18,18,19,19,20,20,21,21,22,22,23,23,24,24,25,25,26,26,27,27,28,28,29,29,30,30],"right_children":[2,4,6,8,10,12,14,16,18,20,22,24,26,28,30,32,34,36,38,40,42,44,46,48,50,52,54,56,58,60,62,-1,-1,-1,-1,-1,-1,-1,-1,-1,-1,-1,-1,-1,-1,-1,-1,-1,-1,-1,-1,-1,-1,-1,-1,-1,-1,-1,-1,-1,-1,-1,-1],"split_conditions":[4.594196E1,1E0,1E0,4.041085E1,3.558791E1,3.5950348E1,3.460465E1,2.6173668E1,2.467677E1,1.9174856E1,1.7877728E1,6.841312E1,4.3816624E1,7.231375E1,4.270071E1,3.353937E1,3.4251507E1,8.4062605E0,4.5277256E1,4.731226E0,3.1396933E1,4.36629E1,4.3816624E1,3.0935514E1,3.370686E1,7.197542E1,6.7830345E1,3.2241844E1,2.97909E1,6.591299E1,6.841312E1,-4.191913E-3,-1.9819487E-3,-1.460948E-3,6.795744E-4,-9.559586E-4,1.0442837E-3,2.1136263E-3,3.961196E-3,-9.003219E-3,-6.874557E-3,-6.0072728E-3,-4.4073584E-3,-4.9997107E-3,-2.8529142E-3,-2.6006538E-3,-2.3397278E-4,-5.7835336E-4,1.4196081E-3,2.267409E-3,4.1663754E-3,3.4759203E-3,5.805896E-3,5.7008727E-3,7.469382E-3,-3.3212053E-3,-1.7785793E-3,-2.0964146E-3,4.6583376E-4,-5.316563E-4,1.4163624E-3,1.7087535E-3,3.9161146E-3],"split_indices":[0,4,4,1,1,1,1,0,0,0,0,0,1,0,1,1,1,0,1,0,1,1,1,1,1,0,0,1,1,0,0,0,0,0,0,0,0,0,0,0,0,0,0,0,0,0,0,0,0,0,0,0,0,0,0,0,0,0,0,0,0,0,0],"split_type":[0,0,0,0,0,0,0,0,0,0,0,0,0,0,0,0,0,0,0,0,0,0,0,0,0,0,0,0,0,0,0,0,0,0,0,0,0,0,0,0,0,0,0,0,0,0,0,0,0,0,0,0,0,0,0,0,0,0,0,0,0,0,0],"sum_hessian":[1.1952E4,6.905E3,5.047E3,4.612E3,2.293E3,3.367E3,1.68E3,2.819E3,1.793E3,8.6E2,1.433E3,1.304E3,2.063E3,5.55E2,1.125E3,1.61E3,1.209E3,9.85E2,8.08E2,3.77E2,4.83E2,5.51E2,8.82E2,8.39E2,4.65E2,1.361E3,7.02E2,4.34E2,1.21E2,6.73E2,4.52E2,7.05E2,9.05E2,6.07E2,6.02E2,3.32E2,6.53E2,5.15E2,2.93E2,7.3E1,3.04E2,2.02E2,2.81E2,3.49E2,2.02E2,5.72E2,3.1E2,3.07E2,5.32E2,3.33E2,1.32E2,1.055E3,3.06E2,4.6E2,2.42E2,2.74E2,1.6E2,3E1,9.1E1,4.03E2,2.7E2,3.06E2,1.46E2],"tree_param":{"num_deleted":"0","num_feature":"7","num_nodes":"63","size_leaf_vector":"1"}},{"base_weights":[2.2499406E-4,-2.551307E-2,2.7715854E-2,-4.1985974E-2,4.5753303E-3,4.282753E-2,-2.569254E-3,-2.6163887E-2,-7.305567E-2,1.9450866E-2,-2.5911339E-2,2.8218132E-2,7.247376E-2,-2.8028497E-2,1.48078175E-2,-4.533108E-2,-1.4310997E-2,-8.8913396E-2,-5.5882018E-2,8.010676E-3,3.8933016E-2,-4.429468E-2,-1.0868285E-2,4.8348797E-3,3.7349008E-2,6.29239E-2,9.370841E-2,-4.382286E-2,-1.4250111E-2,2.8965187E-3,3.650044E-2,-5.304649E-3,-2.5057339E-3,-2.1362624E-3,-1.9070541E-4,-6.714863E-3,-3.9315997E-3,-5.2309795E-3,-3.174723E-3,-6.4358395E-4,1.1417152E-3,4.8766515E-4,3.2504022E-3,-3.3603176E-3,-8.0970454E-4,-2.1466052E-3,-1.2386806E-4,-1.04055136E-4,2.3237607E-3,1.971314E-3,3.9227717E-3,2.389897E-3,4.9361726E-3,5.8057765E-3,8.06308E-3,-3.826304E-3,-1.223714E-3,-1.8636946E-3,-2.0586992E-4,-1.1709795E-3,9.3195465E-4,1.7795317E-3,3.988908E-3],"categories":[],"categories_nodes":[],"categories_segments":[],"categories_sizes":[],"default_left":[0,0,0,0,0,0,0,0,0,0,0,0,0,0,0,0,0,0,0,0,0,0,0,0,0,0,0,0,0,0,0,0,0,0,0,0,0,0,0,0,0,0,0,0,0,0,0,0,0,0,0,0,0,0,0,0,0,0,0,0,0,0,0],"id":19,"left_children":[1,3,5,7,9,11,13,15,17,19,21,23,25,27,29,31,33,35,37,39,41,43,45,47,49,51,53,55,57,59,61,-1,-1,-1,-1,-1,-1,-1,-1,-1,-1,-1,-1,-1,-1,-1,-1,-1,-1,-1,-1,-1,-1,-1,-1,-1,-1,-1,-1,-1,-1,-1,-1],"loss_changes":[8.4228115E0,3.0474076E0,2.6343942E0,1.9511647E0,9.8733205E-1,1.6611114E0,8.485095E-1,5.977608E-1,3.5996103E-1,3.2576078E-1,1.9696933E-1,5.493932E-1,2.510352E-1,1.6868448E-1,2.9445586E-1,2.893629E-1,3.0581865E-1,1.5423012E-1,1.2479591E-1,1.3194641E-1,1.2940252E-1,3.841865E-2,7.0917875E-2,1.2985179E-1,3.1627107E-1,1.8925285E-1,8.0883265E-2,1.0239643E-1,5.8276713E-2,1.5089047E-1,9.0232134E-2,0E0,0E0,0E0,0E0,0E0,0E0,0E0,0E0,0E0,0E0,0E0,0E0,0E0,0E0,0E0,0E0,0E0,0E0,0E0,0E0,0E0,0E0,0E0,0E0,0E0,0E0,0E0,0E0,0E0,0E0,0E0,0E0],"parents":[2147483647,0,0,1,1,2,2,3,3,4,4,5,5,6,6,7,7,8,8,9,9,10,10,11,11,12,12,13,13,14,14,15,15,16,16,17,17,18,18,19,19,20,20,21,21,22,22,23,23,24,24,25,25,26,26,27,27,28,28,29,29,30,30],"right_children":[2,4,6,8,10,12,14,16,18,20,22,24,26,28,30,32,34,36,38,40,42,44,46,48,50,52,54,56,58,60,62,-1,-1,-1,-1,-1,-1,-1,-1,-1,-1,-1,-1,-1,-1,-1,-1,-1,-1,-1,-1,-1,-1,-1,-1,-1,-1,-1,-1,-1,-1,-1,-1],"split_conditions":[4.0904476E1,4.1173546E1,1E0,1E0,1E0,4.1654575E1,3.64059E1,1.5451507E1,3.4699875E1,2.5370481E1,1.7877728E1,3.1916985E1,6.7830345E1,2.08E2,6.650897E1,3.0935514E1,3.353937E1,3.404743E1,1.54E2,8.133752E0,8.9E1,3.58E2,1.35E2,7.231375E1,6.71809E1,9.8E1,2.74E2,6.7830345E1,5.9566902E1,1.41E2,4.3742477E1,-5.304649E-3,-2.5057339E-3,-2.1362624E-3,-1.9070541E-4,-6.714863E-3,-3.9315997E-3,-5.2309795E-3,-3.174723E-3,-6.4358395E-4,1.1417152E-3,4.8766515E-4,3.2504022E-3,-3.3603176E-3,-8.0970454E-4,-2.1466052E-3,-1.2386806E-4,-1.04055136E-4,2.3237607E-3,1.971314E-3,3.9227717E-3,2.389897E-3,4.9361726E-3,5.8057765E-3,8.06308E-3,-3.826304E-3,-1.223714E-3,-1.8636946E-3,-2.0586992E-4,-1.1709795E-3,9.3195465E-4,1.7795317E-3,3.988908E-3],"split_indices":[0,1,4,4,4,1,1,0,1,0,0,1,0,2,0,1,1,0,2,0,2,2,2,0,0,2,2,0,0,2,1,0,0,0,0,0,0,0,0,0,0,0,0,0,0,0,0,0,0,0,0,0,0,0,0,0,0,0,0,0,0,0,0],"split_type":[0,0,0,0,0,0,0,0,0,0,0,0,0,0,0,0,0,0,0,0,0,0,0,0,0,0,0,0,0,0,0,0,0,0,0,0,0,0,0,0,0,0,0,0,0,0,0,0,0,0,0,0,0,0,0,0,0,0,0,0,0,0,0],"sum_hessian":[1.1902E4,6.147E3,5.755E3,3.972E3,2.175E3,3.839E3,1.916E3,2.633E3,1.339E3,1.462E3,7.13E2,2.573E3,1.266E3,7.77E2,1.139E3,1.005E3,1.628E3,6.94E2,6.45E2,9.22E2,5.4E2,3.2E2,3.93E2,7.23E2,1.85E3,8.76E2,3.9E2,3.61E2,4.16E2,7.36E2,4.03E2,2.38E2,7.67E2,6.78E2,9.5E2,5.7E2,1.24E2,2.29E2,4.16E2,3E2,6.22E2,1.03E2,4.37E2,2.87E2,3.3E1,1.23E2,2.7E2,5.92E2,1.31E2,1.242E3,6.08E2,1.84E2,6.92E2,2.63E2,1.27E2,2.55E2,1.06E2,1.98E2,2.18E2,2.55E2,4.81E2,2.63E2,1.4E2],"tree_param":{"num_deleted":"0","num_feature":"7","num_nodes":"63","size_leaf_vector":"1"}},{"base_weights":[-6.2906747E-6,-3.1252354E-2,2.014939E-2,-1.6616028E-2,-6.0392126E-2,3.430154E-2,-8.6149145E-3,-3.673809E-2,3.607759E-3,-7.738998E-2,-3.4853052E-2,2.0117184E-2,6.1966076E-2,-2.441269E-2,1.6560884E-2,-5.357287E-2,-2.7022613E-2,-7.937601E-3,1.8512333E-2,-9.378975E-2,-6.426642E-2,-4.481859E-2,-2.3658743E-2,3.1881488E-3,3.3647202E-2,4.4174444E-2,7.4554116E-2,-3.7864283E-2,-4.4785016E-3,6.605795E-3,3.99712E-2,-4.9707503E-3,-3.0834542E-3,-4.4481964E-3,-1.6146216E-3,-1.9587472E-3,-8.27866E-5,6.151798E-5,1.7961457E-3,-7.9532005E-3,-5.9282407E-3,-5.599602E-3,-3.6522977E-3,-3.8941621E-3,-2.3135284E-3,-2.455097E-3,-1.0658259E-3,-1.0635565E-3,1.0593589E-3,1.3031727E-3,3.1387354E-3,2.6431533E-3,4.5893984E-3,4.607178E-3,6.0547567E-3,-3.2599983E-3,-1.53109E-3,-1.7224589E-3,3.3783753E-4,-3.565526E-4,1.2477008E-3,2.307455E-3,3.4975219E-3],"categories":[],"categories_nodes":[],"categories_segments":[],"categories_sizes":[],"default_left":[0,0,0,0,0,0,0,0,0,0,0,0,0,0,0,0,0,0,0,0,0,0,0,0,0,0,0,0,0,0,0,0,0,0,0,0,0,0,0,0,0,0,0,0,0,0,0,0,0,0,0,0,0,0,0,0,0,0,0,0,0,0,0],"id":20,"left_children":[1,3,5,7,9,11,13,15,17,19,21,23,25,27,29,31,33,35,37,39,41,43,45,47,49,51,53,55,57,59,61,-1,-1,-1,-1,-1,-1,-1,-1,-1,-1,-1,-1,-1,-1,-1,-1,-1,-1,-1,-1,-1,-1,-1,-1,-1,-1,-1,-1,-1,-1,-1,-1],"loss_changes":[7.4812236E0,1.98563E0,2.9397976E0,1.2624738E0,6.732111E-1,1.8979874E0,9.4777715E-1,2.5288486E-1,2.6652473E-1,1.9499063E-1,6.855136E-2,7.330822E-1,3.6400414E-1,3.9239717E-1,2.1391052E-1,9.119964E-2,1.4130688E-1,1.1817051E-1,8.5170165E-2,6.489992E-2,9.509063E-2,4.0023744E-2,2.7956277E-2,3.1269348E-1,2.9842663E-1,9.110093E-2,9.4373226E-2,1.2067759E-1,1.1080512E-1,8.487815E-2,1.7540991E-2,0E0,0E0,0E0,0E0,0E0,0E0,0E0,0E0,0E0,0E0,0E0,0E0,0E0,0E0,0E0,0E0,0E0,0E0,0E0,0E0,0E0,0E0,0E0,0E0,0E0,0E0,0E0,0E0,0E0,0E0,0E0,0E0],"parents":[2147483647,0,0,1,1,2,2,3,3,4,4,5,5,6,6,7,7,8,8,9,9,10,10,11,11,12,12,13,13,14,14,15,15,16,16,17,17,18,18,19,19,20,20,21,21,22,22,23,23,24,24,25,25,26,26,27,27,28,28,29,29,30,30],"right_children":[2,4,6,8,10,12,14,16,18,20,22,24,26,28,30,32,34,36,38,40,42,44,46,48,50,52,54,56,58,60,62,-1,-1,-1,-1,-1,-1,-1,-1,-1,-1,-1,-1,-1,-1,-1,-1,-1,-1,-1,-1,-1,-1,-1,-1,-1,-1,-1,-1,-1,-1,-1,-1],"split_conditions":[3.1081203E1,1E0,1E0,3.8307335E1,4.0320217E1,4.1438198E1,4.061994E1,3.1856672E1,4.387255E1,3.3333782E1,1.6038614E1,5.2401623E1,5.0905365E1,6.0134468E1,6.557909E1,1.0496397E1,3.2202992E0,8.4062605E0,9.318449E0,9.914539E0,1.3703304E1,4.4234303E1,4.316458E1,3.3403236E1,3.3804688E1,4.65912E1,6.7830345E1,3.610802E1,3.2001797E1,4.4376377E1,4.4531403E1,-4.9707503E-3,-3.0834542E-3,-4.4481964E-3,-1.6146216E-3,-1.9587472E-3,-8.27866E-5,6.151798E-5,1.7961457E-3,-7.9532005E-3,-5.9282407E-3,-5.599602E-3,-3.6522977E-3,-3.8941621E-3,-2.3135284E-3,-2.455097E-3,-1.0658259E-3,-1.0635565E-3,1.0593589E-3,1.3031727E-3,3.1387354E-3,2.6431533E-3,4.5893984E-3,4.607178E-3,6.0547567E-3,-3.2599983E-3,-1.53109E-3,-1.7224589E-3,3.3783753E-4,-3.565526E-4,1.2477008E-3,2.307455E-3,3.4975219E-3],"split_indices":[0,4,4,1,1,1,1,1,1,1,0,0,0,0,0,0,0,0,0,0,0,1,1,1,1,1,0,1,1,1,1,0,0,0,0,0,0,0,0,0,0,0,0,0,0,0,0,0,0,0,0,0,0,0,0,0,0,0,0,0,0,0,0],"split_type":[0,0,0,0,0,0,0,0,0,0,0,0,0,0,0,0,0,0,0,0,0,0,0,0,0,0,0,0,0,0,0,0,0,0,0,0,0,0,0,0,0,0,0,0,0,0,0,0,0,0,0,0,0,0,0,0,0,0,0,0,0,0,0],"sum_hessian":[1.1877E4,4.657E3,7.22E3,3.101E3,1.556E3,4.839E3,2.381E3,1.554E3,1.547E3,9.33E2,6.23E2,3.2E3,1.639E3,1.463E3,9.18E2,5.67E2,9.87E2,8.72E2,6.75E2,4.12E2,5.21E2,3.28E2,2.95E2,1.422E3,1.778E3,6.81E2,9.58E2,8.73E2,5.9E2,6.45E2,2.73E2,1.98E2,3.69E2,9.5E1,8.92E2,2.19E2,6.53E2,1.95E2,4.8E2,1.26E2,2.86E2,2.24E2,2.97E2,1.69E2,1.59E2,1.24E2,1.71E2,5.6E2,8.62E2,7.6E2,1.018E3,5.26E2,1.55E2,5.57E2,4.01E2,5.64E2,3.09E2,1.86E2,4.04E2,3.16E2,3.29E2,1.63E2,1.1E2],"tree_param":{"num_deleted":"0","num_feature":"7","num_nodes":"63","size_leaf_vector":"1"}},{"base_weights":[9.831481E-5,-1.6841527E-2,2.1415416E-2,-2.7346246E-2,4.314037E-3,1.1049808E-2,4.2241015E-2,-4.3703068E-2,-1.10948505E-2,-1.8946368E-2,1.2363625E-2,-5.1975497E-3,2.6737312E-2,1.5080218E-2,4.870818E-2,-5.3379066E-2,-2.1282656E-2,-1.7852442E-2,1.4631313E-2,-3.188594E-2,-4.6426696E-3,-5.119042E-3,2.1902962E-2,-1.4493426E-2,1.4916196E-2,1.6905881E-2,4.753542E-2,3.1654734E-5,2.9432712E-2,4.0894512E-2,7.11138E-2,-4.7219386E-3,-2.9042426E-3,-2.7101885E-3,-7.609791E-4,-2.5994908E-3,-6.5375713E-4,-5.484472E-5,1.9200518E-3,-3.437997E-3,-1.3108534E-3,-1.7824239E-3,2.7638036E-4,-7.6153583E-4,1.8363844E-3,9.4793993E-4,2.782554E-3,-1.4321499E-3,2.882142E-4,-6.265066E-5,1.9160217E-3,6.068689E-4,2.5984761E-3,2.169875E-3,3.8594033E-3,-8.383909E-4,8.32789E-4,1.0432489E-3,3.2295594E-3,2.179262E-3,3.8428484E-3,4.4918414E-3,6.702837E-3],"categories":[],"categories_nodes":[],"categories_segments":[],"categories_sizes":[],"default_left":[0,0,0,0,0,0,0,0,0,0,0,0,0,0,0,0,0,0,0,0,0,0,0,0,0,0,0,0,0,0,0,0,0,0,0,0,0,0,0,0,0,0,0,0,0,0,0,0,0,0,0,0,0,0,0,0,0,0,0,0,0,0,0],"id":21,"left_children":[1,3,5,7,9,11,13,15,17,19,21,23,25,27,29,31,33,35,37,39,41,43,45,47,49,51,53,55,57,59,61,-1,-1,-1,-1,-1,-1,-1,-1,-1,-1,-1,-1,-1,-1,-1,-1,-1,-1,-1,-1,-1,-1,-1,-1,-1,-1,-1,-1,-1,-1,-1,-1],"loss_changes":[4.2953835E0,1.47308E0,1.1365206E0,1.176837E0,4.1215494E-1,8.968085E-1,3.0665898E-1,4.7765064E-1,3.867229E-1,1.04609355E-1,2.7278602E-1,3.2349578E-1,3.6520696E-1,7.3001795E-2,2.444663E-1,2.5512838E-1,1.2065154E-1,2.8873616E-1,9.136151E-2,6.6414654E-2,4.839499E-2,1.0466941E-1,1.573416E-1,1.3143185E-1,1.0774912E-1,2.0230749E-1,7.042253E-2,2.3795301E-2,4.1298255E-2,1.4182937E-1,5.614412E-2,0E0,0E0,0E0,0E0,0E0,0E0,0E0,0E0,0E0,0E0,0E0,0E0,0E0,0E0,0E0,0E0,0E0,0E0,0E0,0E0,0E0,0E0,0E0,0E0,0E0,0E0,0E0,0E0,0E0,0E0,0E0,0E0],"parents":[2147483647,0,0,1,1,2,2,3,3,4,4,5,5,6,6,7,7,8,8,9,9,10,10,11,11,12,12,13,13,14,14,15,15,16,16,17,17,18,18,19,19,20,20,21,21,22,22,23,23,24,24,25,25,26,26,27,27,28,28,29,29,30,30],"right_children":[2,4,6,8,10,12,14,16,18,20,22,24,26,28,30,32,34,36,38,40,42,44,46,48,50,52,54,56,58,60,62,-1,-1,-1,-1,-1,-1,-1,-1,-1,-1,-1,-1,-1,-1,-1,-1,-1,-1,-1,-1,-1,-1,-1,-1,-1,-1,-1,-1,-1,-1,-1,-1],"split_conditions":[3.9240143E1,1E0,1E0,1E0,1.8017918E1,1E0,8.9E1,4.0956768E1,4.436353E1,2.16E2,1.5E2,3.8697678E1,3.890392E1,2.8962082E1,4.2808937E1,3.2904278E1,1.67E2,3.1302856E1,3.3403236E1,3.2820904E1,3.1302856E1,4.9445568E1,3.5950348E1,3.1E2,1.8E2,2.85E2,1.38E2,4.387255E1,4.3953194E1,4.444868E1,4.613531E1,-4.7219386E-3,-2.9042426E-3,-2.7101885E-3,-7.609791E-4,-2.5994908E-3,-6.5375713E-4,-5.484472E-5,1.9200518E-3,-3.437997E-3,-1.3108534E-3,-1.7824239E-3,2.7638036E-4,-7.6153583E-4,1.8363844E-3,9.4793993E-4,2.782554E-3,-1.4321499E-3,2.882142E-4,-6.265066E-5,1.9160217E-3,6.068689E-4,2.5984761E-3,2.169875E-3,3.8594033E-3,-8.383909E-4,8.32789E-4,1.0432489E-3,3.2295594E-3,2.179262E-3,3.8428484E-3,4.4918414E-3,6.702837E-3],"split_indices":[1,5,5,6,3,6,2,3,3,2,2,3,3,3,3,1,2,1,1,1,1,3,1,2,2,2,2,1,1,1,1,0,0,0,0,0,0,0,0,0,0,0,0,0,0,0,0,0,0,0,0,0,0,0,0,0,0,0,0,0,0,0,0],"split_type":[0,0,0,0,0,0,0,0,0,0,0,0,0,0,0,0,0,0,0,0,0,0,0,0,0,0,0,0,0,0,0,0,0,0,0,0,0,0,0,0,0,0,0,0,0,0,0,0,0,0,0,0,0,0,0,0,0,0,0,0,0,0,0],"sum_hessian":[1.1893E4,6.627E3,5.266E3,4.428E3,2.199E3,3.517E3,1.749E3,2.206E3,2.222E3,5.65E2,1.634E3,1.728E3,1.789E3,3.37E2,1.412E3,1.54E3,6.66E2,1.76E3,4.62E2,2.96E2,2.69E2,5.77E2,1.057E3,1.182E3,5.46E2,1.216E3,5.73E2,1.65E2,1.72E2,1.049E3,3.63E2,7.03E2,8.37E2,2.48E2,4.18E2,5.38E2,1.222E3,2.1E2,2.52E2,1.27E2,1.69E2,7.8E1,1.91E2,4.88E2,8.9E1,7.21E2,3.36E2,8.95E2,2.87E2,2.41E2,3.05E2,8.65E2,3.51E2,1.82E2,3.91E2,8.2E1,8.3E1,9.3E1,7.9E1,6.2E2,4.29E2,2.86E2,7.7E1],"tree_param":{"num_deleted":"0","num_feature":"7","num_nodes":"63","size_leaf_vector":"1"}},{"base_weights":[-1.8872215E-5,-1.993704E-2,2.751648E-2,-7.7661513E-3,-4.4175036E-2,3.95067E-2,2.9325294E-3,-2.3307726E-2,5.6874165E-3,-6.5199606E-2,-3.4953322E-2,2.4884345E-2,4.906213E-2,-1.7539179E-2,1.0579026E-2,-3.867527E-2,-1.5688479E-2,-1.0123554E-2,1.4041111E-2,-8.499832E-2,-5.6027588E-2,-5.482005E-2,-2.843363E-2,1.740364E-2,4.2408716E-2,4.0715933E-2,6.641766E-2,-3.0294089E-2,-5.156516E-3,3.7583762E-3,2.8974637E-2,-3.7671756E-3,-2.1381052E-3,-1.9645754E-3,-5.1150983E-4,-1.3219944E-3,-2.87846E-4,4.0326302E-4,1.5203606E-3,-6.9109774E-3,-5.269234E-3,-4.693345E-3,-3.3534344E-3,-4.392158E-3,-2.8818867E-3,-2.319667E-3,-7.368254E-4,6.009926E-4,1.8146716E-3,1.8698004E-3,3.6310153E-3,2.3764435E-3,3.4854556E-3,4.20305E-3,6.028967E-3,-4.3014255E-3,-1.6823753E-3,-9.19732E-4,2.1090383E-4,-1.4674246E-4,1.1646466E-3,1.5517287E-3,2.786525E-3],"categories":[],"categories_nodes":[],"categories_segments":[],"categories_sizes":[],"default_left":[0,0,0,0,0,0,0,0,0,0,0,0,0,0,0,0,0,0,0,0,0,0,0,0,0,0,0,0,0,0,0,0,0,0,0,0,0,0,0,0,0,0,0,0,0,0,0,0,0,0,0,0,0,0,0,0,0,0,0,0,0,0,0],"id":22,"left_children":[1,3,5,7,9,11,13,15,17,19,21,23,25,27,29,31,33,35,37,39,41,43,45,47,49,51,53,55,57,59,61,-1,-1,-1,-1,-1,-1,-1,-1,-1,-1,-1,-1,-1,-1,-1,-1,-1,-1,-1,-1,-1,-1,-1,-1,-1,-1,-1,-1,-1,-1,-1,-1],"loss_changes":[6.51234E0,2.0321927E0,1.4690032E0,9.594358E-1,4.4423246E-1,4.6685028E-1,2.561233E-1,2.4867594E-1,3.25059E-1,1.2253523E-1,2.0606971E-1,1.7309338E-1,2.906227E-1,7.0126966E-2,1.4932588E-1,8.515179E-2,1.476146E-1,4.4747017E-2,1.02235705E-1,2.193904E-2,3.992665E-2,4.0147424E-2,1.0150403E-1,6.972504E-2,5.743724E-2,8.245063E-2,7.724571E-2,4.123564E-2,1.4842836E-2,6.563737E-2,2.2861928E-2,0E0,0E0,0E0,0E0,0E0,0E0,0E0,0E0,0E0,0E0,0E0,0E0,0E0,0E0,0E0,0E0,0E0,0E0,0E0,0E0,0E0,0E0,0E0,0E0,0E0,0E0,0E0,0E0,0E0,0E0,0E0,0E0],"parents":[2147483647,0,0,1,1,2,2,3,3,4,4,5,5,6,6,7,7,8,8,9,9,10,10,11,11,12,12,13,13,14,14,15,15,16,16,17,17,18,18,19,19,20,20,21,21,22,22,23,23,24,24,25,25,26,26,27,27,28,28,29,29,30,30],"right_children":[2,4,6,8,10,12,14,16,18,20,22,24,26,28,30,32,34,36,38,40,42,44,46,48,50,52,54,56,58,60,62,-1,-1,-1,-1,-1,-1,-1,-1,-1,-1,-1,-1,-1,-1,-1,-1,-1,-1,-1,-1,-1,-1,-1,-1,-1,-1,-1,-1,-1,-1,-1,-1],"split_conditions":[4.594196E1,1E0,1E0,2.1169327E1,1.4213741E1,1.69E2,1.27E2,1.42E2,1.53E2,1.46E2,1.08E2,7.0008606E1,6.871747E1,6.2641026E1,7.032031E1,7.740232E0,8.969853E0,3.1081203E1,2.75E2,5.666544E0,6.345352E0,3.404743E1,3.39E2,1E0,7.5E1,3E2,3.42E2,3.2E1,7.0650154E1,3.12E2,3.04E2,-3.7671756E-3,-2.1381052E-3,-1.9645754E-3,-5.1150983E-4,-1.3219944E-3,-2.87846E-4,4.0326302E-4,1.5203606E-3,-6.9109774E-3,-5.269234E-3,-4.693345E-3,-3.3534344E-3,-4.392158E-3,-2.8818867E-3,-2.319667E-3,-7.368254E-4,6.009926E-4,1.8146716E-3,1.8698004E-3,3.6310153E-3,2.3764435E-3,3.4854556E-3,4.20305E-3,6.028967E-3,-4.3014255E-3,-1.6823753E-3,-9.19732E-4,2.1090383E-4,-1.4674246E-4,1.1646466E-3,1.5517287E-3,2.786525E-3],"split_indices":[0,4,4,0,0,2,2,2,2,2,2,0,0,0,0,0,0,0,2,0,0,0,2,5,2,2,2,2,0,2,2,0,0,0,0,0,0,0,0,0,0,0,0,0,0,0,0,0,0,0,0,0,0,0,0,0,0,0,0,0,0,0,0],"split_type":[0,0,0,0,0,0,0,0,0,0,0,0,0,0,0,0,0,0,0,0,0,0,0,0,0,0,0,0,0,0,0,0,0,0,0,0,0,0,0,0,0,0,0,0,0,0,0,0,0,0,0,0,0,0,0,0,0,0,0,0,0,0,0],"sum_hessian":[1.1872E4,6.889E3,4.983E3,4.587E3,2.302E3,3.349E3,1.634E3,2.128E3,2.459E3,7E2,1.602E3,1.325E3,2.024E3,4.44E2,1.19E3,7.04E2,1.424E3,8.5E2,1.609E3,2.19E2,4.81E2,3.94E2,1.208E3,9.3E2,3.95E2,1.369E3,6.55E2,2.18E2,2.26E2,8.69E2,3.21E2,2.44E2,4.6E2,5.74E2,8.5E2,3.45E2,5.05E2,7.75E2,8.34E2,8.7E1,1.32E2,2.01E2,2.8E2,2.47E2,1.47E2,9.56E2,2.52E2,4.58E2,4.72E2,1.5E2,2.45E2,7.87E2,5.82E2,4.98E2,1.57E2,3.5E1,1.83E2,1.14E2,1.12E2,5.98E2,2.71E2,1.99E2,1.22E2],"tree_param":{"num_deleted":"0","num_feature":"7","num_nodes":"63","size_leaf_vector":"1"}},{"base_weights":[-3.9213683E-5,1.1284531E-2,-2.2970863E-2,2.4428826E-3,2.7732352E-2,-3.716836E-2,-1.1245004E-2,-1.2047306E-2,1.0131009E-2,1.1726856E-2,3.461043E-2,-5.2081056E-2,-2.8981984E-2,-1.7390754E-2,1.0442935E-2,-3.2812998E-2,-7.0192027E-3,-2.4462643E-3,1.6987251E-2,4.1594473E-3,2.1728594E-2,2.6115619E-2,4.4540815E-2,-6.662854E-2,-4.6352025E-2,-4.4334054E-2,-2.4151528E-2,-2.4769504E-2,-5.720633E-3,6.442205E-4,1.9916408E-2,-3.3842584E-3,-1.7245879E-3,-9.820582E-4,-2.0469508E-5,-7.172938E-4,4.3058288E-4,7.668423E-4,1.9174282E-3,-3.8061693E-4,9.990163E-4,1.3483758E-3,2.2747724E-3,1.4654552E-3,2.798035E-3,2.6890577E-3,3.8182659E-3,-5.1305117E-3,-3.6264264E-3,-4.346126E-3,-2.973164E-3,-3.420152E-3,-1.8592661E-3,-2.0390225E-3,-1.2070962E-3,-2.5643876E-3,-1.3274617E-3,-1.4381517E-3,5.3293006E-5,-4.935057E-4,8.356961E-4,1.1937142E-3,2.411966E-3],"categories":[],"categories_nodes":[],"categories_segments":[],"categories_sizes":[],"default_left":[0,0,0,0,0,0,0,0,0,0,0,0,0,0,0,0,0,0,0,0,0,0,0,0,0,0,0,0,0,0,0,0,0,0,0,0,0,0,0,0,0,0,0,0,0,0,0,0,0,0,0,0,0,0,0,0,0,0,0,0,0,0,0],"id":23,"left_children":[1,3,5,7,9,11,13,15,17,19,21,23,25,27,29,31,33,35,37,39,41,43,45,47,49,51,53,55,57,59,61,-1,-1,-1,-1,-1,-1,-1,-1,-1,-1,-1,-1,-1,-1,-1,-1,-1,-1,-1,-1,-1,-1,-1,-1,-1,-1,-1,-1,-1,-1,-1,-1],"loss_changes":[3.0989268E0,1.1617395E0,6.5633726E-1,5.790803E-1,3.0706716E-1,2.162826E-1,2.8835174E-1,1.8792018E-1,2.9288828E-1,6.356258E-2,1.6358542E-1,4.950106E-2,8.450711E-2,1.4495516E-1,4.4358883E-2,4.3386877E-2,6.846654E-2,8.047623E-2,1.3765562E-1,4.6659306E-2,8.986995E-3,7.489449E-2,5.3006887E-2,1.3588965E-2,2.519083E-2,2.0819902E-2,2.9752195E-2,7.039267E-2,6.285925E-2,2.0592973E-2,9.529412E-3,0E0,0E0,0E0,0E0,0E0,0E0,0E0,0E0,0E0,0E0,0E0,0E0,0E0,0E0,0E0,0E0,0E0,0E0,0E0,0E0,0E0,0E0,0E0,0E0,0E0,0E0,0E0,0E0,0E0,0E0,0E0,0E0],"parents":[2147483647,0,0,1,1,2,2,3,3,4,4,5,5,6,6,7,7,8,8,9,9,10,10,11,11,12,12,13,13,14,14,15,15,16,16,17,17,18,18,19,19,20,20,21,21,22,22,23,23,24,24,25,25,26,26,27,27,28,28,29,29,30,30],"right_children":[2,4,6,8,10,12,14,16,18,20,22,24,26,28,30,32,34,36,38,40,42,44,46,48,50,52,54,56,58,60,62,-1,-1,-1,-1,-1,-1,-1,-1,-1,-1,-1,-1,-1,-1,-1,-1,-1,-1,-1,-1,-1,-1,-1,-1,-1,-1,-1,-1,-1,-1,-1,-1],"split_conditions":[1E0,3.7722202E1,2.7275623E1,1.48E2,1.35E2,1.55E2,3.18E2,1.1599247E1,1.6264757E1,4.756877E1,4.702217E1,1.1599247E1,1.0483272E1,4.471179E1,4.167346E1,6.4E1,1E0,1E0,3.05E2,1E0,1.15E2,3.22E2,2.97E2,1.11E2,4.4E1,3.44E2,3E2,1.21E2,1.04E2,3.69E2,3.86E2,-3.3842584E-3,-1.7245879E-3,-9.820582E-4,-2.0469508E-5,-7.172938E-4,4.3058288E-4,7.668423E-4,1.9174282E-3,-3.8061693E-4,9.990163E-4,1.3483758E-3,2.2747724E-3,1.4654552E-3,2.798035E-3,2.6890577E-3,3.8182659E-3,-5.1305117E-3,-3.6264264E-3,-4.346126E-3,-2.973164E-3,-3.420152E-3,-1.8592661E-3,-2.0390225E-3,-1.2070962E-3,-2.5643876E-3,-1.3274617E-3,-1.4381517E-3,5.3293006E-5,-4.935057E-4,8.356961E-4,1.1937142E-3,2.411966E-3],"split_indices":[4,3,3,2,2,2,2,3,3,3,3,3,3,3,3,2,5,5,2,5,2,2,2,2,2,2,2,2,2,2,2,0,0,0,0,0,0,0,0,0,0,0,0,0,0,0,0,0,0,0,0,0,0,0,0,0,0,0,0,0,0,0,0],"split_type":[0,0,0,0,0,0,0,0,0,0,0,0,0,0,0,0,0,0,0,0,0,0,0,0,0,0,0,0,0,0,0,0,0,0,0,0,0,0,0,0,0,0,0,0,0,0,0,0,0,0,0,0,0,0,0,0,0,0,0,0,0,0,0],"sum_hessian":[1.1932E4,7.988E3,3.944E3,5.196E3,2.792E3,1.783E3,2.161E3,1.801E3,3.395E3,8.4E2,1.952E3,6.3E2,1.153E3,1.684E3,4.77E2,3.5E2,1.451E3,1.198E3,2.197E3,4.79E2,3.61E2,1.054E3,8.98E2,1.75E2,4.55E2,2.74E2,8.79E2,1.031E3,6.53E2,2.35E2,2.42E2,1.19E2,2.31E2,7.1E2,7.41E2,6.28E2,5.7E2,1.392E3,8.05E2,2.46E2,2.33E2,2.96E2,6.5E1,7.69E2,2.85E2,5.6E2,3.38E2,1.18E2,5.7E1,8.7E1,3.68E2,2.17E2,5.7E1,5.09E2,3.7E2,3.37E2,6.94E2,1.98E2,4.55E2,1.4E2,9.5E1,2.04E2,3.8E1],"tree_param":{"num_deleted":"0","num_feature":"7","num_nodes":"63","size_leaf_vector":"1"}},{"base_weights":[1.2114156E-5,-1.997837E-2,2.365428E-2,-4.298784E-2,-5.630894E-3,1.1062745E-2,4.7272544E-2,-3.2068558E-2,-6.4394645E-2,4.584963E-3,-2.6884396E-2,2.1638725E-2,-1.055222E-2,5.824456E-2,2.5392503E-2,-5.5039935E-2,-2.3916645E-2,-7.280722E-2,-4.147763E-2,-5.9903716E-3,2.1651803E-2,-4.4056445E-2,-1.6705008E-2,1.6462398E-3,3.0367864E-2,-2.5870081E-2,8.660864E-4,5.072754E-2,8.136495E-2,1.4207151E-2,4.4533845E-2,-4.9483515E-3,-3.1466545E-3,-2.1788245E-3,-2.1466843E-4,-6.210323E-3,-4.5145135E-3,-3.723157E-3,-1.9403219E-3,-1.99706E-3,1.0607558E-4,9.6116407E-4,2.9640193E-3,-4.5743864E-3,-2.5715863E-3,-1.8686136E-3,2.335065E-4,-5.091251E-4,1.5049705E-3,1.2119053E-3,2.820772E-3,-4.077786E-3,-1.4851447E-3,-5.943258E-4,1.7394886E-3,2.9949322E-3,4.4859024E-3,4.6728603E-3,6.4302003E-3,2.5986807E-4,1.6749053E-3,2.2554714E-3,4.461768E-3],"categories":[],"categories_nodes":[],"categories_segments":[],"categories_sizes":[],"default_left":[0,0,0,0,0,0,0,0,0,0,0,0,0,0,0,0,0,0,0,0,0,0,0,0,0,0,0,0,0,0,0,0,0,0,0,0,0,0,0,0,0,0,0,0,0,0,0,0,0,0,0,0,0,0,0,0,0,0,0,0,0,0,0],"id":24,"left_children":[1,3,5,7,9,11,13,15,17,19,21,23,25,27,29,31,33,35,37,39,41,43,45,47,49,51,53,55,57,59,61,-1,-1,-1,-1,-1,-1,-1,-1,-1,-1,-1,-1,-1,-1,-1,-1,-1,-1,-1,-1,-1,-1,-1,-1,-1,-1,-1,-1,-1,-1,-1,-1],"loss_changes":[5.6076164E0,2.1221492E0,1.61609E0,5.750561E-1,8.601464E-1,8.1107056E-1,4.5225E-1,3.052293E-1,1.5757513E-1,4.8311436E-1,2.2405809E-1,4.1565E-1,2.039605E-1,2.1450901E-1,1.3489428E-1,6.439543E-2,1.8178701E-1,7.471228E-2,3.4938693E-2,2.796849E-1,1.6724569E-1,7.2093844E-2,1.6204856E-1,1.2854007E-1,2.1421361E-1,7.381582E-2,1.5033649E-1,9.825587E-2,4.0940285E-2,4.0817052E-2,5.3045243E-2,0E0,0E0,0E0,0E0,0E0,0E0,0E0,0E0,0E0,0E0,0E0,0E0,0E0,0E0,0E0,0E0,0E0,0E0,0E0,0E0,0E0,0E0,0E0,0E0,0E0,0E0,0E0,0E0,0E0,0E0,0E0,0E0],"parents":[2147483647,0,0,1,1,2,2,3,3,4,4,5,5,6,6,7,7,8,8,9,9,10,10,11,11,12,12,13,13,14,14,15,15,16,16,17,17,18,18,19,19,20,20,21,21,22,22,23,23,24,24,25,25,26,26,27,27,28,28,29,29,30,30],"right_children":[2,4,6,8,10,12,14,16,18,20,22,24,26,28,30,32,34,36,38,40,42,44,46,48,50,52,54,56,58,60,62,-1,-1,-1,-1,-1,-1,-1,-1,-1,-1,-1,-1,-1,-1,-1,-1,-1,-1,-1,-1,-1,-1,-1,-1,-1,-1,-1,-1,-1,-1,-1,-1],"split_conditions":[4.301648E1,3.577934E1,4.1173546E1,1E0,1E0,1E0,1E0,1.1096608E1,4.2214565E1,4.3471634E1,1.6038614E1,2.02396E1,3.3461918E1,4.302838E1,3.5034657E1,3.0935514E1,4.149024E1,1.3703304E1,2.1506178E1,1.709046E1,3.1527441E1,2.0056728E1,4.3953194E1,6.841312E1,3.3804688E1,1.1028197E1,4.325865E1,6.623035E1,5.9566902E1,5.9566902E1,6.492566E1,-4.9483515E-3,-3.1466545E-3,-2.1788245E-3,-2.1466843E-4,-6.210323E-3,-4.5145135E-3,-3.723157E-3,-1.9403219E-3,-1.99706E-3,1.0607558E-4,9.6116407E-4,2.9640193E-3,-4.5743864E-3,-2.5715863E-3,-1.8686136E-3,2.335065E-4,-5.091251E-4,1.5049705E-3,1.2119053E-3,2.820772E-3,-4.077786E-3,-1.4851447E-3,-5.943258E-4,1.7394886E-3,2.9949322E-3,4.4859024E-3,4.6728603E-3,6.4302003E-3,2.5986807E-4,1.6749053E-3,2.2554714E-3,4.461768E-3],"split_indices":[0,1,1,4,4,4,4,0,3,1,0,3,1,3,3,1,3,0,0,3,0,3,1,0,1,3,3,0,0,0,0,0,0,0,0,0,0,0,0,0,0,0,0,0,0,0,0,0,0,0,0,0,0,0,0,0,0,0,0,0,0,0,0],"split_type":[0,0,0,0,0,0,0,0,0,0,0,0,0,0,0,0,0,0,0,0,0,0,0,0,0,0,0,0,0,0,0,0,0,0,0,0,0,0,0,0,0,0,0,0,0,0,0,0,0,0,0,0,0,0,0,0,0,0,0,0,0,0,0],"sum_hessian":[1.1863E4,6.428E3,5.435E3,2.468E3,3.96E3,3.546E3,1.889E3,1.636E3,8.32E2,2.675E3,1.285E3,2.381E3,1.165E3,1.257E3,6.32E2,4.27E2,1.209E3,6.07E2,2.25E2,1.652E3,1.023E3,4.77E2,8.08E2,7.24E2,1.657E3,4.97E2,6.68E2,9.51E2,3.06E2,4E2,2.32E2,1.65E2,2.62E2,8.98E2,3.11E2,2.05E2,4.02E2,1.2E2,1.05E2,4.12E2,1.24E3,7.41E2,2.82E2,1.2E2,3.57E2,5.39E2,2.69E2,5E2,2.24E2,7.17E2,9.4E2,6.1E1,4.36E2,4.81E2,1.87E2,5.99E2,3.52E2,1.31E2,1.75E2,1.93E2,2.07E2,1.43E2,8.9E1],"tree_param":{"num_deleted":"0","num_feature":"7","num_nodes":"63","size_leaf_vector":"1"}},{"base_weights":[-1.8944143E-4,-2.6152166E-2,1.610092E-2,-3.5160445E-2,-8.439559E-3,5.430968E-3,3.0258834E-2,-5.266266E-2,-2.7959323E-2,-1.3996594E-2,1.3906194E-2,-9.228969E-3,1.5237364E-2,2.14974E-2,4.7853634E-2,-6.7205675E-2,-4.451905E-2,-5.0519694E-2,-2.21944E-2,-1.8948467E-2,7.7663874E-3,8.778081E-3,4.2923313E-2,-1.5619182E-2,8.863606E-3,7.649964E-3,3.0159175E-2,9.601127E-3,3.3753596E-2,4.031443E-2,6.7054145E-2,-5.4321247E-3,-4.059807E-3,-4.39227E-3,-2.584349E-3,-4.3907505E-3,-2.1422305E-3,-2.3129608E-3,-7.335384E-4,-2.8589359E-3,-1.0295477E-3,4.3083975E-4,4.6833167E-3,-2.1561587E-3,7.4396183E-4,4.1742157E-4,3.4582997E-3,-1.5813406E-3,-3.8418217E-5,-3.2181124E-5,1.3426034E-3,-2.6141168E-4,1.2487249E-3,1.0547767E-3,2.6069526E-3,-4.1419733E-4,1.2811284E-3,1.2678595E-3,3.0923998E-3,2.029105E-3,3.4675752E-3,3.2997993E-3,5.259729E-3],"categories":[],"categories_nodes":[],"categories_segments":[],"categories_sizes":[],"default_left":[0,0,0,0,0,0,0,0,0,0,0,0,0,0,0,0,0,0,0,0,0,0,0,0,0,0,0,0,0,0,0,0,0,0,0,0,0,0,0,0,0,0,0,0,0,0,0,0,0,0,0,0,0,0,0,0,0,0,0,0,0,0,0],"id":25,"left_children":[1,3,5,7,9,11,13,15,17,19,21,23,25,27,29,31,33,35,37,39,41,43,45,47,49,51,53,55,57,59,61,-1,-1,-1,-1,-1,-1,-1,-1,-1,-1,-1,-1,-1,-1,-1,-1,-1,-1,-1,-1,-1,-1,-1,-1,-1,-1,-1,-1,-1,-1,-1,-1],"loss_changes":[5.019899E0,7.2985053E-1,1.1015475E0,3.8079333E-1,1.9192258E-1,5.9818697E-1,4.82095E-1,1.01584196E-1,2.7863514E-1,1.3345563E-1,4.5454554E-2,1.9298495E-1,2.820211E-1,3.0498737E-1,1.4798856E-1,2.5654912E-2,7.650483E-2,1.0430896E-1,2.1760654E-1,9.298444E-2,2.1507934E-2,1.9584611E-2,1.0724127E-2,1.2952831E-1,4.1944895E-2,1.9192304E-1,8.922571E-2,1.4376913E-1,1.67292E-1,7.691181E-2,4.347074E-2,0E0,0E0,0E0,0E0,0E0,0E0,0E0,0E0,0E0,0E0,0E0,0E0,0E0,0E0,0E0,0E0,0E0,0E0,0E0,0E0,0E0,0E0,0E0,0E0,0E0,0E0,0E0,0E0,0E0,0E0,0E0,0E0],"parents":[2147483647,0,0,1,1,2,2,3,3,4,4,5,5,6,6,7,7,8,8,9,9,10,10,11,11,12,12,13,13,14,14,15,15,16,16,17,17,18,18,19,19,20,20,21,21,22,22,23,23,24,24,25,25,26,26,27,27,28,28,29,29,30,30],"right_children":[2,4,6,8,10,12,14,16,18,20,22,24,26,28,30,32,34,36,38,40,42,44,46,48,50,52,54,56,58,60,62,-1,-1,-1,-1,-1,-1,-1,-1,-1,-1,-1,-1,-1,-1,-1,-1,-1,-1,-1,-1,-1,-1,-1,-1,-1,-1,-1,-1,-1,-1,-1,-1],"split_conditions":[3.0367323E1,1E0,5.815957E1,1.9660404E1,4.5438755E1,2.495656E1,1E0,1.62E2,6.0071507E0,3.24E2,3.54E2,2.98E2,1E0,1E0,4.149024E1,1.1373586E1,9.914539E0,2.42E2,1E0,4.731226E0,4.436353E1,3.3E1,5.3460603E0,1E0,1.4728872E1,1E0,1.45E2,2.3726477E1,2.4117615E1,1.91E2,1.27E2,-5.4321247E-3,-4.059807E-3,-4.39227E-3,-2.584349E-3,-4.3907505E-3,-2.1422305E-3,-2.3129608E-3,-7.335384E-4,-2.8589359E-3,-1.0295477E-3,4.3083975E-4,4.6833167E-3,-2.1561587E-3,7.4396183E-4,4.1742157E-4,3.4582997E-3,-1.5813406E-3,-3.8418217E-5,-3.2181124E-5,1.3426034E-3,-2.6141168E-4,1.2487249E-3,1.0547767E-3,2.6069526E-3,-4.1419733E-4,1.2811284E-3,1.2678595E-3,3.0923998E-3,2.029105E-3,3.4675752E-3,3.2997993E-3,5.259729E-3],"split_indices":[0,5,0,3,3,3,5,2,0,2,2,2,5,6,3,3,0,2,6,0,3,2,0,5,3,6,2,3,3,2,2,0,0,0,0,0,0,0,0,0,0,0,0,0,0,0,0,0,0,0,0,0,0,0,0,0,0,0,0,0,0,0,0],"split_type":[0,0,0,0,0,0,0,0,0,0,0,0,0,0,0,0,0,0,0,0,0,0,0,0,0,0,0,0,0,0,0,0,0,0,0,0,0,0,0,0,0,0,0,0,0,0,0,0,0,0,0,0,0,0,0,0,0,0,0,0,0,0,0],"sum_hessian":[1.1867E4,4.575E3,7.292E3,3.032E3,1.543E3,4.159E3,3.133E3,8.82E2,2.15E3,1.236E3,3.07E2,1.667E3,2.492E3,2.093E3,1.04E3,3.14E2,5.68E2,4.36E2,1.714E3,1.007E3,2.29E2,2.62E2,4.5E1,1.232E3,4.35E2,1.653E3,8.39E2,1.063E3,1.03E3,7.49E2,2.91E2,1.44E2,1.7E2,1.65E2,4.03E2,2.69E2,1.67E2,8.89E2,8.25E2,1.62E2,8.45E2,2.24E2,5E0,1.1E1,2.51E2,7E0,3.8E1,8.42E2,3.9E2,2.29E2,2.06E2,7.81E2,8.72E2,2.69E2,5.7E2,3.82E2,6.81E2,4.13E2,6.17E2,3.38E2,4.11E2,8.6E1,2.05E2],"tree_param":{"num_deleted":"0","num_feature":"7","num_nodes":"63","size_leaf_vector":"1"}},{"base_weights":[3.0094525E-4,-2.0501882E-2,1.7495856E-2,-3.3086922E-2,1.1692833E-3,-3.1919975E-3,3.0735636E-2,-4.6220012E-2,-2.2712199E-2,-1.3283988E-2,9.374972E-3,-1.1626936E-2,1.3231457E-2,1.7936075E-2,4.090806E-2,-5.3869344E-2,-3.2036263E-2,-4.6313018E-2,-1.7563773E-2,-3.0679025E-2,-6.9873272E-3,9.0588315E-4,2.2878343E-2,-2.6705427E-2,-3.1441117E-3,6.882865E-3,3.6749553E-2,7.878719E-3,3.1163242E-2,3.2403108E-2,5.6697205E-2,-4.5369496E-3,-3.051905E-3,-3.2572914E-3,-1.3658988E-3,-4.0284866E-3,-1.7082805E-3,-2.3293307E-3,-7.2352774E-4,-3.452045E-3,-1.2082095E-3,-2.0786307E-3,-1.21161E-4,-3.1874148E-4,1.5483636E-3,6.95697E-4,2.3175303E-3,-2.300874E-3,-1.974868E-4,-1.1726989E-3,2.7128647E-4,1.650764E-4,1.9290711E-3,1.9897083E-3,4.3682414E-3,-4.0075247E-5,1.9722567E-3,