{"learner":{"attributes":{"scikit_learn":"{\"_estimator_type\": \"classifier\"}"},"feature_names":[],"feature_types":[],"gradient_booster":{"model":{"gbtree_model_param":{"num_parallel_tree":"1","num_trees":"80"},"iteration_indptr":[0,1,2,3,4,5,6,7,8,9,10,11,12,13,14,15,16,17,18,19,20,21,22,23,24,25,26,27,28,29,30,31,32,33,34,35,36,37,38,39,40,41,42,43,44,45,46,47,48,49,50,51,52,53,54,55,56,57,58,59,60,61,62,63,64,65,66,67,68,69,70,71,72,73,74,75,76,77,78,79,80],"tree_info":[0,0,0,0,0,0,0,0,0,0,0,0,0,0,0,0,0,0,0,0,0,0,0,0,0,0,0,0,0,0,0,0,0,0,0,0,0,0,0,0,0,0,0,0,0,0,0,0,0,0,0,0,0,0,0,0,0,0,0,0,0,0,0,0,0,0,0,0,0,0,0,0,0,0,0,0,0,0,0,0],"trees":[{"base_weights":[-2.752568E-3,-1.3148662E0,1.2733552E0,-1.321388E0,-3.6518613E-1,-1.2973504E0,2.6352307E-1,-7.1190816E-1,-1.323343E0,-9.630897E-1,3.5548192E-1,-1.3052905E0,-6.285713E-1,-1.1121416E-1,1.8850215E-2,-1.3281815E-1,-1.0548287E-1,-1.3030899E-1,-1.1454913E-3,1.03518665E-1,-1.0023294E-1,-1.3150565E-1,-8.771607E-2,2.311291E-2,-1.0262586E-1],"categories":[],"categories_nodes":[],"categories_segments":[],"categories_sizes":[],"default_left":[0,0,0,0,0,0,0,0,0,0,0,0,0,0,0,0,0,0,0,0,0,0,0,0,0],"id":0,"left_children":[1,3,5,7,9,11,-1,13,15,17,19,21,23,-1,-1,-1,-1,-1,-1,-1,-1,-1,-1,-1,-1],"loss_changes":[5.5527935E3,9.644531E0,5.8893164E3,9.9243164E-1,5.743184E0,2.2746582E0,0E0,2.8603861E0,7.001953E-1,2.2888389E0,6.95712E0,1.2510376E0,3.2348626E0,0E0,0E0,0E0,0E0,0E0,0E0,0E0,0E0,0E0,0E0,0E0,0E0],"parents":[2147483647,0,0,1,1,2,2,3,3,4,4,5,5,7,7,8,8,9,9,10,10,11,11,12,12],"right_children":[2,4,6,8,10,12,-1,14,16,18,20,22,24,-1,-1,-1,-1,-1,-1,-1,-1,-1,-1,-1,-1],"split_conditions":[3.5078785E1,3.4835968E1,4.5021904E1,2.8073383E1,1.2385599E2,1.9705856E2,2.6352307E-1,1.2071207E2,4.5655243E1,4.1699856E1,1.6665686E2,4.4003475E1,2.9166666E-1,-1.1121416E-1,1.8850215E-2,-1.3281815E-1,-1.0548287E-1,-1.3030899E-1,-1.1454913E-3,1.03518665E-1,-1.0023294E-1,-1.3150565E-1,-8.771607E-2,2.311291E-2,-1.0262586E-1],"split_indices":[0,0,4,1,8,7,0,8,1,1,6,4,12,0,0,0,0,0,0,0,0,0,0,0,0],"split_type":[0,0,0,0,0,0,0,0,0,0,0,0,0,0,0,0,0,0,0,0,0,0,0,0,0],"sum_hessian":[3.3142917E3,1.6340776E3,1.6802141E3,1.6225436E3,1.1534112E1,5.8188416E2,1.09833E3,6.355531E0,1.616188E3,6.120141E0,5.413971E0,5.741163E2,7.7678714E0,4.2370205E0,2.1185102E0,1.5837042E3,3.2483826E1,4.2370205E0,1.8831203E0,3.7662406E0,1.6477302E0,5.5928674E2,1.4829573E1,2.5892904E0,5.1785808E0],"tree_param":{"num_deleted":"0","num_feature":"13","num_nodes":"25","size_leaf_vector":"1"}},{"base_weights":[-1.5829306E-2,-1.2280031E0,1.1104689E0,-1.2359595E0,-1.7842034E-1,-1.218452E0,2.2562861E-1,-1.2403828E0,-8.5732263E-1,1.0294855E-1,-5.763383E-1,-1.2276086E0,-5.255124E-1,-1.2425283E-1,-5.5655625E-2,1.5877866E-3,-1.0499253E-1,-9.91153E-2,4.9527828E-2,-1.2393105E-1,-7.238646E-2,7.281541E-2,-8.4865056E-2],"categories":[],"categories_nodes":[],"categories_segments":[],"categories_sizes":[],"default_left":[0,0,0,0,0,0,0,0,0,0,0,0,0,0,0,0,0,0,0,0,0,0,0],"id":1,"left_children":[1,3,5,7,9,11,-1,13,15,-1,17,19,21,-1,-1,-1,-1,-1,-1,-1,-1,-1,-1],"loss_changes":[4.5022695E3,1.3042725E1,4.564356E3,1.5766602E0,6.8985248E0,2.935669E0,0E0,1.5908203E0,3.62224E0,0E0,5.1622E0,2.3816528E0,4.307867E0,0E0,0E0,0E0,0E0,0E0,0E0,0E0,0E0,0E0,0E0],"parents":[2147483647,0,0,1,1,2,2,3,3,4,4,5,5,7,7,8,8,10,10,11,11,12,12],"right_children":[2,4,6,8,10,12,-1,14,16,-1,18,20,22,-1,-1,-1,-1,-1,-1,-1,-1,-1,-1],"split_conditions":[3.5078785E1,3.4835968E1,4.5021904E1,2.5722705E2,4.0856752E0,1.9705856E2,2.2562861E-1,1.2939064E2,8.20826E0,1.0294855E-1,4.1699856E1,4.4003475E1,4.5259686E0,-1.2425283E-1,-5.5655625E-2,1.5877866E-3,-1.0499253E-1,-9.91153E-2,4.9527828E-2,-1.2393105E-1,-7.238646E-2,7.281541E-2,-8.4865056E-2],"split_indices":[0,0,4,6,9,7,0,4,0,0,1,4,9,0,0,0,0,0,0,0,0,0,0],"split_type":[0,0,0,0,0,0,0,0,0,0,0,0,0,0,0,0,0,0,0,0,0,0,0],"sum_hessian":[3.2957166E3,1.5873004E3,1.708416E3,1.5751824E3,1.2118127E1,5.633403E2,1.1450758E3,1.5547437E3,2.043866E1,2.6095347E0,9.508593E0,5.5523175E2,8.108492E0,1.5490664E3,5.677306E0,3.8593102E0,1.657935E1,6.9091854E0,2.5994072E0,5.411995E2,1.4032271E1,1.4048332E0,6.703659E0],"tree_param":{"num_deleted":"0","num_feature":"13","num_nodes":"23","size_leaf_vector":"1"}},{"base_weights":[-1.0154311E-2,-1.1454386E0,1.0041128E0,-1.1519821E0,-2.8032055E-1,-1.1284181E0,2.002379E-1,-7.39383E-1,-1.1551534E0,-8.9258987E-1,3.4879768E-1,-1.1370146E0,-5.0453997E-1,4.333006E-2,-1.0121135E-1,-5.8154702E-2,-1.15708165E-1,1.1084205E-3,-1.0886925E-1,-8.8470094E-2,8.016639E-2,-1.14521265E-1,-6.8103455E-2,5.186242E-2,-8.827344E-2],"categories":[],"categories_nodes":[],"categories_segments":[],"categories_sizes":[],"default_left":[0,0,0,0,0,0,0,0,0,0,0,0,0,0,0,0,0,0,0,0,0,0,0,0,0],"id":2,"left_children":[1,3,5,7,9,11,-1,13,15,17,19,21,23,-1,-1,-1,-1,-1,-1,-1,-1,-1,-1,-1,-1],"loss_changes":[3.7117578E3,8.287231E0,3.6265464E3,1.1208496E0,5.2185173E0,2.3411255E0,0E0,5.008889E0,9.818115E-1,1.2059956E0,4.620841E0,1.2210693E0,4.011856E0,0E0,0E0,0E0,0E0,0E0,0E0,0E0,0E0,0E0,0E0,0E0,0E0],"parents":[2147483647,0,0,1,1,2,2,3,3,4,4,5,5,7,7,8,8,9,9,10,10,11,11,12,12],"right_children":[2,4,6,8,10,12,-1,14,16,18,20,22,24,-1,-1,-1,-1,-1,-1,-1,-1,-1,-1,-1,-1],"split_conditions":[3.5078785E1,3.4835968E1,4.5021904E1,3.3E1,1.02947426E2,1.9705856E2,2.002379E-1,2.9675443E0,2.8073383E1,3.9001958E0,2.0998049E1,6.910573E1,5.2576222E0,4.333006E-2,-1.0121135E-1,-5.8154702E-2,-1.15708165E-1,1.1084205E-3,-1.0886925E-1,-8.8470094E-2,8.016639E-2,-1.14521265E-1,-6.8103455E-2,5.186242E-2,-8.827344E-2],"split_indices":[0,0,4,2,7,7,0,9,1,9,4,0,9,0,0,0,0,0,0,0,0,0,0,0,0],"split_type":[0,0,0,0,0,0,0,0,0,0,0,0,0,0,0,0,0,0,0,0,0,0,0,0,0],"sum_hessian":[3.221464E3,1.5199888E3,1.7014753E3,1.5082491E3,1.1739654E1,5.424801E2,1.1589952E3,1.3290065E1,1.494959E3,5.7372565E0,6.002397E0,5.342955E2,8.184657E0,2.3965693E0,1.08934965E1,6.0224075E0,1.4889366E3,1.1912501E0,4.546006E0,1.3558445E0,4.6465526E0,5.2337427E2,1.0921211E1,2.1086411E0,6.076016E0],"tree_param":{"num_deleted":"0","num_feature":"13","num_nodes":"25","size_leaf_vector":"1"}},{"base_weights":[-1.3219073E-2,-1.0801405E0,9.2778003E-1,-1.0877354E0,-1.276382E-1,-1.0744656E0,1.8203096E-1,-4.5179924E-1,-1.0898987E0,8.169965E-1,-4.303486E-1,-1.0826322E0,-4.5359212E-1,-9.3258314E-2,6.1160274E-2,-7.003399E-2,-1.0929803E-1,-6.8982906E-4,1.262893E-1,5.671513E-2,-9.168649E-2,-1.0907978E-1,-6.584158E-2,1.2855874E-2,-9.389102E-2],"categories":[],"categories_nodes":[],"categories_segments":[],"categories_sizes":[],"default_left":[0,0,0,0,0,0,0,0,0,0,0,0,0,0,0,0,0,0,0,0,0,0,0,0,0],"id":3,"left_children":[1,3,5,7,9,11,-1,13,15,17,19,21,23,-1,-1,-1,-1,-1,-1,-1,-1,-1,-1,-1,-1],"loss_changes":[3.133431E3,1.0442139E1,2.9656025E3,1.5037842E0,3.9841244E0,2.1047363E0,0E0,3.9586678E0,9.696045E-1,1.268028E0,5.5066705E0,1.029602E0,2.4847777E0,0E0,0E0,0E0,0E0,0E0,0E0,0E0,0E0,0E0,0E0,0E0,0E0],"parents":[2147483647,0,0,1,1,2,2,3,3,4,4,5,5,7,7,8,8,9,9,10,10,11,11,12,12],"right_children":[2,4,6,8,10,12,-1,14,16,18,20,22,24,-1,-1,-1,-1,-1,-1,-1,-1,-1,-1,-1,-1],"split_conditions":[3.5078785E1,3.4835968E1,4.5021904E1,1.0208517E0,3.496322E0,4.4537357E1,1.8203096E-1,3.4270832E1,3.3E1,1.5626924E2,1.6666667E-1,6.910573E1,4.1666666E-1,-9.3258314E-2,6.1160274E-2,-7.003399E-2,-1.0929803E-1,-6.8982906E-4,1.262893E-1,5.671513E-2,-9.168649E-2,-1.0907978E-1,-6.584158E-2,1.2855874E-2,-9.389102E-2],"split_indices":[0,0,4,6,9,4,0,3,2,8,12,0,12,0,0,0,0,0,0,0,0,0,0,0,0],"split_type":[0,0,0,0,0,0,0,0,0,0,0,0,0,0,0,0,0,0,0,0,0,0,0,0,0],"sum_hessian":[3.1190361E3,1.461647E3,1.657389E3,1.4499437E3,1.1703344E1,5.1095053E2,1.1464385E3,5.627262E0,1.4443164E3,2.427907E0,9.275437E0,5.0358298E2,7.367561E0,3.9599252E0,1.667337E0,1.3126946E1,1.4311895E3,1.1983018E0,1.2296053E0,2.9865015E0,6.288936E0,4.9253107E2,1.1051905E1,3.6838255E0,3.6837351E0],"tree_param":{"num_deleted":"0","num_feature":"13","num_nodes":"25","size_leaf_vector":"1"}},{"base_weights":[-2.1364292E-2,-1.0233604E0,8.523219E-1,-1.0294901E0,-1.5777464E-1,-1.0281537E0,1.6835935E-1,-1.0316136E0,-4.2428032E-1,-1.0515084E-1,2.1604766E-1,-1.0343994E0,-2.662426E-1,-4.4867825E-2,-1.0337142E-1,-7.865631E-2,7.713471E-2,7.39119E-2,-7.8646615E-2,-1.04429305E-1,-5.6516696E-2,-9.336679E-2,3.6999535E-2],"categories":[],"categories_nodes":[],"categories_segments":[],"categories_sizes":[],"default_left":[0,0,0,0,0,0,0,0,0,0,0,0,0,0,0,0,0,0,0,0,0,0,0],"id":4,"left_children":[1,3,5,7,9,11,-1,13,15,-1,17,19,21,-1,-1,-1,-1,-1,-1,-1,-1,-1,-1],"loss_changes":[2.6185022E3,7.2299805E0,2.4995005E3,1.3399658E0,3.8948824E0,2.0584106E0,0E0,1.2233887E0,3.4374194E0,0E0,5.0752473E0,1.666565E0,2.6105995E0,0E0,0E0,0E0,0E0,0E0,0E0,0E0,0E0,0E0,0E0],"parents":[2147483647,0,0,1,1,2,2,3,3,4,4,5,5,7,7,8,8,10,10,11,11,12,12],"right_children":[2,4,6,8,10,12,-1,14,16,-1,18,20,22,-1,-1,-1,-1,-1,-1,-1,-1,-1,-1],"split_conditions":[3.5078785E1,3.4835968E1,4.5021904E1,1.2939064E2,2.6709312E1,1.9834868E2,1.6835935E-1,1.0208517E0,2.775247E1,-1.0515084E-1,8.401137E1,6.910573E1,2.1142286E1,-4.4867825E-2,-1.0337142E-1,-7.865631E-2,7.713471E-2,7.39119E-2,-7.8646615E-2,-1.04429305E-1,-5.6516696E-2,-9.336679E-2,3.6999535E-2],"split_indices":[0,0,4,4,4,7,0,6,0,0,4,0,3,0,0,0,0,0,0,0,0,0,0],"split_type":[0,0,0,0,0,0,0,0,0,0,0,0,0,0,0,0,0,0,0,0,0,0,0],"sum_hessian":[2.9891072E3,1.3922358E3,1.5968713E3,1.3822578E3,9.977948E0,4.8943973E2,1.1074316E3,1.3767228E3,5.5350857E0,2.4080145E0,7.569934E0,4.8510547E2,4.3342595E0,5.713712E0,1.371009E3,4.5105066E0,1.0245787E0,5.1471124E0,2.4228215E0,4.7388812E2,1.1217349E1,1.8871366E0,2.447123E0],"tree_param":{"num_deleted":"0","num_feature":"13","num_nodes":"23","size_leaf_vector":"1"}},{"base_weights":[-1.0151549E-2,-9.6940386E-1,8.091812E-1,-9.761807E-1,-1.8724112E-1,-9.5426404E-1,1.5774971E-1,-9.604951E-1,-1.1389141E0,7.476341E-2,-4.8452318E-1,-9.6425134E-1,-5.3813434E-1,-9.6548766E-2,-5.3646505E-2,-6.70819E-3,-1.1784071E-1,-1.0249617E-1,1.5644742E-2,-9.6958235E-2,-4.1089773E-2,-8.879604E-2,9.585007E-3],"categories":[],"categories_nodes":[],"categories_segments":[],"categories_sizes":[],"default_left":[0,0,0,0,0,0,0,0,0,0,0,0,0,0,0,0,0,0,0,0,0,0,0],"id":5,"left_children":[1,3,5,7,9,11,-1,13,15,-1,17,19,21,-1,-1,-1,-1,-1,-1,-1,-1,-1,-1],"loss_changes":[2.2643772E3,6.852173E0,2.1068223E3,2.264038E0,3.8745408E0,1.4434509E0,0E0,2.0358887E0,4.588806E0,0E0,3.6920881E0,9.581299E-1,3.0414438E0,0E0,0E0,0E0,0E0,0E0,0E0,0E0,0E0,0E0,0E0],"parents":[2147483647,0,0,1,1,2,2,3,3,4,4,5,5,7,7,8,8,10,10,11,11,12,12],"right_children":[2,4,6,8,10,12,-1,14,16,-1,18,20,22,-1,-1,-1,-1,-1,-1,-1,-1,-1,-1],"split_conditions":[3.5078785E1,3.4835968E1,4.5021904E1,1.296028E1,3.496322E0,4.4003475E1,1.5774971E-1,2.5722705E2,9.329111E0,7.476341E-2,1.0712071E2,1.9773561E2,1.3504842E2,-9.6548766E-2,-5.3646505E-2,-6.70819E-3,-1.1784071E-1,-1.0249617E-1,1.5644742E-2,-9.6958235E-2,-4.1089773E-2,-8.879604E-2,9.585007E-3],"split_indices":[0,0,4,9,9,4,0,6,3,0,7,7,6,0,0,0,0,0,0,0,0,0,0],"split_type":[0,0,0,0,0,0,0,0,0,0,0,0,0,0,0,0,0,0,0,0,0,0,0],"sum_hessian":[2.8790837E3,1.3262101E3,1.5528737E3,1.3145724E3,1.1637716E1,4.7117856E2,1.0816951E3,1.2052986E3,1.0927388E2,2.442328E0,9.195388E0,4.588488E2,1.232977E1,1.1900105E3,1.5288014E1,3.9791431E0,1.0529474E2,4.663907E0,4.531481E0,4.5372543E2,5.1233497E0,7.6873603E0,4.6424093E0],"tree_param":{"num_deleted":"0","num_feature":"13","num_nodes":"23","size_leaf_vector":"1"}},{"base_weights":[-1.1179253E-2,-9.132869E-1,4.2522317E-1,-9.209251E-1,-2.9332367E-1,4.654565E-1,3.313536E-1,-9.506692E-1,-8.134427E-1,-9.1567284E-1,1.6865681E-1,5.3838056E-1,4.330949E-1,-4.1079167E-1,3.3731264E-1,-9.772789E-2,-7.481875E-2,-4.6178892E-2,-8.822229E-2,-2.4512898E-2,-1.0358892E-1,1.10141926E-1,-5.4614343E-2,3.8646422E-2,6.028787E-2,3.3633653E-2,4.7052287E-2,-8.1169985E-2,5.2644696E-2,3.4876823E-2,-2.6639854E-3],"categories":[],"categories_nodes":[],"categories_segments":[],"categories_sizes":[],"default_left":[0,0,0,0,0,0,0,0,0,0,0,0,0,0,0,0,0,0,0,0,0,0,0,0,0,0,0,0,0,0,0],"id":6,"left_children":[1,3,5,7,9,11,13,15,17,19,21,23,25,27,29,-1,-1,-1,-1,-1,-1,-1,-1,-1,-1,-1,-1,-1,-1,-1,-1],"loss_changes":[1.0735314E3,3.9399414E0,6.786743E0,2.032959E0,3.6873047E0,2.796936E0,2.5924225E0,2.941162E0,4.3619385E0,1.8062115E-1,5.866737E0,3.5937119E0,3.0809631E0,2.2574441E0,2.30653E0,0E0,0E0,0E0,0E0,0E0,0E0,0E0,0E0,0E0,0E0,0E0,0E0,0E0,0E0,0E0,0E0],"parents":[2147483647,0,0,1,1,2,2,3,3,4,4,5,5,6,6,7,7,8,8,9,9,10,10,11,11,12,12,13,13,14,14],"right_children":[2,4,6,8,10,12,14,16,18,20,22,24,26,28,30,-1,-1,-1,-1,-1,-1,-1,-1,-1,-1,-1,-1,-1,-1,-1,-1],"split_conditions":[4.5021904E1,1.9773561E2,1.3910995E2,3.04E2,2.1142286E1,7.753852E1,2.812191E1,1.7587888E2,3.17E2,5.9195704E0,1.382448E2,4.4439735E1,2.0820726E1,2.1529913E2,1.2725198E2,-9.772789E-2,-7.481875E-2,-4.6178892E-2,-8.822229E-2,-2.4512898E-2,-1.0358892E-1,1.10141926E-1,-5.4614343E-2,3.8646422E-2,6.028787E-2,3.3633653E-2,4.7052287E-2,-8.1169985E-2,5.2644696E-2,3.4876823E-2,-2.6639854E-3],"split_indices":[4,7,7,2,3,6,1,8,2,9,6,7,3,6,4,0,0,0,0,0,0,0,0,0,0,0,0,0,0,0,0],"split_type":[0,0,0,0,0,0,0,0,0,0,0,0,0,0,0,0,0,0,0,0,0,0,0,0,0,0,0,0,0,0,0],"sum_hessian":[2.7249136E3,8.8806354E2,1.83685E3,8.767759E2,1.128768E1,1.2829907E3,5.5385925E2,6.805884E2,1.9618747E2,4.390727E0,6.896953E0,3.8954605E2,8.934447E2,3.8706431E0,5.499886E2,5.9815405E2,8.243436E1,3.335689E1,1.6283058E2,1.1295236E0,3.2612035E0,2.7576036E0,4.1393495E0,1.1818043E2,2.713656E2,2.519899E2,6.4145483E2,2.8048158E0,1.0658274E0,5.332461E2,1.674248E1],"tree_param":{"num_deleted":"0","num_feature":"13","num_nodes":"31","size_leaf_vector":"1"}},{"base_weights":[-7.978458E-3,-9.05654E-1,7.7960056E-1,-9.11598E-1,-2.2408968E-1,-8.526862E-1,1.4722513E-1,-6.4437383E-1,-9.177989E-1,-7.322135E-1,3.9497614E-1,-8.66595E-1,-3.6682948E-1,-1.1572158E-1,-4.4432115E-2,-3.32576E-2,-9.200701E-2,-1.0475651E-1,3.312907E-2,8.8768266E-2,-7.8150675E-2,-8.7479696E-2,-2.37944E-2,4.8453555E-2,-5.9750874E-2],"categories":[],"categories_nodes":[],"categories_segments":[],"categories_sizes":[],"default_left":[0,0,0,0,0,0,0,0,0,0,0,0,0,0,0,0,0,0,0,0,0,0,0,0,0],"id":7,"left_children":[1,3,5,7,9,11,-1,13,15,17,19,21,23,-1,-1,-1,-1,-1,-1,-1,-1,-1,-1,-1,-1],"loss_changes":[1.9090266E3,4.908081E0,1.6274204E3,1.480957E0,4.138214E0,2.5820618E0,0E0,2.7401257E0,1.3156738E0,2.7183726E0,4.267613E0,1.939209E0,2.9756012E0,0E0,0E0,0E0,0E0,0E0,0E0,0E0,0E0,0E0,0E0,0E0,0E0],"parents":[2147483647,0,0,1,1,2,2,3,3,4,4,5,5,7,7,8,8,9,9,10,10,11,11,12,12],"right_children":[2,4,6,8,10,12,-1,14,16,18,20,22,24,-1,-1,-1,-1,-1,-1,-1,-1,-1,-1,-1,-1],"split_conditions":[3.5078785E1,3.4835968E1,4.5021904E1,2.8395008E1,1.1905361E2,4.4003475E1,1.4722513E-1,5.3156998E1,1.0208517E0,1.3159328E2,1.6665686E2,6.940768E1,1.5299305E1,-1.1572158E-1,-4.4432115E-2,-3.32576E-2,-9.200701E-2,-1.0475651E-1,3.312907E-2,8.8768266E-2,-7.8150675E-2,-8.7479696E-2,-2.37944E-2,4.8453555E-2,-5.9750874E-2],"split_indices":[0,0,4,1,8,4,0,5,6,7,6,0,3,0,0,0,0,0,0,0,0,0,0,0,0],"split_type":[0,0,0,0,0,0,0,0,0,0,0,0,0,0,0,0,0,0,0,0,0,0,0,0,0],"sum_hessian":[2.6982173E3,1.2609022E3,1.4373151E3,1.2496661E3,1.1236081E1,4.281393E2,1.0091757E3,3.0719751E1,1.2189464E3,6.0706077E0,5.1654735E0,4.1546216E2,1.2677155E1,7.2779403E0,2.344181E1,5.282419E0,1.213664E3,4.6937876E0,1.3768203E0,3.8137622E0,1.3517114E0,4.0972495E2,5.7372046E0,2.4680133E0,1.0209141E1],"tree_param":{"num_deleted":"0","num_feature":"13","num_nodes":"25","size_leaf_vector":"1"}},{"base_weights":[-2.3585415E-2,-8.879221E-1,7.2692865E-1,-8.93149E-1,-4.8299834E-1,-8.407168E-1,1.4005858E0,-8.639377E-1,-9.6691823E-1,-6.875183E-1,5.8874065E-1,-8.593331E-1,-5.1148224E-1,3.2320434E-1,1.4073993E-1,-8.7080196E-2,-2.4777684E-2,8.183541E-2,-9.7759806E-2,8.712619E-3,-9.3271516E-2,1.4913988E-1,-6.757711E-2,-8.677497E-2,-2.7700111E-2,-7.42469E-2,-1.2010483E-3,-3.3739027E-2,1.0019266E-1],"categories":[],"categories_nodes":[],"categories_segments":[],"categories_sizes":[],"default_left":[0,0,0,0,0,0,0,0,0,0,0,0,0,0,0,0,0,0,0,0,0,0,0,0,0,0,0,0,0],"id":8,"left_children":[1,3,5,7,9,11,13,15,17,19,21,23,25,27,-1,-1,-1,-1,-1,-1,-1,-1,-1,-1,-1,-1,-1,-1,-1],"loss_changes":[1.6674338E3,2.097168E0,1.4541239E3,1.7034302E0,4.2190914E0,2.0988464E0,6.6118164E0,3.3936157E0,7.0122375E0,2.9445057E0,4.805719E0,1.6736145E0,2.833242E0,3.6325645E0,0E0,0E0,0E0,0E0,0E0,0E0,0E0,0E0,0E0,0E0,0E0,0E0,0E0,0E0,0E0],"parents":[2147483647,0,0,1,1,2,2,3,3,4,4,5,5,6,6,7,7,8,8,9,9,10,10,11,11,12,12,13,13],"right_children":[2,4,6,8,10,12,14,16,18,20,22,24,26,28,-1,-1,-1,-1,-1,-1,-1,-1,-1,-1,-1,-1,-1,-1,-1],"split_conditions":[3.4835968E1,2.5722705E2,4.5021904E1,1.4600822E2,3.39E2,4.230691E1,3.5078785E1,4.5803E1,1.0208517E0,6.3150257E1,1.04939E2,6.940768E1,1E0,9.620897E1,1.4073993E-1,-8.7080196E-2,-2.4777684E-2,8.183541E-2,-9.7759806E-2,8.712619E-3,-9.3271516E-2,1.4913988E-1,-6.757711E-2,-8.677497E-2,-2.7700111E-2,-7.42469E-2,-1.2010483E-3,-3.3739027E-2,1.0019266E-1],"split_indices":[0,6,4,7,2,4,0,1,6,5,8,0,10,7,0,0,0,0,0,0,0,0,0,0,0,0,0,0,0],"split_type":[0,0,0,0,0,0,0,0,0,0,0,0,0,0,0,0,0,0,0,0,0,0,0,0,0,0,0,0,0],"sum_hessian":[2.5684412E3,1.1936173E3,1.3748239E3,1.1772156E3,1.6401741E1,4.131494E2,9.6167444E2,8.5239374E2,3.2482187E2,1.4074421E1,2.3273196E0,3.8951453E2,2.3634882E1,6.3479404E0,9.5532654E2,8.425937E2,9.800041E0,1.4818636E0,3.2334003E2,3.5388594E0,1.0535562E1,1.253264E0,1.0740557E0,3.8348187E2,6.0326376E0,1.5828359E1,7.8065243E0,3.471785E0,2.8761554E0],"tree_param":{"num_deleted":"0","num_feature":"13","num_nodes":"29","size_leaf_vector":"1"}},{"base_weights":[-1.0379341E-2,-8.251938E-1,7.1640784E-1,-8.32605E-1,-6.888972E-2,8.9822924E-1,7.045537E-1,-8.4375805E-1,-6.6880196E-1,-5.643748E-1,5.1019335E-1,7.516814E-1,1.0844176E0,3.3234766E-1,7.090885E-1,-1.08705714E-1,-8.3413415E-2,1.3491702E-2,-7.899382E-2,-9.52468E-2,2.8028889E-2,9.820726E-2,-7.314738E-2,1.34961875E-2,7.83888E-2,1.1541659E-1,4.0913794E-2,5.4743823E-2,-3.2506835E-2,6.2645726E-2,7.314904E-2],"categories":[],"categories_nodes":[],"categories_segments":[],"categories_sizes":[],"default_left":[0,0,0,0,0,0,0,0,0,0,0,0,0,0,0,0,0,0,0,0,0,0,0,0,0,0,0,0,0,0,0],"id":9,"left_children":[1,3,5,7,9,11,13,15,17,19,21,23,25,27,29,-1,-1,-1,-1,-1,-1,-1,-1,-1,-1,-1,-1,-1,-1,-1,-1],"loss_changes":[1.4302019E3,6.324524E0,2.1185303E0,1.4953613E0,3.7709918E0,1.217411E0,1.7947998E0,1.5559692E0,7.573517E0,2.5670524E0,4.3056917E0,7.8686905E-1,9.666481E-1,2.4917068E0,1.7401733E0,0E0,0E0,0E0,0E0,0E0,0E0,0E0,0E0,0E0,0E0,0E0,0E0,0E0,0E0,0E0,0E0],"parents":[2147483647,0,0,1,1,2,2,3,3,4,4,5,5,6,6,7,7,8,8,9,9,10,10,11,11,12,12,13,13,14,14],"right_children":[2,4,6,8,10,12,14,16,18,20,22,24,26,28,30,-1,-1,-1,-1,-1,-1,-1,-1,-1,-1,-1,-1,-1,-1,-1,-1],"split_conditions":[3.5078785E1,3.4835968E1,1.2019121E1,3.56E2,1.2385599E2,7.5249023E0,3.1333106E0,6.7830825E0,3.0315596E1,4.1699856E1,1.6665686E2,8.633854E0,3.28E2,1.4441309E2,5.2005905E1,-1.08705714E-1,-8.3413415E-2,1.3491702E-2,-7.899382E-2,-9.52468E-2,2.8028889E-2,9.820726E-2,-7.314738E-2,1.34961875E-2,7.83888E-2,1.1541659E-1,4.0913794E-2,5.4743823E-2,-3.2506835E-2,6.2645726E-2,7.314904E-2],"split_indices":[0,0,8,2,8,8,6,8,1,1,6,5,2,7,8,0,0,0,0,0,0,0,0,0,0,0,0,0,0,0,0],"split_type":[0,0,0,0,0,0,0,0,0,0,0,0,0,0,0,0,0,0,0,0,0,0,0,0,0,0,0,0,0,0,0],"sum_hessian":[2.4130808E3,1.1375817E3,1.2754991E3,1.1264425E3,1.1139155E1,7.349167E1,1.2020074E3,1.050748E3,7.5694534E1,6.0165606E0,5.1225944E0,4.394221E1,2.954946E1,1.5362707E1,1.1866448E3,3.572189E1,1.0150261E3,9.899463E0,6.579507E1,4.0349936E0,1.9815673E0,3.8634212E0,1.259173E0,2.438486E0,4.1503723E1,2.6140316E1,3.4091442E0,1.1701537E1,3.6611705E0,2.5926917E2,9.273756E2],"tree_param":{"num_deleted":"0","num_feature":"13","num_nodes":"31","size_leaf_vector":"1"}},{"base_weights":[-9.837429E-3,-7.855461E-1,3.6937279E-1,-7.9603326E-1,-1.830787E-1,3.8335028E-1,2.0277657E-1,-8.2350314E-1,-6.10382E-1,-5.392172E-1,6.832451E-1,4.1240484E-1,2.953087E-1,2.5668144E-1,-7.1415186E-2,-8.452697E-2,-6.0046643E-2,-2.638919E-3,-6.562161E-2,1.522277E-2,-9.539391E-2,1.2038951E-1,-3.2845773E-2,3.9325576E-2,5.322012E-2,3.6183786E-2,2.1077987E-2,6.713586E-2,2.1995436E-2,-4.3703448E-2,1.4150389E-2],"categories":[],"categories_nodes":[],"categories_segments":[],"categories_sizes":[],"default_left":[0,0,0,0,0,0,0,0,0,0,0,0,0,0,0,0,0,0,0,0,0,0,0,0,0,0,0,0,0,0,0],"id":10,"left_children":[1,3,5,7,9,11,13,15,17,19,21,23,25,27,29,-1,-1,-1,-1,-1,-1,-1,-1,-1,-1,-1,-1,-1,-1,-1,-1],"loss_changes":[6.876846E2,4.704132E0,3.5786896E0,3.3434753E0,4.8210673E0,3.5811005E0,1.8461814E0,2.6679688E0,2.6880417E0,3.2382624E0,2.8424027E0,2.281662E0,1.9634132E0,1.429656E0,1.7044592E0,0E0,0E0,0E0,0E0,0E0,0E0,0E0,0E0,0E0,0E0,0E0,0E0,0E0,0E0,0E0,0E0],"parents":[2147483647,0,0,1,1,2,2,3,3,4,4,5,5,6,6,7,7,8,8,9,9,10,10,11,11,12,12,13,13,14,14],"right_children":[2,4,6,8,10,12,14,16,18,20,22,24,26,28,30,-1,-1,-1,-1,-1,-1,-1,-1,-1,-1,-1,-1,-1,-1,-1,-1],"split_conditions":[4.5021904E1,1.9705856E2,1.296028E1,1.7367554E2,1.2676222E2,1.494463E2,4.25727E1,4.052938E1,6.1E1,3.3333334E-1,5.833333E-1,1.1435188E1,1.422593E2,4.9E1,1.0185416E2,-8.452697E-2,-6.0046643E-2,-2.638919E-3,-6.562161E-2,1.522277E-2,-9.539391E-2,1.2038951E-1,-3.2845773E-2,3.9325576E-2,5.322012E-2,3.6183786E-2,2.1077987E-2,6.713586E-2,2.1995436E-2,-4.3703448E-2,1.4150389E-2],"split_indices":[4,7,9,8,8,7,1,4,2,12,12,9,6,2,6,0,0,0,0,0,0,0,0,0,0,0,0,0,0,0,0],"split_type":[0,0,0,0,0,0,0,0,0,0,0,0,0,0,0,0,0,0,0,0,0,0,0,0,0,0,0,0,0,0,0],"sum_hessian":[2.335831E3,7.6660333E2,1.5692278E3,7.531716E2,1.3431764E1,1.4465596E3,1.2266822E2,6.531001E2,1.0007148E2,9.786284E0,3.6454794E0,1.0848611E3,3.6169843E2,1.0256772E2,2.0100496E1,5.9248816E2,6.0611908E1,7.397114E0,9.267436E1,3.9063554E0,5.8799286E0,2.281426E0,1.3640535E0,9.390409E2,1.4582022E2,2.0056297E2,1.6113545E2,6.9391923E0,9.562853E1,7.0101905E0,1.3090307E1],"tree_param":{"num_deleted":"0","num_feature":"13","num_nodes":"31","size_leaf_vector":"1"}},{"base_weights":[-6.4696576E-3,-7.797328E-1,6.670603E-1,-7.8570753E-1,-1.307455E-1,6.731365E-1,4.3321732E-1,-6.5142006E-1,-8.0971664E-1,6.054981E-1,-4.634443E-1,5.433713E-1,6.8475384E-1,5.822743E-1,-3.5922287E-4,-6.874027E-2,-1.9860887E-3,-8.17573E-2,-4.0563952E-2,-4.3570697E-3,8.9814626E-2,3.212644E-2,-8.5327245E-2,6.344955E-2,3.738357E-2,7.149897E-2,6.119507E-2,2.3046074E-2,7.336355E-2,4.2948384E-2,-6.2939174E-2],"categories":[],"categories_nodes":[],"categories_segments":[],"categories_sizes":[],"default_left":[0,0,0,0,0,0,0,0,0,0,0,0,0,0,0,0,0,0,0,0,0,0,0,0,0,0,0,0,0,0,0],"id":11,"left_children":[1,3,5,7,9,11,13,15,17,19,21,23,25,27,29,-1,-1,-1,-1,-1,-1,-1,-1,-1,-1,-1,-1,-1,-1,-1,-1],"loss_changes":[1.2024844E3,4.0649414E0,1.461731E0,2.9057007E0,2.9761522E0,1.4384155E0,2.2012887E0,3.7728271E0,2.5229492E0,7.72074E-1,2.7659795E0,1.3621368E0,1.9804077E0,1.1805878E0,2.8964345E0,0E0,0E0,0E0,0E0,0E0,0E0,0E0,0E0,0E0,0E0,0E0,0E0,0E0,0E0,0E0,0E0],"parents":[2147483647,0,0,1,1,2,2,3,3,4,4,5,5,6,6,7,7,8,8,9,9,10,10,11,11,12,12,13,13,14,14],"right_children":[2,4,6,8,10,12,14,16,18,20,22,24,26,28,30,-1,-1,-1,-1,-1,-1,-1,-1,-1,-1,-1,-1,-1,-1,-1,-1],"split_conditions":[3.5078785E1,3.4835968E1,5.0871014E1,8.4E1,4.0856752E0,3.7928303E1,2.56E2,3.2987377E1,4.5655243E1,3.326985E1,1.6666667E-1,3.691586E1,7.083333E-1,8.5772224E1,1.1572263E2,-6.874027E-2,-1.9860887E-3,-8.17573E-2,-4.0563952E-2,-4.3570697E-3,8.9814626E-2,3.212644E-2,-8.5327245E-2,6.344955E-2,3.738357E-2,7.149897E-2,6.119507E-2,2.3046074E-2,7.336355E-2,4.2948384E-2,-6.2939174E-2],"split_indices":[0,0,3,2,9,0,2,0,1,1,12,0,12,6,5,0,0,0,0,0,0,0,0,0,0,0,0,0,0,0,0],"split_type":[0,0,0,0,0,0,0,0,0,0,0,0,0,0,0,0,0,0,0,0,0,0,0,0,0,0,0,0,0,0,0],"sum_hessian":[2.3068481E3,1.0738406E3,1.2330076E3,1.063836E3,1.0004559E1,1.1999497E3,3.3057865E1,1.6562059E2,8.9821545E2,2.858625E0,7.1459336E0,1.0252504E2,1.0974247E3,2.4345346E1,8.712516E0,1.5660947E2,9.011128E0,8.800811E2,1.8134327E1,1.1528399E0,1.705785E0,2.4301066E0,4.715827E0,6.48995E1,3.762554E1,7.691632E2,3.2826147E2,8.082206E0,1.6263142E1,5.364185E0,3.348331E0],"tree_param":{"num_deleted":"0","num_feature":"13","num_nodes":"31","size_leaf_vector":"1"}},{"base_weights":[-1.6687252E-2,-7.585057E-1,6.0066307E-1,-6.822755E-1,-7.939487E-1,-8.03088E-1,1.2877035E0,-6.9726324E-1,1.2637085E-1,-7.474116E-1,-9.136175E-1,-8.2712275E-1,-5.1821876E-1,1.8786058E-1,1.2963879E-1,-6.31441E-2,-8.376375E-2,-5.0911378E-2,9.6567534E-2,-7.562668E-2,-9.473397E-3,-9.212997E-2,1.8217656E-3,-3.549863E-2,-8.423357E-2,2.5808007E-2,-6.630098E-2,6.8749696E-2,-5.5188466E-2],"categories":[],"categories_nodes":[],"categories_segments":[],"categories_sizes":[],"default_left":[0,0,0,0,0,0,0,0,0,0,0,0,0,0,0,0,0,0,0,0,0,0,0,0,0,0,0,0,0],"id":12,"left_children":[1,3,5,7,9,11,13,15,17,19,21,23,25,27,-1,-1,-1,-1,-1,-1,-1,-1,-1,-1,-1,-1,-1,-1,-1],"loss_changes":[1.0302186E3,2.2189941E0,1.1851714E3,4.1046295E0,3.167389E0,2.3379822E0,7.633911E0,2.4788208E0,4.1596503E0,2.8371277E0,1.3703461E0,2.3654175E0,4.0059433E0,3.1996853E0,0E0,0E0,0E0,0E0,0E0,0E0,0E0,0E0,0E0,0E0,0E0,0E0,0E0,0E0,0E0],"parents":[2147483647,0,0,1,1,2,2,3,3,4,4,5,5,6,6,7,7,8,8,9,9,10,10,11,11,12,12,13,13],"right_children":[2,4,6,8,10,12,14,16,18,20,22,24,26,28,-1,-1,-1,-1,-1,-1,-1,-1,-1,-1,-1,-1,-1,-1,-1],"split_conditions":[3.4835968E1,4.5481445E1,4.5021904E1,1.9705856E2,1.4600822E2,4.4430515E1,3.5078785E1,4.0322147E1,2.2356365E1,4.5803E1,2.58123E2,1.4672657E0,2.2658813E1,8.401137E1,1.2963879E-1,-6.31441E-2,-8.376375E-2,-5.0911378E-2,9.6567534E-2,-7.562668E-2,-9.473397E-3,-9.212997E-2,1.8217656E-3,-3.549863E-2,-8.423357E-2,2.5808007E-2,-6.630098E-2,6.8749696E-2,-5.5188466E-2],"split_indices":[0,4,4,7,7,1,0,1,4,1,6,9,7,4,0,0,0,0,0,0,0,0,0,0,0,0,0,0,0],"split_type":[0,0,0,0,0,0,0,0,0,0,0,0,0,0,0,0,0,0,0,0,0,0,0,0,0,0,0,0,0],"sum_hessian":[2.247578E3,1.0207723E3,1.2268057E3,3.3040088E2,6.903714E2,4.0307657E2,8.237291E2,3.2452374E2,5.8771124E0,5.022867E2,1.880847E2,3.6995917E2,3.31174E1,6.630516E0,8.170986E2,2.2467212E2,9.985164E1,3.5685627E0,2.3085496E0,4.9540662E2,6.8801E0,1.8655801E2,1.5266936E0,1.23081E1,3.5765106E2,5.082905E0,2.8034496E1,3.9996889E0,2.630827E0],"tree_param":{"num_deleted":"0","num_feature":"13","num_nodes":"29","size_leaf_vector":"1"}},{"base_weights":[-1.1474278E-2,-6.980767E-1,5.801541E-1,-7.043876E-1,-1.061288E-1,5.9750026E-1,4.7031093E-1,-7.2359306E-1,-5.4224503E-1,-5.049901E-1,3.652887E-1,6.0118514E-1,7.206291E-2,3.3953443E-1,5.5648077E-1,-5.7978638E-2,-7.502222E-2,-4.0382415E-2,-7.374348E-2,-7.860935E-2,4.3610174E-2,7.454153E-2,-6.630983E-2,5.8664866E-2,7.412737E-2,-2.1908557E-2,5.4858793E-2,4.7037568E-2,8.002355E-3,6.0076978E-2,2.126832E-2],"categories":[],"categories_nodes":[],"categories_segments":[],"categories_sizes":[],"default_left":[0,0,0,0,0,0,0,0,0,0,0,0,0,0,0,0,0,0,0,0,0,0,0,0,0,0,0,0,0,0,0],"id":13,"left_children":[1,3,5,7,9,11,13,15,17,19,21,23,25,27,29,-1,-1,-1,-1,-1,-1,-1,-1,-1,-1,-1,-1,-1,-1,-1,-1],"loss_changes":[8.643327E2,3.6043396E0,1.8967285E0,2.64151E0,2.35926E0,1.8606567E0,1.6205521E0,2.8894043E0,2.5977287E0,2.111287E0,2.793352E0,1.5534973E0,1.2279625E0,2.215045E0,1.3222332E0,0E0,0E0,0E0,0E0,0E0,0E0,0E0,0E0,0E0,0E0,0E0,0E0,0E0,0E0,0E0,0E0],"parents":[2147483647,0,0,1,1,2,2,3,3,4,4,5,5,6,6,7,7,8,8,9,9,10,10,11,11,12,12,13,13,14,14],"right_children":[2,4,6,8,10,12,14,16,18,20,22,24,26,28,30,-1,-1,-1,-1,-1,-1,-1,-1,-1,-1,-1,-1,-1,-1,-1,-1],"split_conditions":[3.5078785E1,3.4835968E1,3.3E2,3.42E2,1.2385599E2,4.5867134E1,6.5983443E0,7.9E1,3.8915966E1,1.534159E2,1.6665686E2,3.05E2,1E0,1E0,1.31712E1,-5.7978638E-2,-7.502222E-2,-4.0382415E-2,-7.374348E-2,-7.860935E-2,4.3610174E-2,7.454153E-2,-6.630983E-2,5.8664866E-2,7.412737E-2,-2.1908557E-2,5.4858793E-2,4.7037568E-2,8.002355E-3,6.0076978E-2,2.126832E-2],"split_indices":[0,0,2,2,8,1,9,2,1,7,6,2,11,10,9,0,0,0,0,0,0,0,0,0,0,0,0,0,0,0,0],"split_type":[0,0,0,0,0,0,0,0,0,0,0,0,0,0,0,0,0,0,0,0,0,0,0,0,0,0,0,0,0,0,0],"sum_hessian":[2.1257825E3,9.838339E2,1.1419486E3,9.732677E2,1.0566188E1,9.8237524E2,1.5957329E2,8.67099E2,1.061687E2,5.6849747E0,4.881213E0,9.753907E2,6.984564E0,6.534383E1,9.4229454E1,1.3903499E2,7.28064E2,6.3912987E1,4.225571E1,4.5042577E0,1.1807172E0,3.7647827E0,1.1164304E0,8.88393E2,8.699769E1,4.670943E0,2.3136213E0,4.2901188E1,2.2442638E1,8.28137E1,1.1415756E1],"tree_param":{"num_deleted":"0","num_feature":"13","num_nodes":"31","size_leaf_vector":"1"}},{"base_weights":[-1.7859427E-2,-6.681406E-1,5.23615E-1,-5.8031726E-1,-7.091286E-1,-7.949127E-1,1.2452977E-1,-6.0824853E-1,-1.4423762E-1,-6.6392034E-1,-8.2850796E-1,-8.142969E-1,-4.9060768E-1,-5.2463938E-2,-7.929697E-2,-4.7610667E-2,4.6613663E-2,-4.375823E-2,-6.978097E-2,-8.41056E-2,2.6997535E-2,-8.230028E-2,-1.9684417E-2,-2.0848207E-2,-8.922028E-2],"categories":[],"categories_nodes":[],"categories_segments":[],"categories_sizes":[],"default_left":[0,0,0,0,0,0,0,0,0,0,0,0,0,0,0,0,0,0,0,0,0,0,0,0,0],"id":14,"left_children":[1,3,5,7,9,11,-1,13,15,17,19,21,23,-1,-1,-1,-1,-1,-1,-1,-1,-1,-1,-1,-1],"loss_changes":[7.269324E2,2.9649963E0,1.0729326E3,3.6147919E0,2.8770752E0,1.9546051E0,0E0,3.9913101E0,4.193984E0,3.2661896E0,2.5756836E0,1.846695E0,2.8068504E0,0E0,0E0,0E0,0E0,0E0,0E0,0E0,0E0,0E0,0E0,0E0,0E0],"parents":[2147483647,0,0,1,1,2,2,3,3,4,4,5,5,7,7,8,8,9,9,10,10,11,11,12,12],"right_children":[2,4,6,8,10,12,-1,14,16,18,20,22,24,-1,-1,-1,-1,-1,-1,-1,-1,-1,-1,-1,-1],"split_conditions":[3.5078785E1,4.5481445E1,4.5021904E1,1.8855182E2,1.4600822E2,4.230691E1,1.2452977E-1,3.897895E1,2.86E2,3.310129E1,3.4835968E1,6.940768E1,1E0,-5.2463938E-2,-7.929697E-2,-4.7610667E-2,4.6613663E-2,-4.375823E-2,-6.978097E-2,-8.41056E-2,2.6997535E-2,-8.230028E-2,-1.9684417E-2,-2.0848207E-2,-8.922028E-2],"split_indices":[0,4,4,7,7,4,0,3,2,6,0,0,11,0,0,0,0,0,0,0,0,0,0,0,0],"split_type":[0,0,0,0,0,0,0,0,0,0,0,0,0,0,0,0,0,0,0,0,0,0,0,0,0],"sum_hessian":[2.0625066E3,9.3699414E2,1.1255126E3,3.0297696E2,6.3401715E2,3.9809113E2,7.274214E2,2.843681E2,1.8608849E1,4.6462692E2,1.6939023E2,3.7267584E2,2.5415289E1,1.9840529E2,8.5962814E1,1.2197093E1,6.411755E0,6.2319965E1,4.0230698E2,1.6770883E2,1.6814004E0,3.6716602E2,5.5098414E0,1.5820395E1,9.594893E0],"tree_param":{"num_deleted":"0","num_feature":"13","num_nodes":"25","size_leaf_vector":"1"}},{"base_weights":[-8.616103E-3,-6.29736E-1,5.1002645E-1,-5.4338527E-1,-6.701798E-1,-7.4472684E-1,1.206084E0,-5.7237035E-1,-9.722797E-2,-8.308942E-1,-6.3663584E-1,-7.919154E-1,-5.7627225E-1,1.1777732E-1,1.2162655E-1,-9.993144E-2,-5.349929E-2,-4.754744E-2,4.7209483E-2,-5.473398E-2,-9.456562E-2,-7.221221E-2,-5.4193314E-2,-8.025323E-2,-1.5443665E-2,7.859391E-3,-6.897018E-2,-4.5901086E-2,6.507848E-2],"categories":[],"categories_nodes":[],"categories_segments":[],"categories_sizes":[],"default_left":[0,0,0,0,0,0,0,0,0,0,0,0,0,0,0,0,0,0,0,0,0,0,0,0,0,0,0,0,0],"id":15,"left_children":[1,3,5,7,9,11,13,15,17,19,21,23,25,27,-1,-1,-1,-1,-1,-1,-1,-1,-1,-1,-1,-1,-1,-1,-1],"loss_changes":[6.2897253E2,2.738678E0,9.3019934E2,3.677536E0,2.7098389E0,2.5664368E0,7.444275E0,3.7878418E0,4.2761564E0,2.751648E0,3.667221E0,1.8684387E0,6.5081444E0,2.5903134E0,0E0,0E0,0E0,0E0,0E0,0E0,0E0,0E0,0E0,0E0,0E0,0E0,0E0,0E0,0E0],"parents":[2147483647,0,0,1,1,2,2,3,3,4,4,5,5,6,6,7,7,8,8,9,9,10,10,11,11,12,12,13,13],"right_children":[2,4,6,8,10,12,14,16,18,20,22,24,26,28,-1,-1,-1,-1,-1,-1,-1,-1,-1,-1,-1,-1,-1,-1,-1],"split_conditions":[3.4835968E1,4.5481445E1,4.5021904E1,1.8855182E2,5.946892E1,3.05E2,3.5078785E1,2.763084E0,3.5595196E1,1.058162E1,3.725366E1,1.9705856E2,3.16E2,1.02947426E2,1.2162655E-1,-9.993144E-2,-5.349929E-2,-4.754744E-2,4.7209483E-2,-5.473398E-2,-9.456562E-2,-7.221221E-2,-5.4193314E-2,-8.025323E-2,-1.5443665E-2,7.859391E-3,-6.897018E-2,-4.5901086E-2,6.507848E-2],"split_indices":[0,4,4,7,4,2,0,0,3,0,1,7,2,7,0,0,0,0,0,0,0,0,0,0,0,0,0,0,0],"split_type":[0,0,0,0,0,0,0,0,0,0,0,0,0,0,0,0,0,0,0,0,0,0,0,0,0,0,0,0,0],"sum_hessian":[1.9504899E3,8.874621E2,1.0630278E3,2.876793E2,5.997828E2,3.7926788E2,6.8375995E2,2.6986435E2,1.7814924E1,9.946426E1,5.0031854E2,2.9338263E2,8.588526E1,6.4539833E0,6.7730597E2,1.9652128E1,2.5021223E2,1.0802684E1,7.012241E0,3.0319672E1,6.9144585E1,2.594725E2,2.4084602E2,2.8832187E2,5.060756E0,1.2725261E1,7.316E1,3.166365E0,3.2876186E0],"tree_param":{"num_deleted":"0","num_feature":"13","num_nodes":"29","size_leaf_vector":"1"}},{"base_weights":[-9.862993E-3,-6.006894E-1,5.0329983E-1,-4.573459E-1,-6.268199E-1,5.1266456E-1,3.2900214E-1,-6.021525E-1,-2.5222158E-1,-6.3545245E-1,8.5891336E-2,6.7427194E-1,5.0237983E-1,1.4310662E-1,5.523399E-1,-7.922851E-2,-3.6729816E-2,4.1305353E-3,-6.680273E-2,-6.7477964E-2,-4.93914E-2,-3.423147E-2,8.791052E-2,5.876931E-2,1.03949964E-1,3.4627326E-2,5.1527884E-2,-1.2866254E-2,3.2049097E-2,7.287579E-2,8.021046E-3],"categories":[],"categories_nodes":[],"categories_segments":[],"categories_sizes":[],"default_left":[0,0,0,0,0,0,0,0,0,0,0,0,0,0,0,0,0,0,0,0,0,0,0,0,0,0,0,0,0,0,0],"id":16,"left_children":[1,3,5,7,9,11,13,15,17,19,21,23,25,27,29,-1,-1,-1,-1,-1,-1,-1,-1,-1,-1,-1,-1,-1,-1,-1,-1],"loss_changes":[5.56839E2,2.9109497E0,1.4356842E0,3.8677502E0,4.4804688E0,1.208664E0,2.1175957E0,3.2189846E0,7.0723963E0,3.6236572E0,3.5242176E0,1.0580959E0,1.5919952E0,1.4982841E0,1.914258E0,0E0,0E0,0E0,0E0,0E0,0E0,0E0,0E0,0E0,0E0,0E0,0E0,0E0,0E0,0E0,0E0],"parents":[2147483647,0,0,1,1,2,2,3,3,4,4,5,5,6,6,7,7,8,8,9,9,10,10,11,11,12,12,13,13,14,14],"right_children":[2,4,6,8,10,12,14,16,18,20,22,24,26,28,30,-1,-1,-1,-1,-1,-1,-1,-1,-1,-1,-1,-1,-1,-1,-1,-1],"split_conditions":[3.5078785E1,8.4E1,3.63E2,1.4731396E2,3.4835968E1,4.9E1,1.5275073E2,1.8896536E1,3.87196E1,3.14E2,4.1699856E1,1.713629E2,3.7681118E1,7.425286E1,4.0830887E1,-7.922851E-2,-3.6729816E-2,4.1305353E-3,-6.680273E-2,-6.7477964E-2,-4.93914E-2,-3.423147E-2,8.791052E-2,5.876931E-2,1.03949964E-1,3.4627326E-2,5.1527884E-2,-1.2866254E-2,3.2049097E-2,7.287579E-2,8.021046E-3],"split_indices":[0,2,2,6,0,2,6,0,1,2,1,8,0,5,1,0,0,0,0,0,0,0,0,0,0,0,0,0,0,0,0],"split_type":[0,0,0,0,0,0,0,0,0,0,0,0,0,0,0,0,0,0,0,0,0,0,0,0,0,0,0,0,0,0,0],"sum_hessian":[1.8346025E3,8.526916E2,9.81911E2,1.3432565E2,7.183659E2,9.3000226E2,5.1908737E1,7.760511E1,5.6720543E1,7.0987616E2,8.489775E0,5.1781464E1,8.782208E2,2.922447E1,2.2684265E1,4.1574146E1,3.6030964E1,3.3777138E1,2.2943407E1,5.525731E2,1.5730302E2,5.882585E0,2.60719E0,4.396781E1,7.8136554E0,6.915351E1,8.090673E2,1.16501045E1,1.7574366E1,1.611799E1,6.566275E0],"tree_param":{"num_deleted":"0","num_feature":"13","num_nodes":"31","size_leaf_vector":"1"}},{"base_weights":[-1.3825335E-3,-5.569838E-1,4.5525327E-1,1.4567345E-1,-5.637188E-1,2.078812E-2,4.5946458E-1,1.17681146E-1,-2.696501E-1,-9.472948E-1,-5.531637E-1,-3.3449972E-1,7.60031E-1,6.2904704E-1,4.4939646E-1,-8.813669E-2,4.3981913E-2,-1.0833454E-1,-2.4704708E-2,2.15861E-2,-5.5681866E-2,4.8191268E-2,-6.7994736E-2,-2.5414312E-2,1.2398543E-1,6.569893E-2,-1.7946067E-3,-5.5179786E-4,4.5482498E-2],"categories":[],"categories_nodes":[],"categories_segments":[],"categories_sizes":[],"default_left":[0,0,0,0,0,0,0,0,0,0,0,0,0,0,0,0,0,0,0,0,0,0,0,0,0,0,0,0,0],"id":17,"left_children":[1,3,5,7,9,11,13,-1,15,17,19,21,23,25,27,-1,-1,-1,-1,-1,-1,-1,-1,-1,-1,-1,-1,-1,-1],"loss_changes":[4.535419E2,3.8984833E0,1.7857361E0,3.9365087E0,2.7108307E0,3.0033538E0,1.3764496E0,0E0,3.3553042E0,1.637167E0,2.3125763E0,2.5172946E0,2.1171987E0,9.5111084E-1,2.2764282E0,0E0,0E0,0E0,0E0,0E0,0E0,0E0,0E0,0E0,0E0,0E0,0E0,0E0,0E0],"parents":[2147483647,0,0,1,1,2,2,3,3,4,4,5,5,6,6,8,8,9,9,10,10,11,11,12,12,13,13,14,14],"right_children":[2,4,6,8,10,12,14,-1,16,18,20,22,24,26,28,-1,-1,-1,-1,-1,-1,-1,-1,-1,-1,-1,-1,-1,-1],"split_conditions":[3.4835968E1,3.3E1,3.5078785E1,2.9675443E0,5.0129485E0,4.1699856E1,4.9E1,1.17681146E-1,1.1375322E2,2.99E2,2.8073383E1,3.496322E0,5.0436634E1,1.9168794E2,3.1333106E0,-8.813669E-2,4.3981913E-2,-1.0833454E-1,-2.4704708E-2,2.15861E-2,-5.5681866E-2,4.8191268E-2,-6.7994736E-2,-2.5414312E-2,1.2398543E-1,6.569893E-2,-1.7946067E-3,-5.5179786E-4,4.5482498E-2],"split_indices":[0,2,0,9,8,1,2,0,7,2,1,9,8,7,6,0,0,0,0,0,0,0,0,0,0,0,0,0,0],"split_type":[0,0,0,0,0,0,0,0,0,0,0,0,0,0,0,0,0,0,0,0,0,0,0,0,0,0,0,0,0],"sum_hessian":[1.7856576E3,8.0543866E2,9.80219E2,7.450979E0,7.979877E2,9.46711E0,9.707519E2,1.6129564E0,5.8380227E0,1.8993912E1,7.789938E2,6.7638454E0,2.7032642E0,5.0958076E1,9.197938E2,3.004876E0,2.8331468E0,1.5445858E1,3.548054E0,3.4101925E0,7.7558356E2,1.8935924E0,4.870253E0,1.0192584E0,1.6840059E0,4.883361E1,2.1244678E0,1.0846323E1,9.089475E2],"tree_param":{"num_deleted":"0","num_feature":"13","num_nodes":"29","size_leaf_vector":"1"}},{"base_weights":[-6.645857E-3,-6.340922E-1,3.5026667E-1,-4.399724E-1,-7.5357455E-1,-5.5596715E-1,1.1734619E-1,-4.60896E-1,3.613203E-1,-7.962617E-1,-6.041813E-1,-5.254467E-1,-9.14539E-1,-3.9956525E-2,-7.107398E-2,1.6846299E-1,-6.591901E-2,-7.479163E-2,-1.0144427E-1,-9.923103E-3,-7.1161054E-2,-4.9473565E-2,-8.855795E-2,3.6052603E-2,-9.584885E-2],"categories":[],"categories_nodes":[],"categories_segments":[],"categories_sizes":[],"default_left":[0,0,0,0,0,0,0,0,0,0,0,0,0,0,0,0,0,0,0,0,0,0,0,0,0],"id":18,"left_children":[1,3,5,7,9,11,-1,13,15,17,19,21,23,-1,-1,-1,-1,-1,-1,-1,-1,-1,-1,-1,-1],"loss_changes":[3.9357812E2,1.4448364E1,8.363775E2,4.2773438E0,2.0254364E0,5.362503E0,0E0,3.3841934E0,1.0293649E1,2.4325867E0,4.8926125E0,5.0298004E0,2.6167984E0,0E0,0E0,0E0,0E0,0E0,0E0,0E0,0E0,0E0,0E0,0E0,0E0],"parents":[2147483647,0,0,1,1,2,2,3,3,4,4,5,5,7,7,8,8,9,9,10,10,11,11,12,12],"right_children":[2,4,6,8,10,12,-1,14,16,18,20,22,24,-1,-1,-1,-1,-1,-1,-1,-1,-1,-1,-1,-1],"split_conditions":[4.5021904E1,3.403432E1,3.5078785E1,5.1045914E1,3.05E2,1.8347668E2,1.1734619E-1,4.3036892E1,3.4123367E1,2.53E2,3.18E2,1.296028E1,5.1732683E0,-3.9956525E-2,-7.107398E-2,1.6846299E-1,-6.591901E-2,-7.479163E-2,-1.0144427E-1,-9.923103E-3,-7.1161054E-2,-4.9473565E-2,-8.855795E-2,3.6052603E-2,-9.584885E-2],"split_indices":[4,0,0,3,2,8,0,3,1,2,2,9,7,0,0,0,0,0,0,0,0,0,0,0,0],"split_type":[0,0,0,0,0,0,0,0,0,0,0,0,0,0,0,0,0,0,0,0,0,0,0,0,0],"sum_hessian":[1.755497E3,6.3623303E2,1.1192639E3,2.4418855E2,3.920445E2,5.329157E2,5.8634814E2,2.3838849E2,5.8000665E0,3.0155045E2,9.049405E1,4.933858E2,3.952994E1,1.9349042E2,4.4898067E1,2.2420275E0,3.5580392E0,2.5047675E2,5.1073704E1,1.6212767E1,7.428128E1,4.568046E2,3.658119E1,1.0771265E0,3.8452812E1],"tree_param":{"num_deleted":"0","num_feature":"13","num_nodes":"25","size_leaf_vector":"1"}},{"base_weights":[-5.224531E-3,-6.012336E-1,3.3372843E-1,-3.9859885E-1,-6.239595E-1,3.6573339E-1,2.4500008E-1,-3.351417E-2,-5.984863E-1,-6.448148E-1,-2.963876E-1,3.8616902E-1,2.0702223E-1,7.923162E-1,2.3127091E-1,-4.9566075E-2,3.867167E-2,1.14231564E-1,-7.0009105E-2,-5.827079E-2,-7.656937E-2,-5.3032506E-2,2.2955434E-2,-6.0901456E-3,3.9503727E-2,7.993194E-2,1.4377578E-2,1.3077115E-1,1.686161E-2,9.269832E-3,2.721451E-2],"categories":[],"categories_nodes":[],"categories_segments":[],"categories_sizes":[],"default_left":[0,0,0,0,0,0,0,0,0,0,0,0,0,0,0,0,0,0,0,0,0,0,0,0,0,0,0,0,0,0,0],"id":19,"left_children":[1,3,5,7,9,11,13,15,17,19,21,23,25,27,29,-1,-1,-1,-1,-1,-1,-1,-1,-1,-1,-1,-1,-1,-1,-1,-1],"loss_changes":[3.3611627E2,2.528946E0,2.9222946E0,4.620758E0,3.5019073E0,2.4415512E0,1.9521999E0,4.7670064E0,8.057739E0,3.362854E0,4.3305006E0,2.7501907E0,3.287967E0,1.8824544E0,1.553031E0,0E0,0E0,0E0,0E0,0E0,0E0,0E0,0E0,0E0,0E0,0E0,0E0,0E0,0E0,0E0,0E0],"parents":[2147483647,0,0,1,1,2,2,3,3,4,4,5,5,6,6,7,7,8,8,9,9,10,10,11,11,12,12,13,13,14,14],"right_children":[2,4,6,8,10,12,14,16,18,20,22,24,26,28,30,-1,-1,-1,-1,-1,-1,-1,-1,-1,-1,-1,-1,-1,-1,-1,-1],"split_conditions":[4.5021904E1,1.204085E1,1.4600822E2,7.05978E1,1.8782185E2,1.2018781E2,4.6555305E1,3.2937008E1,4.6E1,1E0,2.86E2,8.863251E0,1.1580239E1,3.465916E1,3.2049202E1,-4.9566075E-2,3.867167E-2,1.14231564E-1,-7.0009105E-2,-5.827079E-2,-7.656937E-2,-5.3032506E-2,2.2955434E-2,-6.0901456E-3,3.9503727E-2,7.993194E-2,1.4377578E-2,1.3077115E-1,1.686161E-2,9.269832E-3,2.721451E-2],"split_indices":[4,3,7,7,7,4,4,7,2,11,2,3,3,1,1,0,0,0,0,0,0,0,0,0,0,0,0,0,0,0,0],"split_type":[0,0,0,0,0,0,0,0,0,0,0,0,0,0,0,0,0,0,0,0,0,0,0,0,0,0,0,0,0,0,0],"sum_hessian":[1.661792E3,6.02171E2,1.059621E3,6.2593872E1,5.3957715E2,7.764337E2,2.8318726E2,2.2558867E1,4.0035007E1,5.0636996E2,3.3207146E1,6.865948E2,8.983894E1,5.5420475E0,2.776452E2,1.0658139E1,1.1900726E1,1.6429788E0,3.839203E1,3.383489E2,1.6802107E2,2.2978182E1,1.0228962E1,1.3240507E1,6.7335425E2,7.5447645E0,8.2294174E1,2.434005E0,3.1080425E0,6.3986057E1,2.1365913E2],"tree_param":{"num_deleted":"0","num_feature":"13","num_nodes":"31","size_leaf_vector":"1"}},{"base_weights":[-8.939119E-3,-5.027655E-1,4.1044322E-1,-3.8219717E-1,-5.5636215E-1,-6.8417144E-1,1.140271E0,-8.530698E-1,-3.462928E-1,-4.9841186E-1,-7.140409E-1,-6.954707E-1,-3.083415E-2,2.8910008E-1,1.14869334E-1,-9.960687E-3,-9.579243E-2,-3.6203753E-2,5.5282295E-2,-4.618933E-2,-7.65821E-2,-8.263569E-2,-5.2111175E-2,-6.2798314E-2,-8.280065E-2,1.0136751E-1,-5.1463015E-2,7.429248E-2,-5.546826E-2],"categories":[],"categories_nodes":[],"categories_segments":[],"categories_sizes":[],"default_left":[0,0,0,0,0,0,0,0,0,0,0,0,0,0,0,0,0,0,0,0,0,0,0,0,0,0,0,0,0],"id":20,"left_children":[1,3,5,7,9,11,13,15,17,19,21,23,25,27,-1,-1,-1,-1,-1,-1,-1,-1,-1,-1,-1,-1,-1,-1,-1],"loss_changes":[3.3822824E2,4.633896E0,7.0631274E2,3.6606064E0,4.3682556E0,2.5912018E0,3.4691162E0,1.1603441E0,3.3018036E0,3.3704987E0,2.5300827E0,2.5913696E0,4.0908513E0,2.9132655E0,0E0,0E0,0E0,0E0,0E0,0E0,0E0,0E0,0E0,0E0,0E0,0E0,0E0,0E0,0E0],"parents":[2147483647,0,0,1,1,2,2,3,3,4,4,5,5,6,6,7,7,8,8,9,9,10,10,11,11,12,12,13,13],"right_children":[2,4,6,8,10,12,14,16,18,20,22,24,26,28,-1,-1,-1,-1,-1,-1,-1,-1,-1,-1,-1,-1,-1,-1,-1],"split_conditions":[3.4835968E1,4.5481445E1,4.5021904E1,2.5024712E0,1.4600822E2,1.9705856E2,3.5078785E1,2.2889938E0,4.5021904E1,1.2478929E1,9.694434E1,1E0,5.2576222E0,8.401137E1,1.14869334E-1,-9.960687E-3,-9.579243E-2,-3.6203753E-2,5.5282295E-2,-4.618933E-2,-7.65821E-2,-8.263569E-2,-5.2111175E-2,-6.2798314E-2,-8.280065E-2,1.0136751E-1,-5.1463015E-2,7.429248E-2,-5.546826E-2],"split_indices":[0,4,4,0,7,7,0,9,4,9,4,11,9,4,0,0,0,0,0,0,0,0,0,0,0,0,0,0,0],"split_type":[0,0,0,0,0,0,0,0,0,0,0,0,0,0,0,0,0,0,0,0,0,0,0,0,0,0,0,0,0],"sum_hessian":[1.6311512E3,7.4899927E2,8.82152E2,2.3299545E2,5.160038E2,3.5291037E2,5.2924164E2,1.4894896E1,2.1810056E2,3.8037045E2,1.3563333E2,3.468473E2,6.0630846E0,5.5316944E0,5.237099E2,2.0578144E0,1.2837082E1,2.1493411E2,3.1664462E0,3.3706644E2,4.3304012E1,8.365143E1,5.198191E1,2.336238E2,1.1322348E2,1.5726026E0,4.490482E0,3.6747677E0,1.8569268E0],"tree_param":{"num_deleted":"0","num_feature":"13","num_nodes":"29","size_leaf_vector":"1"}},{"base_weights":[6.663055E-4,-4.6525508E-1,4.0680632E-1,-2.7301815E-1,-5.01446E-1,-6.3362336E-1,1.1193618E0,5.2691184E-2,-4.097399E-1,-5.416534E-1,-3.4153473E-1,-6.866625E-1,-4.454153E-1,1.1275257E-1,1.132188E-1,-2.352703E-2,6.4173624E-2,-4.7172252E-2,5.8307767E-2,-4.7001053E-2,-6.537437E-2,8.555007E-2,-3.8991164E-2,-7.3359214E-2,-3.2825004E-2,2.7899433E-2,-5.958138E-2,-4.6933256E-2,6.74258E-2],"categories":[],"categories_nodes":[],"categories_segments":[],"categories_sizes":[],"default_left":[0,0,0,0,0,0,0,0,0,0,0,0,0,0,0,0,0,0,0,0,0,0,0,0,0,0,0,0,0],"id":21,"left_children":[1,3,5,7,9,11,13,15,17,19,21,23,25,27,-1,-1,-1,-1,-1,-1,-1,-1,-1,-1,-1,-1,-1,-1,-1],"loss_changes":[2.921693E2,4.8658905E0,6.1227423E2,5.192685E0,3.6981964E0,3.04776E0,6.198303E0,6.1248317E0,5.3151827E0,3.5546112E0,7.5172663E0,4.136574E0,8.523436E0,2.6943123E0,0E0,0E0,0E0,0E0,0E0,0E0,0E0,0E0,0E0,0E0,0E0,0E0,0E0,0E0,0E0],"parents":[2147483647,0,0,1,1,2,2,3,3,4,4,5,5,6,6,7,7,8,8,9,9,10,10,11,11,12,12,13,13],"right_children":[2,4,6,8,10,12,14,16,18,20,22,24,26,28,-1,-1,-1,-1,-1,-1,-1,-1,-1,-1,-1,-1,-1,-1,-1],"split_conditions":[3.4835968E1,8.4E1,4.5021904E1,6.015179E1,3.21E2,3.05E2,3.5078785E1,4.0601505E1,3.2987377E1,1.21711975E2,4.3612113E0,1.7587888E2,3.17E2,1.0712071E2,1.132188E-1,-2.352703E-2,6.4173624E-2,-4.7172252E-2,5.8307767E-2,-4.7001053E-2,-6.537437E-2,8.555007E-2,-3.8991164E-2,-7.3359214E-2,-3.2825004E-2,2.7899433E-2,-5.958138E-2,-4.6933256E-2,6.74258E-2],"split_indices":[0,2,4,5,2,2,0,5,0,7,4,8,2,7,0,0,0,0,0,0,0,0,0,0,0,0,0,0,0],"split_type":[0,0,0,0,0,0,0,0,0,0,0,0,0,0,0,0,0,0,0,0,0,0,0,0,0,0,0,0,0],"sum_hessian":[1.5419956E3,7.180767E2,8.239188E2,1.15122055E2,6.0295465E2,3.349525E2,4.8896634E2,3.4218544E1,8.090351E1,4.799028E2,1.2305186E2,2.592458E2,7.570671E1,6.275219E0,4.826911E2,2.3386415E1,1.08321295E1,7.664345E1,4.2600646E0,2.9594287E2,1.8395993E2,4.1317554E0,1.18920105E2,2.2830528E2,3.094051E1,1.2868629E1,6.283808E1,3.1617458E0,3.1134732E0],"tree_param":{"num_deleted":"0","num_feature":"13","num_nodes":"29","size_leaf_vector":"1"}},{"base_weights":[-5.0019305E-3,-4.430022E-1,3.9453158E-1,-3.1484386E-1,-4.9986187E-1,-5.89079E-1,1.1043206E0,-3.6764985E-1,-2.9147589E-3,-4.4359717E-1,-6.525858E-1,-3.6255354E-1,-6.260749E-1,2.0517838E-1,1.1175795E-1,-8.843892E-2,-3.226831E-2,-3.3605635E-2,5.384037E-2,-7.628303E-2,-4.1085824E-2,-8.171951E-2,-3.9167676E-2,4.0869318E-2,-5.6999903E-2,-1.8823849E-2,-6.474128E-2,-3.0857384E-2,6.91055E-2],"categories":[],"categories_nodes":[],"categories_segments":[],"categories_sizes":[],"default_left":[0,0,0,0,0,0,0,0,0,0,0,0,0,0,0,0,0,0,0,0,0,0,0,0,0,0,0,0,0],"id":22,"left_children":[1,3,5,7,9,11,13,15,17,19,21,23,25,27,-1,-1,-1,-1,-1,-1,-1,-1,-1,-1,-1,-1,-1,-1,-1],"loss_changes":[2.5697903E2,4.947296E0,5.368154E2,3.5895004E0,3.8654938E0,2.4761276E0,5.0927734E0,4.046213E0,6.0540133E0,3.412239E0,5.179661E0,7.8579144E0,2.4556503E0,2.1383688E0,0E0,0E0,0E0,0E0,0E0,0E0,0E0,0E0,0E0,0E0,0E0,0E0,0E0,0E0,0E0],"parents":[2147483647,0,0,1,1,2,2,3,3,4,4,5,5,6,6,7,7,8,8,9,9,10,10,11,11,12,12,13,13],"right_children":[2,4,6,8,10,12,14,16,18,20,22,24,26,28,-1,-1,-1,-1,-1,-1,-1,-1,-1,-1,-1,-1,-1,-1,-1],"split_conditions":[3.4835968E1,4.5481445E1,4.5021904E1,1.7298186E2,1.4600822E2,3.0755932E1,3.5078785E1,2.9914386E0,1.2616925E2,5.3231823E1,9.694434E1,1.5632815E1,4.9E1,1.02947426E2,1.1175795E-1,-8.843892E-2,-3.226831E-2,-3.3605635E-2,5.384037E-2,-7.628303E-2,-4.1085824E-2,-8.171951E-2,-3.9167676E-2,4.0869318E-2,-5.6999903E-2,-1.8823849E-2,-6.474128E-2,-3.0857384E-2,6.91055E-2],"split_indices":[0,4,4,8,7,1,0,0,5,4,4,3,2,7,0,0,0,0,0,0,0,0,0,0,0,0,0,0,0],"split_type":[0,0,0,0,0,0,0,0,0,0,0,0,0,0,0,0,0,0,0,0,0,0,0,0,0,0,0,0,0],"sum_hessian":[1.4664882E3,6.995153E2,7.669729E2,2.1698392E2,4.8253143E2,3.2154825E2,4.4542465E2,1.8541643E2,3.1567482E1,3.5547583E2,1.2705559E2,4.665848E1,2.7488977E2,6.7122264E0,4.387124E2,1.3348895E1,1.7206754E2,1.9776001E1,1.1791481E1,3.099054E1,3.244853E2,7.659756E1,5.045803E1,9.684195E0,3.697429E1,1.3230603E1,2.6165915E2,3.439893E0,3.2723334E0],"tree_param":{"num_deleted":"0","num_feature":"13","num_nodes":"29","size_leaf_vector":"1"}},{"base_weights":[-5.80387E-3,-4.1096458E-1,3.7238073E-1,-4.2173535E-1,6.0536347E-2,1.8550217E-1,3.9090002E-1,-3.9130366E-1,-6.008405E-1,5.3234607E-1,-7.8929144E-1,6.1467938E-2,9.3726313E-1,4.2368996E-1,3.1217405E-1,-3.9956212E-2,5.090111E-2,4.8932943E-2,-6.395558E-2,2.0382619E-4,1.4874049E-1,-9.15424E-2,-9.368981E-3,3.403526E-2,-1.2438275E-3,1.6467066E-1,3.599577E-2,-1.2028755E-2,4.299396E-2,4.0671602E-2,1.5561056E-2],"categories":[],"categories_nodes":[],"categories_segments":[],"categories_sizes":[],"default_left":[0,0,0,0,0,0,0,0,0,0,0,0,0,0,0,0,0,0,0,0,0,0,0,0,0,0,0,0,0,0,0],"id":23,"left_children":[1,3,5,7,9,11,13,15,17,19,21,23,25,27,29,-1,-1,-1,-1,-1,-1,-1,-1,-1,-1,-1,-1,-1,-1,-1,-1],"loss_changes":[2.1368985E2,3.4447632E0,2.4239044E0,3.3533554E0,6.7999E0,6.1841574E0,1.5595474E0,4.4089127E0,4.2697983E0,5.4812407E0,4.4793797E-1,1.2106118E0,3.261344E0,1.6151505E0,2.8453846E0,0E0,0E0,0E0,0E0,0E0,0E0,0E0,0E0,0E0,0E0,0E0,0E0,0E0,0E0,0E0,0E0],"parents":[2147483647,0,0,1,1,2,2,3,3,4,4,5,5,6,6,7,7,8,8,9,9,10,10,11,11,12,12,13,13,14,14],"right_children":[2,4,6,8,10,12,14,16,18,20,22,24,26,28,30,-1,-1,-1,-1,-1,-1,-1,-1,-1,-1,-1,-1,-1,-1,-1,-1],"split_conditions":[3.4835968E1,4.5655243E1,3.7681118E1,4.3200726E1,1.7813156E2,1.7587888E2,7.083333E-1,4.30676E1,9.056818E0,1.2384605E2,1.6091223E2,2.0833333E-1,4.776969E0,2.5765426E0,1.6192552E2,-3.9956212E-2,5.090111E-2,4.8932943E-2,-6.395558E-2,2.0382619E-4,1.4874049E-1,-9.15424E-2,-9.368981E-3,3.403526E-2,-1.2438275E-3,1.6467066E-1,3.599577E-2,-1.2028755E-2,4.299396E-2,4.0671602E-2,1.5561056E-2],"split_indices":[0,1,0,1,6,8,12,1,6,6,8,12,9,7,6,0,0,0,0,0,0,0,0,0,0,0,0,0,0,0,0],"split_type":[0,0,0,0,0,0,0,0,0,0,0,0,0,0,0,0,0,0,0,0,0,0,0,0,0,0,0,0,0,0,0],"sum_hessian":[1.3926112E3,6.7228503E2,7.203262E2,6.573738E2,1.49112425E1,6.594011E1,6.5438605E2,5.646235E2,9.275027E1,9.828316E0,5.082927E0,5.752992E1,8.410189E0,4.5887817E2,1.9550787E2,5.600425E2,4.5809994E0,2.7817183E0,8.996855E1,6.963746E0,2.8645692E0,4.03521E0,1.0477171E0,1.1296699E1,4.6233223E1,2.9421794E0,5.4680085E0,5.004807E0,4.5387335E2,1.2090236E2,7.460552E1],"tree_param":{"num_deleted":"0","num_feature":"13","num_nodes":"31","size_leaf_vector":"1"}},{"base_weights":[2.4787576E-3,-3.7907028E-1,3.4871602E-1,-2.549541E-1,-4.3598893E-1,-5.801455E-1,1.0854759E0,-2.9436645E-1,2.5787577E-1,-4.074139E-1,-7.803546E-1,-6.3786E-1,-3.881846E-1,1.309989E-1,1.10074334E-1,-8.296873E-2,-2.4541039E-2,1.0470182E-1,-3.7768472E-3,-1.619657E-2,-4.460459E-2,-8.307034E-2,3.184564E-2,-6.806987E-2,-3.2072302E-2,3.746815E-2,-4.8378088E-2,5.5770766E-2,-4.9062956E-2],"categories":[],"categories_nodes":[],"categories_segments":[],"categories_sizes":[],"default_left":[0,0,0,0,0,0,0,0,0,0,0,0,0,0,0,0,0,0,0,0,0,0,0,0,0,0,0,0,0],"id":24,"left_children":[1,3,5,7,9,11,13,15,17,19,21,23,25,27,-1,-1,-1,-1,-1,-1,-1,-1,-1,-1,-1,-1,-1,-1,-1],"loss_changes":[1.8053339E2,4.481758E0,4.9092148E2,4.2560444E0,4.0543213E0,3.2705612E0,5.6829834E0,4.841881E0,3.607501E0,3.837906E0,2.0875664E0,3.077507E0,5.720832E0,2.2446427E0,0E0,0E0,0E0,0E0,0E0,0E0,0E0,0E0,0E0,0E0,0E0,0E0,0E0,0E0,0E0],"parents":[2147483647,0,0,1,1,2,2,3,3,4,4,5,5,6,6,7,7,8,8,9,9,10,10,11,11,12,12,13,13],"right_children":[2,4,6,8,10,12,14,16,18,20,22,24,26,28,-1,-1,-1,-1,-1,-1,-1,-1,-1,-1,-1,-1,-1,-1,-1],"split_conditions":[3.4835968E1,4.5481445E1,4.5021904E1,1.8855182E2,1.296028E1,3.05E2,3.5078785E1,3.2603686E0,9.3772545E0,3.310129E1,3.6E2,1.7587888E2,2.4219694E1,8.401137E1,1.10074334E-1,-8.296873E-2,-2.4541039E-2,1.0470182E-1,-3.7768472E-3,-1.619657E-2,-4.460459E-2,-8.307034E-2,3.184564E-2,-6.806987E-2,-3.2072302E-2,3.746815E-2,-4.8378088E-2,5.5770766E-2,-4.9062956E-2],"split_indices":[0,4,4,7,9,2,0,0,0,6,2,8,7,4,0,0,0,0,0,0,0,0,0,0,0,0,0,0,0],"split_type":[0,0,0,0,0,0,0,0,0,0,0,0,0,0,0,0,0,0,0,0,0,0,0,0,0,0,0,0,0],"sum_hessian":[1.3645741E3,6.491377E2,7.1543634E2,2.0581625E2,4.4332147E2,3.165554E2,3.9888095E2,1.9152318E2,1.4293075E1,4.113696E2,3.195186E1,2.4159512E2,7.496027E1,6.430661E0,3.924503E2,1.4711334E1,1.7681184E2,3.2027416E0,1.1090333E1,5.6648136E1,3.5472147E2,3.0785244E1,1.1666168E0,2.118343E2,2.9760824E1,8.022294E0,6.693797E1,3.8741376E0,2.5565236E0],"tree_param":{"num_deleted":"0","num_feature":"13","num_nodes":"29","size_leaf_vector":"1"}},{"base_weights":[-6.565556E-3,-4.4861233E-1,2.7023187E-1,-2.4793316E-1,-5.706133E-1,-3.9105088E-1,1.089711E-1,-2.7349052E-1,6.0194814E-1,-6.189645E-1,-4.1031325E-1,-4.526095E-1,-2.191823E-1,-1.9231359E-2,-6.1316907E-2,-2.8081834E-2,1.4715618E-1,-6.311377E-2,2.7756874E-2,3.609311E-2,-5.0041605E-2,-7.095232E-2,-4.1135713E-2,1.4463127E-2,-3.9089996E-2],"categories":[],"categories_nodes":[],"categories_segments":[],"categories_sizes":[],"default_left":[0,0,0,0,0,0,0,0,0,0,0,0,0,0,0,0,0,0,0,0,0,0,0,0,0],"id":25,"left_children":[1,3,5,7,9,11,-1,13,15,17,19,21,23,-1,-1,-1,-1,-1,-1,-1,-1,-1,-1,-1,-1],"loss_changes":[1.5964833E2,1.2159012E1,4.3523718E2,4.328967E0,2.1618118E0,4.6065903E0,0E0,5.0332603E0,4.9497557E0,2.7671127E0,5.4059467E0,3.1689682E0,7.5055556E0,0E0,0E0,0E0,0E0,0E0,0E0,0E0,0E0,0E0,0E0,0E0,0E0],"parents":[2147483647,0,0,1,1,2,2,3,3,4,4,5,5,7,7,8,8,9,9,10,10,11,11,12,12],"right_children":[2,4,6,8,10,12,-1,14,16,18,20,22,24,-1,-1,-1,-1,-1,-1,-1,-1,-1,-1,-1,-1],"split_conditions":[4.5021904E1,3.403432E1,3.5078785E1,5.1045914E1,3.05E2,2.600865E1,1.089711E-1,4.3036892E1,1.1755937E2,1.9834868E2,2.3404089E1,2.7996721E1,3.3333334E-1,-1.9231359E-2,-6.1316907E-2,-2.8081834E-2,1.4715618E-1,-6.311377E-2,2.7756874E-2,3.609311E-2,-5.0041605E-2,-7.095232E-2,-4.1135713E-2,1.4463127E-2,-3.9089996E-2],"split_indices":[4,0,0,3,2,0,0,3,6,7,7,5,12,0,0,0,0,0,0,0,0,0,0,0,0],"split_type":[0,0,0,0,0,0,0,0,0,0,0,0,0,0,0,0,0,0,0,0,0,0,0,0,0],"sum_hessian":[1.3027794E3,5.0140796E2,8.013715E2,1.9072198E2,3.1068597E2,4.4378214E2,3.575894E2,1.8581248E2,4.909492E0,2.3649187E2,7.4194115E1,3.2554672E2,1.182354E2,1.5123602E2,3.4576466E1,2.7723188E0,2.1371732E0,2.3361581E2,2.8760443E0,7.446787E0,6.674733E1,4.2799297E1,2.8274744E2,3.7962666E1,8.027273E1],"tree_param":{"num_deleted":"0","num_feature":"13","num_nodes":"25","size_leaf_vector":"1"}},{"base_weights":[-3.8662278E-3,-4.2140073E-1,2.6744017E-1,-2.4376899E-1,-5.340704E-1,-3.656235E-1,1.079902E-1,-2.990975E-1,6.179461E-2,-5.6032264E-1,-1.7231265E-1,-4.575821E-1,-2.6064587E-1,-1.7291745E-2,-4.9271647E-2,-3.3980425E-2,4.7388587E-2,-5.8932792E-2,-2.5120987E-2,-4.385727E-2,3.620592E-2,-4.914018E-2,7.233094E-3,-2.9587522E-2,9.761565E-2],"categories":[],"categories_nodes":[],"categories_segments":[],"categories_sizes":[],"default_left":[0,0,0,0,0,0,0,0,0,0,0,0,0,0,0,0,0,0,0,0,0,0,0,0,0],"id":26,"left_children":[1,3,5,7,9,11,-1,13,15,17,19,21,23,-1,-1,-1,-1,-1,-1,-1,-1,-1,-1,-1,-1],"loss_changes":[1.4041876E2,9.640793E0,3.8685217E2,3.2530432E0,2.732521E0,3.9647293E0,0E0,3.876545E0,5.1524367E0,2.3381424E0,3.2319555E0,4.053322E0,8.997373E0,0E0,0E0,0E0,0E0,0E0,0E0,0E0,0E0,0E0,0E0,0E0,0E0],"parents":[2147483647,0,0,1,1,2,2,3,3,4,4,5,5,7,7,8,8,9,9,10,10,11,11,12,12],"right_children":[2,4,6,8,10,12,-1,14,16,18,20,22,24,-1,-1,-1,-1,-1,-1,-1,-1,-1,-1,-1,-1],"split_conditions":[4.5021904E1,3.403432E1,3.5078785E1,1.7298186E2,4.230691E1,1.8896536E1,1.079902E-1,3.885299E1,3.705508E1,9.166667E-1,1E0,2.4731453E2,1.27772964E2,-1.7291745E-2,-4.9271647E-2,-3.3980425E-2,4.7388587E-2,-5.8932792E-2,-2.5120987E-2,-4.385727E-2,3.620592E-2,-4.914018E-2,7.233094E-3,-2.9587522E-2,9.761565E-2],"split_indices":[4,0,0,8,4,0,0,1,1,12,10,6,4,0,0,0,0,0,0,0,0,0,0,0,0],"split_type":[0,0,0,0,0,0,0,0,0,0,0,0,0,0,0,0,0,0,0,0,0,0,0,0,0],"sum_hessian":[1.2375798E3,4.8721445E2,7.503654E2,1.9032188E2,2.9689255E2,4.220542E2,3.2831122E2,1.6116148E2,2.916041E1,2.762934E2,2.0599142E1,2.2318723E2,1.9886697E2,9.8719666E1,6.2441807E1,1.4857054E1,1.4303357E1,2.5176295E2,2.4530453E1,1.3868298E1,6.7308455E0,2.0986597E2,1.3321254E1,1.9409898E2,4.767984E0],"tree_param":{"num_deleted":"0","num_feature":"13","num_nodes":"25","size_leaf_vector":"1"}},{"base_weights":[-4.0700966E-3,-3.1538782E-1,3.1514427E-1,4.915802E-1,-3.2412344E-1,-1.4905412E-1,3.2189006E-1,1.4972037E-1,-1.7839374E-2,-3.0018106E-1,-5.8207655E-1,-3.491962E-1,2.5887588E-1,1.838906E-1,3.4045285E-1,-7.750606E-2,7.354029E-2,-3.2517586E-2,-2.6307325E-4,-7.073077E-2,-4.1936105E-3,2.1872303E-2,-4.9512535E-2,-1.6731236E-2,6.0494613E-2,9.90421E-3,6.732181E-2,5.9497144E-2,3.2129835E-2],"categories":[],"categories_nodes":[],"categories_segments":[],"categories_sizes":[],"default_left":[0,0,0,0,0,0,0,0,0,0,0,0,0,0,0,0,0,0,0,0,0,0,0,0,0,0,0,0,0],"id":27,"left_children":[1,3,5,7,9,11,13,-1,15,17,19,21,23,25,27,-1,-1,-1,-1,-1,-1,-1,-1,-1,-1,-1,-1,-1,-1],"loss_changes":[1.1830689E2,4.4079285E0,1.8885956E0,3.5367625E0,3.5113525E0,8.336089E-1,1.4223518E0,0E0,3.7276402E0,4.076313E0,3.3272133E0,6.4969057E-1,6.278273E-1,2.8772268E0,2.2941322E0,0E0,0E0,0E0,0E0,0E0,0E0,0E0,0E0,0E0,0E0,0E0,0E0,0E0,0E0],"parents":[2147483647,0,0,1,1,2,2,3,3,4,4,5,5,6,6,8,8,9,9,10,10,11,11,12,12,13,13,14,14],"right_children":[2,4,6,8,10,12,14,-1,16,18,20,22,24,26,28,-1,-1,-1,-1,-1,-1,-1,-1,-1,-1,-1,-1,-1,-1],"split_conditions":[3.4835968E1,3.3E1,3.1333106E0,2.9675443E0,1.8347668E2,1.2811174E2,3.8630783E1,1.4972037E-1,1.1664043E2,1.6968054E2,1.9702496E2,2.0833333E-1,3.79815E1,1.7587888E2,4.0732147E1,-7.750606E-2,7.354029E-2,-3.2517586E-2,-2.6307325E-4,-7.073077E-2,-4.1936105E-3,2.1872303E-2,-4.9512535E-2,-1.6731236E-2,6.0494613E-2,9.90421E-3,6.732181E-2,5.9497144E-2,3.2129835E-2],"split_indices":[0,2,6,9,8,8,0,0,7,8,8,12,1,8,0,0,0,0,0,0,0,0,0,0,0,0,0,0,0],"split_type":[0,0,0,0,0,0,0,0,0,0,0,0,0,0,0,0,0,0,0,0,0,0,0,0,0,0,0,0,0],"sum_hessian":[1.1884845E3,6.016904E2,5.86794E2,5.851768E0,5.958387E2,8.1030655E0,5.786909E2,1.31562E0,4.536148E0,5.472119E2,4.8626797E1,5.532596E0,2.5704691E0,6.9905495E1,5.0878546E2,2.2476547E0,2.2884934E0,5.0472147E2,4.2490437E1,3.9223396E1,9.4034E0,1.0290327E0,4.503564E0,1.3833721E0,1.1870971E0,6.059997E1,9.305521E0,3.3506077E1,4.7527936E2],"tree_param":{"num_deleted":"0","num_feature":"13","num_nodes":"29","size_leaf_vector":"1"}},{"base_weights":[7.108265E-3,-3.7506932E-1,2.683132E-1,-1.6982503E-1,-5.0223595E-1,-3.0904952E-1,1.0686808E-1,-6.8804955E-1,-1.2188815E-1,-4.5454392E-1,-8.377932E-1,-2.7982643E-1,-6.798281E-1,3.776707E-2,-7.983055E-2,-7.350749E-2,-7.469635E-3,-4.991586E-2,-1.4364818E-2,-8.8422716E-2,2.3233091E-2,-2.4768937E-2,-6.278038E-2,-7.9437815E-2,4.4909887E-2],"categories":[],"categories_nodes":[],"categories_segments":[],"categories_sizes":[],"default_left":[0,0,0,0,0,0,0,0,0,0,0,0,0,0,0,0,0,0,0,0,0,0,0,0,0],"id":28,"left_children":[1,3,5,7,9,11,-1,13,15,17,19,21,23,-1,-1,-1,-1,-1,-1,-1,-1,-1,-1,-1,-1],"loss_changes":[1.1627746E2,1.2257477E1,3.2005276E2,4.4478827E0,4.283798E0,4.1733017E0,0E0,2.0910983E0,4.8121276E0,3.4984398E0,1.9488411E0,4.0380383E0,4.0710106E0,0E0,0E0,0E0,0E0,0E0,0E0,0E0,0E0,0E0,0E0,0E0,0E0],"parents":[2147483647,0,0,1,1,2,2,3,3,4,4,5,5,7,7,8,8,9,9,10,10,11,11,12,12],"right_children":[2,4,6,8,10,12,-1,14,16,18,20,22,24,-1,-1,-1,-1,-1,-1,-1,-1,-1,-1,-1,-1],"split_conditions":[4.5021904E1,3.378095E1,3.5078785E1,1.6068052E1,2.2683562E2,1.296028E1,1.0686808E-1,2.9649353E1,2.763084E0,1.9738033E2,2.5911862E2,1.818456E2,9.166667E-1,3.776707E-2,-7.983055E-2,-7.350749E-2,-7.469635E-3,-4.991586E-2,-1.4364818E-2,-8.8422716E-2,2.3233091E-2,-2.4768937E-2,-6.278038E-2,-7.9437815E-2,4.4909887E-2],"split_indices":[4,0,0,8,6,9,0,1,0,6,6,8,12,0,0,0,0,0,0,0,0,0,0,0,0],"split_type":[0,0,0,0,0,0,0,0,0,0,0,0,0,0,0,0,0,0,0,0,0,0,0,0,0],"sum_hessian":[1.1627855E3,4.718988E2,6.9088666E2,1.8142233E2,2.9047647E2,4.0171478E2,2.891719E2,1.4230407E1,1.6719193E2,2.563908E2,3.408565E1,3.7399304E2,2.772174E1,1.1068002E0,1.3123607E1,1.09061775E1,1.5628575E2,2.2368555E2,3.2705257E1,3.2834633E1,1.2510188E0,3.4394058E2,3.005245E1,2.5437037E1,2.284705E0],"tree_param":{"num_deleted":"0","num_feature":"13","num_nodes":"25","size_leaf_vector":"1"}},{"base_weights":[9.603162E-3,-3.4218425E-1,2.5421095E-1,-1.4113411E-1,-4.7522947E-1,-2.8436202E-1,1.061004E-1,-1.6627842E-1,6.9096917E-1,-8.847664E-1,-4.4855464E-1,-2.5340232E-1,-6.7373514E-1,-8.245882E-3,-5.3657737E-2,1.8131152E-1,-4.9681228E-2,-1.04072295E-1,-4.3981712E-2,-1.7648699E-3,-4.713444E-2,-2.9546905E-2,3.5958812E-3,-5.6980117E-3,-8.625971E-2],"categories":[],"categories_nodes":[],"categories_segments":[],"categories_sizes":[],"default_left":[0,0,0,0,0,0,0,0,0,0,0,0,0,0,0,0,0,0,0,0,0,0,0,0,0],"id":29,"left_children":[1,3,5,7,9,11,-1,13,15,17,19,21,23,-1,-1,-1,-1,-1,-1,-1,-1,-1,-1,-1,-1],"loss_changes":[9.6700325E1,1.2261936E1,2.8831693E2,3.9849982E0,2.6285858E0,4.630512E0,0E0,5.5535913E0,8.390757E0,6.4612484E-1,2.5649796E0,4.5211315E0,3.297678E0,0E0,0E0,0E0,0E0,0E0,0E0,0E0,0E0,0E0,0E0,0E0,0E0],"parents":[2147483647,0,0,1,1,2,2,3,3,4,4,5,5,7,7,8,8,9,9,10,10,11,11,12,12],"right_children":[2,4,6,8,10,12,-1,14,16,18,20,22,24,-1,-1,-1,-1,-1,-1,-1,-1,-1,-1,-1,-1],"split_conditions":[4.5021904E1,3.5078785E1,3.5078785E1,5.1045914E1,2.2945855E0,1.296028E1,1.061004E-1,4.3036892E1,3.4123367E1,1.423283E2,4.9E1,1.1435188E1,3.2049202E1,-8.245882E-3,-5.3657737E-2,1.8131152E-1,-4.9681228E-2,-1.04072295E-1,-4.3981712E-2,-1.7648699E-3,-4.713444E-2,-2.9546905E-2,3.5958812E-3,-5.6980117E-3,-8.625971E-2],"split_indices":[4,0,0,3,4,9,0,3,1,7,2,9,1,0,0,0,0,0,0,0,0,0,0,0,0],"split_type":[0,0,0,0,0,0,0,0,0,0,0,0,0,0,0,0,0,0,0,0,0,0,0,0,0],"sum_hessian":[1.1217589E3,4.5991882E2,6.6184E2,1.8397197E2,2.7594684E2,3.9728253E2,2.6455753E2,1.7935251E2,4.619461E0,1.4907303E1,2.6103955E2,3.6954984E2,2.7732693E1,1.4724525E2,3.2107254E1,2.1046448E0,2.5148165E0,1.00468645E1,4.860439E0,1.3201518E1,2.4783803E2,3.2262604E2,4.6923782E1,6.8065743E0,2.0926119E1],"tree_param":{"num_deleted":"0","num_feature":"13","num_nodes":"25","size_leaf_vector":"1"}},{"base_weights":[-1.1007845E-3,-3.4640002E-1,2.444277E-1,-3.5877356E-1,1.8957376E-1,2.8454694E-1,1.2972933E-1,-3.3135474E-1,-6.3006526E-1,-3.3481348E-1,9.344454E-1,3.7834808E-1,2.2735408E-1,1.0919743E0,1.02568395E-1,2.0429553E-2,-3.5045292E-2,-4.313759E-2,-9.1053225E-2,4.392517E-2,-7.617568E-2,2.8600662E-3,1.8651555E-1,2.9099617E-2,5.8240104E-2,1.1549442E-2,3.0388294E-2,1.4462656E-1,8.403843E-3,1.7456163E-2,-4.186737E-3],"categories":[],"categories_nodes":[],"categories_segments":[],"categories_sizes":[],"default_left":[0,0,0,0,0,0,0,0,0,0,0,0,0,0,0,0,0,0,0,0,0,0,0,0,0,0,0,0,0,0,0],"id":30,"left_children":[1,3,5,7,9,11,13,15,17,19,21,23,25,27,29,-1,-1,-1,-1,-1,-1,-1,-1,-1,-1,-1,-1,-1,-1,-1,-1],"loss_changes":[9.1259995E1,3.0346222E0,2.857956E0,3.0461311E0,4.5111327E0,2.4098663E0,4.196747E0,4.1586723E0,1.7836514E0,2.6624742E0,3.9127965E0,2.9447155E0,2.4604807E0,1.4575987E0,1.6860256E0,0E0,0E0,0E0,0E0,0E0,0E0,0E0,0E0,0E0,0E0,0E0,0E0,0E0,0E0,0E0,0E0],"parents":[2147483647,0,0,1,1,2,2,3,3,4,4,5,5,6,6,7,7,8,8,9,9,10,10,11,11,12,12,13,13,14,14],"right_children":[2,4,6,8,10,12,14,16,18,20,22,24,26,28,30,-1,-1,-1,-1,-1,-1,-1,-1,-1,-1,-1,-1,-1,-1,-1,-1],"split_conditions":[4.5021904E1,1.9705856E2,1.4600822E2,1.8321947E2,1.1514489E2,5.8147335E0,4.6555305E1,9.329111E0,1E0,9.40846E1,1.3035883E2,1.03919785E2,9.187041E0,3.800214E1,1E0,2.0429553E-2,-3.5045292E-2,-4.313759E-2,-9.1053225E-2,4.392517E-2,-7.617568E-2,2.8600662E-3,1.8651555E-1,2.9099617E-2,5.8240104E-2,1.1549442E-2,3.0388294E-2,1.4462656E-1,8.403843E-3,1.7456163E-2,-4.186737E-3],"split_indices":[4,7,7,5,8,9,4,3,11,6,5,7,9,3,10,0,0,0,0,0,0,0,0,0,0,0,0,0,0,0,0],"split_type":[0,0,0,0,0,0,0,0,0,0,0,0,0,0,0,0,0,0,0,0,0,0,0,0,0,0,0,0,0,0,0],"sum_hessian":[1.0744242E3,4.4632446E2,6.280997E2,4.3657623E2,9.748221E0,4.6423764E2,1.6386208E2,3.9852014E2,3.805611E1,6.0438666E0,3.7043543E0,1.7371503E2,2.905226E2,3.4220886E0,1.6043999E2,1.3385919E1,3.8513422E2,2.3761189E1,1.4294922E1,2.1382701E0,3.9055967E0,2.3995965E0,1.3047577E0,1.2334083E2,5.03742E1,1.1903794E2,1.7148466E2,2.2102892E0,1.2117995E0,1.06931816E2,5.3508163E1],"tree_param":{"num_deleted":"0","num_feature":"13","num_nodes":"31","size_leaf_vector":"1"}},{"base_weights":[7.9322624E-4,-3.319466E-1,2.2414877E-1,-7.407092E-2,-4.3121448E-1,-2.711558E-1,1.0334517E0,-6.256065E-1,-3.8242817E-3,-4.4587147E-1,3.431044E-1,-4.7539514E-1,-2.2442982E-1,1.15982324E-1,1.0526951E-1,-8.74669E-2,1.9637682E-2,-1.6988026E-2,2.4562139E-2,6.9206962E-3,-4.6629913E-2,-7.2746664E-2,7.7947095E-2,-5.4832096E-3,-7.290287E-2,-3.765167E-2,-8.3759595E-3,6.3228674E-2,-5.268662E-2],"categories":[],"categories_nodes":[],"categories_segments":[],"categories_sizes":[],"default_left":[0,0,0,0,0,0,0,0,0,0,0,0,0,0,0,0,0,0,0,0,0,0,0,0,0,0,0,0,0],"id":31,"left_children":[1,3,5,7,9,11,13,15,17,19,21,23,25,27,-1,-1,-1,-1,-1,-1,-1,-1,-1,-1,-1,-1,-1,-1,-1],"loss_changes":[7.95614E1,1.0975044E1,2.5704678E2,4.6747403E0,3.6741867E0,3.6930027E0,4.1751404E0,2.9626608E0,4.5189414E0,3.2407112E0,3.523662E0,7.7720394E0,6.941183E0,2.3657482E0,0E0,0E0,0E0,0E0,0E0,0E0,0E0,0E0,0E0,0E0,0E0,0E0,0E0,0E0,0E0],"parents":[2147483647,0,0,1,1,2,2,3,3,4,4,5,5,6,6,7,7,8,8,9,9,10,10,11,11,12,12,13,13],"right_children":[2,4,6,8,10,12,14,16,18,20,22,24,26,28,-1,-1,-1,-1,-1,-1,-1,-1,-1,-1,-1,-1,-1,-1,-1],"split_conditions":[4.4537357E1,2.4447924E1,3.5078785E1,3.2603686E0,1.9773561E2,6.012793E1,4.5021904E1,1.5580719E2,1.5395697E2,9.329111E0,3.193152E1,1.3319124E1,1.7373556E1,4.1666666E-1,1.0526951E-1,-8.74669E-2,1.9637682E-2,-1.6988026E-2,2.4562139E-2,6.9206962E-3,-4.6629913E-2,-7.2746664E-2,7.7947095E-2,-5.4832096E-3,-7.290287E-2,-3.765167E-2,-8.3759595E-3,6.3228674E-2,-5.268662E-2],"split_indices":[4,0,0,0,7,4,4,7,6,3,1,0,0,12,0,0,0,0,0,0,0,0,0,0,0,0,0,0,0],"split_type":[0,0,0,0,0,0,0,0,0,0,0,0,0,0,0,0,0,0,0,0,0,0,0,0,0,0,0,0,0],"sum_hessian":[1.0685338E3,4.2898102E2,6.395528E2,1.197204E2,3.0926062E2,3.9715402E2,2.423988E2,1.2632391E1,1.07088005E2,3.039317E2,5.328911E0,7.2236084E1,3.2491794E2,5.1240854E0,2.3727472E2,9.645645E0,2.9867456E0,6.448158E1,4.260642E1,1.15028305E1,2.924289E2,1.3499287E0,3.978982E0,2.763283E1,4.4603252E1,1.5531795E2,1.6959999E2,2.8508513E0,2.2732341E0],"tree_param":{"num_deleted":"0","num_feature":"13","num_nodes":"29","size_leaf_vector":"1"}},{"base_weights":[-2.502717E-3,-2.3705912E-1,2.7248028E-1,-5.8099322E-2,-3.2008234E-1,-3.9099973E-1,1.0253901E0,-8.534444E-2,-3.4473825E-2,-6.3695633E-1,-2.583701E-1,-4.1350847E-1,2.6388127E-1,2.6741144E-1,1.04652226E-1,-5.074845E-2,2.2403953E-4,-1.909402E-2,-8.321761E-2,1.0510322E-1,-2.7113367E-2,-3.61272E-2,-7.057654E-2,1.16877735E-1,-2.5030378E-2,-2.129809E-2,6.6760615E-2],"categories":[],"categories_nodes":[],"categories_segments":[],"categories_sizes":[],"default_left":[0,0,0,0,0,0,0,0,0,0,0,0,0,0,0,0,0,0,0,0,0,0,0,0,0,0,0],"id":32,"left_children":[1,3,5,7,9,11,13,-1,15,17,19,21,23,25,-1,-1,-1,-1,-1,-1,-1,-1,-1,-1,-1,-1,-1],"loss_changes":[6.600724E1,8.187128E0,2.3573383E2,3.2822428E0,7.208473E0,3.8111382E0,3.2593079E0,0E0,2.9915998E0,5.133112E0,5.587282E0,3.4576874E0,4.4594803E0,1.552578E0,0E0,0E0,0E0,0E0,0E0,0E0,0E0,0E0,0E0,0E0,0E0,0E0,0E0],"parents":[2147483647,0,0,1,1,2,2,3,3,4,4,5,5,6,6,8,8,9,9,10,10,11,11,12,12,13,13],"right_children":[2,4,6,8,10,12,14,-1,16,18,20,22,24,26,-1,-1,-1,-1,-1,-1,-1,-1,-1,-1,-1,-1,-1],"split_conditions":[3.4835968E1,4.5481445E1,4.5021904E1,1.0763873E0,5.946892E1,4.4003475E1,3.5078785E1,-8.534444E-2,1.3886376E1,1.058162E1,1.9919088E0,2.1880435E2,6.522628E1,1.02947426E2,1.04652226E-1,-5.074845E-2,2.2403953E-4,-1.909402E-2,-8.321761E-2,1.0510322E-1,-2.7113367E-2,-3.61272E-2,-7.057654E-2,1.16877735E-1,-2.5030378E-2,-2.129809E-2,6.6760615E-2],"split_indices":[0,4,4,0,4,4,0,0,8,0,6,6,7,7,0,0,0,0,0,0,0,0,0,0,0,0,0],"split_type":[0,0,0,0,0,0,0,0,0,0,0,0,0,0,0,0,0,0,0,0,0,0,0,0,0,0,0],"sum_hessian":[1.02138214E3,5.5128345E2,4.7009866E2,1.7524211E2,3.7604135E2,2.5014569E2,2.1995297E2,4.0421033E0,1.7120001E2,5.977796E1,3.162634E2,2.4219002E2,7.955671E0,6.3362145E0,2.1361674E2,1.1407536E1,1.5979248E2,1.8801193E1,4.097677E1,2.267779E0,3.139956E2,2.0736314E2,3.4826874E1,2.4213517E0,5.534319E0,3.0921793E0,3.2440352E0],"tree_param":{"num_deleted":"0","num_feature":"13","num_nodes":"27","size_leaf_vector":"1"}},{"base_weights":[-6.569619E-3,-2.9634303E-1,1.8371418E-1,-6.411118E-2,-3.8974324E-1,-2.3984616E-1,9.487722E-1,-1.4258741E-1,7.136026E-1,-3.41263E-1,-7.803135E-1,-3.0370402E-1,-7.214241E-2,-5.681119E-2,1.0409714E-1,-1.9481638E-2,5.874082E-2,-7.6622866E-2,1.2401278E-1,7.911064E-3,-3.9088316E-2,-9.363897E-2,-1.8715873E-2,-4.3081146E-2,-1.8114423E-2,-5.4777205E-2,7.982584E-3,2.7710477E-2,-6.0506057E-2],"categories":[],"categories_nodes":[],"categories_segments":[],"categories_sizes":[],"default_left":[0,0,0,0,0,0,0,0,0,0,0,0,0,0,0,0,0,0,0,0,0,0,0,0,0,0,0,0,0],"id":33,"left_children":[1,3,5,7,9,11,13,15,17,19,21,23,25,27,-1,-1,-1,-1,-1,-1,-1,-1,-1,-1,-1,-1,-1,-1,-1],"loss_changes":[5.4580994E1,8.485409E0,1.9385715E2,7.0432515E0,5.0283127E0,4.105442E0,1.9819366E1,4.08513E0,9.202577E0,5.2565613E0,2.6111984E0,4.2653103E0,7.820698E0,3.6182306E0,0E0,0E0,0E0,0E0,0E0,0E0,0E0,0E0,0E0,0E0,0E0,0E0,0E0,0E0,0E0],"parents":[2147483647,0,0,1,1,2,2,3,3,4,4,5,5,6,6,7,7,8,8,9,9,10,10,11,11,12,12,13,13],"right_children":[2,4,6,8,10,12,14,16,18,20,22,24,26,28,-1,-1,-1,-1,-1,-1,-1,-1,-1,-1,-1,-1,-1,-1,-1],"split_conditions":[4.230691E1,2.4168745E1,3.5078785E1,2.2140867E1,1.7937572E2,2.600865E1,4.5021904E1,3.94823E1,4.0152607E1,1.1899564E1,3.09E2,9.815466E1,3.2409904E1,1E0,1.0409714E-1,-1.9481638E-2,5.874082E-2,-7.6622866E-2,1.2401278E-1,7.911064E-3,-3.9088316E-2,-9.363897E-2,-1.8715873E-2,-4.3081146E-2,-1.8114423E-2,-5.4777205E-2,7.982584E-3,2.7710477E-2,-6.0506057E-2],"split_indices":[4,0,0,0,5,0,4,4,8,3,2,5,1,11,0,0,0,0,0,0,0,0,0,0,0,0,0,0,0],"split_type":[0,0,0,0,0,0,0,0,0,0,0,0,0,0,0,0,0,0,0,0,0,0,0,0,0,0,0,0,0],"sum_hessian":[9.878892E2,3.9135596E2,5.9653326E2,1.12735344E2,2.7862064E2,3.844024E2,2.1213084E2,1.0314411E2,9.591233E0,2.49522E2,2.909863E1,2.7780823E2,1.0659417E2,1.7848421E1,1.9428242E2,9.6941376E1,6.202733E0,2.3975415E0,7.193692E0,2.6280836E1,2.2324117E2,2.2578827E1,6.519803E0,1.3513934E2,1.4266888E2,2.5180334E1,8.141383E1,1.1399825E1,6.448596E0],"tree_param":{"num_deleted":"0","num_feature":"13","num_nodes":"29","size_leaf_vector":"1"}},{"base_weights":[-8.408449E-3,-2.0754206E-1,2.433511E-1,-6.5262154E-2,-2.7466652E-1,-3.555656E-1,1.0115844E0,-1.1541864E-1,5.3538716E-1,-4.8548654E-1,-2.1991652E-1,-7.4976027E-1,-3.026697E-1,2.680582E-1,1.0358959E-1,-7.567754E-2,-7.1679177E-3,-5.803712E-2,6.857135E-2,3.5961527E-2,-5.840532E-2,-8.1365705E-2,-1.8783746E-2,-1.1118623E-2,-9.2626065E-2,-3.868231E-2,-3.591926E-3,-1.4558497E-2,6.611245E-2],"categories":[],"categories_nodes":[],"categories_segments":[],"categories_sizes":[],"default_left":[0,0,0,0,0,0,0,0,0,0,0,0,0,0,0,0,0,0,0,0,0,0,0,0,0,0,0,0,0],"id":34,"left_children":[1,3,5,7,9,11,13,15,17,19,21,23,25,27,-1,-1,-1,-1,-1,-1,-1,-1,-1,-1,-1,-1,-1,-1,-1],"loss_changes":[4.7775547E1,5.063591E0,1.9401149E2,5.2395215E0,4.0623856E0,4.7199154E0,3.0598907E0,4.418564E0,2.6493456E0,6.3439827E0,5.343378E0,2.984295E0,4.7193127E0,1.26611E0,0E0,0E0,0E0,0E0,0E0,0E0,0E0,0E0,0E0,0E0,0E0,0E0,0E0,0E0,0E0],"parents":[2147483647,0,0,1,1,2,2,3,3,4,4,5,5,6,6,7,7,8,8,9,9,10,10,11,11,12,12,13,13],"right_children":[2,4,6,8,10,12,14,16,18,20,22,24,26,28,-1,-1,-1,-1,-1,-1,-1,-1,-1,-1,-1,-1,-1,-1,-1],"split_conditions":[3.4835968E1,4.5481445E1,4.5021904E1,1.8855182E2,4.137797E1,5.4975014E0,3.5078785E1,2.763084E0,8.3333336E-2,2.2561165E1,9.81691E0,9.2E1,3.05E2,1.0712071E2,1.0358959E-1,-7.567754E-2,-7.1679177E-3,-5.803712E-2,6.857135E-2,3.5961527E-2,-5.840532E-2,-8.1365705E-2,-1.8783746E-2,-1.1118623E-2,-9.2626065E-2,-3.868231E-2,-3.591926E-3,-1.4558497E-2,6.611245E-2],"split_indices":[0,4,4,7,5,4,0,0,12,8,8,2,2,7,0,0,0,0,0,0,0,0,0,0,0,0,0,0,0],"split_type":[0,0,0,0,0,0,0,0,0,0,0,0,0,0,0,0,0,0,0,0,0,0,0,0,0,0,0,0,0],"sum_hessian":[9.509537E2,5.310701E2,4.1988354E2,1.7086644E2,3.6020367E2,2.3624416E2,1.836394E2,1.5844365E2,1.24228E1,7.2637764E1,2.8756592E2,2.639171E1,2.0985245E2,6.1951895E0,1.7744421E2,9.074935E0,1.4936871E2,1.135334E0,1.1287466E1,7.310424E0,6.532734E1,1.3491534E1,2.7407437E2,6.067954E0,2.0323755E1,1.5918365E2,5.0668793E1,3.3253624E0,2.8698268E0],"tree_param":{"num_deleted":"0","num_feature":"13","num_nodes":"29","size_leaf_vector":"1"}},{"base_weights":[1.1703472E-4,-2.5130653E-1,1.6345483E-1,-7.3757365E-2,-3.7643802E-1,-1.8987665E-1,8.8675827E-1,-1.3420743E-1,6.918824E-1,-4.5078507E-1,-1.3913429E-1,3.955538E-1,-2.1651024E-1,-1.4298905E-1,1.0312474E-1,-2.047707E-2,2.3165261E-2,9.899355E-2,-4.105274E-2,-3.6305618E-2,-7.958447E-2,6.681997E-2,-2.8375799E-2,-2.1814298E-2,1.19766556E-1,3.4768913E-2,-2.3362622E-2,-4.485738E-2,3.0843869E-2],"categories":[],"categories_nodes":[],"categories_segments":[],"categories_sizes":[],"default_left":[0,0,0,0,0,0,0,0,0,0,0,0,0,0,0,0,0,0,0,0,0,0,0,0,0,0,0,0,0],"id":35,"left_children":[1,3,5,7,9,11,13,15,17,19,21,23,25,27,-1,-1,-1,-1,-1,-1,-1,-1,-1,-1,-1,-1,-1,-1,-1],"loss_changes":[3.8184525E1,8.107443E0,1.442156E2,7.156681E0,3.7225132E0,6.002656E0,2.7695816E1,3.7208786E0,4.1294293E0,4.642906E0,6.334518E0,8.564057E0,3.5926533E0,3.4023983E0,0E0,0E0,0E0,0E0,0E0,0E0,0E0,0E0,0E0,0E0,0E0,0E0,0E0,0E0,0E0],"parents":[2147483647,0,0,1,1,2,2,3,3,4,4,5,5,6,6,7,7,8,8,9,9,10,10,11,11,12,12,13,13],"right_children":[2,4,6,8,10,12,14,16,18,20,22,24,26,28,-1,-1,-1,-1,-1,-1,-1,-1,-1,-1,-1,-1,-1,-1,-1],"split_conditions":[4.1148266E1,3.378095E1,3.5078785E1,3.1378828E1,3.05E2,4.5481445E1,4.5021904E1,1.7298186E2,1.5750008E2,2.46E2,3.14E2,1.6466573E2,2.8395008E1,2.46E2,1.0312474E-1,-2.047707E-2,2.3165261E-2,9.899355E-2,-4.105274E-2,-3.6305618E-2,-7.958447E-2,6.681997E-2,-2.8375799E-2,-2.1814298E-2,1.19766556E-1,3.4768913E-2,-2.3362622E-2,-4.485738E-2,3.0843869E-2],"split_indices":[4,0,0,0,2,4,4,8,5,2,2,6,1,2,0,0,0,0,0,0,0,0,0,0,0,0,0,0,0],"split_type":[0,0,0,0,0,0,0,0,0,0,0,0,0,0,0,0,0,0,0,0,0,0,0,0,0,0,0,0,0],"sum_hessian":[9.278108E2,3.6517047E2,5.626403E2,1.5162254E2,2.1354791E2,3.7848773E2,1.8415259E2,1.4129175E2,1.0330791E1,1.6191917E2,5.1628735E1,1.5866914E1,3.6262082E2,2.2661144E1,1.6149144E2,1.1881606E2,2.2475693E1,8.212456E0,2.1183355E0,1.3073334E2,3.1185846E1,7.293561E0,4.433517E1,9.4017E0,6.465214E0,1.0108176E1,3.5251263E2,1.3517246E1,9.143899E0],"tree_param":{"num_deleted":"0","num_feature":"13","num_nodes":"29","size_leaf_vector":"1"}},{"base_weights":[-8.85762E-3,-2.2198005E-1,1.5802574E-1,-7.2766826E-2,-3.2803866E-1,-2.0178193E-1,1.02694385E-1,-1.2249587E-1,4.2413828E-1,-3.8100684E-1,-6.694378E-3,-1.6998905E-1,-5.448373E-1,-9.84947E-4,-3.66306E-2,1.8871745E-2,1.8098053E-1,-2.9006708E-2,-6.6448234E-2,-3.5936844E-2,5.3072136E-2,8.7721154E-2,-1.8084504E-2,-8.080394E-2,-1.9301044E-2],"categories":[],"categories_nodes":[],"categories_segments":[],"categories_sizes":[],"default_left":[0,0,0,0,0,0,0,0,0,0,0,0,0,0,0,0,0,0,0,0,0,0,0,0,0],"id":36,"left_children":[1,3,5,7,9,11,-1,13,15,17,19,21,23,-1,-1,-1,-1,-1,-1,-1,-1,-1,-1,-1,-1],"loss_changes":[3.198204E1,6.2252827E0,1.5788803E2,4.1378083E0,3.9213772E0,3.8064795E0,0E0,4.145753E0,4.638563E0,4.9088E0,6.566661E0,3.8946028E0,2.6098242E0,0E0,0E0,0E0,0E0,0E0,0E0,0E0,0E0,0E0,0E0,0E0,0E0],"parents":[2147483647,0,0,1,1,2,2,3,3,4,4,5,5,7,7,8,8,9,9,10,10,11,11,12,12],"right_children":[2,4,6,8,10,12,-1,14,16,18,20,22,24,-1,-1,-1,-1,-1,-1,-1,-1,-1,-1,-1,-1],"split_conditions":[4.5021904E1,3.403432E1,3.5078785E1,3.1378828E1,1.7277438E2,1.818456E2,1.02694385E-1,4.0322147E1,3.46E2,1.3159328E2,1.3173924E2,4.5481445E1,1.9232805E2,-9.84947E-4,-3.66306E-2,1.8871745E-2,1.8098053E-1,-2.9006708E-2,-6.6448234E-2,-3.5936844E-2,5.3072136E-2,8.7721154E-2,-1.8084504E-2,-8.080394E-2,-1.9301044E-2],"split_indices":[4,0,0,0,7,8,0,1,2,7,5,4,8,0,0,0,0,0,0,0,0,0,0,0,0],"split_type":[0,0,0,0,0,0,0,0,0,0,0,0,0,0,0,0,0,0,0,0,0,0,0,0,0],"sum_hessian":[8.9722955E2,3.9388242E2,5.0334717E2,1.6434811E2,2.2953429E2,3.56495E2,1.4685217E2,1.5008179E2,1.4266333E1,1.9689397E2,3.2640316E1,3.2762744E2,2.8867569E1,1.03364975E2,4.671681E1,1.31657095E1,1.1006235E0,1.5060326E2,4.6290707E1,1.9907505E1,1.2732811E1,2.5427377E0,3.250847E2,1.5771898E1,1.3095671E1],"tree_param":{"num_deleted":"0","num_feature":"13","num_nodes":"25","size_leaf_vector":"1"}},{"base_weights":[-7.5012194E-3,-1.823153E-1,2.3995736E-1,-6.4900106E-1,-1.595917E-1,-2.4529359E-1,9.872675E-1,-8.027758E-1,-5.7957377E-2,1.5264711E-1,-1.97486E-1,-7.647437E-1,-2.134337E-1,2.1118651E-1,1.023003E-1,3.783573E-2,-9.005355E-2,5.9441347E-2,-5.5022646E-2,5.1500383E-3,1.334013E-1,-8.878339E-2,-1.8052315E-2,-9.666739E-2,-2.7047265E-2,5.1310956E-3,-2.5983548E-2,5.3876985E-2,-3.8266703E-2],"categories":[],"categories_nodes":[],"categories_segments":[],"categories_sizes":[],"default_left":[0,0,0,0,0,0,0,0,0,0,0,0,0,0,0,0,0,0,0,0,0,0,0,0,0,0,0,0,0],"id":37,"left_children":[1,3,5,7,9,11,13,15,17,19,21,23,25,27,-1,-1,-1,-1,-1,-1,-1,-1,-1,-1,-1,-1,-1,-1,-1],"loss_changes":[3.7493183E1,5.2823944E0,1.3036096E2,2.0670786E0,5.776105E0,3.4504547E0,3.7072144E0,2.4625607E0,2.2150755E0,6.278971E0,4.91617E0,9.5933676E-1,2.5577555E0,1.6627036E0,0E0,0E0,0E0,0E0,0E0,0E0,0E0,0E0,0E0,0E0,0E0,0E0,0E0,0E0,0E0],"parents":[2147483647,0,0,1,1,2,2,3,3,4,4,5,5,6,6,7,7,8,8,9,9,10,10,11,11,12,12,13,13],"right_children":[2,4,6,8,10,12,14,16,18,20,22,24,26,28,-1,-1,-1,-1,-1,-1,-1,-1,-1,-1,-1,-1,-1,-1,-1],"split_conditions":[3.4835968E1,9.81691E0,4.5021904E1,2.839318E1,3.03553E1,2.2945855E0,3.5078785E1,5.8E1,3.1034037E1,3.56E2,8.863251E0,1.199802E2,3.0755932E1,8.401137E1,1.023003E-1,3.783573E-2,-9.005355E-2,5.9441347E-2,-5.5022646E-2,5.1500383E-3,1.334013E-1,-8.878339E-2,-1.8052315E-2,-9.666739E-2,-2.7047265E-2,5.1310956E-3,-2.5983548E-2,5.3876985E-2,-3.8266703E-2],"split_indices":[0,8,4,0,8,4,0,2,0,2,3,8,1,4,0,0,0,0,0,0,0,0,0,0,0,0,0,0,0],"split_type":[0,0,0,0,0,0,0,0,0,0,0,0,0,0,0,0,0,0,0,0,0,0,0,0,0,0,0,0,0],"sum_hessian":[8.646979E2,5.0688116E2,3.5781674E2,2.2255163E1,4.8462598E2,2.17354E2,1.4046272E2,1.7376102E1,4.879061E0,5.212248E1,4.325035E2,1.1231416E1,2.0612259E2,6.487202E0,1.3397552E2,1.1088372E0,1.6267265E1,2.0090744E0,2.869987E0,4.8973076E1,3.149405E0,9.141132E0,4.2336237E2,7.2952485E0,3.936167E0,3.072362E1,1.7539897E2,4.240694E0,2.2465081E0],"tree_param":{"num_deleted":"0","num_feature":"13","num_nodes":"29","size_leaf_vector":"1"}},{"base_weights":[1.16416365E-2,-1.0018E-1,2.1703506E-1,1.1725433E-3,-1.6357198E-1,1.4591883E-1,2.0182294E-1,1.0573184E-1,-1.8114232E-1,-2.5316778E-1,7.6158434E-2,2.7085823E-1,3.8551554E-2,7.0207394E-3,1.7201106E-1,-7.10795E-2,-5.760742E-3,3.970573E-3,-3.100476E-2,5.1152777E-2,-1.6226267E-2,1.4839253E-2,4.125858E-2,1.523818E-2,-2.7293796E-2],"categories":[],"categories_nodes":[],"categories_segments":[],"categories_sizes":[],"default_left":[0,0,0,0,0,0,0,0,0,0,0,0,0,0,0,0,0,0,0,0,0,0,0,0,0],"id":38,"left_children":[1,3,5,7,9,-1,11,13,15,17,19,21,23,-1,-1,-1,-1,-1,-1,-1,-1,-1,-1,-1,-1],"loss_changes":[1.951951E1,3.53621E0,5.366167E0,4.075032E0,7.291871E0,0E0,3.3384209E0,7.670126E0,5.0571904E0,4.1221104E0,9.724652E0,3.5602713E0,3.2135243E0,0E0,0E0,0E0,0E0,0E0,0E0,0E0,0E0,0E0,0E0,0E0,0E0],"parents":[2147483647,0,0,1,1,2,2,3,3,4,4,6,6,7,7,8,8,9,9,10,10,11,11,12,12],"right_children":[2,4,6,8,10,-1,12,14,16,18,20,22,24,-1,-1,-1,-1,-1,-1,-1,-1,-1,-1,-1,-1],"split_conditions":[3.8630783E1,5.965372E0,3.888665E1,1.697837E2,1.8900638E2,1.4591883E-1,7.083333E-1,4.5803E1,1.8729502E0,2.9994688E1,2.1316226E2,8.209797E0,4.146473E1,7.0207394E-3,1.7201106E-1,-7.10795E-2,-5.760742E-3,3.970573E-3,-3.100476E-2,5.1152777E-2,-1.6226267E-2,1.4839253E-2,4.125858E-2,1.523818E-2,-2.7293796E-2],"split_indices":[0,9,0,6,6,0,12,1,9,6,6,9,1,0,0,0,0,0,0,0,0,0,0,0,0],"split_type":[0,0,0,0,0,0,0,0,0,0,0,0,0,0,0,0,0,0,0,0,0,0,0,0,0],"sum_hessian":[8.479313E2,5.493583E2,2.98573E2,2.1176506E2,3.3759323E2,2.4638429E0,2.9610916E2,1.3484833E2,7.691673E1,2.4570753E2,9.1885704E1,2.0765036E2,8.8458786E1,1.329659E2,1.882429E0,1.3647903E1,6.326883E1,4.000811E1,2.0569942E2,3.210848E1,5.977723E1,1.1249303E2,9.515733E1,6.515825E1,2.3300533E1],"tree_param":{"num_deleted":"0","num_feature":"13","num_nodes":"25","size_leaf_vector":"1"}},{"base_weights":[9.297945E-3,-1.910353E-1,1.4184688E-1,-1.7561836E-2,-3.1783244E-1,-1.2907022E-1,8.037886E-1,-7.784165E-2,5.2735E-1,-3.4008494E-1,4.836569E-1,-5.7771828E-2,-3.0133623E-1,-1.21972606E-1,1.0185819E-1,-6.906733E-2,-3.4798763E-3,-6.676826E-2,7.3228195E-2,-4.6512585E-2,-1.1714778E-2,1.4161246E-1,-5.1489066E-2,3.4605723E-3,-3.0557934E-2,-7.067903E-2,-1.8961236E-2,-6.677112E-2,1.0381694E-2],"categories":[],"categories_nodes":[],"categories_segments":[],"categories_sizes":[],"default_left":[0,0,0,0,0,0,0,0,0,0,0,0,0,0,0,0,0,0,0,0,0,0,0,0,0,0,0,0,0],"id":39,"left_children":[1,3,5,7,9,11,13,15,17,19,21,23,25,27,-1,-1,-1,-1,-1,-1,-1,-1,-1,-1,-1,-1,-1,-1,-1],"loss_changes":[2.229264E1,7.347783E0,9.070127E1,4.712833E0,3.608057E0,4.39612E0,2.9326042E1,3.3769567E0,3.989819E0,5.1987686E0,5.970053E0,5.8568897E0,4.6202097E0,3.587236E0,0E0,0E0,0E0,0E0,0E0,0E0,0E0,0E0,0E0,0E0,0E0,0E0,0E0,0E0,0E0],"parents":[2147483647,0,0,1,1,2,2,3,3,4,4,5,5,6,6,7,7,8,8,9,9,10,10,11,11,12,12,13,13],"right_children":[2,4,6,8,10,12,14,16,18,20,22,24,26,28,-1,-1,-1,-1,-1,-1,-1,-1,-1,-1,-1,-1,-1,-1,-1],"split_conditions":[3.94823E1,3.4331093E1,3.5078785E1,3.1378828E1,6.910573E1,1.3910995E2,4.5021904E1,2.763084E0,8.3333336E-2,1.2956905E2,5E-1,1.0675661E2,4.137797E1,2.9166666E-1,1.0185819E-1,-6.906733E-2,-3.4798763E-3,-6.676826E-2,7.3228195E-2,-4.6512585E-2,-1.1714778E-2,1.4161246E-1,-5.1489066E-2,3.4605723E-3,-3.0557934E-2,-7.067903E-2,-1.8961236E-2,-6.677112E-2,1.0381694E-2],"split_indices":[4,0,0,0,0,7,4,0,12,8,12,4,5,12,0,0,0,0,0,0,0,0,0,0,0,0,0,0,0],"split_type":[0,0,0,0,0,0,0,0,0,0,0,0,0,0,0,0,0,0,0,0,0,0,0,0,0,0,0,0,0],"sum_hessian":[8.375019E2,3.333056E2,5.041963E2,1.4122781E2,1.920778E2,3.5834088E2,1.4585544E2,1.27932655E2,1.3295153E1,1.8744916E2,4.628643E0,2.5438852E2,1.03952354E2,2.7549398E1,1.1830604E2,7.408368E0,1.20524284E2,1.6156485E0,1.1679504E1,1.1939602E2,6.805315E1,2.177271E0,2.4513721E0,1.859358E2,6.8452705E1,2.1305805E1,8.2646545E1,7.489609E0,2.005979E1],"tree_param":{"num_deleted":"0","num_feature":"13","num_nodes":"29","size_leaf_vector":"1"}},{"base_weights":[3.027446E-3,-1.033864E-1,1.9435287E-1,-2.3546028E-1,-9.323462E-3,2.0920354E-1,-2.3764278E-1,-3.1598088E-1,1.8331575E-1,1.5514012E-1,-1.5324499E-1,1.4834136E-1,3.541836E-1,-3.2942677E-1,2.6023744E-2,1.421119E-2,-4.1278332E-2,-8.292084E-2,3.251179E-2,5.394568E-2,7.399888E-3,-3.6186524E-2,4.91682E-3,1.935714E-2,-2.3997508E-2,1.5024719E-1,2.6839206E-2,2.5239721E-2,-4.3472257E-2],"categories":[],"categories_nodes":[],"categories_segments":[],"categories_sizes":[],"default_left":[0,0,0,0,0,0,0,0,0,0,0,0,0,0,0,0,0,0,0,0,0,0,0,0,0,0,0,0,0],"id":40,"left_children":[1,3,5,7,9,11,13,15,17,19,21,23,25,27,-1,-1,-1,-1,-1,-1,-1,-1,-1,-1,-1,-1,-1,-1,-1],"loss_changes":[1.6753103E1,6.5669928E0,1.9364214E0,7.473261E0,7.35842E0,2.4608908E0,5.5376434E-1,8.254032E0,5.452339E0,4.4852695E0,7.017426E0,3.6003623E0,7.822729E0,6.665575E-1,0E0,0E0,0E0,0E0,0E0,0E0,0E0,0E0,0E0,0E0,0E0,0E0,0E0,0E0,0E0],"parents":[2147483647,0,0,1,1,2,2,3,3,4,4,5,5,6,6,7,7,8,8,9,9,10,10,11,11,12,12,13,13],"right_children":[2,4,6,8,10,12,14,16,18,20,22,24,26,28,-1,-1,-1,-1,-1,-1,-1,-1,-1,-1,-1,-1,-1,-1,-1],"split_conditions":[3.7681118E1,3.543939E1,5.0718185E1,3.28E2,4.0322147E1,3.820046E1,5.1837727E1,7.9E1,2.4873129E1,1.5632815E1,9.526999E1,3.510967E1,1.6741066E0,2.507197E0,2.6023744E-2,1.421119E-2,-4.1278332E-2,-8.292084E-2,3.251179E-2,5.394568E-2,7.399888E-3,-3.6186524E-2,4.91682E-3,1.935714E-2,-2.3997508E-2,1.5024719E-1,2.6839206E-2,2.5239721E-2,-4.3472257E-2],"split_indices":[0,1,3,2,1,3,3,2,6,3,7,3,9,9,0,0,0,0,0,0,0,0,0,0,0,0,0,0,0],"split_type":[0,0,0,0,0,0,0,0,0,0,0,0,0,0,0,0,0,0,0,0,0,0,0,0,0,0,0,0,0],"sum_hessian":[8.208702E2,5.277815E2,2.930887E2,2.1890854E2,3.0887296E2,2.8384665E2,9.242046E0,1.8381146E2,3.5097076E1,1.4411282E2,1.6476013E2,2.013456E2,8.250107E1,8.089155E0,1.1528904E0,3.1984571E1,1.5182689E2,3.715963E0,3.1381113E1,2.41379E1,1.1997492E2,8.074811E1,8.401202E1,1.8078926E2,2.0556326E1,4.5873995E0,7.7913666E1,1.0255167E0,7.0636387E0],"tree_param":{"num_deleted":"0","num_feature":"13","num_nodes":"29","size_leaf_vector":"1"}},{"base_weights":[1.8619067E-3,-1.6996795E-1,1.4480998E-1,-6.422022E-2,-3.4243503E-1,-1.3265726E-1,9.852662E-1,-1.4194338E-1,3.3484483E-1,4.143924E-1,-3.7252164E-1,-9.800264E-2,-5.717791E-1,1.7395283E-1,1.0146754E-1,1.14799E-1,-1.5619971E-2,-7.0409575E-3,7.5536035E-2,7.654943E-2,-3.144059E-2,-2.6007516E-2,-5.958314E-2,-5.630916E-3,-3.8430735E-2,2.7933827E-2,-7.545822E-2,9.801899E-2,-5.4796398E-2],"categories":[],"categories_nodes":[],"categories_segments":[],"categories_sizes":[],"default_left":[0,0,0,0,0,0,0,0,0,0,0,0,0,0,0,0,0,0,0,0,0,0,0,0,0,0,0,0,0],"id":41,"left_children":[1,3,5,7,9,11,13,15,17,19,21,23,25,27,-1,-1,-1,-1,-1,-1,-1,-1,-1,-1,-1,-1,-1,-1,-1],"loss_changes":[2.0210108E1,6.79274E0,1.0486914E2,7.270125E0,3.3830624E0,5.0957813E0,2.4861298E0,3.7764304E0,6.5728683E0,1.7490215E0,3.2826176E0,3.7383766E0,4.0313873E0,3.5116403E0,0E0,0E0,0E0,0E0,0E0,0E0,0E0,0E0,0E0,0E0,0E0,0E0,0E0,0E0,0E0],"parents":[2147483647,0,0,1,1,2,2,3,3,4,4,5,5,6,6,7,7,8,8,9,9,10,10,11,11,12,12,13,13],"right_children":[2,4,6,8,10,12,14,16,18,20,22,24,26,28,-1,-1,-1,-1,-1,-1,-1,-1,-1,-1,-1,-1,-1,-1,-1],"split_conditions":[4.4537357E1,4.6012783E1,3.5078785E1,1.7298186E2,9.167711E0,1.8347668E2,4.5021904E1,2.812191E1,3.705508E1,5.416667E-1,1E0,1.22273035E1,3.3732132E1,4.9290707E1,1.0146754E-1,1.14799E-1,-1.5619971E-2,-7.0409575E-3,7.5536035E-2,7.654943E-2,-3.144059E-2,-2.6007516E-2,-5.958314E-2,-5.630916E-3,-3.8430735E-2,2.7933827E-2,-7.545822E-2,9.801899E-2,-5.4796398E-2],"split_indices":[4,0,0,8,3,8,4,1,1,12,11,9,7,0,0,0,0,0,0,0,0,0,0,0,0,0,0,0,0],"split_type":[0,0,0,0,0,0,0,0,0,0,0,0,0,0,0,0,0,0,0,0,0,0,0,0,0,0,0,0,0],"sum_hessian":[8.207931E2,3.7265564E2,4.4813745E2,2.3186227E2,1.4079338E2,3.3754343E2,1.10594025E2,1.9460474E2,3.7257523E1,4.89468E0,1.358987E2,3.1398734E2,2.3556072E1,4.1105623E0,1.0648347E2,1.2579575E0,1.9334679E2,1.9397017E1,1.7860508E1,3.2693193E0,1.625361E0,9.182521E1,4.4073483E1,2.7511942E2,3.8867935E1,4.0714827E0,1.948459E1,1.7728653E0,2.3376968E0],"tree_param":{"num_deleted":"0","num_feature":"13","num_nodes":"29","size_leaf_vector":"1"}},{"base_weights":[-1.0598339E-2,-1.8428276E-1,1.3632514E-1,-2.0708442E-2,-2.5462738E-1,-1.1753364E-1,9.657738E-1,9.088153E-2,-4.3842024E-1,-8.5222423E-1,-2.3233308E-1,-8.752724E-2,-5.065829E-1,9.580784E-2,1.0112887E-1,3.0631386E-3,1.0639677E-1,-5.924953E-2,5.750359E-2,-9.4686404E-2,-6.3012512E-3,-5.384785E-2,-1.925941E-2,-2.3150152E-2,-5.960854E-5,-6.360676E-2,2.9307565E-2,6.9384724E-2,-5.578336E-2],"categories":[],"categories_nodes":[],"categories_segments":[],"categories_sizes":[],"default_left":[0,0,0,0,0,0,0,0,0,0,0,0,0,0,0,0,0,0,0,0,0,0,0,0,0,0,0,0,0],"id":42,"left_children":[1,3,5,7,9,11,13,15,17,19,21,23,25,27,-1,-1,-1,-1,-1,-1,-1,-1,-1,-1,-1,-1,-1,-1,-1],"loss_changes":[2.045722E1,4.221676E0,9.156786E1,5.2398834E0,3.223236E0,3.848278E0,3.9375381E0,5.1776085E0,4.0400343E0,6.021476E-1,2.9247646E0,3.8894987E0,2.6370168E0,2.7990186E0,0E0,0E0,0E0,0E0,0E0,0E0,0E0,0E0,0E0,0E0,0E0,0E0,0E0,0E0,0E0],"parents":[2147483647,0,0,1,1,2,2,3,3,4,4,5,5,6,6,7,7,8,8,9,9,10,10,11,11,12,12,13,13],"right_children":[2,4,6,8,10,12,14,16,18,20,22,24,26,28,-1,-1,-1,-1,-1,-1,-1,-1,-1,-1,-1,-1,-1,-1,-1],"split_conditions":[4.4537357E1,2.4168745E1,3.5078785E1,4.2708023E1,1.3103908E0,1.8347668E2,4.5021904E1,2.2993484E1,5.1213318E1,1.7298186E2,3.0601545E1,6.988399E1,3.1571358E1,4.1666666E-1,1.0112887E-1,3.0631386E-3,1.0639677E-1,-5.924953E-2,5.750359E-2,-9.4686404E-2,-6.3012512E-3,-5.384785E-2,-1.925941E-2,-2.3150152E-2,-5.960854E-5,-6.360676E-2,2.9307565E-2,6.9384724E-2,-5.578336E-2],"split_indices":[4,0,0,3,4,8,4,0,3,8,0,8,0,12,0,0,0,0,0,0,0,0,0,0,0,0,0,0,0],"split_type":[0,0,0,0,0,0,0,0,0,0,0,0,0,0,0,0,0,0,0,0,0,0,0,0,0,0,0,0,0],"sum_hessian":[7.996836E2,3.663507E2,4.333329E2,1.1055903E2,2.5579167E2,3.324442E2,1.00888664E2,8.786791E1,2.2691118E1,7.8606834E0,2.4793098E2,3.0977686E2,2.2667347E1,5.1702394E0,9.571842E1,8.371599E1,4.1519265E0,2.0057205E1,2.6339126E0,6.840618E0,1.020065E0,2.7043093E1,2.208879E2,1.1599852E2,1.9377835E2,1.968451E1,2.982838E0,2.667834E0,2.5024052E0],"tree_param":{"num_deleted":"0","num_feature":"13","num_nodes":"29","size_leaf_vector":"1"}},{"base_weights":[-1.0176173E-2,-1.0329099E-1,1.7474513E-1,-7.4493694E-1,-8.846754E-2,-1.7956744E-1,1.0064872E-1,-9.014961E-2,3.3004328E-3,1.1784045E-1,-1.1998996E-1,9.777023E-2,-2.7699104E-1,5.629748E-2,-8.948753E-3,-1.745057E-2,1.0419666E-2,1.4413308E-1,-4.610156E-3,1.7525386E-2,-3.3797733E-2],"categories":[],"categories_nodes":[],"categories_segments":[],"categories_sizes":[],"default_left":[0,0,0,0,0,0,0,0,0,0,0,0,0,0,0,0,0,0,0,0,0],"id":43,"left_children":[1,3,5,7,9,11,-1,-1,-1,13,15,17,19,-1,-1,-1,-1,-1,-1,-1,-1],"loss_changes":[1.3484094E1,4.887337E0,7.747419E1,1.4455438E0,3.3317719E0,5.019645E0,0E0,0E0,0E0,6.337074E0,5.4326878E0,9.494553E0,3.8378973E0,0E0,0E0,0E0,0E0,0E0,0E0,0E0,0E0],"parents":[2147483647,0,0,1,1,2,2,3,3,4,4,5,5,9,9,10,10,11,11,12,12],"right_children":[2,4,6,8,10,12,-1,-1,-1,14,16,18,20,-1,-1,-1,-1,-1,-1,-1,-1],"split_conditions":[3.8630783E1,5.0129485E0,4.5021904E1,4.30676E1,3.310129E1,4.6012783E1,1.0064872E-1,-9.014961E-2,3.3004328E-3,2.0820726E1,3.16E2,1.8635637E1,1.204085E1,5.629748E-2,-8.948753E-3,-1.745057E-2,1.0419666E-2,1.4413308E-1,-4.610156E-3,1.7525386E-2,-3.3797733E-2],"split_indices":[0,8,4,1,6,0,0,0,0,3,2,8,3,0,0,0,0,0,0,0,0],"split_type":[0,0,0,0,0,0,0,0,0,0,0,0,0,0,0,0,0,0,0,0,0],"sum_hessian":[7.810496E2,5.1976825E2,2.6128137E2,1.0624479E1,5.0914377E2,1.8377812E2,7.750326E1,8.712319E0,1.9121608E0,6.71198E1,4.4202396E2,4.7774353E1,1.3600377E2,2.078306E1,4.633674E1,3.5573987E2,8.6284096E1,3.7486901E0,4.4025665E1,1.5938433E1,1.2006534E2],"tree_param":{"num_deleted":"0","num_feature":"13","num_nodes":"21","size_leaf_vector":"1"}},{"base_weights":[2.2894591E-2,-1.0594241E-1,1.8601197E-1,-7.9904217E-1,-8.6487286E-2,-3.0851772E-2,9.968369E-2,-9.62183E-2,4.262104E-2,3.876925E-1,-1.10577784E-1,6.809508E-2,-3.248807E-1,-7.4512004E-3,1.2032715E-1,-1.2288362E-2,6.490258E-2,8.258128E-2,1.9920378E-3,-5.6285303E-2,-6.461676E-3],"categories":[],"categories_nodes":[],"categories_segments":[],"categories_sizes":[],"default_left":[0,0,0,0,0,0,0,0,0,0,0,0,0,0,0,0,0,0,0,0,0],"id":44,"left_children":[1,3,5,7,9,11,-1,-1,-1,13,15,17,19,-1,-1,-1,-1,-1,-1,-1,-1],"loss_changes":[1.616091E1,5.7259064E0,5.969297E1,2.7312946E0,4.8308725E0,7.8386464E0,0E0,0E0,0E0,7.812491E0,3.8155937E0,7.351638E0,4.16421E0,0E0,0E0,0E0,0E0,0E0,0E0,0E0,0E0],"parents":[2147483647,0,0,1,1,2,2,3,3,4,4,5,5,9,9,10,10,11,11,12,12],"right_children":[2,4,6,8,10,12,-1,-1,-1,14,16,18,20,-1,-1,-1,-1,-1,-1,-1,-1],"split_conditions":[5.946892E1,2.5024712E0,3.4835968E1,1.2789147E1,5.570179E0,1.4600822E2,9.968369E-2,-9.62183E-2,4.262104E-2,1.418748E2,2.5722705E2,6.3525776E1,9.694434E1,-7.4512004E-3,1.2032715E-1,-1.2288362E-2,6.490258E-2,8.258128E-2,1.9920378E-3,-5.6285303E-2,-6.461676E-3],"split_indices":[4,0,0,9,0,7,0,0,0,5,6,4,4,0,0,0,0,0,0,0,0],"split_type":[0,0,0,0,0,0,0,0,0,0,0,0,0,0,0,0,0,0,0,0,0],"sum_hessian":[7.670598E2,4.2875864E2,3.3830118E2,1.0612471E1,4.1814615E2,2.676715E2,7.062965E1,9.554948E0,1.057523E0,1.9486908E1,3.9865924E2,2.008498E2,6.682173E1,1.3017995E1,6.4689126E0,3.9312866E2,5.5305934E0,1.1041474E1,1.8980832E2,3.429838E1,3.2523354E1],"tree_param":{"num_deleted":"0","num_feature":"13","num_nodes":"21","size_leaf_vector":"1"}},{"base_weights":[5.5013737E-3,-7.224889E-2,1.6862406E-1,-7.0756197E-1,-5.7470627E-2,-1.3572142E-1,1.0008221E-1,3.4950268E-2,-8.537135E-1,8.972825E-1,-7.12052E-2,6.811998E-1,-1.775003E-1,-9.349592E-2,-6.081554E-3,-6.1868113E-2,1.4647193E-1,-6.720254E-2,-5.847742E-3,1.1125916E-1,-4.501727E-2,-1.24658365E-2,-5.839787E-2],"categories":[],"categories_nodes":[],"categories_segments":[],"categories_sizes":[],"default_left":[0,0,0,0,0,0,0,0,0,0,0,0,0,0,0,0,0,0,0,0,0,0,0],"id":45,"left_children":[1,3,5,7,9,11,-1,-1,13,15,17,19,21,-1,-1,-1,-1,-1,-1,-1,-1,-1,-1],"loss_changes":[9.616497E0,4.780813E0,6.2121326E1,2.0882454E0,6.659112E0,6.267061E0,0E0,0E0,6.1753225E-1,7.104947E0,3.7593422E0,4.8779535E0,3.624012E0,0E0,0E0,0E0,0E0,0E0,0E0,0E0,0E0,0E0,0E0],"parents":[2147483647,0,0,1,1,2,2,3,3,4,4,5,5,8,8,9,9,10,10,11,11,12,12],"right_children":[2,4,6,8,10,12,-1,-1,14,16,18,20,22,-1,-1,-1,-1,-1,-1,-1,-1,-1,-1],"split_conditions":[3.8630783E1,8.863251E0,4.5021904E1,6.1E1,9.329111E0,3.9892616E1,1.0008221E-1,3.4950268E-2,1.2583541E1,4.02153E0,8.6394405E-1,1.1033308E1,2.300166E2,-9.349592E-2,-6.081554E-3,-6.1868113E-2,1.4647193E-1,-6.720254E-2,-5.847742E-3,1.1125916E-1,-4.501727E-2,-1.24658365E-2,-5.839787E-2],"split_indices":[0,3,4,2,3,0,0,0,9,9,0,9,6,0,0,0,0,0,0,0,0,0,0],"split_type":[0,0,0,0,0,0,0,0,0,0,0,0,0,0,0,0,0,0,0,0,0,0,0],"sum_hessian":[7.562689E2,5.125336E2,2.4373526E2,1.0585549E1,5.019481E2,1.7908025E2,6.465502E1,1.116793E0,9.468757E0,6.2060623E0,4.9574203E2,7.9682655E0,1.7111197E2,8.426186E0,1.0425711E0,1.6656923E0,4.54037E0,9.209385E0,4.8653265E2,5.7806907E0,2.1875749E0,1.5258296E2,1.8529005E1],"tree_param":{"num_deleted":"0","num_feature":"13","num_nodes":"23","size_leaf_vector":"1"}},{"base_weights":[-3.074123E-3,-5.616299E-2,1.3798216E-1,-1.3607363E-1,3.91102E-2,5.622737E-1,7.405135E-2,-1.5763088E-1,6.15359E-1,2.4936152E-1,-6.569127E-2,1.0148406E0,-7.15925E-2,-2.1785757E-1,1.6275959E-1,-1.726003E-2,6.953901E-2,-7.5595304E-3,1.3110432E-1,6.92213E-2,-1.3617784E-3,5.8653917E-2,-1.1177805E-2,2.3543604E-1,6.232015E-2,-3.656539E-2,8.571954E-2,-3.0116782E-2,8.0759846E-2,-1.0842833E-2,2.6693499E-2],"categories":[],"categories_nodes":[],"categories_segments":[],"categories_sizes":[],"default_left":[0,0,0,0,0,0,0,0,0,0,0,0,0,0,0,0,0,0,0,0,0,0,0,0,0,0,0,0,0,0,0],"id":46,"left_children":[1,3,5,7,9,11,13,15,17,19,21,23,25,27,29,-1,-1,-1,-1,-1,-1,-1,-1,-1,-1,-1,-1,-1,-1,-1,-1],"loss_changes":[5.606192E0,4.146085E0,5.5114813E0,4.892045E0,5.5001526E0,7.719303E0,4.6723037E0,3.8046265E0,4.1653023E0,9.675039E0,5.081716E0,6.726019E0,3.601229E0,3.8451064E0,3.9248834E0,0E0,0E0,0E0,0E0,0E0,0E0,0E0,0E0,0E0,0E0,0E0,0E0,0E0,0E0,0E0,0E0],"parents":[2147483647,0,0,1,1,2,2,3,3,4,4,5,5,6,6,7,7,8,8,9,9,10,10,11,11,12,12,13,13,14,14],"right_children":[2,4,6,8,10,12,14,16,18,20,22,24,26,28,30,-1,-1,-1,-1,-1,-1,-1,-1,-1,-1,-1,-1,-1,-1,-1,-1],"split_conditions":[4.2695454E1,3.159639E1,4.577187E1,4.5655243E1,3.3333334E-1,1.1417225E2,4.6794163E1,2.5722705E2,2.29E2,3.897895E1,5E1,2.5774391E1,4.198324E1,4.499121E1,7.457775E1,-1.726003E-2,6.953901E-2,-7.5595304E-3,1.3110432E-1,6.92213E-2,-1.3617784E-3,5.8653917E-2,-1.1177805E-2,2.3543604E-1,6.232015E-2,-3.656539E-2,8.571954E-2,-3.0116782E-2,8.0759846E-2,-1.0842833E-2,2.6693499E-2],"split_indices":[0,3,0,1,12,8,8,6,2,3,2,7,1,1,6,0,0,0,0,0,0,0,0,0,0,0,0,0,0,0,0],"split_type":[0,0,0,0,0,0,0,0,0,0,0,0,0,0,0,0,0,0,0,0,0,0,0,0,0,0,0,0,0,0,0],"sum_hessian":[7.466035E2,5.428825E2,2.03721E2,2.9501212E2,2.478704E2,2.5655739E1,1.7806525E2,2.8755295E2,7.4591484E0,8.199458E1,1.6587582E2,1.4617865E1,1.1037875E1,4.116132E1,1.3690393E2,2.833777E2,4.175257E0,4.189484E0,3.269664E0,2.9941517E1,5.205307E1,1.0173357E1,1.5570247E2,2.1732295E0,1.2444634E1,8.844081E0,2.1937935E0,3.872179E1,2.4395323E0,3.798392E1,9.8920006E1],"tree_param":{"num_deleted":"0","num_feature":"13","num_nodes":"31","size_leaf_vector":"1"}},{"base_weights":[-1.1278167E-2,-1.2318731E-1,1.3527998E-1,-9.404815E-2,-4.166646E-1,-4.775085E-2,9.972959E-2,-8.4946044E-2,-8.361661E-2,-4.9313757E-1,6.6891015E-2,-1.1805692E-2,-5.285531E-1,1.494247E-2,-1.3022018E-2,-5.590364E-2,8.035846E-2,7.4349426E-2,-3.6729705E-3,-7.0641E-2,7.246569E-2],"categories":[],"categories_nodes":[],"categories_segments":[],"categories_sizes":[],"default_left":[0,0,0,0,0,0,0,0,0,0,0,0,0,0,0,0,0,0,0,0,0],"id":47,"left_children":[1,3,5,7,9,11,-1,-1,13,15,-1,17,19,-1,-1,-1,-1,-1,-1,-1,-1],"loss_changes":[1.2274801E1,3.589428E0,5.117901E1,2.9808023E0,3.4872785E0,4.630174E0,0E0,0E0,4.1803174E0,3.5345774E0,0E0,4.7455134E0,4.6662235E0,0E0,0E0,0E0,0E0,0E0,0E0,0E0,0E0],"parents":[2147483647,0,0,1,1,2,2,3,3,4,4,5,5,8,8,9,9,11,11,12,12],"right_children":[2,4,6,8,10,12,-1,-1,14,16,-1,18,20,-1,-1,-1,-1,-1,-1,-1,-1],"split_conditions":[5.946892E1,6.3877583E1,3.5078785E1,1.0763873E0,4.5021904E1,1.296028E1,9.972959E-2,-8.4946044E-2,1.1910821E1,1.3417152E1,6.6891015E-2,6.183648E1,9.166667E-1,1.494247E-2,-1.3022018E-2,-5.590364E-2,8.035846E-2,7.4349426E-2,-3.6729705E-3,-7.0641E-2,7.246569E-2],"split_indices":[4,0,0,0,4,9,0,0,0,9,0,4,12,0,0,0,0,0,0,0,0],"split_type":[0,0,0,0,0,0,0,0,0,0,0,0,0,0,0,0,0,0,0,0,0],"sum_hessian":[7.4639276E2,4.2331592E2,3.2307687E2,3.8628262E2,3.7033283E1,2.6727194E2,5.5804935E1,4.1659846E0,3.8211664E2,3.5105988E1,1.9272943E0,2.496337E2,1.7638258E1,6.3313072E1,3.1880356E2,3.3949574E1,1.1564164E0,7.053492E0,2.425802E2,1.5828219E1,1.8100381E0],"tree_param":{"num_deleted":"0","num_feature":"13","num_nodes":"21","size_leaf_vector":"1"}},{"base_weights":[-6.625493E-4,-1.21760264E-1,8.6138554E-2,-1.377872E-2,-2.4740088E-1,-8.816244E-2,6.8025273E-1,-4.2545296E-2,1.564169E-1,-1.296123E-1,-6.1733794E-1,-1.29459165E-2,-2.2748485E-1,2.1159188E-3,9.428091E-1,-1.515341E-2,2.9974049E-2,-9.148022E-2,-7.990209E-3,-9.130413E-2,-2.896199E-2,3.5526564E-3,-3.776554E-2,-4.0348183E-2,4.7765826E-3,2.400919E-2,-5.416989E-2,2.7849594E-2,9.986418E-2],"categories":[],"categories_nodes":[],"categories_segments":[],"categories_sizes":[],"default_left":[0,0,0,0,0,0,0,0,0,0,0,0,0,0,0,0,0,0,0,0,0,0,0,0,0,0,0,0,0],"id":48,"left_children":[1,3,5,7,9,11,13,15,-1,17,19,21,23,25,27,-1,-1,-1,-1,-1,-1,-1,-1,-1,-1,-1,-1,-1,-1],"loss_changes":[7.726362E0,4.1601386E0,4.439757E1,7.6063232E0,6.098297E0,3.4753819E0,1.7310467E1,6.167322E0,0E0,4.174009E0,3.0281677E0,3.8427615E0,5.653725E0,3.7719507E0,2.321659E0,0E0,0E0,0E0,0E0,0E0,0E0,0E0,0E0,0E0,0E0,0E0,0E0,0E0,0E0],"parents":[2147483647,0,0,1,1,2,2,3,3,4,4,5,5,6,6,7,7,9,9,10,10,11,11,12,12,13,13,14,14],"right_children":[2,4,6,8,10,12,14,16,-1,18,20,22,24,26,28,-1,-1,-1,-1,-1,-1,-1,-1,-1,-1,-1,-1,-1,-1],"split_conditions":[3.94823E1,5.416667E-1,3.4835968E1,6.910573E1,5.369142E1,1.2594595E2,4.5021904E1,3.05E2,1.564169E-1,1.06449375E1,7.4751496E0,1.2018781E2,5.833333E-1,1E0,3.5078785E1,-1.515341E-2,2.9974049E-2,-9.148022E-2,-7.990209E-3,-9.130413E-2,-2.896199E-2,3.5526564E-3,-3.776554E-2,-4.0348183E-2,4.7765826E-3,2.400919E-2,-5.416989E-2,2.7849594E-2,9.986418E-2],"split_indices":[4,12,0,0,0,7,4,2,0,7,9,4,12,11,0,0,0,0,0,0,0,0,0,0,0,0,0,0,0],"split_type":[0,0,0,0,0,0,0,0,0,0,0,0,0,0,0,0,0,0,0,0,0,0,0,0,0,0,0,0,0],"sum_hessian":[7.330472E2,3.0589084E2,4.271563E2,1.6510306E2,1.4078777E2,3.3092212E2,9.623419E1,1.6310268E2,2.0003853E0,1.0781095E2,3.2976826E1,2.1561185E2,1.1531027E2,2.7141232E1,6.9092964E1,1.2413391E2,3.896876E1,5.382934E0,1.0242802E2,1.639626E1,1.6580566E1,1.9111403E2,2.4497822E1,7.005244E1,4.5257835E1,1.9267975E1,7.8732553E0,5.8210077E0,6.3271957E1],"tree_param":{"num_deleted":"0","num_feature":"13","num_nodes":"29","size_leaf_vector":"1"}},{"base_weights":[-3.9144387E-4,-8.1391014E-2,1.0877494E-1,-8.387349E-2,-7.030668E-2,1.641516E-1,-6.25085E-2,1.719433E-1,-1.0070089E-1,2.146967E-1,-1.9819218E-1,-1.6661255E-1,3.7811294E-1,1.1583128E-1,-7.2873016E-5,-1.413907E-3,-2.3542041E-2,1.721689E-2,6.907802E-2,-3.7505165E-2,2.0637369E-2,-4.6915603E-3,-6.1126333E-2,1.3611515E-1,8.450775E-3],"categories":[],"categories_nodes":[],"categories_segments":[],"categories_sizes":[],"default_left":[0,0,0,0,0,0,0,0,0,0,0,0,0,0,0,0,0,0,0,0,0,0,0,0,0],"id":49,"left_children":[1,3,5,-1,7,9,11,13,15,17,19,21,23,-1,-1,-1,-1,-1,-1,-1,-1,-1,-1,-1,-1],"loss_changes":[6.4050922E0,3.4317086E0,2.9367564E0,0E0,3.0428805E0,4.3177814E0,3.5539453E0,7.8657904E0,4.261738E0,4.038452E0,2.1592755E0,3.28469E0,4.1711736E0,0E0,0E0,0E0,0E0,0E0,0E0,0E0,0E0,0E0,0E0,0E0,0E0],"parents":[2147483647,0,0,1,1,2,2,4,4,5,5,6,6,7,7,8,8,9,9,10,10,11,11,12,12],"right_children":[2,4,6,-1,8,10,12,14,16,18,20,22,24,-1,-1,-1,-1,-1,-1,-1,-1,-1,-1,-1,-1],"split_conditions":[6.012793E1,2.5765426E0,1.4600822E2,-8.387349E-2,2.2658813E1,1.22273035E1,3.2E2,2.8723035E0,3.885299E1,4.8690533E1,1E0,2.1002988E2,3.3E2,1.1583128E-1,-7.2873016E-5,-1.413907E-3,-2.3542041E-2,1.721689E-2,6.907802E-2,-3.7505165E-2,2.0637369E-2,-4.6915603E-3,-6.1126333E-2,1.3611515E-1,8.450775E-3],"split_indices":[4,7,7,0,7,9,2,9,1,3,11,6,2,0,0,0,0,0,0,0,0,0,0,0,0],"split_type":[0,0,0,0,0,0,0,0,0,0,0,0,0,0,0,0,0,0,0,0,0,0,0,0,0],"sum_hessian":[7.2235754E2,4.1482153E2,3.07536E2,4.9066005E0,4.0991495E2,2.3243155E2,7.510445E1,4.51779E1,3.6473703E2,2.043353E2,2.8096256E1,6.1254044E1,1.3850404E1,5.8801336E0,3.9297764E1,2.2273029E2,1.4200676E2,1.888291E2,1.5506185E1,1.9600626E1,8.49563E0,4.913323E1,1.2120817E1,2.3491316E0,1.1501272E1],"tree_param":{"num_deleted":"0","num_feature":"13","num_nodes":"25","size_leaf_vector":"1"}},{"base_weights":[-2.193898E-2,-1.334312E-1,7.761148E-2,5.011318E-2,-2.127098E-1,-8.840308E-2,9.3669474E-1,1.6820958E-1,-4.357392E-1,-6.877844E-1,-1.8397264E-1,1.13026075E-1,-1.5259181E-1,1.2493773E-1,9.9546544E-2,9.860153E-3,8.333902E-2,2.9615754E-2,-7.3015265E-2,3.3191205E-3,-8.0291025E-2,1.1343815E-2,-2.3311144E-2,-2.6532376E-2,3.4591008E-2,-1.7547881E-2,8.677947E-2,-3.2680918E-2,6.465315E-2],"categories":[],"categories_nodes":[],"categories_segments":[],"categories_sizes":[],"default_left":[0,0,0,0,0,0,0,0,0,0,0,0,0,0,0,0,0,0,0,0,0,0,0,0,0,0,0,0,0],"id":50,"left_children":[1,3,5,7,9,11,13,15,17,19,21,23,25,27,-1,-1,-1,-1,-1,-1,-1,-1,-1,-1,-1,-1,-1,-1,-1],"loss_changes":[8.043592E0,4.9839096E0,5.4705853E1,6.0350327E0,3.134635E0,4.179037E0,2.8388672E0,3.8214478E0,4.654257E0,1.1272731E0,