{"learner":{"attributes":{"scikit_learn":"{\"_estimator_type\": \"classifier\"}"},"feature_names":[],"feature_types":[],"gradient_booster":{"model":{"gbtree_model_param":{"num_parallel_tree":"1","num_trees":"80"},"iteration_indptr":[0,1,2,3,4,5,6,7,8,9,10,11,12,13,14,15,16,17,18,19,20,21,22,23,24,25,26,27,28,29,30,31,32,33,34,35,36,37,38,39,40,41,42,43,44,45,46,47,48,49,50,51,52,53,54,55,56,57,58,59,60,61,62,63,64,65,66,67,68,69,70,71,72,73,74,75,76,77,78,79,80],"tree_info":[0,0,0,0,0,0,0,0,0,0,0,0,0,0,0,0,0,0,0,0,0,0,0,0,0,0,0,0,0,0,0,0,0,0,0,0,0,0,0,0,0,0,0,0,0,0,0,0,0,0,0,0,0,0,0,0,0,0,0,0,0,0,0,0,0,0,0,0,0,0,0,0,0,0,0,0,0,0,0,0],"trees":[{"base_weights":[-4.7773558E-1,-7.645625E-1,1.0224473E0,-8.047739E-1,-6.8755305E-1,-7.900604E-1,3.7500558E0,-8.594665E-1,-7.438939E-1,-6.929978E-1,1.3115199E-1,-8.182127E-2,-8.1374305E-1,3.792673E0,3.6276784E-2,-1.0362055E-1,-8.339744E-2,-3.999964E-3,-7.509049E-2,-6.9762796E-2,2.1593044E-2,-7.549121E-2,8.8909365E-2,5.096495E-2,-8.619556E-2,-7.045274E-2,-9.697356E-2,3.819351E-1,6.5409765E-2],"categories":[],"categories_nodes":[],"categories_segments":[],"categories_sizes":[],"default_left":[0,0,0,0,0,0,0,0,0,0,0,0,0,0,0,0,0,0,0,0,0,0,0,0,0,0,0,0,0],"id":0,"left_children":[1,3,5,7,9,11,13,15,17,19,21,23,25,27,-1,-1,-1,-1,-1,-1,-1,-1,-1,-1,-1,-1,-1,-1,-1],"loss_changes":[8.5149097E2,4.5880127E0,1.5738936E3,2.9730225E0,2.6603394E0,3.149269E0,1.6961792E1,1.6815796E0,2.5402527E0,2.5610962E0,3.7933533E0,3.8148584E0,2.4756393E0,7.996826E0,0E0,0E0,0E0,0E0,0E0,0E0,0E0,0E0,0E0,0E0,0E0,0E0,0E0,0E0,0E0],"parents":[2147483647,0,0,1,1,2,2,3,3,4,4,5,5,6,6,7,7,8,8,9,9,10,10,11,11,12,12,13,13],"right_children":[2,4,6,8,10,12,14,16,18,20,22,24,26,28,-1,-1,-1,-1,-1,-1,-1,-1,-1,-1,-1,-1,-1,-1,-1],"split_conditions":[4.494181E1,1.2956905E2,1.199802E2,1.0199615E2,1.2870204E2,4.1563873E0,6.887096E1,1.613008E1,5.4517806E-1,1.9914597E2,1.6400264E2,1E0,3.885299E1,1.993573E2,3.6276784E-2,-1.0362055E-1,-8.339744E-2,-3.999964E-3,-7.509049E-2,-6.9762796E-2,2.1593044E-2,-7.549121E-2,8.8909365E-2,5.096495E-2,-8.619556E-2,-7.045274E-2,-9.697356E-2,3.819351E-1,6.5409765E-2],"split_indices":[3,8,8,7,4,8,0,4,0,7,8,10,1,8,0,0,0,0,0,0,0,0,0,0,0,0,0,0,0],"split_type":[0,0,0,0,0,0,0,0,0,0,0,0,0,0,0,0,0,0,0,0,0,0,0,0,0,0,0,0,0],"sum_hessian":[1.9760474E3,1.6592904E3,3.1675702E2,1.0838789E3,5.7541156E2,1.9072787E2,1.2602916E2,5.6404364E2,5.198352E2,5.717626E2,3.6489513E0,6.3154926E0,1.8441238E2,1.2434503E2,1.6841314E0,6.610216E1,4.979415E2,5.192738E0,5.1464246E2,5.6909607E2,2.6665413E0,1.6841314E0,1.9648199E0,3.7892954E0,2.526197E0,1.1171404E2,7.269833E1,1.2308193E2,1.2630985E0],"tree_param":{"num_deleted":"0","num_feature":"13","num_nodes":"29","size_leaf_vector":"1"}},{"base_weights":[-4.438769E-1,-7.2368616E-1,8.556242E-1,-7.506872E-1,-6.417654E-1,-9.131182E-1,1.6840763E0,-3.9105338E-1,-7.619222E-1,-6.0960525E-1,-8.8829327E-1,-9.3641645E-1,5.0471988E-2,1.6246569E0,2.690005E-1,-6.1067194E-2,3.6938015E-2,-7.9977006E-2,-6.84733E-2,-6.311832E-2,-4.254949E-3,-9.979528E-2,-1.906272E-2,-9.582422E-2,-2.2312547E-3,1.9180587E-1,1.4336249E-1],"categories":[],"categories_nodes":[],"categories_segments":[],"categories_sizes":[],"default_left":[0,0,0,0,0,0,0,0,0,0,0,0,0,0,0,0,0,0,0,0,0,0,0,0,0,0,0],"id":1,"left_children":[1,3,5,7,9,11,13,15,17,19,21,23,-1,25,-1,-1,-1,-1,-1,-1,-1,-1,-1,-1,-1,-1,-1],"loss_changes":[6.9876227E2,3.013855E0,5.0067145E2,4.480896E0,2.6192017E0,4.0832443E0,9.516418E0,6.552343E0,2.7998657E0,4.3272095E0,3.162037E0,2.13105E0,0E0,9.687256E0,0E0,0E0,0E0,0E0,0E0,0E0,0E0,0E0,0E0,0E0,0E0,0E0,0E0],"parents":[2147483647,0,0,1,1,2,2,3,3,4,4,5,5,6,6,7,7,8,8,9,9,10,10,11,11,13,13],"right_children":[2,4,6,8,10,12,14,16,18,20,22,24,-1,26,-1,-1,-1,-1,-1,-1,-1,-1,-1,-1,-1,-1,-1],"split_conditions":[4.494181E1,1.494463E2,5.107904E0,6.484424E0,1.15528206E2,1.9705856E2,1.905513E2,5.666888E1,1E0,1.1033129E2,1.27772964E2,5.0088873E0,5.0471988E-2,3.4453667E1,2.690005E-1,-6.1067194E-2,3.6938015E-2,-7.9977006E-2,-6.84733E-2,-6.311832E-2,-4.254949E-3,-9.979528E-2,-1.906272E-2,-9.582422E-2,-2.2312547E-3,1.9180587E-1,1.4336249E-1],"split_indices":[3,7,9,5,4,7,5,0,10,4,4,9,0,1,0,0,0,0,0,0,0,0,0,0,0,0,0],"split_type":[0,0,0,0,0,0,0,0,0,0,0,0,0,0,0,0,0,0,0,0,0,0,0,0,0,0,0],"sum_hessian":[1.9190194E3,1.5793878E3,3.3963156E2,1.1817281E3,3.9765973E2,1.0830295E2,2.3132861E2,3.6883663E1,1.1448445E3,3.5484247E2,4.281728E1,1.06886116E2,1.4168319E0,2.2089555E2,1.0433051E1,2.8771261E1,8.112401E0,7.619028E2,3.829417E2,3.417258E2,1.31166725E1,3.662943E1,6.1878486E0,1.043464E2,2.5397246E0,8.354312E1,1.3735243E2],"tree_param":{"num_deleted":"0","num_feature":"13","num_nodes":"27","size_leaf_vector":"1"}},{"base_weights":[-4.182868E-1,-6.7922246E-1,6.828569E-1,-7.216162E-1,-5.999196E-1,-8.097059E-1,2.45703E0,-6.241197E-1,-7.5846803E-1,-6.136593E-1,9.146382E-2,-2.8804016E-1,-8.570087E-1,-9.621338E-1,3.7919167E-1,7.644992E-2,-6.381304E-2,-4.9781065E-2,-7.768151E-2,-6.3794196E-2,-3.5048008E-2,1.663667E-1,-3.294403E-2,7.647837E-2,-4.8275616E-2,-8.9163944E-2,-3.5612117E-2,-1.0562062E-1,-4.270722E-2],"categories":[],"categories_nodes":[],"categories_segments":[],"categories_sizes":[],"default_left":[0,0,0,0,0,0,0,0,0,0,0,0,0,0,0,0,0,0,0,0,0,0,0,0,0,0,0,0,0],"id":2,"left_children":[1,3,5,7,9,11,13,15,17,19,21,23,25,27,-1,-1,-1,-1,-1,-1,-1,-1,-1,-1,-1,-1,-1,-1,-1],"loss_changes":[5.342468E2,4.61792E0,9.457352E2,3.0264282E0,5.084015E0,4.5479584E0,7.4798584E2,5.7959747E0,2.9716492E0,3.093811E0,7.9488463E0,3.9896698E0,2.763977E0,1.8939705E0,0E0,0E0,0E0,0E0,0E0,0E0,0E0,0E0,0E0,0E0,0E0,0E0,0E0,0E0,0E0],"parents":[2147483647,0,0,1,1,2,2,3,3,4,4,5,5,6,6,7,7,8,8,9,9,10,10,11,11,12,12,13,13],"right_children":[2,4,6,8,10,12,14,16,18,20,22,24,26,28,-1,-1,-1,-1,-1,-1,-1,-1,-1,-1,-1,-1,-1,-1,-1],"split_conditions":[4.494181E1,1.2956905E2,1.199802E2,3.3041924E1,1.9610428E2,1.7963037E1,5.0088873E0,1.5878512E0,5.071461E0,1.8317677E2,2.8162227E0,1.185429E1,1.1273503E2,3.32E2,3.7919167E-1,7.644992E-2,-6.381304E-2,-4.9781065E-2,-7.768151E-2,-6.3794196E-2,-3.5048008E-2,1.663667E-1,-3.294403E-2,7.647837E-2,-4.8275616E-2,-8.9163944E-2,-3.5612117E-2,-1.0562062E-1,-4.270722E-2],"split_indices":[3,8,8,1,5,5,9,5,0,7,9,4,8,2,0,0,0,0,0,0,0,0,0,0,0,0,0,0,0],"split_type":[0,0,0,0,0,0,0,0,0,0,0,0,0,0,0,0,0,0,0,0,0,0,0,0,0,0,0,0,0],"sum_hessian":[1.8567502E3,1.5013595E3,3.5539075E2,9.7307355E2,5.28286E2,1.9330891E2,1.6208183E2,2.7183456E2,7.01239E2,5.181023E2,1.0183684E1,1.666067E1,1.7664824E2,4.5589252E1,1.1649258E2,2.1802568E0,2.696543E2,4.7962845E1,6.532761E2,4.7303323E2,4.506909E1,1.5270587E0,8.656626E0,2.143443E0,1.4517226E1,1.6449515E2,1.2153091E1,3.7944084E1,7.645166E0],"tree_param":{"num_deleted":"0","num_feature":"13","num_nodes":"29","size_leaf_vector":"1"}},{"base_weights":[-3.9533788E-1,-6.5553564E-1,6.260823E-1,-7.003538E-1,-5.722453E-1,-7.573863E-1,2.0080023E0,-6.7465746E-1,-8.4995633E-1,-8.370765E-1,-5.463803E-1,1.7157926E-1,-7.8834647E-1,-9.401894E-1,2.9138902E-1,-6.8379276E-2,-2.7201457E-2,8.335505E-2,-8.703262E-2,-8.8159025E-2,-2.977684E-2,-7.289293E-2,-5.039951E-2,-3.302747E-2,9.526778E-2,-8.130878E-2,-1.6236255E-2,-9.77977E-2,1.7581148E-2],"categories":[],"categories_nodes":[],"categories_segments":[],"categories_sizes":[],"default_left":[0,0,0,0,0,0,0,0,0,0,0,0,0,0,0,0,0,0,0,0,0,0,0,0,0,0,0,0,0],"id":3,"left_children":[1,3,5,7,9,11,13,15,17,19,21,23,25,27,-1,-1,-1,-1,-1,-1,-1,-1,-1,-1,-1,-1,-1,-1,-1],"loss_changes":[4.7674753E2,4.9331665E0,6.981692E2,2.980713E0,3.0042877E0,5.3932495E0,4.903319E2,2.7340393E0,5.2409744E0,7.718277E-1,3.217163E0,2.947924E0,2.6108398E0,2.0134697E0,0E0,0E0,0E0,0E0,0E0,0E0,0E0,0E0,0E0,0E0,0E0,0E0,0E0,0E0,0E0],"parents":[2147483647,0,0,1,1,2,2,3,3,4,4,5,5,6,6,7,7,8,8,9,9,10,10,11,11,12,12,13,13],"right_children":[2,4,6,8,10,12,14,16,18,20,22,24,26,28,-1,-1,-1,-1,-1,-1,-1,-1,-1,-1,-1,-1,-1,-1,-1],"split_conditions":[4.494181E1,1.2956905E2,1.199802E2,6.0466206E1,6E1,4.1563873E0,5.0088873E0,5.90538E1,6.8798435E-1,2.3798146E2,1.458444E1,1.7517819E2,6.758735E1,3.71E2,2.9138902E-1,-6.8379276E-2,-2.7201457E-2,8.335505E-2,-8.703262E-2,-8.8159025E-2,-2.977684E-2,-7.289293E-2,-5.039951E-2,-3.302747E-2,9.526778E-2,-8.130878E-2,-1.6236255E-2,-9.77977E-2,1.7581148E-2],"split_indices":[3,8,8,0,2,8,9,0,8,6,3,6,0,2,0,0,0,0,0,0,0,0,0,0,0,0,0,0,0],"split_type":[0,0,0,0,0,0,0,0,0,0,0,0,0,0,0,0,0,0,0,0,0,0,0,0,0,0,0,0,0],"sum_hessian":[1.7912823E3,1.4278966E3,3.6338577E2,9.235366E2,5.0436E2,1.8181697E2,1.8156879E2,7.928612E2,1.3067538E2,4.2085407E1,4.622746E2,5.7175922E0,1.7609938E2,4.2668205E1,1.3890059E2,7.745888E2,1.82724E1,1.0849738E0,1.2959042E2,3.8290306E1,3.7951014E0,8.405592E1,3.7821866E2,3.8324308E0,1.8851612E0,1.6911635E2,6.983025E0,4.139041E1,1.2777921E0],"tree_param":{"num_deleted":"0","num_feature":"13","num_nodes":"29","size_leaf_vector":"1"}},{"base_weights":[-3.611886E-1,-6.1282814E-1,5.806385E-1,-6.636569E-1,-5.2700156E-1,-7.032005E-1,1.7446666E0,-6.482907E-1,-9.378479E-1,-5.4151094E-1,1.4474504E-1,-1.3957821E-1,-7.5741565E-1,1.7582065E0,2.1728745E-2,-5.3958334E-2,-6.904497E-2,-4.780739E-3,-9.7687684E-2,-5.7253994E-2,-2.7989814E-2,-6.500611E-2,5.2997123E-2,3.851686E-2,-5.4407068E-2,1.3092554E-2,-7.881745E-2,1.13359764E-1,1.7950621E-1],"categories":[],"categories_nodes":[],"categories_segments":[],"categories_sizes":[],"default_left":[0,0,0,0,0,0,0,0,0,0,0,0,0,0,0,0,0,0,0,0,0,0,0,0,0,0,0,0,0],"id":4,"left_children":[1,3,5,7,9,11,13,15,17,19,21,23,25,27,-1,-1,-1,-1,-1,-1,-1,-1,-1,-1,-1,-1,-1,-1,-1],"loss_changes":[4.080445E2,5.5743103E0,5.440214E2,2.9691772E0,5.048752E0,5.1937866E0,3.5635376E0,3.3269348E0,1.4406586E0,3.8935547E0,3.8873198E0,3.6999872E0,4.420044E0,2.3151245E0,0E0,0E0,0E0,0E0,0E0,0E0,0E0,0E0,0E0,0E0,0E0,0E0,0E0,0E0,0E0],"parents":[2147483647,0,0,1,1,2,2,3,3,4,4,5,5,6,6,7,7,8,8,9,9,10,10,11,11,12,12,13,13],"right_children":[2,4,6,8,10,12,14,16,18,20,22,24,26,28,-1,-1,-1,-1,-1,-1,-1,-1,-1,-1,-1,-1,-1,-1,-1],"split_conditions":[4.494181E1,1.2616559E2,1.199802E2,4.3036892E1,1.9610428E2,1.7963037E1,6.887096E1,3.3041924E1,5.0129485E0,2.3090971E2,2.5192707E1,5.7328175E1,4.1563873E0,2.9391043E1,2.1728745E-2,-5.3958334E-2,-6.904497E-2,-4.780739E-3,-9.7687684E-2,-5.7253994E-2,-2.7989814E-2,-6.500611E-2,5.2997123E-2,3.851686E-2,-5.4407068E-2,1.3092554E-2,-7.881745E-2,1.13359764E-1,1.7950621E-1],"split_indices":[3,8,8,3,5,5,0,1,8,6,0,8,8,1,0,0,0,0,0,0,0,0,0,0,0,0,0,0,0],"split_type":[0,0,0,0,0,0,0,0,0,0,0,0,0,0,0,0,0,0,0,0,0,0,0,0,0,0,0,0,0],"sum_hessian":[1.7191981E3,1.356985E3,3.622131E2,8.480282E2,5.0895688E2,1.7243054E2,1.8978256E2,8.06211E2,4.181719E1,4.9838586E2,1.0570987E1,1.5444418E1,1.5698611E2,1.8796515E2,1.8174112E0,2.291483E2,5.770627E2,1.8501492E0,3.9967037E1,4.4447922E2,5.390667E1,3.22651E0,7.3444767E0,6.7436604E0,8.700757E0,5.1447477E0,1.5184137E2,1.2242545E1,1.7572261E2],"tree_param":{"num_deleted":"0","num_feature":"13","num_nodes":"29","size_leaf_vector":"1"}},{"base_weights":[-3.4731978E-1,-5.792015E-1,4.9073902E-1,-5.821565E-1,1.0603255E-1,-8.305964E-1,9.4086105E-1,-5.8619237E-1,-6.355056E-2,-7.370376E-2,5.7640755E-1,-8.6694837E-1,-1.6276509E-1,1.0881203E0,8.437104E-1,-6.1745256E-2,-5.238474E-2,-6.281809E-2,1.0188495E-1,1.232831E-1,-6.532595E-2,1.8636426E-2,-8.847886E-2,9.266974E-2,-7.092598E-2,1.7738442E-1,9.9532776E-2,-3.63754E-2,8.5677534E-2],"categories":[],"categories_nodes":[],"categories_segments":[],"categories_sizes":[],"default_left":[0,0,0,0,0,0,0,0,0,0,0,0,0,0,0,0,0,0,0,0,0,0,0,0,0,0,0,0,0],"id":5,"left_children":[1,3,5,7,9,11,13,15,17,-1,19,21,23,25,27,-1,-1,-1,-1,-1,-1,-1,-1,-1,-1,-1,-1,-1,-1],"loss_changes":[3.2461368E2,2.7096863E0,2.1623077E2,2.6883545E0,2.98702E0,2.106369E0,2.9542084E0,2.194641E0,7.471308E0,0E0,4.605851E0,1.8103867E0,4.2356534E0,4.8606186E0,2.9545593E0,0E0,0E0,0E0,0E0,0E0,0E0,0E0,0E0,0E0,0E0,0E0,0E0,0E0,0E0],"parents":[2147483647,0,0,1,1,2,2,3,3,4,4,5,5,6,6,7,7,8,8,10,10,11,11,12,12,13,13,14,14],"right_children":[2,4,6,8,10,12,14,16,18,-1,20,22,24,26,28,-1,-1,-1,-1,-1,-1,-1,-1,-1,-1,-1,-1,-1,-1],"split_conditions":[4.494181E1,1.9914597E2,5.0088873E0,1.2870204E2,2.0117487E1,1.2261306E2,3.4453667E1,1E0,3.3767998E1,-7.370376E-2,1.4955197E2,3.444304E0,4.771587E1,1.0722049E1,3.4591297E1,-6.1745256E-2,-5.238474E-2,-6.281809E-2,1.0188495E-1,1.232831E-1,-6.532595E-2,1.8636426E-2,-8.847886E-2,9.266974E-2,-7.092598E-2,1.7738442E-1,9.9532776E-2,-3.63754E-2,8.5677534E-2],"split_indices":[3,7,9,4,3,4,1,10,3,0,5,7,5,4,1,0,0,0,0,0,0,0,0,0,0,0,0,0,0],"split_type":[0,0,0,0,0,0,0,0,0,0,0,0,0,0,0,0,0,0,0,0,0,0,0,0,0,0,0,0,0],"sum_hessian":[1.6679578E3,1.3067133E3,3.6124442E2,1.3012522E3,5.461045E0,9.157634E1,2.6966806E2,1.2910746E3,1.01776495E1,1.7527009E0,3.708344E0,8.656614E1,5.0101976E0,1.0313599E2,1.6653207E2,8.539793E2,4.370953E2,6.9643574E0,3.2132921E0,2.416037E0,1.292307E0,1.2844452E0,8.528169E1,1.4412626E0,3.5689352E0,1.0133632E1,9.300236E1,1.4952911E0,1.6503679E2],"tree_param":{"num_deleted":"0","num_feature":"13","num_nodes":"29","size_leaf_vector":"1"}},{"base_weights":[-3.37953E-1,-5.544615E-1,4.0125522E-1,-6.101505E-1,-4.9300632E-1,-7.4890834E-1,1.408842E0,-2.0792858E-1,-6.244387E-1,-6.2320703E-1,-4.2830873E-1,-1.8626733E-1,-7.9037106E-1,-9.412955E-1,2.080671E0,3.3496797E-2,-5.0023377E-2,-6.76482E-2,-5.3670567E-2,-3.296168E-2,-6.800743E-2,-4.4731356E-2,1.7439751E-2,8.055974E-2,-5.0866302E-2,-8.050365E-2,3.2174375E-2,-1.04555465E-1,-3.1049777E-2,1.1614256E-1,2.099063E-1],"categories":[],"categories_nodes":[],"categories_segments":[],"categories_sizes":[],"default_left":[0,0,0,0,0,0,0,0,0,0,0,0,0,0,0,0,0,0,0,0,0,0,0,0,0,0,0,0,0,0,0],"id":6,"left_children":[1,3,5,7,9,11,13,15,17,19,21,23,25,27,29,-1,-1,-1,-1,-1,-1,-1,-1,-1,-1,-1,-1,-1,-1,-1,-1],"loss_changes":[2.5730145E2,3.9526062E0,4.2343616E2,3.5930328E0,4.753845E0,3.8384018E0,3.0924832E2,3.9319434E0,2.490921E0,3.0424957E0,4.6754684E0,4.5778346E0,2.8491821E0,2.5662117E0,1.2628174E-1,0E0,0E0,0E0,0E0,0E0,0E0,0E0,0E0,0E0,0E0,0E0,0E0,0E0,0E0,0E0,0E0],"parents":[2147483647,0,0,1,1,2,2,3,3,4,4,5,5,6,6,7,7,8,8,9,9,10,10,11,11,12,12,13,13,14,14],"right_children":[2,4,6,8,10,12,14,16,18,20,22,24,26,28,30,-1,-1,-1,-1,-1,-1,-1,-1,-1,-1,-1,-1,-1,-1,-1,-1],"split_conditions":[4.494181E1,1.02947426E2,1.199802E2,6.484424E0,6.582951E1,1.4254328E1,5.0088873E0,5.5615134E0,1.2616559E2,1.994929E1,1.935386E2,3.0408827E1,1.9705856E2,3.32E2,4.51313E1,3.3496797E-2,-5.0023377E-2,-6.76482E-2,-5.3670567E-2,-3.296168E-2,-6.800743E-2,-4.4731356E-2,1.7439751E-2,8.055974E-2,-5.0866302E-2,-8.050365E-2,3.2174375E-2,-1.04555465E-1,-3.1049777E-2,1.1614256E-1,2.099063E-1],"split_indices":[3,7,8,5,8,5,9,9,8,4,5,1,7,2,3,0,0,0,0,0,0,0,0,0,0,0,0,0,0,0,0],"split_type":[0,0,0,0,0,0,0,0,0,0,0,0,0,0,0,0,0,0,0,0,0,0,0,0,0,0,0,0,0,0,0],"sum_hessian":[1.6052932E3,1.2418226E3,3.6347055E2,6.467902E2,5.950324E2,1.698467E2,1.9362384E2,2.2721378E1,6.2406885E2,1.9465874E2,4.003737E2,1.203443E1,1.5781227E2,4.295636E1,1.5066748E2,7.9009824E0,1.4820396E1,3.8749564E2,2.3657324E2,3.2689274E1,1.6196945E2,3.883848E2,1.1988893E1,2.5844545E0,9.449975E0,1.5603082E2,1.781448E0,3.6299255E1,6.657102E0,4.2136254E0,1.4645386E2],"tree_param":{"num_deleted":"0","num_feature":"13","num_nodes":"31","size_leaf_vector":"1"}},{"base_weights":[-2.9803997E-1,-5.0727785E-1,3.9902994E-1,-5.8127207E-1,-4.6379036E-1,-6.755738E-1,1.2769616E0,-4.9755418E-1,-7.027588E-1,-4.730396E-1,1.0034353E-1,-1.41179E-1,-7.306167E-1,-9.3805236E-1,1.881284E-1,-4.1345667E-2,-6.9142744E-2,-8.553173E-2,-6.1170008E-2,-5.2992847E-2,-3.766094E-2,-6.394789E-2,4.1824497E-2,8.2558125E-2,-3.362954E-2,-7.953253E-2,-3.1693283E-2,-1.0336552E-1,-5.5210914E-2],"categories":[],"categories_nodes":[],"categories_segments":[],"categories_sizes":[],"default_left":[0,0,0,0,0,0,0,0,0,0,0,0,0,0,0,0,0,0,0,0,0,0,0,0,0,0,0,0,0],"id":7,"left_children":[1,3,5,7,9,11,13,15,17,19,21,23,25,27,-1,-1,-1,-1,-1,-1,-1,-1,-1,-1,-1,-1,-1,-1,-1],"loss_changes":[2.2676463E2,3.576233E0,3.3972382E2,4.109787E0,4.0010834E0,4.666565E0,2.6683868E2,4.0022507E0,1.928093E0,3.8910065E0,3.3361483E0,3.367759E0,3.67688E0,1.0200958E0,0E0,0E0,0E0,0E0,0E0,0E0,0E0,0E0,0E0,0E0,0E0,0E0,0E0,0E0,0E0],"parents":[2147483647,0,0,1,1,2,2,3,3,4,4,5,5,6,6,7,7,8,8,9,9,10,10,11,11,12,12,13,13],"right_children":[2,4,6,8,10,12,14,16,18,20,22,24,26,28,-1,-1,-1,-1,-1,-1,-1,-1,-1,-1,-1,-1,-1,-1,-1],"split_conditions":[4.494181E1,3.75E-1,1.199802E2,4.1881172E1,1.27772964E2,1.7963037E1,5.0088873E0,4.0770023E1,7.294513E1,1.2676222E2,1.2802456E1,1.185429E1,1.0356745E2,1.5758171E2,1.881284E-1,-4.1345667E-2,-6.9142744E-2,-8.553173E-2,-6.1170008E-2,-5.2992847E-2,-3.766094E-2,-6.394789E-2,4.1824497E-2,8.2558125E-2,-3.362954E-2,-7.953253E-2,-3.1693283E-2,-1.0336552E-1,-5.5210914E-2],"split_indices":[3,12,8,0,4,5,9,1,8,8,0,4,8,7,0,0,0,0,0,0,0,0,0,0,0,0,0,0,0],"split_type":[0,0,0,0,0,0,0,0,0,0,0,0,0,0,0,0,0,0,0,0,0,0,0,0,0,0,0,0,0],"sum_hessian":[1.5523556E3,1.194175E3,3.5818048E2,4.3746292E2,7.567122E2,1.6115474E2,1.9702576E2,2.6200668E2,1.754562E2,7.4466455E2,1.2047668E1,1.5381841E1,1.457729E2,4.211394E1,1.549118E2,1.8492384E2,7.708285E1,6.244453E1,1.1301168E2,4.6553015E2,2.7913437E2,3.3169277E0,8.7307415E0,2.040479E0,1.3341362E1,1.2525754E2,2.051536E1,3.240786E1,9.7060795E0],"tree_param":{"num_deleted":"0","num_feature":"13","num_nodes":"29","size_leaf_vector":"1"}},{"base_weights":[-2.9363155E-1,-5.493303E-1,2.8085371E-2,-4.7205383E-1,-6.062349E-1,-6.3309497E-1,2.8192887E-1,-5.8077097E-1,-3.3931178E-1,-2.2661568E-1,-6.273917E-1,-6.6958946E-1,8.692434E-2,-1.5530889E-1,3.155302E-1,-6.572252E-2,-4.233391E-2,3.644718E-2,-4.1970495E-2,-4.0204156E-2,1.4181072E-1,-6.375485E-2,-1.1087532E-2,3.0154267E-2,-6.817228E-2,1.2172029E-1,-5.519236E-2,-2.5881393E-2,4.954527E-2,2.785387E-2,5.553959E-2],"categories":[],"categories_nodes":[],"categories_segments":[],"categories_sizes":[],"default_left":[0,0,0,0,0,0,0,0,0,0,0,0,0,0,0,0,0,0,0,0,0,0,0,0,0,0,0,0,0,0,0],"id":8,"left_children":[1,3,5,7,9,11,13,15,17,19,21,23,25,27,29,-1,-1,-1,-1,-1,-1,-1,-1,-1,-1,-1,-1,-1,-1,-1,-1],"loss_changes":[1.2323135E2,3.3838806E0,1.1166259E2,4.9759827E0,3.6899261E0,4.9083786E0,7.1107864E0,2.076767E0,9.420778E0,8.2891445E0,2.2973328E0,2.2769241E0,7.740448E0,2.4838762E0,3.8087692E0,0E0,0E0,0E0,0E0,0E0,0E0,0E0,0E0,0E0,0E0,0E0,0E0,0E0,0E0,0E0,0E0],"parents":[2147483647,0,0,1,1,2,2,3,3,4,4,5,5,6,6,7,7,8,8,9,9,10,10,11,11,12,12,13,13,14,14],"right_children":[2,4,6,8,10,12,14,16,18,20,22,24,26,28,30,-1,-1,-1,-1,-1,-1,-1,-1,-1,-1,-1,-1,-1,-1,-1,-1],"split_conditions":[1.199802E2,3.568182E1,5.0088873E0,3.7928303E1,3.8026552E0,1.905513E2,2.9313255E1,1E0,1.7963037E1,1.8682216E2,1.9619191E2,2.3542871E0,2.606217E0,1.8693535E2,2.2913608E2,-6.572252E-2,-4.233391E-2,3.644718E-2,-4.1970495E-2,-4.0204156E-2,1.4181072E-1,-6.375485E-2,-1.1087532E-2,3.0154267E-2,-6.817228E-2,1.2172029E-1,-5.519236E-2,-2.5881393E-2,4.954527E-2,2.785387E-2,5.553959E-2],"split_indices":[8,1,9,0,0,5,1,10,5,5,7,5,9,7,6,0,0,0,0,0,0,0,0,0,0,0,0,0,0,0,0],"split_type":[0,0,0,0,0,0,0,0,0,0,0,0,0,0,0,0,0,0,0,0,0,0,0,0,0,0,0,0,0,0,0],"sum_hessian":[1.4968367E3,8.3359375E2,6.632429E2,3.5745947E2,4.7613425E2,1.8358063E2,4.796623E2,1.9465764E2,1.6280185E2,2.5753157E1,4.503811E2,1.7479129E2,8.789335E0,3.3972504E1,4.456898E2,1.2888982E2,6.576782E1,1.6328053E1,1.464738E2,2.3953806E1,1.7993522E0,4.4146582E2,8.915267E0,1.8625567E0,1.7292874E2,2.8469949E0,5.942341E0,2.9830233E1,4.1422715E0,3.880127E2,5.767711E1],"tree_param":{"num_deleted":"0","num_feature":"13","num_nodes":"31","size_leaf_vector":"1"}},{"base_weights":[-2.5788662E-1,-4.908229E-1,2.0138122E-2,-4.0100324E-1,-5.449894E-1,-5.9619915E-1,2.4027295E-1,8.3595383E-1,-4.1670674E-1,-1.5925398E-1,-5.7093847E-1,-6.1808366E-1,2.791343E-1,-1.4705075E-1,2.7208766E-1,-6.3019805E-2,1.669462E-1,4.027057E-3,-4.4621475E-2,-4.868196E-2,3.8611796E-2,-4.616805E-2,-6.346243E-2,4.2636376E-2,-6.346452E-2,1.13524854E-1,-7.388284E-2,2.472228E-3,-8.712552E-2,1.8273499E-2,3.7268024E-2],"categories":[],"categories_nodes":[],"categories_segments":[],"categories_sizes":[],"default_left":[0,0,0,0,0,0,0,0,0,0,0,0,0,0,0,0,0,0,0,0,0,0,0,0,0,0,0,0,0,0,0],"id":9,"left_children":[1,3,5,7,9,11,13,15,17,19,21,23,25,27,29,-1,-1,-1,-1,-1,-1,-1,-1,-1,-1,-1,-1,-1,-1,-1,-1],"loss_changes":[9.396911E1,3.622406E0,9.001138E1,6.1908264E0,4.8106384E0,3.5172653E0,6.062851E0,6.0664597E0,4.0319633E0,5.949788E0,2.8969269E0,3.2225266E0,5.1506505E0,4.7174444E0,3.994709E0,0E0,0E0,0E0,0E0,0E0,0E0,0E0,0E0,0E0,0E0,0E0,0E0,0E0,0E0,0E0,0E0],"parents":[2147483647,0,0,1,1,2,2,3,3,4,4,5,5,6,6,7,7,8,8,9,9,10,10,11,11,12,12,13,13,14,14],"right_children":[2,4,6,8,10,12,14,16,18,20,22,24,26,28,30,-1,-1,-1,-1,-1,-1,-1,-1,-1,-1,-1,-1,-1,-1,-1,-1],"split_conditions":[1.199802E2,3.4806885E1,5.0088873E0,1.5878512E0,4.4593863E0,1.9610428E2,2.9391043E1,3.3333334E-1,1.5937636E1,1.63823E2,6.1286535E0,2.3542871E0,2.8162227E0,8.333333E-1,5.416667E-1,-6.3019805E-2,1.669462E-1,4.027057E-3,-4.4621475E-2,-4.868196E-2,3.8611796E-2,-4.616805E-2,-6.346243E-2,4.2636376E-2,-6.346452E-2,1.13524854E-1,-7.388284E-2,2.472228E-3,-8.712552E-2,1.8273499E-2,3.7268024E-2],"split_indices":[8,1,9,5,0,5,1,12,6,6,9,5,9,12,12,0,0,0,0,0,0,0,0,0,0,0,0,0,0,0,0],"split_type":[0,0,0,0,0,0,0,0,0,0,0,0,0,0,0,0,0,0,0,0,0,0,0,0,0,0,0,0,0,0,0],"sum_hessian":[1.4498378E3,7.88471E2,6.6136676E2,2.997781E2,4.8869293E2,1.7360269E2,4.877641E2,3.1032445E0,2.9667487E2,3.1252872E1,4.5744006E2,1.6965497E2,3.9477162E0,3.6748806E1,4.510153E2,1.2131748E0,1.8900698E0,1.7972828E1,2.7870203E2,1.9592459E1,1.1660415E1,1.7148807E2,2.85952E2,2.2619498E0,1.6739302E2,2.0817406E0,1.8659757E0,3.0484173E1,6.264635E0,2.403435E2,2.1067178E2],"tree_param":{"num_deleted":"0","num_feature":"13","num_nodes":"31","size_leaf_vector":"1"}},{"base_weights":[-2.5678995E-1,-4.5667833E-1,4.2119953E-1,-5.0812846E-1,-4.0011987E-1,-5.741377E-1,1.2163665E0,-5.805756E-1,-3.4185666E-1,-4.088255E-1,4.61374E-1,-3.5980906E-2,-6.3234836E-1,-8.1883055E-1,1.6791494E0,-3.480355E-2,-6.157272E-2,3.7662562E-3,-3.890434E-2,-5.0410993E-2,-3.4025405E-2,1.05860494E-1,-2.3051111E-2,2.7065486E-2,-5.9680898E-2,1.7805258E-2,-6.668519E-2,-9.2725344E-2,-1.413444E-2,8.7487265E-2,1.6966258E-1],"categories":[],"categories_nodes":[],"categories_segments":[],"categories_sizes":[],"default_left":[0,0,0,0,0,0,0,0,0,0,0,0,0,0,0,0,0,0,0,0,0,0,0,0,0,0,0,0,0,0,0],"id":10,"left_children":[1,3,5,7,9,11,13,15,17,19,21,23,25,27,29,-1,-1,-1,-1,-1,-1,-1,-1,-1,-1,-1,-1,-1,-1,-1,-1],"loss_changes":[1.9126857E2,2.96669E0,2.551946E2,6.6284637E0,4.115761E0,4.4720306E0,1.70034E2,3.0007172E0,3.1383705E0,3.2189865E0,2.602768E0,2.7523286E0,3.7374306E0,2.3552017E0,5.7095337E-1,0E0,0E0,0E0,0E0,0E0,0E0,0E0,0E0,0E0,0E0,0E0,0E0,0E0,0E0,0E0,0E0],"parents":[2147483647,0,0,1,1,2,2,3,3,4,4,5,5,6,6,7,7,8,8,9,9,10,10,11,11,12,12,13,13,14,14],"right_children":[2,4,6,8,10,12,14,16,18,20,22,24,26,28,30,-1,-1,-1,-1,-1,-1,-1,-1,-1,-1,-1,-1,-1,-1,-1,-1],"split_conditions":[4.494181E1,1.02947426E2,1.199802E2,1.8198105E2,1.2870204E2,1.7963037E1,5.0088873E0,2.8162227E0,2.3281336E1,8.251624E1,1.2939064E2,3.8654423E1,4.1563873E0,3.46E2,4.51313E1,-3.480355E-2,-6.157272E-2,3.7662562E-3,-3.890434E-2,-5.0410993E-2,-3.4025405E-2,1.05860494E-1,-2.3051111E-2,2.7065486E-2,-5.9680898E-2,1.7805258E-2,-6.668519E-2,-9.2725344E-2,-1.413444E-2,8.7487265E-2,1.6966258E-1],"split_indices":[3,7,8,6,4,5,9,9,8,5,4,1,8,2,3,0,0,0,0,0,0,0,0,0,0,0,0,0,0,0,0],"split_type":[0,0,0,0,0,0,0,0,0,0,0,0,0,0,0,0,0,0,0,0,0,0,0,0,0,0,0,0,0,0,0],"sum_hessian":[1.4089253E3,1.0883722E3,3.2055313E2,5.657429E2,5.226293E2,1.4248183E2,1.780713E2,3.923141E2,1.7342882E2,5.1792096E2,4.7082787E0,1.4065421E1,1.2841641E2,3.2847454E1,1.4522385E2,5.29477E1,3.393664E2,1.920073E1,1.5422809E2,2.1408481E2,3.0383618E2,2.2425196E0,2.4657593E0,9.428008E0,4.637413E0,5.0742636E0,1.2334215E2,2.799806E1,4.8493958E0,4.174424E0,1.4104942E2],"tree_param":{"num_deleted":"0","num_feature":"13","num_nodes":"31","size_leaf_vector":"1"}},{"base_weights":[-2.361982E-1,-4.161303E-1,3.7543267E-1,-4.7466516E-1,-3.523331E-1,-6.330257E-1,6.58225E-1,-5.247263E-1,-3.67423E-1,-1.2077801E-1,-3.9906913E-1,-2.776485E-1,-7.6516265E-1,6.9567466E-1,4.379347E-1,-4.49965E-2,-6.2499013E-2,8.781851E-3,-4.071188E-2,-2.2545602E-2,8.354967E-2,-6.724106E-2,-3.592984E-2,-5.1993497E-2,1.3850634E-1,1.0020188E-2,-8.427734E-2,8.450853E-2,6.2237192E-2,5.5300094E-2,-3.5834365E-2],"categories":[],"categories_nodes":[],"categories_segments":[],"categories_sizes":[],"default_left":[0,0,0,0,0,0,0,0,0,0,0,0,0,0,0,0,0,0,0,0,0,0,0,0,0,0,0,0,0,0,0],"id":11,"left_children":[1,3,5,7,9,11,13,15,17,19,21,23,25,27,29,-1,-1,-1,-1,-1,-1,-1,-1,-1,-1,-1,-1,-1,-1,-1,-1],"loss_changes":[1.5021344E2,3.7689362E0,8.895749E1,2.742859E0,5.4518547E0,3.0044174E0,1.6997528E0,2.4956589E0,3.2407875E0,8.875719E0,4.3507996E0,8.832435E0,3.4000359E0,1.7297821E0,3.6800818E0,0E0,0E0,0E0,0E0,0E0,0E0,0E0,0E0,0E0,0E0,0E0,0E0,0E0,0E0,0E0,0E0],"parents":[2147483647,0,0,1,1,2,2,3,3,4,4,5,5,6,6,7,7,8,8,9,9,10,10,11,11,12,12,13,13,14,14],"right_children":[2,4,6,8,10,12,14,16,18,20,22,24,26,28,30,-1,-1,-1,-1,-1,-1,-1,-1,-1,-1,-1,-1,-1,-1,-1,-1],"split_conditions":[4.494181E1,1.02947426E2,5.0088873E0,1.7917213E2,1.19397995E2,1.31E2,4.284723E1,5.860945E1,5.917117E0,1.8171828E2,1.2915714E2,2.4018173E2,1.4193621E0,4.7058434E1,5.698897E1,-4.49965E-2,-6.2499013E-2,8.781851E-3,-4.071188E-2,-2.2545602E-2,8.354967E-2,-6.724106E-2,-3.592984E-2,-5.1993497E-2,1.3850634E-1,1.0020188E-2,-8.427734E-2,8.450853E-2,6.2237192E-2,5.5300094E-2,-3.5834365E-2],"split_indices":[3,7,9,6,7,2,1,7,0,5,7,6,9,3,0,0,0,0,0,0,0,0,0,0,0,0,0,0,0,0,0],"split_type":[0,0,0,0,0,0,0,0,0,0,0,0,0,0,0,0,0,0,0,0,0,0,0,0,0,0,0,0,0,0,0],"sum_hessian":[1.3625115E3,1.0530427E3,3.094688E2,5.45812E2,5.0723074E2,6.750445E1,2.4196437E2,3.694556E2,1.7635637E2,8.578592E1,4.2144482E2,1.9137123E1,4.8367325E1,2.0496245E2,3.7001926E1,2.1478787E2,1.5466772E2,1.4047201E1,1.6230917E2,7.801076E1,7.7751637E0,5.1510365E1,3.6993445E2,1.7303059E1,1.8340639E0,3.9568713E0,4.4410454E1,6.3994965E1,1.4096748E2,3.259701E1,4.404914E0],"tree_param":{"num_deleted":"0","num_feature":"13","num_nodes":"31","size_leaf_vector":"1"}},{"base_weights":[-2.2289775E-1,-4.419001E-1,5.5742797E-2,-3.5487825E-1,-4.957407E-1,-4.776488E-1,2.364325E-1,1.4716835E-1,-3.8884822E-1,-3.317597E-1,-5.5853623E-1,-3.8231003E-1,-7.72237E-1,-1.9290325E-1,2.6844227E-1,1.3498835E-1,-1.727311E-2,-4.13652E-2,2.4415985E-2,7.130646E-2,-3.7549928E-2,-5.8406528E-2,1.0055269E-2,-8.697146E-2,-3.180382E-2,-4.125504E-2,-1.0110535E-1,-4.199607E-3,-8.117353E-2,-6.6886577E-3,2.9356921E-2],"categories":[],"categories_nodes":[],"categories_segments":[],"categories_sizes":[],"default_left":[0,0,0,0,0,0,0,0,0,0,0,0,0,0,0,0,0,0,0,0,0,0,0,0,0,0,0,0,0,0,0],"id":12,"left_children":[1,3,5,7,9,11,13,15,17,19,21,23,25,27,29,-1,-1,-1,-1,-1,-1,-1,-1,-1,-1,-1,-1,-1,-1,-1,-1],"loss_changes":[8.140268E1,3.3230743E0,5.6760506E1,4.9853516E0,4.5394974E0,3.8911438E0,6.0946236E0,7.558164E0,4.3547783E0,6.1867466E0,5.6166763E0,3.3131695E0,2.6292706E0,2.8693013E0,3.4709625E0,0E0,0E0,0E0,0E0,0E0,0E0,0E0,0E0,0E0,0E0,0E0,0E0,0E0,0E0,0E0,0E0],"parents":[2147483647,0,0,1,1,2,2,3,3,4,4,5,5,6,6,7,7,8,8,9,9,10,10,11,11,12,12,13,13,14,14],"right_children":[2,4,6,8,10,12,14,16,18,20,22,24,26,28,30,-1,-1,-1,-1,-1,-1,-1,-1,-1,-1,-1,-1,-1,-1,-1,-1],"split_conditions":[1.2385599E2,3.4806885E1,5.0088873E0,1.5937636E1,4.912156E0,4.1303806E0,2.9313255E1,3.1557802E1,2.5239894E2,2.5024712E0,1.2071207E2,2.1189327E1,1.0719205E2,8.333333E-1,1.79803E1,1.3498835E-1,-1.727311E-2,-4.13652E-2,2.4415985E-2,7.130646E-2,-3.7549928E-2,-5.8406528E-2,1.0055269E-2,-8.697146E-2,-3.180382E-2,-4.125504E-2,-1.0110535E-1,-4.199607E-3,-8.117353E-2,-6.6886577E-3,2.9356921E-2],"split_indices":[8,1,9,6,9,9,1,7,6,0,8,7,6,12,6,0,0,0,0,0,0,0,0,0,0,0,0,0,0,0,0],"split_type":[0,0,0,0,0,0,0,0,0,0,0,0,0,0,0,0,0,0,0,0,0,0,0,0,0,0,0,0,0,0,0],"sum_hessian":[1.3325651E3,7.458027E2,5.867624E2,2.87963E2,4.5783963E2,1.4805731E2,4.3870508E2,1.8038435E1,2.6992456E2,1.2851787E2,3.2932178E2,1.1359264E2,3.4464672E1,3.0090149E1,4.0861493E2,3.113395E0,1.4925039E1,2.6008014E2,9.844434E0,4.5491085E0,1.23968765E2,3.1715115E2,1.21706295E1,1.1773864E1,1.0181878E2,1.4840522E1,1.9624153E1,2.5049492E1,5.040657E0,2.8368198E1,3.8024673E2],"tree_param":{"num_deleted":"0","num_feature":"13","num_nodes":"31","size_leaf_vector":"1"}},{"base_weights":[-1.875312E-1,-4.007504E-1,5.7070374E-2,-2.698567E-1,-4.5162165E-1,-4.627207E-1,2.2375147E-1,-4.2150128E-1,-7.600043E-2,-3.1754848E-1,-5.1123446E-1,-3.5197502E-1,-8.325216E-1,1.8281619E-1,4.757768E-1,-2.08886E-2,-6.334603E-2,6.9120675E-2,-1.7080685E-2,-2.5888944E-2,-8.393577E-2,-5.2744426E-2,6.6843457E-3,-4.076315E-2,5.4957785E-2,-8.8395946E-2,3.5969727E-2,-1.6282653E-2,2.1014165E-2,3.925284E-2,1.746084E-1],"categories":[],"categories_nodes":[],"categories_segments":[],"categories_sizes":[],"default_left":[0,0,0,0,0,0,0,0,0,0,0,0,0,0,0,0,0,0,0,0,0,0,0,0,0,0,0,0,0,0,0],"id":13,"left_children":[1,3,5,7,9,11,13,15,17,19,21,23,25,27,29,-1,-1,-1,-1,-1,-1,-1,-1,-1,-1,-1,-1,-1,-1,-1,-1],"loss_changes":[6.82238E1,4.5311737E0,5.294496E1,5.790309E0,3.8477402E0,5.7851334E0,4.6843605E0,4.8658085E0,6.5297394E0,4.590207E0,3.2743454E0,6.0417795E0,2.3705711E0,3.8073092E0,6.08257E0,0E0,0E0,0E0,0E0,0E0,0E0,0E0,0E0,0E0,0E0,0E0,0E0,0E0,0E0,0E0,0E0],"parents":[2147483647,0,0,1,1,2,2,3,3,4,4,5,5,6,6,7,7,8,8,9,9,10,10,11,11,12,12,13,13,14,14],"right_children":[2,4,6,8,10,12,14,16,18,20,22,24,26,28,30,-1,-1,-1,-1,-1,-1,-1,-1,-1,-1,-1,-1,-1,-1,-1,-1],"split_conditions":[1.199802E2,3.2910587E1,5.0088873E0,3.9097385E1,2.1851475E1,4.1303806E0,2.2913608E2,5E-1,1.7160381E1,1.0804128E2,1.9484784E2,1.905513E2,3.65E2,2.9391043E1,6.666474E1,-2.08886E-2,-6.334603E-2,6.9120675E-2,-1.7080685E-2,-2.5888944E-2,-8.393577E-2,-5.2744426E-2,6.6843457E-3,-4.076315E-2,5.4957785E-2,-8.8395946E-2,3.5969727E-2,-1.6282653E-2,2.1014165E-2,3.925284E-2,1.746084E-1],"split_indices":[8,1,9,0,0,9,6,12,5,8,7,5,2,1,0,0,0,0,0,0,0,0,0,0,0,0,0,0,0,0,0],"split_type":[0,0,0,0,0,0,0,0,0,0,0,0,0,0,0,0,0,0,0,0,0,0,0,0,0,0,0,0,0,0,0],"sum_hessian":[1.3066898E3,6.977889E2,6.08901E2,1.9705734E2,5.0073154E2,1.4741493E2,4.6148605E2,1.09907555E2,8.714978E1,1.5606282E2,3.4466873E2,1.1494401E2,3.2470924E1,3.984871E2,6.2998978E1,5.5860046E1,5.4047512E1,8.893082E0,7.82567E1,1.4163689E2,1.4425935E1,3.3535275E2,9.315962E0,1.0877664E2,6.167366E0,3.1375786E1,1.0951381E0,2.8831772E1,3.696553E2,6.0352818E1,2.6461625E0],"tree_param":{"num_deleted":"0","num_feature":"13","num_nodes":"31","size_leaf_vector":"1"}},{"base_weights":[-1.6386835E-1,-3.4401944E-1,4.2561996E-1,-3.2972533E-1,-7.260303E-1,1.0356116E-1,4.497651E-1,-3.364841E-1,6.3607174E-1,-1.9548057E-1,-9.0524006E-1,-1.2459236E-2,6.715019E-1,4.3053985E-1,1.0517722E0,-4.052245E-2,-2.645084E-2,-7.432481E-2,1.3722605E-1,-6.2433373E-2,1.3552353E-1,-8.543524E-3,-9.37458E-2,1.8411987E-2,-5.2167382E-2,9.919773E-2,8.735749E-3,3.901651E-2,6.3738056E-2,1.2794691E-1,1.1888886E-2],"categories":[],"categories_nodes":[],"categories_segments":[],"categories_sizes":[],"default_left":[0,0,0,0,0,0,0,0,0,0,0,0,0,0,0,0,0,0,0,0,0,0,0,0,0,0,0,0,0,0,0],"id":14,"left_children":[1,3,5,7,9,11,13,15,17,19,21,23,25,27,29,-1,-1,-1,-1,-1,-1,-1,-1,-1,-1,-1,-1,-1,-1,-1,-1],"loss_changes":[1.3647893E2,5.13282E0,2.2935867E0,6.4164047E0,3.1178608E0,1.476954E0,2.7838097E0,4.5645065E0,8.076461E0,7.5131283E0,5.968094E-1,2.0468876E0,6.245042E-1,2.028614E0,1.5390024E0,0E0,0E0,0E0,0E0,0E0,0E0,0E0,0E0,0E0,0E0,0E0,0E0,0E0,0E0,0E0,0E0],"parents":[2147483647,0,0,1,1,2,2,3,3,4,4,5,5,6,6,7,7,8,8,9,9,10,10,11,11,12,12,13,13,14,14],"right_children":[2,4,6,8,10,12,14,16,18,20,22,24,26,28,30,-1,-1,-1,-1,-1,-1,-1,-1,-1,-1,-1,-1,-1,-1,-1,-1],"split_conditions":[4.494181E1,3.68E2,4.5454693E1,3.66E2,3.0153135E1,2.3695697E2,1.9522229E2,1.0199615E2,3.4722378E1,2.5064222E1,2.9313255E1,1.7419614E2,7.740297E1,3.32E2,1.4147745E2,-4.052245E-2,-2.645084E-2,-7.432481E-2,1.3722605E-1,-6.2433373E-2,1.3552353E-1,-8.543524E-3,-9.37458E-2,1.8411987E-2,-5.2167382E-2,9.919773E-2,8.735749E-3,3.901651E-2,6.3738056E-2,1.2794691E-1,1.1888886E-2],"split_indices":[3,2,3,2,4,6,5,7,1,4,1,6,7,2,7,0,0,0,0,0,0,0,0,0,0,0,0,0,0,0,0],"split_type":[0,0,0,0,0,0,0,0,0,0,0,0,0,0,0,0,0,0,0,0,0,0,0,0,0,0,0,0,0,0,0],"sum_hessian":[1.2827701E3,9.828284E2,2.9994174E2,9.4917523E2,3.3653225E1,2.1287556E1,2.786542E2,9.43226E2,5.949237E0,9.025135E0,2.462809E1,1.8488699E1,2.798857E0,2.716928E2,6.961393E0,4.8008817E2,4.6313782E2,2.0669744E0,3.8822627E0,7.5379047E0,1.4872308E0,1.0693616E0,2.3558727E1,1.3799798E1,4.688902E0,1.3564857E0,1.4423714E0,2.2973537E2,4.1957436E1,5.29699E0,1.6644031E0],"tree_param":{"num_deleted":"0","num_feature":"13","num_nodes":"31","size_leaf_vector":"1"}},{"base_weights":[-1.8064478E-1,-3.441203E-1,3.3423027E-1,-3.877773E-1,-2.5853986E-1,-5.5431044E-1,1.068471E0,-4.3233863E-1,-2.5690898E-1,-1.704662E-1,-4.3180445E-1,2.935561E-1,-5.8997726E-1,1.0752817E0,1.6396983E-2,2.6154981E-3,-4.504165E-2,-5.6842085E-2,-1.6546613E-2,-2.531348E-2,3.4875017E-2,-4.9327258E-2,2.5415799E-2,8.358779E-2,-4.8640218E-2,-6.610121E-2,-1.830218E-2,1.1159327E-1,9.050373E-2],"categories":[],"categories_nodes":[],"categories_segments":[],"categories_sizes":[],"default_left":[0,0,0,0,0,0,0,0,0,0,0,0,0,0,0,0,0,0,0,0,0,0,0,0,0,0,0,0,0],"id":15,"left_children":[1,3,5,7,9,11,13,15,17,19,21,23,25,27,-1,-1,-1,-1,-1,-1,-1,-1,-1,-1,-1,-1,-1,-1,-1],"loss_changes":[1.0615982E2,3.4744034E0,1.990071E2,3.5720139E0,4.90423E0,4.3544006E0,8.5162354E-1,3.9047241E0,4.5459614E0,9.442038E0,4.7331715E0,3.0499334E0,3.7242203E0,1.349945E-1,0E0,0E0,0E0,0E0,0E0,0E0,0E0,0E0,0E0,0E0,0E0,0E0,0E0,0E0,0E0],"parents":[2147483647,0,0,1,1,2,2,3,3,4,4,5,5,6,6,7,7,8,8,9,9,10,10,11,11,12,12,13,13],"right_children":[2,4,6,8,10,12,14,16,18,20,22,24,26,28,-1,-1,-1,-1,-1,-1,-1,-1,-1,-1,-1,-1,-1,-1,-1],"split_conditions":[4.494181E1,1E0,1.199802E2,1.494463E2,3.2621727E1,4.1563873E0,6.887096E1,5.826586E0,4.7354286E1,2.9539413E1,1.1862074E2,1E0,1.0273709E2,9.853687E1,1.6396983E-2,2.6154981E-3,-4.504165E-2,-5.6842085E-2,-1.6546613E-2,-2.531348E-2,3.4875017E-2,-4.9327258E-2,2.5415799E-2,8.358779E-2,-4.8640218E-2,-6.610121E-2,-1.830218E-2,1.1159327E-1,9.050373E-2],"split_indices":[3,10,8,7,3,8,0,7,8,3,4,10,8,4,0,0,0,0,0,0,0,0,0,0,0,0,0,0,0],"split_type":[0,0,0,0,0,0,0,0,0,0,0,0,0,0,0,0,0,0,0,0,0,0,0,0,0,0,0,0,0],"sum_hessian":[1.2588965E3,9.557671E2,3.0312936E2,6.305663E2,3.2520078E2,1.3726424E2,1.6586514E2,4.6867603E2,1.6189024E2,2.1692007E2,1.082807E2,5.249253E0,1.3201498E2,1.6443813E2,1.427024E0,1.7761425E1,4.509146E2,3.55542E1,1.2633605E2,1.875683E2,2.9351774E1,9.963358E1,8.6471195E0,3.0540266E0,2.195226E0,1.1186454E2,2.0150436E1,1.2825787E2,3.618024E1],"tree_param":{"num_deleted":"0","num_feature":"13","num_nodes":"29","size_leaf_vector":"1"}},{"base_weights":[-1.5450136E-1,-2.993918E-1,3.0899128E-1,-3.449089E-1,-2.101834E-1,-5.5571014E-1,9.856844E-1,-2.0226832E-1,-3.8416037E-1,-2.884649E-1,-4.6587024E-2,-5.896985E-1,2.5445873E-1,-7.9910135E-1,1.4297386E0,-2.3391712E-2,8.749804E-2,-1.0471535E-2,-4.0411502E-2,-1.4116952E-2,-5.723005E-2,-7.026717E-2,8.932005E-3,-1.9236697E-2,-6.6225864E-2,1.0846885E-1,-5.4111857E-2,-9.333076E-2,-1.3947764E-2,5.6375425E-2,1.448714E-1],"categories":[],"categories_nodes":[],"categories_segments":[],"categories_sizes":[],"default_left":[0,0,0,0,0,0,0,0,0,0,0,0,0,0,0,0,0,0,0,0,0,0,0,0,0,0,0,0,0,0,0],"id":16,"left_children":[1,3,5,7,9,11,13,15,17,19,21,23,25,27,29,-1,-1,-1,-1,-1,-1,-1,-1,-1,-1,-1,-1,-1,-1,-1,-1],"loss_changes":[8.187694E1,3.696907E0,1.7054614E2,3.3550415E0,4.035857E0,3.6797905E0,1.3059811E2,4.7875385E0,2.6325989E0,8.852037E0,9.293658E0,3.4281235E0,4.4573355E0,2.8074894E0,1.3385315E0,0E0,0E0,0E0,0E0,0E0,0E0,0E0,0E0,0E0,0E0,0E0,0E0,0E0,0E0,0E0,0E0],"parents":[2147483647,0,0,1,1,2,2,3,3,4,4,5,5,6,6,7,7,8,8,9,9,10,10,11,11,12,12,13,13,14,14],"right_children":[2,4,6,8,10,12,14,16,18,20,22,24,26,28,30,-1,-1,-1,-1,-1,-1,-1,-1,-1,-1,-1,-1,-1,-1,-1,-1],"split_conditions":[4.494181E1,1E0,1.199802E2,4.0856752E0,1.3735533E2,6.758735E1,5.0088873E0,1.9610428E2,1.3882606E1,3.2224754E1,1.4931047E1,8.4E1,6.44348E1,3.31E2,4.51313E1,-2.3391712E-2,8.749804E-2,-1.0471535E-2,-4.0411502E-2,-1.4116952E-2,-5.723005E-2,-7.026717E-2,8.932005E-3,-1.9236697E-2,-6.6225864E-2,1.0846885E-1,-5.4111857E-2,-9.333076E-2,-1.3947764E-2,5.6375425E-2,1.448714E-1],"split_indices":[3,10,8,9,5,0,9,5,7,3,3,2,5,2,3,0,0,0,0,0,0,0,0,0,0,0,0,0,0,0,0],"split_type":[0,0,0,0,0,0,0,0,0,0,0,0,0,0,0,0,0,0,0,0,0,0,0,0,0,0,0,0,0,0,0],"sum_hessian":[1.2168337E3,9.273065E2,2.8952725E2,6.1211755E2,3.1518896E2,1.2718488E2,1.6234236E2,1.3342E2,4.7869757E2,2.1266476E2,1.0252421E2,1.223252E2,4.8596816E0,3.218435E1,1.3015802E2,1.303726E2,3.0473967E0,3.232106E1,4.463765E2,1.409939E2,7.1670876E1,1.68777E1,8.564651E1,1.9453127E1,1.0287208E2,2.2002246E0,2.659457E0,2.6398445E1,5.7859035E0,3.4493244E0,1.26708694E2],"tree_param":{"num_deleted":"0","num_feature":"13","num_nodes":"31","size_leaf_vector":"1"}},{"base_weights":[-1.4156279E-1,-2.8236622E-1,3.2640874E-1,-3.650036E-1,-2.3402582E-1,-4.770168E-1,9.457415E-1,-6.756835E-1,-3.1087646E-1,-6.966804E-2,-2.75368E-1,7.223081E-2,-5.009794E-1,-7.26067E-1,1.3873677E-1,-7.284266E-2,7.836505E-2,1.9851068E-2,-3.435717E-2,-9.0769E-4,-8.484518E-2,-3.0650694E-2,2.558173E-3,2.0432595E-2,-5.4094087E-2,-3.7341192E-2,-9.803225E-2],"categories":[],"categories_nodes":[],"categories_segments":[],"categories_sizes":[],"default_left":[0,0,0,0,0,0,0,0,0,0,0,0,0,0,0,0,0,0,0,0,0,0,0,0,0,0,0],"id":17,"left_children":[1,3,5,7,9,11,13,15,17,19,21,-1,23,25,-1,-1,-1,-1,-1,-1,-1,-1,-1,-1,-1,-1,-1],"loss_changes":[7.79308E1,3.544258E0,1.366349E2,5.3991623E0,3.8950863E0,3.8048553E0,1.1536163E2,4.3145485E0,4.8300896E0,5.5187283E0,4.3180733E0,0E0,3.4376526E0,2.5947971E0,0E0,0E0,0E0,0E0,0E0,0E0,0E0,0E0,0E0,0E0,0E0,0E0,0E0],"parents":[2147483647,0,0,1,1,2,2,3,3,4,4,5,5,6,6,7,7,8,8,9,9,10,10,12,12,13,13],"right_children":[2,4,6,8,10,12,14,16,18,20,22,-1,24,26,-1,-1,-1,-1,-1,-1,-1,-1,-1,-1,-1,-1,-1],"split_conditions":[4.51313E1,3.75E-1,1.199802E2,8.1E1,5E-1,2.8186544E1,5.0088873E0,1.3688797E1,9.9E1,3.6E2,1.8250987E2,7.223081E-2,1.8729502E0,2.8162227E0,1.3873677E-1,-7.284266E-2,7.836505E-2,1.9851068E-2,-3.435717E-2,-9.0769E-4,-8.484518E-2,-3.0650694E-2,2.558173E-3,2.0432595E-2,-5.4094087E-2,-3.7341192E-2,-9.803225E-2],"split_indices":[3,12,8,2,12,1,9,9,2,2,5,0,9,9,0,0,0,0,0,0,0,0,0,0,0,0,0],"split_type":[0,0,0,0,0,0,0,0,0,0,0,0,0,0,0,0,0,0,0,0,0,0,0,0,0,0,0],"sum_hessian":[1.1803065E3,9.076186E2,2.7268793E2,3.3256006E2,5.7505853E2,1.18802246E2,1.5388568E2,4.7638783E1,2.849213E2,1.16116646E2,4.5894186E2,1.7563089E0,1.1704594E2,3.2021572E1,1.21864105E2,4.6460464E1,1.1783186E0,1.68789E1,2.680424E2,1.0867328E2,7.4433722E0,4.1589157E2,4.3050304E1,6.055492E0,1.1099045E2,1.4449126E1,1.7572445E1],"tree_param":{"num_deleted":"0","num_feature":"13","num_nodes":"27","size_leaf_vector":"1"}},{"base_weights":[-1.425987E-1,-2.7336133E-1,2.9607606E-1,-3.4120816E-1,-2.0168848E-1,-4.5090804E-1,9.0021557E-1,-4.0486506E-1,-2.0023508E-1,-3.6403558E-1,-1.3568623E-1,-4.9745622E-1,2.3217358E-1,-7.4404895E-1,1.3180149E0,-3.2952927E-2,-5.6604713E-2,-4.0718116E-2,-5.7453252E-3,-5.223328E-2,-1.1814973E-2,-5.792418E-2,-1.0536387E-2,7.219446E-3,-5.6985904E-2,8.3829194E-2,-5.8940746E-2,-8.7583855E-2,-2.758859E-2,6.796215E-2,1.3351189E-1],"categories":[],"categories_nodes":[],"categories_segments":[],"categories_sizes":[],"default_left":[0,0,0,0,0,0,0,0,0,0,0,0,0,0,0,0,0,0,0,0,0,0,0,0,0,0,0,0,0,0,0],"id":18,"left_children":[1,3,5,7,9,11,13,15,17,19,21,23,25,27,29,-1,-1,-1,-1,-1,-1,-1,-1,-1,-1,-1,-1,-1,-1,-1,-1],"loss_changes":[6.615579E1,4.24881E0,1.1999281E2,3.9991455E0,4.6033726E0,3.904173E0,1.0185461E2,3.605114E0,4.2144074E0,4.8002644E0,4.1124744E0,4.655203E0,4.6190853E0,1.6334286E0,3.7504578E-1,0E0,0E0,0E0,0E0,0E0,0E0,0E0,0E0,0E0,0E0,0E0,0E0,0E0,0E0,0E0,0E0],"parents":[2147483647,0,0,1,1,2,2,3,3,4,4,5,5,6,6,7,7,8,8,9,9,10,10,11,11,12,12,13,13,14,14],"right_children":[2,4,6,8,10,12,14,16,18,20,22,24,26,28,30,-1,-1,-1,-1,-1,-1,-1,-1,-1,-1,-1,-1,-1,-1,-1,-1],"split_conditions":[4.494181E1,1.02947426E2,1.199802E2,1.8198105E2,2.9166666E-1,1.2209711E2,5.0088873E0,4.0322147E1,1.7E2,1.5181003E2,2.8947233E1,1.185429E1,2.38E2,1.5758171E2,4.51313E1,-3.2952927E-2,-5.6604713E-2,-4.0718116E-2,-5.7453252E-3,-5.223328E-2,-1.1814973E-2,-5.792418E-2,-1.0536387E-2,7.219446E-3,-5.6985904E-2,8.3829194E-2,-5.8940746E-2,-8.7583855E-2,-2.758859E-2,6.796215E-2,1.3351189E-1],"split_indices":[3,7,8,6,12,4,9,1,2,6,1,4,2,7,3,0,0,0,0,0,0,0,0,0,0,0,0,0,0,0,0],"split_type":[0,0,0,0,0,0,0,0,0,0,0,0,0,0,0,0,0,0,0,0,0,0,0,0,0,0,0,0,0,0,0],"sum_hessian":[1.1508872E3,8.868938E2,2.639934E2,4.5367545E2,4.3321838E2,1.18155045E2,1.4583836E2,3.112552E2,1.4242026E2,1.2391256E2,3.0930582E2,1.1087152E2,7.2835226E0,2.939042E1,1.1644794E2,2.1418877E2,9.706643E1,5.7389267E1,8.5031E1,7.469858E1,4.9213978E1,1.8633417E1,2.906724E2,1.2503035E1,9.8368484E1,4.1796565E0,3.1038663E0,2.2254812E1,7.135608E0,4.1013985E0,1.1234654E2],"tree_param":{"num_deleted":"0","num_feature":"13","num_nodes":"31","size_leaf_vector":"1"}},{"base_weights":[-1.1950018E-1,-2.4216442E-1,3.063604E-1,-3.254724E-1,-1.942982E-1,-4.2037162E-1,8.714382E-1,-2.5334018E-1,-4.9810654E-1,-2.2280665E-1,8.9653224E-2,-1.3596304E-1,-5.981588E-1,2.7768534E-1,8.9822745E-1,-3.1995993E-2,6.5519996E-3,-5.683107E-2,-5.130775E-3,-3.2223415E-2,-1.38723655E-2,1.8492086E-2,-8.764143E-2,2.3646653E-2,-5.461625E-2,-6.4364925E-2,6.35172E-2,-4.9562678E-2,5.4215945E-2,2.5659595E-2,9.058104E-2],"categories":[],"categories_nodes":[],"categories_segments":[],"categories_sizes":[],"default_left":[0,0,0,0,0,0,0,0,0,0,0,0,0,0,0,0,0,0,0,0,0,0,0,0,0,0,0,0,0,0,0],"id":19,"left_children":[1,3,5,7,9,11,13,15,17,19,21,23,25,27,29,-1,-1,-1,-1,-1,-1,-1,-1,-1,-1,-1,-1,-1,-1,-1,-1],"loss_changes":[5.8606766E1,3.4079437E0,1.03447876E2,3.8108406E0,4.515318E0,5.5048027E0,2.001915E0,4.801058E0,2.8609428E0,4.1766987E0,4.890823E0,6.818908E0,4.206354E0,1.8144381E0,4.2430878E-1,0E0,0E0,0E0,0E0,0E0,0E0,0E0,0E0,0E0,0E0,0E0,0E0,0E0,0E0,0E0,0E0],"parents":[2147483647,0,0,1,1,2,2,3,3,4,4,5,5,6,6,7,7,8,8,9,9,10,10,11,11,12,12,13,13,14,14],"right_children":[2,4,6,8,10,12,14,16,18,20,22,24,26,28,30,-1,-1,-1,-1,-1,-1,-1,-1,-1,-1,-1,-1,-1,-1,-1,-1],"split_conditions":[4.494181E1,3.75E-1,1.16554344E2,4.068135E1,1.8250987E2,3.4806885E1,1.2158287E2,2.1529913E2,4.5254265E1,1.89E2,1.8556387E2,2.02E2,1.9484784E2,3.0839493E1,3.1394553E0,-3.1995993E-2,6.5519996E-3,-5.683107E-2,-5.130775E-3,-3.2223415E-2,-1.38723655E-2,1.8492086E-2,-8.764143E-2,2.3646653E-2,-5.461625E-2,-6.4364925E-2,6.35172E-2,-4.9562678E-2,5.4215945E-2,2.5659595E-2,9.058104E-2],"split_indices":[3,12,8,1,5,1,8,6,1,2,7,2,7,1,5,0,0,0,0,0,0,0,0,0,0,0,0,0,0,0,0],"split_type":[0,0,0,0,0,0,0,0,0,0,0,0,0,0,0,0,0,0,0,0,0,0,0,0,0,0,0,0,0,0,0],"sum_hessian":[1.1195009E3,8.6948663E2,2.5001425E2,3.1516428E2,5.543224E2,1.0947603E2,1.4053822E2,2.2402623E2,9.113805E1,5.0394238E2,5.037999E1,4.2789627E1,6.66864E1,6.557802E0,1.3398042E2,1.8530652E2,3.871972E1,7.852733E1,1.2610723E1,2.2960448E2,2.7433792E2,4.659378E1,3.786208E0,2.2649319E1,2.0140308E1,6.477534E1,1.9110664E0,1.4484832E0,5.109319E0,1.9718263E0,1.3200859E2],"tree_param":{"num_deleted":"0","num_feature":"13","num_nodes":"31","size_leaf_vector":"1"}},{"base_weights":[-1.16076685E-1,-2.2395429E-1,2.5601482E-1,-2.903442E-1,-1.5631713E-1,-5.2617663E-1,4.940381E-1,-2.2896032E-1,-5.368764E-1,1.5666111E-1,-1.9307418E-1,-2.008281E-1,-7.152085E-1,3.4951946E-1,5.605089E-1,-1.7266532E-2,-5.0132573E-2,-1.0441295E-3,-6.0270607E-2,-9.162753E-3,8.570047E-2,2.8390665E-2,-2.1454686E-2,-4.5789126E-2,6.1312415E-2,1.2895252E-2,-7.975305E-2,4.337526E-2,-1.7303476E-2,5.774203E-2,1.3334915E-3],"categories":[],"categories_nodes":[],"categories_segments":[],"categories_sizes":[],"default_left":[0,0,0,0,0,0,0,0,0,0,0,0,0,0,0,0,0,0,0,0,0,0,0,0,0,0,0,0,0,0,0],"id":20,"left_children":[1,3,5,7,9,11,13,15,17,19,21,23,25,27,29,-1,-1,-1,-1,-1,-1,-1,-1,-1,-1,-1,-1,-1,-1,-1,-1],"loss_changes":[4.395503E1,3.7640266E0,4.610947E1,6.3381767E0,4.8894796E0,3.4197197E0,1.6228027E0,5.1814995E0,2.9175644E0,7.8938966E0,3.9369574E0,5.026845E0,2.6224308E0,2.8173714E0,1.17696E0,0E0,0E0,0E0,0E0,0E0,0E0,0E0,0E0,0E0,0E0,0E0,0E0,0E0,0E0,0E0,0E0],"parents":[2147483647,0,0,1,1,2,2,3,3,4,4,5,5,6,6,7,7,8,8,9,9,10,10,11,11,12,12,13,13,14,14],"right_children":[2,4,6,8,10,12,14,16,18,20,22,24,26,28,30,-1,-1,-1,-1,-1,-1,-1,-1,-1,-1,-1,-1,-1,-1,-1,-1],"split_conditions":[4.494181E1,1.0199615E2,5.107904E0,3.7683758E1,1.1236704E2,1.66E2,8.119781E0,5.8460728E1,2.720448E0,5.1277473E1,2.763084E0,5.0507725E1,1.4193621E0,5.1045914E1,1.2549058E2,-1.7266532E-2,-5.0132573E-2,-1.0441295E-3,-6.0270607E-2,-9.162753E-3,8.570047E-2,2.8390665E-2,-2.1454686E-2,-4.5789126E-2,6.1312415E-2,1.2895252E-2,-7.975305E-2,4.337526E-2,-1.7303476E-2,5.774203E-2,1.3334915E-3],"split_indices":[3,7,9,3,7,2,9,0,9,0,0,3,9,3,4,0,0,0,0,0,0,0,0,0,0,0,0,0,0,0,0],"split_type":[0,0,0,0,0,0,0,0,0,0,0,0,0,0,0,0,0,0,0,0,0,0,0,0,0,0,0,0,0,0,0],"sum_hessian":[1.0926055E3,8.473407E2,2.4526479E2,4.259513E2,4.213894E2,5.6939556E1,1.8832523E2,3.42581E2,8.337029E1,4.3945034E1,3.774444E2,2.1682882E1,3.525667E1,6.13022E1,1.27023026E2,2.8525568E2,5.7325333E1,9.395312E0,7.3974976E1,3.308483E1,1.0860201E1,1.5733272E1,3.6171112E2,1.6811049E1,4.871834E0,3.082378E0,3.2174294E1,5.2938686E1,8.363513E0,1.2316123E2,3.861796E0],"tree_param":{"num_deleted":"0","num_feature":"13","num_nodes":"31","size_leaf_vector":"1"}},{"base_weights":[-9.816194E-2,-1.9603978E-1,2.4721687E-1,-1.7265238E-1,-3.3951694E-1,-4.0378875E-1,8.046315E-1,-1.540999E-1,-4.4259694E-1,-3.8593793E-1,1.4075596E0,1.2880775E-1,-4.722289E-1,1.9735196E-1,8.1585246E-1,-1.0929224E-2,-2.8512696E-2,5.8796614E-2,-5.5863675E-2,-4.2314496E-2,4.991538E-2,3.4094866E-2,1.8398505E-1,-1.1018704E-2,7.834318E-2,-5.5851605E-2,-6.892288E-4,4.096033E-2,-4.7712787E-3,8.89978E-2,6.961785E-2],"categories":[],"categories_nodes":[],"categories_segments":[],"categories_sizes":[],"default_left":[0,0,0,0,0,0,0,0,0,0,0,0,0,0,0,0,0,0,0,0,0,0,0,0,0,0,0,0,0,0,0],"id":21,"left_children":[1,3,5,7,9,11,13,15,17,19,21,23,25,27,29,-1,-1,-1,-1,-1,-1,-1,-1,-1,-1,-1,-1,-1,-1,-1,-1],"loss_changes":[3.6398415E1,2.754696E0,8.6647446E1,3.552332E0,9.989417E0,4.084831E0,7.145386E-1,3.949232E0,5.8241158E0,3.9734688E0,8.6196136E-1,2.1759527E0,3.932644E0,2.0940532E-1,4.967041E-1,0E0,0E0,0E0,0E0,0E0,0E0,0E0,0E0,0E0,0E0,0E0,0E0,0E0,0E0,0E0,0E0],"parents":[2147483647,0,0,1,1,2,2,3,3,4,4,5,5,6,6,7,7,8,8,9,9,10,10,11,11,12,12,13,13,14,14],"right_children":[2,4,6,8,10,12,14,16,18,20,22,24,26,28,30,-1,-1,-1,-1,-1,-1,-1,-1,-1,-1,-1,-1,-1,-1,-1,-1],"split_conditions":[4.51313E1,6.0466206E1,1.199802E2,4.2868565E1,2.5354765E2,1.7963037E1,1.2158287E2,7.5E-1,2.7989492E1,1.9397797E2,6.549287E1,3.05E2,1.0356745E2,4.771694E1,3.9332905E1,-1.0929224E-2,-2.8512696E-2,5.8796614E-2,-5.5863675E-2,-4.2314496E-2,4.991538E-2,3.4094866E-2,1.8398505E-1,-1.1018704E-2,7.834318E-2,-5.5851605E-2,-6.892288E-4,4.096033E-2,-4.7712787E-3,8.89978E-2,6.961785E-2],"split_indices":[3,0,8,3,6,5,8,12,6,7,4,2,8,3,0,0,0,0,0,0,0,0,0,0,0,0,0,0,0,0,0],"split_type":[0,0,0,0,0,0,0,0,0,0,0,0,0,0,0,0,0,0,0,0,0,0,0,0,0,0,0,0,0,0,0],"sum_hessian":[1.0742856E3,8.374039E2,2.3688176E2,7.2192957E2,1.1547429E2,1.09394875E2,1.2748688E2,6.76974E2,4.495556E1,1.132444E2,2.2298853E0,1.2356378E1,9.70385E1,2.6501172E0,1.2483676E2,5.058286E2,1.7114537E2,4.1380568E0,4.0817505E1,1.091768E2,4.0675993E0,1.158981E0,1.0709043E0,9.660964E0,2.695414E0,8.1690445E1,1.534805E1,1.0603426E0,1.5897746E0,7.31137E1,5.172306E1],"tree_param":{"num_deleted":"0","num_feature":"13","num_nodes":"31","size_leaf_vector":"1"}},{"base_weights":[-9.9765815E-2,-1.9042516E-1,2.1663961E-1,-2.4383368E-1,-8.766886E-2,-4.1595966E-1,7.2806E-1,-2.507906E-1,8.58264E-1,-1.8276754E-1,2.113397E-1,-1.6172612E-1,-5.8664304E-1,1.5498269E-1,7.439232E-1,-2.6252737E-2,2.1704042E-2,1.6078298E-1,-2.2260929E-2,-3.7988167E-2,-4.63735E-3,6.869004E-2,-1.2864368E-2,1.8717924E-2,-5.7166E-2,-6.6740334E-2,3.971945E-2,8.6067975E-2,-4.6202645E-2,8.3389044E-2,6.072076E-2],"categories":[],"categories_nodes":[],"categories_segments":[],"categories_sizes":[],"default_left":[0,0,0,0,0,0,0,0,0,0,0,0,0,0,0,0,0,0,0,0,0,0,0,0,0,0,0,0,0,0,0],"id":22,"left_children":[1,3,5,7,9,11,13,15,17,19,21,23,25,27,29,-1,-1,-1,-1,-1,-1,-1,-1,-1,-1,-1,-1,-1,-1,-1,-1],"loss_changes":[3.0319088E1,4.484186E0,7.650854E1,4.3527718E0,8.0669365E0,4.502039E0,1.0720978E0,3.0057144E0,3.2836587E0,5.7558193E0,1.1178478E1,6.3907337E0,5.2709217E0,2.4795115E0,1.0536728E0,0E0,0E0,0E0,0E0,0E0,0E0,0E0,0E0,0E0,0E0,0E0,0E0,0E0,0E0,0E0,0E0],"parents":[2147483647,0,0,1,1,2,2,3,3,4,4,5,5,6,6,7,7,8,8,9,9,10,10,11,11,12,12,13,13,14,14],"right_children":[2,4,6,8,10,12,14,16,18,20,22,24,26,28,30,-1,-1,-1,-1,-1,-1,-1,-1,-1,-1,-1,-1,-1,-1,-1,-1],"split_conditions":[4.494181E1,1E0,1.16554344E2,1.9914597E2,9.853687E1,3.4806885E1,1.199802E2,1.9610428E2,5.416667E-1,2.3575016E1,3.551243E1,2.02E2,1.2209711E2,2E2,3.9892616E1,-2.6252737E-2,2.1704042E-2,1.6078298E-1,-2.2260929E-2,-3.7988167E-2,-4.63735E-3,6.869004E-2,-1.2864368E-2,1.8717924E-2,-5.7166E-2,-6.6740334E-2,3.971945E-2,8.6067975E-2,-4.6202645E-2,8.3389044E-2,6.072076E-2],"split_indices":[3,10,8,7,4,1,8,5,12,3,1,2,4,2,0,0,0,0,0,0,0,0,0,0,0,0,0,0,0,0,0],"split_type":[0,0,0,0,0,0,0,0,0,0,0,0,0,0,0,0,0,0,0,0,0,0,0,0,0,0,0,0,0,0,0],"sum_hessian":[1.0545244E3,8.199757E2,2.345487E2,5.386399E2,2.8133585E2,1.0493565E2,1.2961305E2,5.360287E2,2.6111984E0,2.1374403E2,6.759183E1,4.2933533E1,6.200212E1,3.78124E0,1.2583181E2,5.233382E2,1.2690489E1,1.254026E0,1.3571724E0,8.66843E1,1.2705972E2,2.7752249E1,3.9839577E1,2.3486746E1,1.9446787E1,5.759588E1,4.40624E0,1.579632E0,2.201608E0,7.281538E1,5.3016434E1],"tree_param":{"num_deleted":"0","num_feature":"13","num_nodes":"31","size_leaf_vector":"1"}},{"base_weights":[-8.356985E-2,-1.6845255E-1,2.1134833E-1,-2.8838432E-1,-1.403209E-1,-3.6397162E-1,6.95453E-1,-8.268294E-2,-4.0902913E-1,-5.3641167E-2,-2.0006558E-1,-1.7091194E-2,-4.5349866E-1,-7.3536277E-1,1.1918303E0,6.480216E-2,-2.9765023E-2,-5.076183E-2,-6.2497654E-3,-1.2791167E-2,2.9000482E-2,-2.3545014E-2,2.393884E-2,5.705875E-2,-3.4217764E-2,6.923389E-2,-4.864946E-2,-4.2355638E-2,-9.764503E-2,4.8829775E-2,1.2142117E-1],"categories":[],"categories_nodes":[],"categories_segments":[],"categories_sizes":[],"default_left":[0,0,0,0,0,0,0,0,0,0,0,0,0,0,0,0,0,0,0,0,0,0,0,0,0,0,0,0,0,0,0],"id":23,"left_children":[1,3,5,7,9,11,13,15,17,19,21,23,25,27,29,-1,-1,-1,-1,-1,-1,-1,-1,-1,-1,-1,-1,-1,-1,-1,-1],"loss_changes":[2.603155E1,2.6819782E0,6.5015976E1,3.747386E0,3.384159E0,3.3123817E0,9.0803894E1,9.237423E0,3.2406845E0,6.8988485E0,6.085148E0,4.5838504E0,3.5482025E0,2.0844688E0,8.933258E-1,0E0,0E0,0E0,0E0,0E0,0E0,0E0,0E0,0E0,0E0,0E0,0E0,0E0,0E0,0E0,0E0],"parents":[2147483647,0,0,1,1,2,2,3,3,4,4,5,5,6,6,7,7,8,8,9,9,10,10,11,11,12,12,13,13,14,14],"right_children":[2,4,6,8,10,12,14,16,18,20,22,24,26,28,30,-1,-1,-1,-1,-1,-1,-1,-1,-1,-1,-1,-1,-1,-1,-1,-1],"split_conditions":[4.494181E1,3.843274E1,1.199802E2,8.099645E1,2.872058E1,4.823071E0,5.0088873E0,5.6473896E1,1.7510495E2,4.2922085E1,1.862947E2,1.31E2,2.8186544E1,2.8162227E0,4.51313E1,6.480216E-2,-2.9765023E-2,-5.076183E-2,-6.2497654E-3,-1.2791167E-2,2.9000482E-2,-2.3545014E-2,2.393884E-2,5.705875E-2,-3.4217764E-2,6.923389E-2,-4.864946E-2,-4.2355638E-2,-9.764503E-2,4.8829775E-2,1.2142117E-1],"split_indices":[3,5,8,8,0,9,9,6,8,1,7,2,1,9,3,0,0,0,0,0,0,0,0,0,0,0,0,0,0,0,0],"split_type":[0,0,0,0,0,0,0,0,0,0,0,0,0,0,0,0,0,0,0,0,0,0,0,0,0,0,0,0,0,0,0],"sum_hessian":[1.0374485E3,8.059193E2,2.315291E2,1.5136472E2,6.545546E2,1.05910736E2,1.25618355E2,5.6580082E1,9.478464E1,2.6784842E2,3.867062E2,2.1971426E1,8.3939316E1,3.2230877E1,9.3387474E1,1.2403682E1,4.41764E1,7.342902E1,2.1355616E1,2.2076364E2,4.708477E1,3.5831885E2,2.8387379E1,7.5562825E0,1.4415144E1,1.7901697E0,8.214914E1,1.525628E1,1.6974596E1,3.582813E0,8.9804665E1],"tree_param":{"num_deleted":"0","num_feature":"13","num_nodes":"31","size_leaf_vector":"1"}},{"base_weights":[-8.618098E-2,-1.6246554E-1,1.911924E-1,-1.5403838E-1,-7.856942E-1,-3.4222072E-1,6.615404E-1,-1.6283815E-1,4.8925593E-1,1.7270567E-2,-9.6174255E-2,-1.1159657E-1,-5.050383E-1,-8.188468E-1,1.1738324E0,-1.4987314E-2,-5.177442E-2,1.69513E-1,-2.727276E-3,6.553972E-2,-2.5923086E-2,8.623967E-2,-5.4495957E-2,-1.0170513E-1,-5.227363E-2,1.1821009E-1,2.7497737E-2],"categories":[],"categories_nodes":[],"categories_segments":[],"categories_sizes":[],"default_left":[0,0,0,0,0,0,0,0,0,0,0,0,0,0,0,0,0,0,0,0,0,0,0,0,0,0,0],"id":24,"left_children":[1,3,5,7,9,11,13,15,17,-1,-1,19,21,23,25,-1,-1,-1,-1,-1,-1,-1,-1,-1,-1,-1,-1],"loss_changes":[2.1441187E1,4.0498123E0,5.5100452E1,4.522211E0,1.9125681E0,3.8167782E0,8.936733E1,3.4882069E0,6.7981844E0,0E0,0E0,5.148698E0,3.7550802E0,1.2618065E0,3.2161713E-1,0E0,0E0,0E0,0E0,0E0,0E0,0E0,0E0,0E0,0E0,0E0,0E0],"parents":[2147483647,0,0,1,1,2,2,3,3,4,4,5,5,6,6,7,7,8,8,11,11,12,12,13,13,14,14],"right_children":[2,4,6,8,10,12,14,16,18,-1,-1,20,22,24,26,-1,-1,-1,-1,-1,-1,-1,-1,-1,-1,-1,-1],"split_conditions":[4.494181E1,1.3847442E1,1.199802E2,1.3688797E1,3.7392796E1,3.4806885E1,5.0088873E0,3.68E2,5.1701996E1,1.7270567E-2,-9.6174255E-2,2.5947527E1,5.1732683E0,1.1015691E2,6.8614E1,-1.4987314E-2,-5.177442E-2,1.69513E-1,-2.727276E-3,6.553972E-2,-2.5923086E-2,8.623967E-2,-5.4495957E-2,-1.0170513E-1,-5.227363E-2,1.1821009E-1,2.7497737E-2],"split_indices":[3,9,8,9,6,1,9,2,7,0,0,6,7,7,0,0,0,0,0,0,0,0,0,0,0,0,0],"split_type":[0,0,0,0,0,0,0,0,0,0,0,0,0,0,0,0,0,0,0,0,0,0,0,0,0,0,0],"sum_hessian":[1.01085364E3,7.9313586E2,2.1771779E2,7.8378485E2,9.3510065E0,1.0214707E2,1.15570724E2,7.7394476E2,9.840095E0,1.454074E0,7.896932E0,4.296889E1,5.917818E1,2.9557898E1,8.6012825E1,7.480405E2,2.5904253E1,2.2666533E0,7.5734415E0,6.380646E0,3.658824E1,1.0942451E0,5.808394E1,1.6247663E1,1.3310233E1,8.491658E1,1.0962479E0],"tree_param":{"num_deleted":"0","num_feature":"13","num_nodes":"27","size_leaf_vector":"1"}},{"base_weights":[-8.6966656E-2,-1.5194443E-1,1.6003883E-1,-1.397582E-1,-5.696955E-1,-4.6809435E-1,3.7261078E-1,-1.811113E-1,-2.679517E-2,-8.3932793E-1,-1.5057744E-1,-5.3013355E-1,4.1861954E-1,4.104763E-1,1.10833034E-1,3.619972E-2,-2.0026864E-2,-7.10226E-2,1.1507625E-3,3.821708E-2,-9.841282E-2,1.4443541E-2,-7.547401E-2,-5.923572E-2,2.3742361E-2,-6.493183E-2,1.2530677E-1,-7.2042732E-3,4.37794E-2,2.5156884E-2,-3.9836675E-2],"categories":[],"categories_nodes":[],"categories_segments":[],"categories_sizes":[],"default_left":[0,0,0,0,0,0,0,0,0,0,0,0,0,0,0,0,0,0,0,0,0,0,0,0,0,0,0,0,0,0,0],"id":25,"left_children":[1,3,5,7,9,11,13,15,17,19,21,23,25,27,29,-1,-1,-1,-1,-1,-1,-1,-1,-1,-1,-1,-1,-1,-1,-1,-1],"loss_changes":[1.5931468E1,3.9176826E0,2.7801542E1,3.5653324E0,2.351966E0,3.1243E0,1.4923916E0,5.8916264E0,5.4001694E0,2.6978655E0,1.8564526E0,2.5167656E0,4.3859916E0,1.8132896E0,1.6033962E0,0E0,0E0,0E0,0E0,0E0,0E0,0E0,0E0,0E0,0E0,0E0,0E0,0E0,0E0,0E0,0E0],"parents":[2147483647,0,0,1,1,2,2,3,3,4,4,5,5,6,6,7,7,8,8,9,9,10,10,11,11,12,12,13,13,14,14],"right_children":[2,4,6,8,10,12,14,16,18,20,22,24,26,28,30,-1,-1,-1,-1,-1,-1,-1,-1,-1,-1,-1,-1,-1,-1,-1,-1],"split_conditions":[4.494181E1,3.7E2,5.107904E0,1.485758E2,5.833333E-1,1.2261306E2,5.1045914E1,6.484424E0,9.45554E0,1.8206064E1,1.8500739E2,3.59E2,3.3274467E1,3.8026552E0,1.5580719E2,3.619972E-2,-2.0026864E-2,-7.10226E-2,1.1507625E-3,3.821708E-2,-9.841282E-2,1.4443541E-2,-7.547401E-2,-5.923572E-2,2.3742361E-2,-6.493183E-2,1.2530677E-1,-7.2042732E-3,4.37794E-2,2.5156884E-2,-3.9836675E-2],"split_indices":[3,2,9,7,12,4,3,5,5,7,6,2,0,0,7,0,0,0,0,0,0,0,0,0,0,0,0,0,0,0,0],"split_type":[0,0,0,0,0,0,0,0,0,0,0,0,0,0,0,0,0,0,0,0,0,0,0,0,0,0,0,0,0,0,0],"sum_hessian":[9.9010803E2,7.841997E2,2.0590834E2,7.632689E2,2.0930788E1,5.1759903E1,1.5414844E2,5.582891E2,2.0497977E2,1.2126686E1,8.804103E0,4.8751152E1,3.0087504E0,1.3417265E2,1.9975779E1,1.8412106E1,5.398771E2,9.947402E0,1.9503236E2,1.1114529E0,1.1015233E1,6.4268184E0,2.377285E0,4.5306538E1,3.444615E0,1.4170499E0,1.5917004E0,7.101414E0,1.27071236E2,1.6046658E1,3.9291217E0],"tree_param":{"num_deleted":"0","num_feature":"13","num_nodes":"31","size_leaf_vector":"1"}},{"base_weights":[-6.806455E-2,-1.3048054E-1,1.891783E-1,-2.0649433E-1,-6.351925E-2,-3.3044344E-1,6.420189E-1,8.997224E-2,-2.3701888E-1,1.581598E-1,-1.4678806E-1,7.422666E-1,-3.8714123E-1,2.1149516E-1,6.7297816E-1,1.06593646E-1,-5.887567E-3,-2.5797104E-2,2.5646253E-2,2.606069E-2,-5.856145E-2,-1.633641E-2,1.12463236E-1,-2.8949505E-2,1.299356E-1,-8.1480645E-2,-2.9497428E-2,-3.4252528E-2,3.642669E-2,6.876201E-2,-1.669499E-3],"categories":[],"categories_nodes":[],"categories_segments":[],"categories_sizes":[],"default_left":[0,0,0,0,0,0,0,0,0,0,0,0,0,0,0,0,0,0,0,0,0,0,0,0,0,0,0,0,0,0,0],"id":26,"left_children":[1,3,5,7,9,11,13,15,17,19,21,23,25,27,29,-1,-1,-1,-1,-1,-1,-1,-1,-1,-1,-1,-1,-1,-1,-1,-1],"loss_changes":[1.57512245E1,4.001951E0,4.531062E1,3.3605251E0,7.7912064E0,5.755643E0,1.2271957E0,5.1719427E0,3.5280533E0,8.94516E0,6.6418447E0,3.1674929E0,3.1515532E0,8.316243E-1,9.748268E-1,0E0,0E0,0E0,0E0,0E0,0E0,0E0,0E0,0E0,0E0,0E0,0E0,0E0,0E0,0E0,0E0],"parents":[2147483647,0,0,1,1,2,2,3,3,4,4,5,5,6,6,7,7,8,8,9,9,10,10,11,11,12,12,13,13,14,14],"right_children":[2,4,6,8,10,12,14,16,18,20,22,24,26,28,30,-1,-1,-1,-1,-1,-1,-1,-1,-1,-1,-1,-1,-1,-1,-1,-1],"split_conditions":[4.5454693E1,2.5609552E1,1.16554344E2,1.8206064E1,3.0871923E1,4.1563873E0,2.9391043E1,2.9313255E1,1.9397797E2,1.1431285E2,1.2870204E2,4.5833334E-1,2.4034472E1,1.2811174E2,3.73E2,1.06593646E-1,-5.887567E-3,-2.5797104E-2,2.5646253E-2,2.606069E-2,-5.856145E-2,-1.633641E-2,1.12463236E-1,-2.8949505E-2,1.299356E-1,-8.1480645E-2,-2.9497428E-2,-3.4252528E-2,3.642669E-2,6.876201E-2,-1.669499E-3],"split_indices":[3,3,8,7,3,8,1,1,7,4,4,12,8,8,2,0,0,0,0,0,0,0,0,0,0,0,0,0,0,0,0],"split_type":[0,0,0,0,0,0,0,0,0,0,0,0,0,0,0,0,0,0,0,0,0,0,0,0,0,0,0,0,0,0,0],"sum_hessian":[9.7847656E2,7.878176E2,1.9065895E2,3.6799246E2,4.1982513E2,8.890885E1,1.017501E2,3.417022E1,3.3382224E2,1.1439152E2,3.0543362E2,3.8563273E0,8.505253E1,7.3514276E0,9.4398674E1,3.7064657E0,3.0463753E1,3.2068393E2,1.3138303E1,1.0111378E2,1.3277742E1,3.023631E2,3.070521E0,1.5205411E0,2.3357863E0,1.3689792E1,7.136273E1,1.320525E0,6.0309024E0,9.243914E1,1.9595342E0],"tree_param":{"num_deleted":"0","num_feature":"13","num_nodes":"31","size_leaf_vector":"1"}},{"base_weights":[-9.240477E-2,-1.9912972E-1,4.0114366E-2,-1.8466507E-1,-6.12993E-1,-2.3258434E-1,1.3465127E-1,-2.090778E-1,6.906209E-1,4.4472598E-2,-7.0479417E-1,-1.1042717E-1,-6.66587E-1,-2.95246E-1,1.6481768E-1,1.2089583E-2,-2.2647517E-2,1.5407285E-1,2.6063925E-2,4.552893E-2,-8.0869325E-2,-3.1641763E-2,1.587939E-2,-8.942725E-2,-1.5185756E-2,-5.220801E-3,-6.9362424E-2,3.5265237E-2,1.007147E-2],"categories":[],"categories_nodes":[],"categories_segments":[],"categories_sizes":[],"default_left":[0,0,0,0,0,0,0,0,0,0,0,0,0,0,0,0,0,0,0,0,0,0,0,0,0,0,0,0,0],"id":27,"left_children":[1,3,5,7,9,11,13,15,17,-1,19,21,23,25,27,-1,-1,-1,-1,-1,-1,-1,-1,-1,-1,-1,-1,-1,-1],"loss_changes":[1.373535E1,3.1062393E0,1.1215026E1,1.1278536E1,2.0350366E0,5.8664784E0,4.234484E0,2.9418697E0,4.8515024E0,0E0,2.381199E0,4.9654703E0,2.7250595E0,2.047596E0,3.6037703E0,0E0,0E0,0E0,0E0,0E0,0E0,0E0,0E0,0E0,0E0,0E0,0E0,0E0,0E0],"parents":[2147483647,0,0,1,1,2,2,3,3,4,4,5,5,6,6,7,7,8,8,10,10,11,11,12,12,13,13,14,14],"right_children":[2,4,6,8,10,12,14,16,18,-1,20,22,24,26,28,-1,-1,-1,-1,-1,-1,-1,-1,-1,-1,-1,-1,-1,-1],"split_conditions":[1.2385599E2,3.68E2,5.0088873E0,3.6E2,1.9725075E0,4.1303806E0,1.6972368E1,3.2603686E0,4.5259686E0,4.4472598E-2,1.0566009E1,2.29E2,1E0,1.1119702E1,4.8714108E1,1.2089583E-2,-2.2647517E-2,1.5407285E-1,2.6063925E-2,4.552893E-2,-8.0869325E-2,-3.1641763E-2,1.587939E-2,-8.942725E-2,-1.5185756E-2,-5.220801E-3,-6.9362424E-2,3.5265237E-2,1.007147E-2],"split_indices":[8,2,9,2,9,9,6,0,9,0,8,2,10,6,7,0,0,0,0,0,0,0,0,0,0,0,0,0,0],"split_type":[0,0,0,0,0,0,0,0,0,0,0,0,0,0,0,0,0,0,0,0,0,0,0,0,0,0,0,0,0],"sum_hessian":[9.69605E2,5.367932E2,4.3281177E2,5.2006305E2,1.673016E1,1.1104217E2,3.217696E2,5.0669196E2,1.3371096E1,1.0290586E0,1.5701101E1,8.763133E1,2.3410837E1,2.0522272E1,3.0124734E2,2.5078665E1,4.816133E2,3.6236367E0,9.747458E0,1.0126239E0,1.46884775E1,4.9546368E1,3.8084965E1,1.5719923E1,7.690914E0,1.3448697E1,7.073575E0,7.5504005E1,2.2574333E2],"tree_param":{"num_deleted":"0","num_feature":"13","num_nodes":"29","size_leaf_vector":"1"}},{"base_weights":[-3.087738E-2,-9.272887E-2,2.2661375E-1,-1.9659756E-1,-3.402854E-2,-2.54877E-1,6.3407195E-1,-1.084947E-1,-4.6132952E-1,-4.1092944E-1,-5.58788E-3,7.913808E-1,-3.1183544E-1,-6.031464E-1,1.0987197E0,2.4836427E-2,-1.8976752E-2,-5.621189E-2,3.3749607E-3,3.965594E-2,-5.2337743E-2,4.1558694E-2,-3.095553E-3,1.491853E-1,-8.985347E-3,2.2757875E-2,-3.8452443E-2,-1.7636921E-2,-7.2112955E-2,-4.6373755E-3,1.1442059E-1],"categories":[],"categories_nodes":[],"categories_segments":[],"categories_sizes":[],"default_left":[0,0,0,0,0,0,0,0,0,0,0,0,0,0,0,0,0,0,0,0,0,0,0,0,0,0,0,0,0,0,0],"id":28,"left_children":[1,3,5,7,9,11,13,15,17,19,21,23,25,27,29,-1,-1,-1,-1,-1,-1,-1,-1,-1,-1,-1,-1,-1,-1,-1,-1],"loss_changes":[1.5270926E1,4.705085E0,3.660331E1,6.453227E0,5.3033147E0,5.3630543E0,5.8664944E1,6.1525965E0,3.4777422E0,3.359671E0,4.940889E0,3.0446591E0,3.3081026E0,1.2923784E0,3.8919983E0,0E0,0E0,0E0,0E0,0E0,0E0,0E0,0E0,0E0,0E0,0E0,0E0,0E0,0E0,0E0,0E0],"parents":[2147483647,0,0,1,1,2,2,3,3,4,4,5,5,6,6,7,7,8,8,9,9,10,10,11,11,12,12,13,13,14,14],"right_children":[2,4,6,8,10,12,14,16,18,20,22,24,26,28,30,-1,-1,-1,-1,-1,-1,-1,-1,-1,-1,-1,-1,-1,-1,-1,-1],"split_conditions":[4.5454693E1,3.75E-1,1.16554344E2,4.146473E1,2.9232983E1,4.1563873E0,5.0088873E0,3.7006452E0,4.5254265E1,2.5572202E0,1.113312E1,3.591326E1,1.7963037E1,1.3667647E2,1.199802E2,2.4836427E-2,-1.8976752E-2,-5.621189E-2,3.3749607E-3,3.965594E-2,-5.2337743E-2,4.1558694E-2,-3.095553E-3,1.491853E-1,-8.985347E-3,2.2757875E-2,-3.8452443E-2,-1.7636921E-2,-7.2112955E-2,-4.6373755E-3,1.1442059E-1],"split_indices":[3,12,8,1,1,8,9,9,1,9,5,1,5,8,8,0,0,0,0,0,0,0,0,0,0,0,0,0,0,0,0],"split_type":[0,0,0,0,0,0,0,0,0,0,0,0,0,0,0,0,0,0,0,0,0,0,0,0,0,0,0,0,0,0,0],"sum_hessian":[9.565356E2,7.717861E2,1.847495E2,2.7782782E2,4.9395822E2,8.485333E1,9.9896164E1,2.0951201E2,6.831582E1,3.37148E1,4.6024344E2,3.7152195E0,8.1138115E1,2.7192522E1,7.270364E1,3.84828E1,1.710292E2,5.6647896E1,1.1667921E1,3.8122716E0,2.9902529E1,2.5272118E1,4.349713E2,1.6838522E0,2.0313673E0,9.382338E0,7.1755775E1,6.4296365E0,2.0762886E1,2.7769074E0,6.9926735E1],"tree_param":{"num_deleted":"0","num_feature":"13","num_nodes":"31","size_leaf_vector":"1"}},{"base_weights":[-5.8888733E-2,-1.1928858E-1,1.7499791E-1,-1.9207273E-1,-4.621275E-2,-4.138007E-1,3.7353003E-1,2.9558325E-1,-2.1308124E-1,1.631914E-1,-9.4324425E-2,-3.185945E-2,-5.8431077E-1,2.0517153E-1,4.6174616E-1,-3.8700428E-2,7.8357615E-2,-1.6204774E-2,-3.9855506E-2,2.108376E-3,1.2560247E-1,-4.545444E-2,-3.7248295E-3,-2.5358139E-2,1.24073185E-1,3.39615E-2,-6.900743E-2,4.629873E-2,1.526584E-3,7.747382E-2,3.9684843E-2],"categories":[],"categories_nodes":[],"categories_segments":[],"categories_sizes":[],"default_left":[0,0,0,0,0,0,0,0,0,0,0,0,0,0,0,0,0,0,0,0,0,0,0,0,0,0,0,0,0,0,0],"id":29,"left_children":[1,3,5,7,9,11,13,15,17,19,21,23,25,27,29,-1,-1,-1,-1,-1,-1,-1,-1,-1,-1,-1,-1,-1,-1,-1,-1],"loss_changes":[1.3382914E1,3.9926043E0,2.2895088E1,3.921239E0,3.8108761E0,3.2069292E0,2.0737743E0,5.6238356E0,3.358368E0,1.0961136E1,6.294568E0,4.926365E0,3.57477E0,2.538922E0,1.6223907E0,0E0,0E0,0E0,0E0,0E0,0E0,0E0,0E0,0E0,0E0,0E0,0E0,0E0,0E0,0E0,0E0],"parents":[2147483647,0,0,1,1,2,2,3,3,4,4,5,5,6,6,7,7,8,8,9,9,10,10,11,11,12,12,13,13,14,14],"right_children":[2,4,6,8,10,12,14,16,18,20,22,24,26,28,30,-1,-1,-1,-1,-1,-1,-1,-1,-1,-1,-1,-1,-1,-1,-1,-1],"split_conditions":[4.478524E1,1.02947426E2,5.107904E0,6.484424E0,1.20134766E2,1.31E2,8.370811E0,3.6404987E1,8.0617424E1,1.8171828E2,1.3159328E2,1.1972989E2,1.4193621E0,3.4453667E1,9.23715E0,-3.8700428E-2,7.8357615E-2,-1.6204774E-2,-3.9855506E-2,2.108376E-3,1.2560247E-1,-4.545444E-2,-3.7248295E-3,-2.5358139E-2,1.24073185E-1,3.39615E-2,-6.900743E-2,4.629873E-2,1.526584E-3,7.747382E-2,3.9684843E-2],"split_indices":[3,7,9,5,7,2,9,0,7,5,7,4,9,1,9,0,0,0,0,0,0,0,0,0,0,0,0,0,0,0,0],"split_type":[0,0,0,0,0,0,0,0,0,0,0,0,0,0,0,0,0,0,0,0,0,0,0,0,0,0,0,0,0,0,0],"sum_hessian":[9.4487006E2,7.5133276E2,1.935373E2,3.7560175E2,3.7573102E2,4.8528656E1,1.4500864E2,1.4973046E1,3.6062872E2,6.975093E1,3.0598007E2,1.5344329E1,3.318433E1,5.10007E1,9.400793E1,6.3282523E0,8.6447935E0,2.842817E2,7.634699E1,6.2626522E1,7.1244073E0,4.0898277E1,2.6508182E2,1.3749506E1,1.5948226E0,3.181386E0,3.0002943E1,2.102254E1,2.9978163E1,1.4266225E1,7.974171E1],"tree_param":{"num_deleted":"0","num_feature":"13","num_nodes":"31","size_leaf_vector":"1"}},{"base_weights":[-6.6106156E-2,-1.2164288E-1,1.4625354E-1,-1.6842398E-1,-1.7686078E-2,-3.013068E-1,5.952578E-1,-1.5952472E-1,-8.9362085E-2,3.0187264E-2,-6.8610835E-1,-3.5496378E-1,4.130552E-1,-6.557597E-1,1.081615E0,-2.4926716E-2,-9.537819E-3,6.6650346E-2,-9.121951E-4,1.213707E-2,-7.863091E-2,-3.921692E-2,7.867901E-2,1.0749022E-1,-3.4861144E-2,-2.874192E-2,-9.675815E-2,3.8220808E-2,1.1239952E-1],"categories":[],"categories_nodes":[],"categories_segments":[],"categories_sizes":[],"default_left":[0,0,0,0,0,0,0,0,0,0,0,0,0,0,0,0,0,0,0,0,0,0,0,0,0,0,0,0,0],"id":30,"left_children":[1,3,5,7,9,11,13,15,-1,17,19,21,23,25,27,-1,-1,-1,-1,-1,-1,-1,-1,-1,-1,-1,-1,-1,-1],"loss_changes":[1.1053406E1,3.6068974E0,3.92522E1,3.1604528E0,7.428063E0,3.9044523E0,5.996945E1,2.893776E0,0E0,5.4331536E0,1.3506079E0,4.2050304E0,4.060498E0,2.9249725E0,1.660347E0,0E0,0E0,0E0,0E0,0E0,0E0,0E0,0E0,0E0,0E0,0E0,0E0,0E0,0E0],"parents":[2147483647,0,0,1,1,2,2,3,3,4,4,5,5,6,6,7,7,9,9,10,10,11,11,12,12,13,13,14,14],"right_children":[2,4,6,8,10,12,14,16,-1,18,20,22,24,26,28,-1,-1,-1,-1,-1,-1,-1,-1,-1,-1,-1,-1,-1,-1],"split_conditions":[4.478524E1,1.8198105E2,1.199802E2,4.5803E1,4.2400978E1,1.2209711E2,5.0088873E0,8.582288E1,-8.9362085E-2,1.8590588E2,2.1687191E1,2.5442223E2,1.2602206E2,2.8162227E0,4.51313E1,-2.4926716E-2,-9.537819E-3,6.6650346E-2,-9.121951E-4,1.213707E-2,-7.863091E-2,-3.921692E-2,7.867901E-2,1.0749022E-1,-3.4861144E-2,-2.874192E-2,-9.675815E-2,3.8220808E-2,1.1239952E-1],"split_indices":[3,6,8,1,3,4,9,7,0,6,8,6,4,9,3,0,0,0,0,0,0,0,0,0,0,0,0,0,0],"split_type":[0,0,0,0,0,0,0,0,0,0,0,0,0,0,0,0,0,0,0,0,0,0,0,0,0,0,0,0,0],"sum_hessian":[9.347163E2,7.41282E2,1.9343434E2,5.107994E2,2.3048256E2,9.7037674E1,9.639667E1,5.0581232E2,4.987107E0,2.1596936E2,1.4513192E1,9.072617E1,6.3114963E0,2.6887587E1,6.950908E1,2.0963806E2,2.9617426E2,1.1637207E1,2.0433215E2,1.5788198E0,1.2934373E1,8.8498856E1,2.2273216E0,3.1569915E0,3.1545045E0,1.3207694E1,1.3679892E1,4.5436115E0,6.496547E1],"tree_param":{"num_deleted":"0","num_feature":"13","num_nodes":"29","size_leaf_vector":"1"}},{"base_weights":[-5.6075364E-2,-1.0498766E-1,1.6795503E-1,-6.4283535E-2,-2.2387502E-1,-2.2773795E-1,6.059501E-1,-7.776999E-2,7.401658E-1,-4.8379323E-1,-1.0211165E-1,-4.7078952E-2,-4.8931658E-1,2.0788139E-1,6.3552845E-1,-1.8140806E-2,1.1258863E-3,1.2573567E-1,-7.340396E-2,-6.7729056E-2,-1.5627699E-2,9.865786E-3,-2.3921872E-2,-8.598115E-2,1.0647641E-2,-7.022629E-2,1.221725E-2,4.478703E-2,-4.0577175E-3,7.1830355E-2,5.100395E-2],"categories":[],"categories_nodes":[],"categories_segments":[],"categories_sizes":[],"default_left":[0,0,0,0,0,0,0,0,0,0,0,0,0,0,0,0,0,0,0,0,0,0,0,0,0,0,0,0,0,0,0],"id":31,"left_children":[1,3,5,7,9,11,13,15,17,19,21,23,25,27,29,-1,-1,-1,-1,-1,-1,-1,-1,-1,-1,-1,-1,-1,-1,-1,-1],"loss_changes":[1.0107756E1,3.646058E0,2.8803314E1,6.186182E0,6.0436506E0,4.1176677E0,7.9540443E-1,5.136594E0,8.096998E0,3.7694883E0,3.6673894E0,6.6976585E0,4.732892E0,4.3166807E-1,3.9026833E-1,0E0,0E0,0E0,0E0,0E0,0E0,0E0,0E0,0E0,0E0,0E0,0E0,0E0,0E0,0E0,0E0],"parents":[2147483647,0,0,1,1,2,2,3,3,4,4,5,5,6,6,7,7,8,8,9,9,10,10,11,11,12,12,13,13,14,14],"right_children":[2,4,6,8,10,12,14,16,18,20,22,24,26,28,30,-1,-1,-1,-1,-1,-1,-1,-1,-1,-1,-1,-1,-1,-1,-1,-1],"split_conditions":[4.5454693E1,4.1404095E1,1.199802E2,4.1199642E1,4.2922085E1,3.8032772E1,2.9391043E1,2.5609552E1,1.4687018E2,1.63823E2,2.8073574E1,1.058162E1,5.034037E1,2.8603363E1,3.9332905E1,-1.8140806E-2,1.1258863E-3,1.2573567E-1,-7.340396E-2,-6.7729056E-2,-1.5627699E-2,9.865786E-3,-2.3921872E-2,-8.598115E-2,1.0647641E-2,-7.022629E-2,1.221725E-2,4.478703E-2,-4.0577175E-3,7.1830355E-2,5.100395E-2],"split_indices":[3,1,8,1,1,1,1,3,8,6,0,0,3,1,0,0,0,0,0,0,0,0,0,0,0,0,0,0,0,0,0],"split_type":[0,0,0,0,0,0,0,0,0,0,0,0,0,0,0,0,0,0,0,0,0,0,0,0,0,0,0,0,0,0,0],"sum_hessian":[9.19813E2,7.554154E2,1.643976E2,5.6389294E2,1.9152248E2,8.662184E1,7.777576E1,5.554837E2,8.409262E0,6.015064E1,1.3137183E2,5.19338E1,3.468804E1,5.9346557E0,7.18411E1,2.562022E2,2.9928146E2,6.334163E0,2.075099E0,3.7140175E1,2.301046E1,5.342322E1,7.794861E1,7.52204E0,4.441176E1,2.5618242E1,9.0698E0,2.610525E0,3.3241305E0,4.0441208E1,3.1399893E1],"tree_param":{"num_deleted":"0","num_feature":"13","num_nodes":"31","size_leaf_vector":"1"}},{"base_weights":[-2.1401089E-2,-5.9290018E-2,1.5332708E-1,-1.0900074E-1,3.568503E-2,-1.9115606E-1,5.407198E-1,-4.7864813E-2,-2.3319393E-1,2.386434E-1,-1.04286134E-1,7.0639724E-1,-2.421246E-1,-5.8383673E-1,1.0949999E-1,8.819352E-3,-1.2506037E-2,-2.8766146E-2,3.8074303E-2,1.7742207E-2,1.1865916E-1,-1.5992394E-2,5.145458E-2,1.2456354E-1,-7.896292E-3,-4.9377508E-3,-4.9571257E-2,-2.402128E-2,-8.79834E-2],"categories":[],"categories_nodes":[],"categories_segments":[],"categories_sizes":[],"default_left":[0,0,0,0,0,0,0,0,0,0,0,0,0,0,0,0,0,0,0,0,0,0,0,0,0,0,0,0,0],"id":32,"left_children":[1,3,5,7,9,11,13,15,17,19,21,23,25,27,-1,-1,-1,-1,-1,-1,-1,-1,-1,-1,-1,-1,-1,-1,-1],"loss_changes":[6.009536E0,3.5239718E0,2.1695265E1,3.7066722E0,7.3234663E0,4.122686E0,4.8271385E1,3.4706576E0,5.5023327E0,5.8928676E0,5.3415003E0,2.1721776E0,4.0071883E0,2.4211369E0,0E0,0E0,0E0,0E0,0E0,0E0,0E0,0E0,0E0,0E0,0E0,0E0,0E0,0E0,0E0],"parents":[2147483647,0,0,1,1,2,2,3,3,4,4,5,5,6,6,7,7,8,8,9,9,10,10,11,11,12,12,13,13],"right_children":[2,4,6,8,10,12,14,16,18,20,22,24,26,28,-1,-1,-1,-1,-1,-1,-1,-1,-1,-1,-1,-1,-1,-1,-1],"split_conditions":[4.5454693E1,1E0,1.199802E2,1.3660696E2,2.872058E1,4.1563873E0,5.0088873E0,8.1880226E1,1.9610428E2,1.337576E1,2.4018173E2,4.8355713E1,5.833333E-1,2.8162227E0,1.0949999E-1,8.819352E-3,-1.2506037E-2,-2.8766146E-2,3.8074303E-2,1.7742207E-2,1.1865916E-1,-1.5992394E-2,5.145458E-2,1.2456354E-1,-7.896292E-3,-4.9377508E-3,-4.9571257E-2,-2.402128E-2,-8.79834E-2],"split_indices":[3,10,8,5,0,8,9,8,5,9,6,3,12,9,0,0,0,0,0,0,0,0,0,0,0,0,0,0,0],"split_type":[0,0,0,0,0,0,0,0,0,0,0,0,0,0,0,0,0,0,0,0,0,0,0,0,0,0,0,0,0],"sum_hessian":[9.0537555E2,7.445782E2,1.607974E2,4.886612E2,2.5591698E2,8.538057E1,7.5416824E1,3.283912E2,1.6027E2,1.0416813E2,1.5174886E2,3.8968992E0,8.148367E1,2.4881807E1,5.053502E1,1.18822426E2,2.0956877E2,1.4769792E2,1.2572077E1,9.8963905E1,5.204221E0,1.3991132E2,1.1837546E1,1.9630055E0,1.9338937E0,4.6974224E1,3.4509445E1,1.235287E1,1.2528937E1],"tree_param":{"num_deleted":"0","num_feature":"13","num_nodes":"29","size_leaf_vector":"1"}},{"base_weights":[-3.9045557E-2,-1.3414861E-1,4.289753E-2,-7.1608886E-2,-3.5121047E-1,-6.1202243E-2,4.866813E-1,-2.3018066E-3,-2.8723097E-1,3.1676117E-1,-4.189167E-1,4.5336574E-1,-9.904507E-2,-3.8046193E-1,8.6721253E-1,-4.013737E-3,1.3963394E-1,4.3037385E-2,-4.548797E-2,1.1714434E-1,-3.992891E-2,-1.89789E-2,-5.6328308E-2,1.2961277E-1,1.845322E-2,-2.9111603E-2,-4.6773492E-3,1.0084813E-1,-5.7565976E-2,-1.3910723E-2,1.0873716E-1],"categories":[],"categories_nodes":[],"categories_segments":[],"categories_sizes":[],"default_left":[0,0,0,0,0,0,0,0,0,0,0,0,0,0,0,0,0,0,0,0,0,0,0,0,0,0,0,0,0,0,0],"id":33,"left_children":[1,3,5,7,9,11,13,15,17,19,21,23,25,27,29,-1,-1,-1,-1,-1,-1,-1,-1,-1,-1,-1,-1,-1,-1,-1,-1],"loss_changes":[7.004527E0,5.620755E0,2.2351414E1,4.8432384E0,4.328349E0,7.683239E0,3.0660154E1,1.3089764E1,9.680083E0,6.041422E0,2.693633E0,5.8895497E0,3.663054E0,8.369497E0,1.4372082E1,0E0,0E0,0E0,0E0,0E0,0E0,0E0,0E0,0E0,0E0,0E0,0E0,0E0,0E0,0E0,0E0],"parents":[2147483647,0,0,1,1,2,2,3,3,4,4,5,5,6,6,7,7,8,8,9,9,10,10,11,11,12,12,13,13,14,14],"right_children":[2,4,6,8,10,12,14,16,18,20,22,24,26,28,30,-1,-1,-1,-1,-1,-1,-1,-1,-1,-1,-1,-1,-1,-1,-1,-1],"split_conditions":[1.0273709E2,4.3036892E1,4.51313E1,4.146473E1,1.3579167E1,1.1037732E2,5.0088873E0,4.1199642E1,2.4643194E1,1.97E2,3.3962658E1,3.8496354E0,4.322008E1,1.1746726E2,1.199802E2,-4.013737E-3,1.3963394E-1,4.3037385E-2,-4.548797E-2,1.1714434E-1,-3.992891E-2,-1.89789E-2,-5.6328308E-2,1.2961277E-1,1.845322E-2,-2.9111603E-2,-4.6773492E-3,1.0084813E-1,-5.7565976E-2,-1.3910723E-2,1.0873716E-1],"split_indices":[8,3,3,1,5,8,9,1,4,2,1,9,5,8,8,0,0,0,0,0,0,0,0,0,0,0,0,0,0,0,0],"split_type":[0,0,0,0,0,0,0,0,0,0,0,0,0,0,0,0,0,0,0,0,0,0,0,0,0,0,0,0,0,0,0],"sum_hessian":[8.9708014E2,4.149049E2,4.8217526E2,3.2313373E2,9.177117E1,3.9125858E2,9.091668E1,2.4529848E2,7.783524E1,8.107385E0,8.366379E1,2.6050913E1,3.6520767E2,2.772895E1,6.3187725E1,2.3978325E2,5.5152316E0,1.4443607E1,6.339164E1,3.4059916E0,4.701393E0,3.3233173E1,5.0430614E1,5.3761153E0,2.0674797E1,7.7150444E1,2.8805722E2,2.9033692E0,2.482558E1,1.1408597E1,5.177913E1],"tree_param":{"num_deleted":"0","num_feature":"13","num_nodes":"31","size_leaf_vector":"1"}},{"base_weights":[-2.9892828E-2,-6.5738374E-1,-2.4110014E-2,2.0720378E-2,-8.8848226E-2,-1.070454E-1,1.4934101E-2,-2.3536254E-2,-4.592906E-1,6.110725E-1,-5.145975E-3,-1.1550764E-2,1.6530259E-2,-7.5330995E-2,2.5878672E-2,1.031445E-2,1.0807078E-1,-8.35812E-3,8.622381E-3],"categories":[],"categories_nodes":[],"categories_segments":[],"categories_sizes":[],"default_left":[0,0,0,0,0,0,0,0,0,0,0,0,0,0,0,0,0,0,0],"id":34,"left_children":[1,3,5,-1,-1,7,9,11,13,15,17,-1,-1,-1,-1,-1,-1,-1,-1],"loss_changes":[3.1919224E0,1.7894018E0,2.8413644E0,0E0,0E0,8.250031E0,7.151256E0,3.98009E0,1.1546322E1,4.532171E0,4.154357E0,0E0,0E0,0E0,0E0,0E0,0E0,0E0,0E0],"parents":[2147483647,0,0,1,1,2,2,5,5,6,6,7,7,8,8,9,9,10,10],"right_children":[2,4,6,-1,-1,8,10,12,14,16,18,-1,-1,-1,-1,-1,-1,-1,-1],"split_conditions":[1.8111128E0,1.02E2,5.5198307E0,2.0720378E-2,-8.8848226E-2,4.727344E0,5.762689E0,2.71E2,7.083333E-1,1.3389034E2,1.199802E2,-1.1550764E-2,1.6530259E-2,-7.5330995E-2,2.5878672E-2,1.031445E-2,1.0807078E-1,-8.35812E-3,8.622381E-3],"split_indices":[7,2,9,0,0,9,9,2,12,6,8,0,0,0,0,0,0,0,0],"split_type":[0,0,0,0,0,0,0,0,0,0,0,0,0,0,0,0,0,0,0],"sum_hessian":[8.830091E2,7.0343623E0,8.7597473E2,1.5054729E0,5.528889E0,2.7983112E2,5.961436E2,2.2706589E2,5.276522E1,1.8466854E1,5.7767676E2,1.5295807E2,7.410782E1,3.740184E1,1.5363381E1,9.457665E0,9.00919E0,3.1088596E2,2.6679083E2],"tree_param":{"num_deleted":"0","num_feature":"13","num_nodes":"19","size_leaf_vector":"1"}},{"base_weights":[-3.160528E-2,-4.523191E-2,3.4390965E-1,-1.2245069E-1,2.0143809E-2,-3.8967562E-1,6.415822E-1,-7.539457E-2,-4.1078192E-1,5.54165E-1,4.140051E-3,-7.992485E-2,4.8421022E-1,2.2344771E-1,1.4767151E0,1.9997386E-2,-1.2567945E-2,-4.5208033E-2,7.8792654E-2,-2.0728173E-2,1.0089735E-1,-2.7237667E-2,3.058208E-3,1.0907038E-1,-3.492767E-2,-3.0231168E-2,7.3376134E-2,2.1720648E-1,-2.444303E-2],"categories":[],"categories_nodes":[],"categories_segments":[],"categories_sizes":[],"default_left":[0,0,0,0,0,0,0,0,0,0,0,0,0,0,0,0,0,0,0,0,0,0,0,0,0,0,0,0,0],"id":35,"left_children":[1,3,5,7,9,11,13,15,17,19,21,-1,23,25,27,-1,-1,-1,-1,-1,-1,-1,-1,-1,-1,-1,-1,-1,-1],"loss_changes":[4.5711656E0,4.343932E0,7.083102E0,5.320511E0,3.9851778E0,3.8425276E0,7.574874E0,4.7373857E0,3.084651E0,4.907909E0,3.3278422E0,0E0,2.2531576E0,4.5851927E0,9.356426E0,0E0,0E0,0E0,0E0,0E0,0E0,0E0,0E0,0E0,0E0,0E0,0E0,0E0,0E0],"parents":[2147483647,0,0,1,1,2,2,3,3,4,4,5,5,6,6,7,7,8,8,9,9,10,10,12,12,13,13,14,14],"right_children":[2,4,6,8,10,12,14,16,18,20,22,-1,24,26,28,-1,-1,-1,-1,-1,-1,-1,-1,-1,-1,-1,-1,-1,-1],"split_conditions":[2.5239894E2,1.0273709E2,5.0843487E1,5.995571E1,1.0561291E2,1E0,2.7E2,3.079215E1,4.5600494E1,8.660044E1,2.9526102E1,-7.992485E-2,2.4219694E1,5.7914043E1,4.0770023E1,1.9997386E-2,-1.2567945E-2,-4.5208033E-2,7.8792654E-2,-2.0728173E-2,1.0089735E-1,-2.7237667E-2,3.058208E-3,1.0907038E-1,-3.492767E-2,-3.0231168E-2,7.3376134E-2,2.1720648E-1,-2.444303E-2],"split_indices":[6,8,7,0,8,11,2,7,1,7,1,0,7,4,1,0,0,0,0,0,0,0,0,0,0,0,0,0,0],"split_type":[0,0,0,0,0,0,0,0,0,0,0,0,0,0,0,0,0,0,0,0,0,0,0,0,0,0,0,0,0],"sum_hessian":[8.8928876E2,8.5899713E2,3.029161E1,3.934267E2,4.6557043E2,8.654459E0,2.1637152E1,3.3931192E2,5.411476E1,1.2568002E1,4.5300244E2,5.9508314E0,2.7036273E0,1.5262886E1,6.374266E0,5.193428E1,2.8737766E2,5.2914585E1,1.2001759E0,4.9032145E0,7.6647873E0,3.8725964E1,4.1427646E2,1.3862835E0,1.317344E0,7.718433E0,7.5444527E0,4.3534617E0,2.0208044E0],"tree_param":{"num_deleted":"0","num_feature":"13","num_nodes":"29","size_leaf_vector":"1"}},{"base_weights":[-1.4630515E-2,-4.4560255E-3,-3.1393218E-1,-2.1999842E-2,6.052795E-1,1.0625186E-1,-4.2085502E-1,-1.6660795E-1,2.5119055E-3,2.3947583E-1,1.5133513E0,-8.7335795E-2,-1.6053072E-1,-2.19283E-3,-4.627685E-2,-7.1938112E-3,5.9513613E-3,-3.2943007E-2,7.474255E-2,2.0592342E-1,-1.9907834E-2,6.4892985E-2,-3.4355585E-2],"categories":[],"categories_nodes":[],"categories_segments":[],"categories_sizes":[],"default_left":[0,0,0,0,0,0,0,0,0,0,0,0,0,0,0,0,0,0,0,0,0,0,0],"id":36,"left_children":[1,3,5,7,9,-1,11,13,15,17,19,-1,21,-1,-1,-1,-1,-1,-1,-1,-1,-1,-1],"loss_changes":[2.6933594E0,9.178898E0,4.726731E0,2.956012E0,7.6094723E0,0E0,3.1226215E0,5.1688466E0,3.0341804E0,5.533165E0,6.6762943E0,0E0,3.0094175E0,0E0,0E0,0E0,0E0,0E0,0E0,0E0,0E0,0E0,0E0],"parents":[2147483647,0,0,1,1,2,2,3,3,4,4,6,6,7,7,8,8,9,9,10,10,12,12],"right_children":[2,4,6,8,10,-1,12,14,16,18,20,-1,22,-1,-1,-1,-1,-1,-1,-1,-1,-1,-1],"split_conditions":[3.68E2,3.6E2,1.30172825E1,3.2122505E1,5.2315258E1,1.0625186E-1,9.8718636E1,1.3843831E2,1.73E2,5.6608234E1,6.529932E1,-8.7335795E-2,3.0903692E1,-2.19283E-3,-4.627685E-2,-7.1938112E-3,5.9513613E-3,-3.2943007E-2,7.474255E-2,2.0592342E-1,-1.9907834E-2,6.4892985E-2,-3.4355585E-2],"split_indices":[2,2,8,8,0,0,6,7,2,4,0,0,1,0,0,0,0,0,0,0,0,0,0],"split_type":[0,0,0,0,0,0,0,0,0,0,0,0,0,0,0,0,0,0,0,0,0,0,0],"sum_hessian":[8.839078E2,8.558295E2,2.8078264E1,8.3283057E2,2.2998972E1,1.379701E0,2.6698565E1,1.19867874E2,7.1296265E2,1.7295462E1,5.70351E0,8.890304E0,1.780826E1,8.12499E1,3.861797E1,3.0904996E2,4.0391272E2,8.323998E0,8.971464E0,4.1712804E0,1.5322292E0,2.8146038E0,1.4993656E1],"tree_param":{"num_deleted":"0","num_feature":"13","num_nodes":"23","size_leaf_vector":"1"}},{"base_weights":[-4.102929E-2,-7.531182E-2,1.1450748E-1,-3.323886E-1,-5.5908345E-2,-2.2528619E-1,5.175851E-1,9.676285E-2,-3.7839347E-1,-1.07546814E-1,5.3183015E-2,1.2453173E-1,-3.7572613E-1,-5.7127386E-1,1.0328223E0,3.962799E-2,-4.3964665E-2,-1.1792439E-2,7.860928E-2,3.5327088E-2,-6.4735287E-3,6.810688E-2,-3.371836E-2,-7.4667744E-2,-2.2249456E-2,-2.6269993E-2,-8.434666E-2,3.0835891E-2,1.07352495E-1],"categories":[],"categories_nodes":[],"categories_segments":[],"categories_sizes":[],"default_left":[0,0,0,0,0,0,0,0,0,0,0,0,0,0,0,0,0,0,0,0,0,0,0,0,0,0,0,0,0],"id":37,"left_children":[1,3,5,7,9,11,13,-1,15,17,19,21,23,25,27,-1,-1,-1,-1,-1,-1,-1,-1,-1,-1,-1,-1,-1,-1],"loss_changes":[4.6876636E0,3.5710492E0,2.1877316E1,3.374529E0,3.7818742E0,4.6202545E0,4.1531E1,0E0,2.5136204E0,4.3150434E0,7.667206E0,7.138131E0,3.3022661E0,1.8012567E0,1.1401749E0,0E0,0E0,0E0,0E0,0E0,0E0,0E0,0E0,0E0,0E0,0E0,0E0,0E0,0E0],"parents":[2147483647,0,0,1,1,2,2,3,3,4,4,5,5,6,6,8,8,9,9,10,10,11,11,12,12,13,13,14,14],"right_children":[2,4,6,8,10,12,14,-1,16,18,20,22,24,26,28,-1,-1,-1,-1,-1,-1,-1,-1,-1,-1,-1,-1,-1,-1],"split_conditions":[4.494181E1,2.9232983E1,1.199802E2,3.7E1,2.71E2,6.1286535E0,5.0088873E0,9.676285E-2,9.861228E0,1.2870204E2,4.727344E0,1.66E2,8.432834E0,2.8162227E0,4.51313E1,3.962799E-2,-4.3964665E-2,-1.1792439E-2,7.860928E-2,3.5327088E-2,-6.4735287E-3,6.810688E-2,-3.371836E-2,-7.4667744E-2,-2.2249456E-2,-2.6269993E-2,-8.434666E-2,3.0835891E-2,1.07352495E-1],"split_indices":[3,1,8,2,2,9,9,0,7,4,9,2,9,9,3,0,0,0,0,0,0,0,0,0,0,0,0,0,0],"split_type":[0,0,0,0,0,0,0,0,0,0,0,0,0,0,0,0,0,0,0,0,0,0,0,0,0,0,0,0,0],"sum_hessian":[8.765074E2,7.186274E2,1.5787997E2,4.9301468E1,6.693259E2,8.5904076E1,7.197589E1,1.000343E0,4.8301125E1,4.5429788E2,2.1502805E2,2.5885277E1,6.0018803E1,2.308379E1,4.8892105E1,3.1385183E0,4.5162605E1,4.499409E2,4.356988E0,6.0095737E1,1.5493231E2,1.1521971E1,1.4363305E1,1.641284E1,4.3605965E1,1.1739881E1,1.1343908E1,3.0569885E0,4.5835114E1],"tree_param":{"num_deleted":"0","num_feature":"13","num_nodes":"29","size_leaf_vector":"1"}},{"base_weights":[-3.068861E-2,-1.23371676E-1,2.7301857E-2,1.6804795E-1,-1.6805273E-1,2.588339E-1,-3.134931E-2,3.0605733E-2,1.1881573E0,1.1066654E-1,-2.1468644E-1,4.9120796E-1,-8.665645E-3,-1.5812361E-1,6.387471E-2,-4.2920504E-2,3.4983892E-2,-3.7359998E-2,2.2052574E-1,-7.4471342E-3,7.8869775E-2,-8.9029735E-3,-3.1652886E-2,1.06222294E-1,2.5175476E-2,-1.5046576E-2,1.09522276E-1,-7.56716E-3,-5.1365353E-2,-1.1757072E-2,4.0045068E-2],"categories":[],"categories_nodes":[],"categories_segments":[],"categories_sizes":[],"default_left":[0,0,0,0,0,0,0,0,0,0,0,0,0,0,0,0,0,0,0,0,0,0,0,0,0,0,0,0,0,0,0],"id":38,"left_children":[1,3,5,7,9,11,13,15,17,19,21,23,25,27,29,-1,-1,-1,-1,-1,-1,-1,-1,-1,-1,-1,-1,-1,-1,-1,-1],"loss_changes":[4.67962E0,4.3907633E0,7.28685E0,6.278509E0,3.8060808E0,6.7451296E0,5.1836615E0,6.127099E0,9.276716E0,5.377351E0,3.1663752E0,7.6697607E0,8.209661E0,5.358291E0,1.5036495E1,0E0,0E0,0E0,0E0,0E0,0E0,0E0,0E0,0E0,0E0,0E0,0E0,0E0,0E0,0E0,0E0],"parents":[2147483647,0,0,1,1,2,2,3,3,4,4,5,5,6,6,7,7,8,8,9,9,10,10,11,11,12,12,13,13,14,14],"right_children":[2,4,6,8,10,12,14,16,18,20,22,24,26,28,30,-1,-1,-1,-1,-1,-1,-1,-1,-1,-1,-1,-1,-1,-1,-1,-1],"split_conditions":[2.5609552E1,8.820526E0,3.0871923E1,4.4511833E1,1.0549839E1,1.065618E2,9.467921E1,1.458444E1,2.1E2,1.0043463E1,1.89E2,3.2910587E1,1.9213583E2,7.658122E1,4.51313E1,-4.2920504E-2,3.4983892E-2,-3.7359998E-2,2.2052574E-1,-7.4471342E-3,7.8869775E-2,-8.9029735E-3,-3.1652886E-2,1.06222294E-1,2.5175476E-2,-1.5046576E-2,1.09522276E-1,-7.56716E-3,-5.1365353E-2,-1.1757072E-2,4.0045068E-2],"split_indices":[3,0,3,1,3,5,8,3,2,3,2,1,5,8,3,0,0,0,0,0,0,0,0,0,0,0,0,0,0,0,0],"split_type":[0,0,0,0,0,0,0,0,0,0,0,0,0,0,0,0,0,0,0,0,0,0,0,0,0,0,0,0,0,0,0],"sum_hessian":[8.690432E2,3.3403903E2,5.350042E2,4.4039932E1,2.8999908E2,1.07443985E2,4.275602E2,3.9718544E1,4.321389E0,4.1369526E1,2.4862956E2,5.7049435E1,5.0394554E1,1.8311446E2,2.4444577E2,1.6134527E1,2.3584017E1,1.9538829E0,2.3675063E0,3.319557E1,8.173957E0,1.12140686E2,1.3648888E2,1.5840104E1,4.1209328E1,4.542338E1,4.9711714E0,1.4962688E2,3.3487583E1,1.5924744E2,8.519833E1],"tree_param":{"num_deleted":"0","num_feature":"13","num_nodes":"31","size_leaf_vector":"1"}},{"base_weights":[-2.1963213E-2,-5.3778324E-2,1.19958766E-1,-2.006062E-1,-2.6051845E-2,-1.6681871E-1,5.040846E-1,8.36689E-3,-4.0290508E-1,-3.6630433E-2,4.1235936E-1,-2.0988397E-1,6.824555E-1,-5.0886506E-1,1.014495E0,-2.5097935E-2,4.4820927E-2,-1.5920818E-2,-7.637343E-2,-2.4132405E-3,-6.0100477E-2,1.3777998E-1,-9.461602E-3,-2.5314871E-2,5.323117E-2,-2.9790064E-2,1.414489E-1,-8.277442E-3,-9.136475E-2,1.0385239E-1,1.282913E-2],"categories":[],"categories_nodes":[],"categories_segments":[],"categories_sizes":[],"default_left":[0,0,0,0,0,0,0,0,0,0,0,0,0,0,0,0,0,0,0,0,0,0,0,0,0,0,0,0,0,0,0],"id":39,"left_children":[1,3,5,7,9,11,13,15,17,19,21,23,25,27,29,-1,-1,-1,-1,-1,-1,-1,-1,-1,-1,-1,-1,-1,-1,-1,-1],"loss_changes":[3.8889935E0,2.8571064E0,1.7463913E1,4.718396E0,2.763297E0,3.4745295E0,3.5512184E1,6.482327E0,4.86345E0,4.0732107E0,7.003764E0,2.9429193E0,3.744813E0,3.950801E0,8.3231354E-1,0E0,0E0,0E0,0E0,0E0,0E0,0E0,0E0,0E0,0E0,0E0,0E0,0E0,0E0,0E0,0E0],"parents":[2147483647,0,0,1,1,2,2,3,3,4,4,5,5,6,6,7,7,8,8,9,9,10,10,11,11,12,12,13,13,14,14],"right_children":[2,4,6,8,10,12,14,16,18,20,22,24,26,28,30,-1,-1,-1,-1,-1,-1,-1,-1,-1,-1,-1,-1,-1,-1,-1,-1],"split_conditions":[4.478524E1,8.7E1,1.22336555E2,7.758186E0,1.9621414E2,6.758735E1,5.0088873E0,5.3671575E0,1.6088882E2,1.9310193E2,1.81E2,1.9168794E2,5E-1,2.8162227E0,6.807535E1,-2.5097935E-2,4.4820927E-2,-1.5920818E-2,-7.637343E-2,-2.4132405E-3,-6.0100477E-2,1.3777998E-1,-9.461602E-3,-2.5314871E-2,5.323117E-2,-2.9790064E-2,1.414489E-1,-8.277442E-3,-9.136475E-2,1.0385239E-1,1.282913E-2],"split_indices":[3,2,8,9,8,0,9,9,6,8,2,7,12,9,0,0,0,0,0,0,0,0,0,0,0,0,0,0,0,0,0],"split_type":[0,0,0,0,0,0,0,0,0,0,0,0,0,0,0,0,0,0,0,0,0,0,0,0,0,0,0,0,0,0,0],"sum_hessian":[8.588704E2,7.0209955E2,1.5677087E2,1.10532166E2,5.915674E2,9.00831E1,6.668778E1,5.484076E1,5.5691406E1,5.785244E2,1.3042984E1,8.6452126E1,3.6309745E0,2.2345133E1,4.4342644E1,3.4769093E1,2.0071667E1,3.4101295E1,2.1590113E1,5.6701074E2,1.1513653E1,3.8994741E0,9.14351E0,8.23128E1,4.1393304E0,1.8057386E0,1.825236E0,1.147284E1,1.0872293E1,4.3004723E1,1.3379236E0],"tree_param":{"num_deleted":"0","num_feature":"13","num_nodes":"31","size_leaf_vector":"1"}},{"base_weights":[-8.150808E-3,-2.00154E-2,3.2616705E-1,-1.0257864E-2,-5.20388E-1,-4.5450866E-1,6.191928E-1,-2.854227E-1,3.3777691E-3,-9.09351E-2,1.2543797E-1,5.5339854E-2,-7.720868E-1,9.8026425E-1,-1.8658805E-1,6.571138E-2,-4.062036E-2,-8.626971E-4,3.1897977E-2,7.3423676E-2,-6.652633E-2,-8.9382246E-2,-2.6770185E-3,3.7410777E-2,1.809374E-1,4.3402936E-2,-6.872997E-2],"categories":[],"categories_nodes":[],"categories_segments":[],"categories_sizes":[],"default_left":[0,0,0,0,0,0,0,0,0,0,0,0,0,0,0,0,0,0,0,0,0,0,0,0,0,0,0],"id":40,"left_children":[1,3,5,7,9,11,13,15,17,-1,19,-1,21,23,25,-1,-1,-1,-1,-1,-1,-1,-1,-1,-1,-1,-1],"loss_changes":[3.3996735E0,4.032727E0,7.001438E0,3.0486217E0,4.0829673E0,3.1780424E0,6.520343E0,4.634133E0,2.938641E0,0E0,3.770321E0,0E0,6.0686064E-1,6.963111E0,2.6539254E0,0E0,0E0,0E0,0E0,0E0,0E0,0E0,0E0,0E0,0E0,0E0,0E0],"parents":[2147483647,0,0,1,1,2,2,3,3,4,4,5,5,6,6,7,7,8,8,10,10,12,12,13,13,14,14],"right_children":[2,4,6,8,10,12,14,16,18,-1,20,-1,22,24,26,-1,-1,-1,-1,-1,-1,-1,-1,-1,-1,-1,-1],"split_conditions":[2.5239894E2,2.4846338E2,5.245707E1,2.879816E1,4.2139038E1,1.2223926E1,3.980061E1,2.2026785E1,1.9397797E2,-9.09351E-2,2.14E2,5.5339854E-2,4.784931E1,8.949655E0,2.9015152E1,6.571138E-2,-4.062036E-2,-8.626971E-4,3.1897977E-2,7.3423676E-2,-6.652633E-2,-8.9382246E-2,-2.6770185E-3,3.7410777E-2,1.809374E-1,4.3402936E-2,-6.872997E-2],"split_indices":[6,6,7,1,0,7,1,6,7,0,2,0,3,9,3,0,0,0,0,0,0,0,0,0,0,0,0],"split_type":[0,0,0,0,0,0,0,0,0,0,0,0,0,0,0,0,0,0,0,0,0,0,0,0,0,0,0],"sum_hessian":[8.54441E2,8.2606494E2,2.8376053E1,8.112653E2,1.4799611E1,7.59376E0,2.0782293E1,3.7362576E1,7.739028E2,8.981975E0,5.817637E0,1.6415056E0,5.9522543E0,1.4201876E1,6.580418E0,3.7395725E0,3.3623005E1,7.464811E2,2.7421677E1,3.3272436E0,2.4903932E0,4.945271E0,1.0069835E0,9.0423155E0,5.1595597E0,2.997848E0,3.58257E0],"tree_param":{"num_deleted":"0","num_feature":"13","num_nodes":"27","size_leaf_vector":"1"}},{"base_weights":[-4.3084867E-2,-1.3133693E-1,-8.667875E-4,-7.172471E-2,-4.5977983E-1,-6.323528E-2,2.4759747E-1,7.4997055E-3,-3.933018E-1,-6.6670835E-1,-3.3348765E-2,-7.686596E-2,7.7644926E-1,-1.8887568E-1,9.0514433E-1,6.565788E-3,-4.15056E-2,-7.176962E-2,-1.0339273E-3,3.4546208E-2,-7.5730346E-2,-6.1473113E-2,9.600407E-2,-5.9411E-3,-7.870561E-2,2.5660768E-2,1.7224707E-1,6.447543E-2,-3.1366516E-2,3.9021134E-2,1.0448146E-1],"categories":[],"categories_nodes":[],"categories_segments":[],"categories_sizes":[],"default_left":[0,0,0,0,0,0,0,0,0,0,0,0,0,0,0,0,0,0,0,0,0,0,0,0,0,0,0,0,0,0,0],"id":41,"left_children":[1,3,5,7,9,11,13,15,17,19,21,23,25,27,29,-1,-1,-1,-1,-1,-1,-1,-1,-1,-1,-1,-1,-1,-1,-1,-1],"loss_changes":[3.186604E0,5.3856883E0,8.996524E0,6.000848E0,3.712984E0,5.3710456E0,3.3603615E1,4.69337E0,5.7760534E0,2.8701782E0,9.185386E0,5.625252E0,3.2477598E0,7.5717945E0,2.947235E0,0E0,0E0,0E0,0E0,0E0,0E0,0E0,0E0,0E0,0E0,0E0,0E0,0E0,0E0,0E0,0E0],"parents":[2147483647,0,0,1,1,2,2,3,3,4,4,5,5,6,6,7,7,8,8,9,9,10,10,11,11,12,12,13,13,14,14],"right_children":[2,4,6,8,10,12,14,16,18,20,22,24,26,28,30,-1,-1,-1,-1,-1,-1,-1,-1,-1,-1,-1,-1,-1,-1,-1,-1],"split_conditions":[5.5198307E0,4.8727055E0,4.388224E1,4.3339996E1,1.4330147E2,1.2823465E2,1.199802E2,1.1487679E2,6.93715E1,2.9162222E1,6.666667E-1,4.3036892E1,1.455074E2,1.7963037E1,4.51313E1,6.565788E-3,-4.15056E-2,-7.176962E-2,-1.0339273E-3,3.4546208E-2,-7.5730346E-2,-6.1473113E-2,9.600407E-2,-5.9411E-3,-7.870561E-2,2.5660768E-2,1.7224707E-1,6.447543E-2,-3.1366516E-2,3.9021134E-2,1.0448146E-1],"split_indices":[9,9,3,3,8,4,8,4,4,1,12,3,8,5,3,0,0,0,0,0,0,0,0,0,0,0,0,0,0,0,0],"split_type":[0,0,0,0,0,0,0,0,0,0,0,0,0,0,0,0,0,0,0,0,0,0,0,0,0,0,0,0,0,0,0],"sum_hessian":[8.5430365E2,2.7575613E2,5.785475E2,2.3442627E2,4.1329865E1,4.6305804E2,1.1548946E2,1.8887202E2,4.5554237E1,2.7447378E1,1.3882485E1,4.5655518E2,6.502846E0,6.984187E1,4.564759E1,1.6676418E2,2.2107855E1,2.4189816E1,2.1364422E1,2.0237582E0,2.542362E1,8.997731E0,4.8847547E0,4.4666086E2,9.8943205E0,5.017154E0,1.4856917E0,8.551127E0,6.1290745E1,1.0549127E1,3.5098465E1],"tree_param":{"num_deleted":"0","num_feature":"13","num_nodes":"31","size_leaf_vector":"1"}},{"base_weights":[5.3783366E-3,4.784488E-2,-1.0345644E-1,1.3410263E-1,-9.467624E-2,-1.3960785E-1,4.9407655E-1,-1.17306165E-1,1.9364697E-1,-2.0251188E-1,9.450058E-2,-2.585691E-1,5.0833687E-2,1.7964934E0,-2.5360407E-2,-1.5672369E-2,1.178723E-1,7.331928E-3,4.2180363E-2,-2.721757E-2,1.9814981E-2,3.753416E-2,-9.972427E-3,-2.9965026E-2,3.184778E-2,3.4435213E-2,-2.582264E-2,2.893762E-1,3.783916E-2,-5.4124255E-2,4.7183525E-2],"categories":[],"categories_nodes":[],"categories_segments":[],"categories_sizes":[],"default_left":[0,0,0,0,0,0,0,0,0,0,0,0,0,0,0,0,0,0,0,0,0,0,0,0,0,0,0,0,0,0,0],"id":42,"left_children":[1,3,5,7,9,11,13,15,17,19,21,23,25,27,29,-1,-1,-1,-1,-1,-1,-1,-1,-1,-1,-1,-1,-1,-1,-1,-1],"loss_changes":[3.9011545E0,7.4757895E0,5.1869555E0,5.6903377E0,4.7004185E0,5.0921702E0,9.3388195E0,3.9201949E0,8.383004E0,4.1423697E0,4.6191363E0,3.3705082E0,7.9841223E0,5.020999E0,3.0271351E0,0E0,0E0,0E0,0E0,0E0,0E0,0E0,0E0,0E0,0E0,0E0,0E0,0E0,0E0,0E0,0E0],"parents":[2147483647,0,0,1,1,2,2,3,3,4,4,5,5,6,6,7,7,8,8,9,9,10,10,11,11,12,12,13,13,14,14],"right_children":[2,4,6,8,10,12,14,16,18,20,22,24,26,28,30,-1,-1,-1,-1,-1,-1,-1,-1,-1,-1,-1,-1,-1,-1,-1,-1],"split_conditions":[4.0830887E1,6.25E-1,1.2261306E2,2.3746574E1,4.4726646E1,6.25E-1,1.2448962E2,1.976206E2,4.1666666E-1,1.7201477E2,5.4217255E1,1.3067876E1,3.0173939E1,6.6023834E1,3.0871923E1,-1.5672369E-2,1.178723E-1,7.331928E-3,4.2180363E-2,-2.721757E-2,1.9814981E-2,3.753416E-2,-9.972427E-3,-2.9965026E-2,3.184778E-2,3.4435213E-2,-2.582264E-2,2.893762E-1,3.783916E-2,-5.4124255E-2,4.7183525E-2],"split_indices":[1,12,4,4,0,12,4,5,12,7,4,9,3,7,3,0,0,0,0,0,0,0,0,0,0,0,0,0,0,0,0],"split_type":[0,0,0,0,0,0,0,0,0,0,0,0,0,0,0,0,0,0,0,0,0,0,0,0,0,0,0,0,0,0,0],"sum_hessian":[8.4199915E2,6.0607385E2,2.3592528E2,3.7759933E2,2.2847455E2,2.2318848E2,1.273679E1,7.212065E1,3.0547867E2,1.4547792E2,8.2996635E1,1.3715529E2,8.603319E1,2.930478E0,9.806312E0,7.084504E1,1.2756125E0,2.0086545E2,1.0461322E2,1.24203156E2,2.1274765E1,3.355091E1,4.944572E1,1.2848863E2,8.6666565E0,4.4067505E1,4.1965687E1,1.0654718E0,1.8650063E0,4.7692375E0,5.037074E0],"tree_param":{"num_deleted":"0","num_feature":"13","num_nodes":"31","size_leaf_vector":"1"}},{"base_weights":[-2.0854652E-3,4.0908917E-3,-5.923944E-1,-3.6064764E-3,5.103093E-1,-7.8452605E-1,1.9242791E-2,6.9425674E-3,-4.336272E-1,5.2579634E-2,1.2305448E0,-9.126073E-2,-4.636481E-3,-7.2080544E-3,5.77749E-3,-6.248604E-2,1.3875729E-1,6.47672E-2,-4.718596E-2,1.8157898E-1,-4.494713E-2],"categories":[],"categories_nodes":[],"categories_segments":[],"categories_sizes":[],"default_left":[0,0,0,0,0,0,0,0,0,0,0,0,0,0,0,0,0,0,0,0,0],"id":43,"left_children":[1,3,5,7,9,11,-1,13,15,17,19,-1,-1,-1,-1,-1,-1,-1,-1,-1,-1],"loss_changes":[3.0839534E0,3.2649362E0,1.4716454E0,3.749466E0,4.072688E0,6.415243E-1,0E0,3.2461936E0,7.7596445E0,3.0264041E0,5.5670586E0,0E0,0E0,0E0,0E0,0E0,0E0,0E0,0E0,0E0,0E0],"parents":[2147483647,0,0,1,1,2,2,3,3,4,4,5,5,7,7,8,8,9,9,10,10],"right_children":[2,4,6,8,10,12,-1,14,16,18,20,-1,-1,-1,-1,-1,-1,-1,-1,-1,-1],"split_conditions":[1.9868352E2,1.9621414E2,5.369142E1,1.9232805E2,9.42629E1,4.388224E1,1.9242791E-2,2.5609552E1,4.512708E1,8.898164E1,1.19142334E2,-9.126073E-2,-4.636481E-3,-7.2080544E-3,5.77749E-3,-6.248604E-2,1.3875729E-1,6.47672E-2,-4.718596E-2,1.8157898E-1,-4.494713E-2],"split_indices":[8,8,0,8,4,3,0,3,1,5,4,0,0,0,0,0,0,0,0,0,0],"split_type":[0,0,0,0,0,0,0,0,0,0,0,0,0,0,0,0,0,0,0,0,0],"sum_hessian":[8.441906E2,8.364322E2,7.7584558E0,8.248822E2,1.1549975E1,6.23295E0,1.5255055E0,8.0609143E2,1.879076E1,7.7179847E0,3.8319902E0,5.109973E0,1.122977E0,3.1538345E2,4.9070798E2,1.7599627E1,1.1911337E0,3.505378E0,4.212607E0,2.7820334E0,1.0499568E0],"tree_param":{"num_deleted":"0","num_feature":"13","num_nodes":"21","size_leaf_vector":"1"}},{"base_weights":[-8.678661E-3,-6.3520366E-1,-2.7932217E-3,-8.660833E-2,2.4908794E-2,5.2578956E-1,-9.820549E-3,1.9942455E-1,5.8815286E-2,6.4662814E-2,-5.6895386E-2,5.4739323E-2,-7.441496E-2,3.124088E-2,-4.2431145E-3,-7.5983326E-3,4.9568035E-2],"categories":[],"categories_nodes":[],"categories_segments":[],"categories_sizes":[],"default_left":[0,0,0,0,0,0,0,0,0,0,0,0,0,0,0,0,0],"id":44,"left_children":[1,3,5,-1,-1,7,9,-1,11,13,15,-1,-1,-1,-1,-1,-1],"loss_changes":[3.114083E0,1.8203697E0,3.1184828E0,0E0,0E0,7.4360514E0,2.9073534E0,0E0,4.090256E0,8.534625E0,5.3953905E0,0E0,0E0,0E0,0E0,0E0,0E0],"parents":[2147483647,0,0,1,1,2,2,5,5,6,6,8,8,9,9,10,10],"right_children":[2,4,6,-1,-1,8,10,-1,12,14,16,-1,-1,-1,-1,-1,-1],"split_conditions":[1.8111128E0,2.1529913E2,4.382482E0,-8.660833E-2,2.4908794E-2,1.2225747E1,5.0313114E1,1.9942455E-1,3.9550766E1,3.310858E1,2.5354765E2,5.4739323E-2,-7.441496E-2,3.124088E-2,-4.2431145E-3,-7.5983326E-3,4.9568035E-2],"split_indices":[7,6,7,0,0,0,4,0,1,1,6,0,0,0,0,0,0],"split_type":[0,0,0,0,0,0,0,0,0,0,0,0,0,0,0,0,0],"sum_hessian":[8.440071E2,6.8595223E0,8.371475E2,5.455688E0,1.4038342E0,1.0015022E1,8.271325E2,1.6272799E0,8.387742E0,3.201721E2,5.0696045E2,5.412623E0,2.9751194E0,9.605226E1,2.2411981E2,4.9086664E2,1.609379E1],"tree_param":{"num_deleted":"0","num_feature":"13","num_nodes":"17","size_leaf_vector":"1"}},{"base_weights":[-1.4162993E-3,-1.477598E-2,2.7651983E-1,-4.515096E-1,-5.793924E-3,-1.0138776E-1,6.2567186E-1,8.9336656E-2,-6.059942E-1,-1.6860005E-2,2.8699756E-1,9.896009E-1,-4.7757608E-1,9.0404534E-1,1.8061948E-1,2.2918973E-2,-8.2267545E-2,-8.8370603E-4,-5.9191275E-2,-1.8219309E-2,6.487411E-2,-2.7780687E-2,1.5728189E-1,1.2488858E-1,-7.136327E-2,1.07615486E-1,7.700808E-3,-7.541726E-2,5.8529522E-2],"categories":[],"categories_nodes":[],"categories_segments":[],"categories_sizes":[],"default_left":[0,0,0,0,0,0,0,0,0,0,0,0,0,0,0,0,0,0,0,0,0,0,0,0,0,0,0,0,0],"id":45,"left_children":[1,3,5,7,9,11,13,-1,15,17,19,21,23,25,27,-1,-1,-1,-1,-1,-1,-1,-1,-1,-1,-1,-1,-1,-1],"loss_changes":[3.131014E0,3.153063E0,5.1662397E0,3.906781E0,2.5620654E0,8.4479685E0,2.3443542E0,0E0,2.9257312E0,3.507831E0,5.0061655E0,4.3604875E0,7.055048E0,1.6540394E0,3.860488E0,0E0,0E0,0E0,0E0,0E0,0E0,0E0,0E0,0E0,0E0,0E0,0E0,0E0,0E0],"parents":[2147483647,0,0,1,1,2,2,3,3,4,4,5,5,6,6,8,8,9,9,10,10,11,11,12,12,13,13,14,14],"right_children":[2,4,6,8,10,12,14,-1,16,18,20,22,24,26,28,-1,-1,-1,-1,-1,-1,-1,-1,-1,-1,-1,-1,-1,-1],"split_conditions":[5.011401E1,1.2745159E0,1.0356745E2,1.2917602E1,2.5239894E2,4.711396E1,1.5538417E2,8.9336656E-2,2.0833333E-1,2.4949477E2,2.6342937E1,1.475818E1,2.507197E0,1.05750656E2,3.7006452E0,2.2918973E-2,-8.2267545E-2,-8.8370603E-4,-5.9191275E-2,-1.8219309E-2,6.487411E-2,-2.7780687E-2,1.5728189E-1,1.2488858E-1,-7.136327E-2,1.07615486E-1,7.700808E-3,-7.541726E-2,5.8529522E-2],"split_indices":[3,9,8,6,6,6,6,0,12,6,3,6,9,4,9,0,0,0,0,0,0,0,0,0,0,0,0,0,0],"split_type":[0,0,0,0,0,0,0,0,0,0,0,0,0,0,0,0,0,0,0,0,0,0,0,0,0,0,0,0,0],"sum_hessian":[8.411256E2,8.034525E2,3.7673077E1,1.5198318E1,7.882542E2,1.8432318E1,1.9240757E1,1.0731404E0,1.4125176E1,7.6045514E2,2.7799057E1,4.308008E0,1.41243105E1,1.1202463E1,8.038294E0,2.897854E0,1.1227323E1,7.509929E2,9.462236E0,1.231828E1,1.5480776E1,1.5226843E0,2.7853239E0,1.1828208E0,1.2941489E1,9.023436E0,2.1790276E0,2.1675813E0,5.8707123E0],"tree_param":{"num_deleted":"0","num_feature":"13","num_nodes":"29","size_leaf_vector":"1"}},{"base_weights":[-2.5199935E-2,-1.0457794E-1,2.591665E-2,-2.9572548E-2,-3.3699328E-1,9.054667E-3,7.305596E-1,-5.9031613E-2,6.582993E-1,-1.9265835E-1,-6.682671E-1,1.946295E-1,-3.9534546E-2,1.2216542E0,-6.401714E-2,1.8705145E-3,-3.1086108E-2,-2.7293308E-2,1.2960468E-1,-4.079872E-2,1.549836E-2,-8.4757134E-2,-1.839189E-2,4.328204E-3,7.2109945E-2,-1.4858777E-2,3.8705405E-3,-3.040931E-2,1.7285712E-1],"categories":[],"categories_nodes":[],"categories_segments":[],"categories_sizes":[],"default_left":[0,0,0,0,0,0,0,0,0,0,0,0,0,0,0,0,0,0,0,0,0,0,0,0,0,0,0,0,0],"id":46,"left_children":[1,3,5,7,9,11,13,15,17,19,21,23,25,27,-1,-1,-1,-1,-1,-1,-1,-1,-1,-1,-1,-1,-1,-1,-1],"loss_changes":[3.42034E0,5.7451096E0,6.09054E0,5.118759E0,3.71799E0,4.5357814E0,8.846643E0,4.729754E0,6.5167394E0,4.363158E0,1.9292688E0,8.285034E0,3.4084837E0,7.613347E0,0E0,0E0,0E0,0E0,0E0,0E0,0E0,0E0,0E0,0E0,0E0,0E0,0E0,0E0,0E0],"parents":[2147483647,0,0,1,1,2,2,3,3,4,4,5,5,6,6,7,7,8,8,9,9,10,10,11,11,12,12,13,13],"right_children":[2,4,6,8,10,12,14,16,18,20,22,24,26,28,-1,-1,-1,-1,-1,-1,-1,-1,-1,-1,-1,-1,-1,-1,-1],"split_conditions":[2.5779064E1,1.5686322E2,1.9610428E2,1.9397797E2,1.397746E2,3.0871923E1,1.8590588E2,2.1626486E1,1.1114082E2,8.812714E1,1.3976839E2,1.5999455E2,3.9823814E1,2.2414293E1,-6.401714E-2,1.8705145E-3,-3.1086108E-2,-2.7293308E-2,1.2960468E-1,-4.079872E-2,1.549836E-2,-8.4757134E-2,-1.839189E-2,4.328204E-3,7.2109945E-2,-1.4858777E-2,3.8705405E-3,-3.040931E-2,1.7285712E-1],"split_indices":[3,8,5,7,5,3,6,3,6,5,7,7,3,0,0,0,0,0,0,0,0,0,0,0,0,0,0,0,0],"split_type":[0,0,0,0,0,0,0,0,0,0,0,0,0,0,0,0,0,0,0,0,0,0,0,0,0,0,0,0,0],"sum_hessian":[8.4129266E2,3.291366E2,5.1215607E2,2.4968512E2,7.945148E1,5.0117584E2,1.0980201E1,2.4030779E2,9.377331E0,5.6441616E1,2.3009863E1,1.0337069E2,3.9780515E2,8.164019E0,2.8161824E0,1.8433232E2,5.5975468E1,4.0441456E0,5.3331847E0,3.4746258E1,2.1695356E1,1.6245796E1,6.7640657E0,8.112998E1,2.224071E1,1.6580374E2,2.3200142E2,2.1357706E0,6.0282483E0],"tree_param":{"num_deleted":"0","num_feature":"13","num_nodes":"29","size_leaf_vector":"1"}},{"base_weights":[5.3464053E-3,-3.8191196E-2,8.884558E-2,2.476177E-1,-6.2059574E-2,-2.97307E-3,2.7240893E-1,8.3862066E-1,-1.207907E-1,-9.81618E-3,-2.1549776E-1,1.7514318E-1,-2.4982871E-1,-4.3322635E-1,4.054276E-1,1.09535865E-1,-5.0580688E-2,-3.1497195E-2,6.4193934E-2,-1.2651823E-2,1.4941339E-2,-2.956736E-2,4.2658027E-2,3.5561685E-2,-2.3002543E-2,-5.532632E-2,5.1602456E-3,-6.818645E-2,5.5716872E-2,-7.865104E-3,5.5694897E-2],"categories":[],"categories_nodes":[],"categories_segments":[],"categories_sizes":[],"default_left":[0,0,0,0,0,0,0,0,0,0,0,0,0,0,0,0,0,0,0,0,0,0,0,0,0,0,0,0,0,0,0],"id":47,"left_children":[1,3,5,7,9,11,13,15,17,19,21,23,25,27,29,-1,-1,-1,-1,-1,-1,-1,-1,-1,-1,-1,-1,-1,-1,-1,-1],"loss_changes":[3.0739253E0,3.8073387E0,4.8847437E0,9.47316E0,4.1167164E0,8.5800295E0,9.245274E0,6.302537E0,4.258733E0,7.1611533E0,6.8422384E0,8.370995E0,7.508733E0,4.2729645E0,6.044958E0,0E0,0E0,0E0,0E0,0E0,0E0,0E0,0E0,0E0,0E0,0E0,0E0,0E0,0E0,0E0,0E0],"parents":[2147483647,0,0,1,1,2,2,3,3,4,4,5,5,6,6,7,7,8,8,9,9,10,10,11,11,12,12,13,13,14,14],"right_children":[2,4,6,8,10,12,14,16,18,20,22,24,26,28,30,-1,-1,-1,-1,-1,-1,-1,-1,-1,-1,-1,-1,-1,-1,-1,-1],"split_conditions":[1E0,1.0246998E1,1.3735533E2,9.546774E1,7.5E-1,3.2621727E1,1.597232E1,1.6968054E2,4.284723E1,8.771768E0,6.3018707E1,4.9013664E1,4.217594E1,1.0621343E2,6.5713524E1,1.09535865E-1,-5.0580688E-2,-3.1497195E-2,6.4193934E-2,-1.2651823E-2,1.4941339E-2,-2.956736E-2,4.2658027E-2,3.5561685E-2,-2.3002543E-2,-5.532632E-2,5.1602456E-3,-6.818645E-2,5.5716872E-2,-7.865104E-3,5.5694897E-2],"split_indices":[10,4,5,6,12,3,3,8,1,9,0,0,3,4,6,0,0,0,0,0,0,0,0,0,0,0,0,0,0,0,0],"split_type":[0,0,0,0,0,0,0,0,0,0,0,0,0,0,0,0,0,0,0,0,0,0,0,0,0,0,0,0,0,0,0],"sum_hessian":[8.43631E2,5.548613E2,2.8876962E2,4.2043415E1,5.1281793E2,1.93143E2,9.56266E1,1.5654322E1,2.6389091E1,