{"learner":{"attributes":{"scikit_learn":"{\"_estimator_type\": \"classifier\"}"},"feature_names":[],"feature_types":[],"gradient_booster":{"model":{"gbtree_model_param":{"num_parallel_tree":"1","num_trees":"80"},"iteration_indptr":[0,1,2,3,4,5,6,7,8,9,10,11,12,13,14,15,16,17,18,19,20,21,22,23,24,25,26,27,28,29,30,31,32,33,34,35,36,37,38,39,40,41,42,43,44,45,46,47,48,49,50,51,52,53,54,55,56,57,58,59,60,61,62,63,64,65,66,67,68,69,70,71,72,73,74,75,76,77,78,79,80],"tree_info":[0,0,0,0,0,0,0,0,0,0,0,0,0,0,0,0,0,0,0,0,0,0,0,0,0,0,0,0,0,0,0,0,0,0,0,0,0,0,0,0,0,0,0,0,0,0,0,0,0,0,0,0,0,0,0,0,0,0,0,0,0,0,0,0,0,0,0,0,0,0,0,0,0,0,0,0,0,0,0,0],"trees":[{"base_weights":[-3.4654487E-3,-9.419957E-1,1.8610588E-1,-1.9639257E0,7.660708E-2,-8.5695386E-1,-1.9667475E-1,-1.9811677E0,1.8437818E0,8.827166E-3,-1.4368634E-1,-1.2482394E-1,-1.9897814E-1,9.703918E-3,1.8596576E-1],"categories":[],"categories_nodes":[],"categories_segments":[],"categories_sizes":[],"default_left":[0,0,0,0,0,0,0,0,0,0,0,0,0,0,0],"id":0,"left_children":[1,3,-1,5,7,9,-1,11,13,-1,-1,-1,-1,-1,-1],"loss_changes":[6.1297E3,2.4255596E3,0E0,1.9472656E0,4.2505513E3,2.7193468E0,0E0,9.2578125E-1,1.725708E1,0E0,0E0,0E0,0E0,0E0,0E0],"parents":[2147483647,0,0,1,1,3,3,4,4,5,5,7,7,8,8],"right_children":[2,4,-1,6,8,10,-1,12,14,-1,-1,-1,-1,-1,-1],"split_conditions":[1E0,1E0,1.8610588E-1,2.8073383E1,8.951075E1,3.070743E1,-1.9667475E-1,2.8251652E1,9.0332436E1,8.827166E-3,-1.4368634E-1,-1.2482394E-1,-1.9897814E-1,9.703918E-3,1.8596576E-1],"split_indices":[11,10,0,1,7,3,0,1,7,0,0,0,0,0,0],"split_type":[0,0,0,0,0,0,0,0,0,0,0,0,0,0,0],"sum_hessian":[3.5008591E3,2.329016E3,1.171843E3,1.162146E3,1.1668702E3,3.7296085E0,1.1584164E3,5.3905273E2,6.2781744E2,1.740484E0,1.9891245E0,7.956498E0,5.3109625E2,5.718733E0,6.220987E2],"tree_param":{"num_deleted":"0","num_feature":"13","num_nodes":"15","size_leaf_vector":"1"}},{"base_weights":[8.654928E-3,-8.359893E-1,1.7146672E-1,-1.7599479E0,9.4670355E-2,-1.763376E0,-8.0170333E-1,-1.7651627E0,1.6971868E0,-8.7296896E-2,-1.7651133E-1,-1.21385835E-1,1.5525544E-3,-5.1307596E-2,-1.7682928E-1,8.218377E-4,1.7134789E-1],"categories":[],"categories_nodes":[],"categories_segments":[],"categories_sizes":[],"default_left":[0,0,0,0,0,0,0,0,0,0,0,0,0,0,0,0,0],"id":1,"left_children":[1,3,-1,5,7,9,11,13,15,-1,-1,-1,-1,-1,-1,-1,-1],"loss_changes":[5.0123647E3,2.000772E3,0E0,2.4221191E0,3.460383E3,2.5708008E-1,2.0383248E0,1.1988525E0,1.7146118E1,0E0,0E0,0E0,0E0,0E0,0E0,0E0,0E0],"parents":[2147483647,0,0,1,1,3,3,4,4,5,5,6,6,7,7,8,8],"right_children":[2,4,-1,6,8,10,12,14,16,-1,-1,-1,-1,-1,-1,-1,-1],"split_conditions":[1E0,1E0,1.7146672E-1,1.9914597E2,8.951075E1,2.8073383E1,3.9332905E1,1.0575544E0,9.0332436E1,-8.7296896E-2,-1.7651133E-1,-1.21385835E-1,1.5525544E-3,-5.1307596E-2,-1.7682928E-1,8.218377E-4,1.7134789E-1],"split_indices":[11,10,0,7,7,1,0,9,7,0,0,0,0,0,0,0,0],"split_type":[0,0,0,0,0,0,0,0,0,0,0,0,0,0,0,0,0],"sum_hessian":[3.4764626E3,2.3255808E3,1.1508817E3,1.1665447E3,1.1590361E3,1.161549E3,4.995632E0,5.364022E2,6.22634E2,3.2423615E0,1.1583066E3,2.9982052E0,1.997427E0,1.7488524E0,5.346534E2,5.9629655E0,6.16671E2],"tree_param":{"num_deleted":"0","num_feature":"13","num_nodes":"17","size_leaf_vector":"1"}},{"base_weights":[3.9005425E-4,-7.7197236E-1,1.6018586E-1,-1.6038072E0,7.807103E-2,-1.6057847E-1,-7.778793E-1,-1.5978789E0,1.6007684E-1,-3.9278134E-3,-1.1937016E-1,-1.612597E-1,-1.3435574E-2],"categories":[],"categories_nodes":[],"categories_segments":[],"categories_sizes":[],"default_left":[0,0,0,0,0,0,0,0,0,0,0,0,0],"id":2,"left_children":[1,3,-1,5,7,-1,9,11,-1,-1,-1,-1,-1],"loss_changes":[4.196362E3,1.6185048E3,0E0,6.4038086E-1,2.8938035E3,0E0,1.3974564E0,1.1411377E1,0E0,0E0,0E0,0E0,0E0],"parents":[2147483647,0,0,1,1,3,3,4,4,6,6,7,7],"right_children":[2,4,-1,6,8,-1,10,12,-1,-1,-1,-1,-1],"split_conditions":[1E0,1E0,1.6018586E-1,6.976896E1,9.0332436E1,-1.6057847E-1,6.522628E1,8.951075E1,1.6007684E-1,-3.9278134E-3,-1.1937016E-1,-1.612597E-1,-1.3435574E-2],"split_indices":[11,10,0,0,7,0,7,7,0,0,0,0,0],"split_type":[0,0,0,0,0,0,0,0,0,0,0,0,0],"sum_hessian":[3.3906062E3,2.2877698E3,1.1028365E3,1.1558207E3,1.131949E3,1.1521179E3,3.7027555E0,5.388342E2,5.931148E2,1.7279526E0,1.974803E0,5.333685E2,5.465698E0],"tree_param":{"num_deleted":"0","num_feature":"13","num_nodes":"13","size_leaf_vector":"1"}},{"base_weights":[-1.1239003E-2,-7.283288E-1,1.5125667E-1,-1.484209E-1,5.4243207E-2,1.9988379E-1,2.9530715E-2,6.4662054E-2,9.477608E-3,-1.4220734E-2,6.1849E-3],"categories":[],"categories_nodes":[],"categories_segments":[],"categories_sizes":[],"default_left":[0,0,0,0,0,0,0,0,0,0,0],"id":3,"left_children":[1,3,-1,-1,5,7,9,-1,-1,-1,-1],"loss_changes":[3.576988E3,1.3168124E3,0E0,0E0,3.933869E0,7.386901E0,5.2095156E0,0E0,0E0,0E0,0E0],"parents":[2147483647,0,0,1,1,4,4,5,5,6,6],"right_children":[2,4,-1,-1,6,8,10,-1,-1,-1,-1],"split_conditions":[1E0,1E0,1.5125667E-1,-1.484209E-1,2.835937E1,8.8E1,8.8E1,6.4662054E-2,9.477608E-3,-1.4220734E-2,6.1849E-3],"split_indices":[11,10,0,0,8,2,2,0,0,0,0],"split_type":[0,0,0,0,0,0,0,0,0,0,0],"sum_hessian":[3.2715066E3,2.2249746E3,1.0465319E3,1.1313329E3,1.0936418E3,1.576223E2,9.3601953E2,2.9040445E1,1.2858186E2,1.4770753E2,7.88312E2],"tree_param":{"num_deleted":"0","num_feature":"13","num_nodes":"11","size_leaf_vector":"1"}},{"base_weights":[8.504918E-3,-6.4943236E-1,1.4404134E-1,-1.4449209E0,6.085688E-2,-1.4526297E0,-7.5963336E-1,-1.3585893E0,1.508445E-1,-1.3887194E-1,-1.5114932E-1,-1.3751808E-1,1.4200467E-3,-1.2190623E-2,-1.3625377E-1],"categories":[],"categories_nodes":[],"categories_segments":[],"categories_sizes":[],"default_left":[0,0,0,0,0,0,0,0,0,0,0,0,0,0,0],"id":4,"left_children":[1,3,-1,5,7,9,11,13,-1,-1,-1,-1,-1,-1,-1],"loss_changes":[2.9852732E3,1.2268386E3,0E0,4.306885E0,2.360829E3,1.7072754E0,6.4447055E0,2.666626E0,0E0,0E0,0E0,0E0,0E0,0E0,0E0],"parents":[2147483647,0,0,1,1,3,3,4,4,5,5,6,6,7,7],"right_children":[2,4,-1,6,8,10,12,14,-1,-1,-1,-1,-1,-1,-1],"split_conditions":[1E0,9.0332436E1,1.4404134E-1,8.951075E1,1E0,1E0,1E0,2.8073383E1,1.508445E-1,-1.3887194E-1,-1.5114932E-1,-1.3751808E-1,1.4200467E-3,-1.2190623E-2,-1.3625377E-1],"split_indices":[11,7,0,7,10,10,10,1,0,0,0,0,0,0,0],"split_type":[0,0,0,0,0,0,0,0,0,0,0,0,0,0,0],"sum_hessian":[3.1667307E3,2.1701367E3,9.96594E2,1.02318555E3,1.1469512E3,1.01069666E3,1.2488882E1,5.791357E2,5.678154E2,4.9636578E2,5.143309E2,6.5230284E0,5.965854E0,1.9445972E0,5.771911E2],"tree_param":{"num_deleted":"0","num_feature":"13","num_nodes":"15","size_leaf_vector":"1"}},{"base_weights":[-7.8329653E-4,-6.231921E-1,1.3811201E-1,-1.3531817E0,3.954098E-2,-1.3603178E0,-6.4098763E-1,-1.2901182E0,1.4368998E-1,-8.6384915E-2,-1.3663162E-1,-1.2891383E-1,2.0656502E-2,-1.2965731E-1,-4.2177252E-2],"categories":[],"categories_nodes":[],"categories_segments":[],"categories_sizes":[],"default_left":[0,0,0,0,0,0,0,0,0,0,0,0,0,0,0],"id":5,"left_children":[1,3,-1,5,7,9,11,13,-1,-1,-1,-1,-1,-1,-1],"loss_changes":[2.615438E3,1.0143349E3,0E0,4.1986084E0,2.0454132E3,1.758667E0,6.742209E0,2.6149902E0,0E0,0E0,0E0,0E0,0E0,0E0,0E0],"parents":[2147483647,0,0,1,1,3,3,4,4,5,5,6,6,7,7],"right_children":[2,4,-1,6,8,10,12,14,-1,-1,-1,-1,-1,-1,-1],"split_conditions":[1E0,9.0332436E1,1.3811201E-1,8.951075E1,1E0,2.8251652E1,1E0,1.9914597E2,1.4368998E-1,-8.6384915E-2,-1.3663162E-1,-1.2891383E-1,2.0656502E-2,-1.2965731E-1,-4.2177252E-2],"split_indices":[11,7,0,7,10,1,10,7,0,0,0,0,0,0,0],"split_type":[0,0,0,0,0,0,0,0,0,0,0,0,0,0,0],"sum_hessian":[3.0388215E3,2.09554E3,9.432815E2,9.96676E2,1.0988641E3,9.858875E2,1.0788502E1,5.6311127E2,5.357528E2,1.3500526E1,9.7238696E2,5.818157E0,4.9703445E0,5.5846674E2,4.644542E0],"tree_param":{"num_deleted":"0","num_feature":"13","num_nodes":"15","size_leaf_vector":"1"}},{"base_weights":[5.432022E-3,-4.9957687E-1,4.53725E-1,-4.1570473E-2,-1.3078308E0,-6.4310613E-3,1.3780062E-1,-3.410997E-2,-7.8658766E-1,-1.3199571E0,-5.544342E-2,-2.9844807E-2,1.3577914E-1,-8.661823E-3,4.164771E-3,-9.196447E-3,-9.352465E-2,-2.9307691E-2,-1.3248183E-1,-5.8032185E-2,1.0177584E-1,-1.238777E-3,-2.2567993E-2,9.024485E-3,7.402041E-2],"categories":[],"categories_nodes":[],"categories_segments":[],"categories_sizes":[],"default_left":[0,0,0,0,0,0,0,0,0,0,0,0,0,0,0,0,0,0,0,0,0,0,0,0,0],"id":6,"left_children":[1,3,5,7,9,11,-1,13,15,17,19,21,23,-1,-1,-1,-1,-1,-1,-1,-1,-1,-1,-1,-1],"loss_changes":[6.483183E2,4.984625E2,6.4522217E2,4.7566185E0,7.3236694E0,3.3796687E0,0E0,3.397251E0,7.9040194E-1,2.0194092E0,3.8096468E0,2.9759197E0,3.8825529E0,0E0,0E0,0E0,0E0,0E0,0E0,0E0,0E0,0E0,0E0,0E0,0E0],"parents":[2147483647,0,0,1,1,2,2,3,3,4,4,5,5,7,7,8,8,9,9,10,10,11,11,12,12],"right_children":[2,4,6,8,10,12,-1,14,16,18,20,22,24,-1,-1,-1,-1,-1,-1,-1,-1,-1,-1,-1,-1],"split_conditions":[9.0332436E1,1E0,1E0,8.951075E1,8.951075E1,4.599386E1,1.3780062E-1,1.19897606E2,1.7416374E1,2.8073383E1,4.146473E1,2.391189E2,1.3285199E1,-8.661823E-3,4.164771E-3,-9.196447E-3,-9.352465E-2,-2.9307691E-2,-1.3248183E-1,-5.8032185E-2,1.0177584E-1,-1.238777E-3,-2.2567993E-2,9.024485E-3,7.402041E-2],"split_indices":[7,10,10,7,7,3,0,5,3,1,1,6,9,0,0,0,0,0,0,0,0,0,0,0,0],"split_type":[0,0,0,0,0,0,0,0,0,0,0,0,0,0,0,0,0,0,0,0,0,0,0,0,0],"sum_hessian":[2.8616973E3,1.3456676E3,1.5160295E3,8.596108E2,4.860569E2,1.0127981E3,5.0323148E2,8.521235E2,7.4872675E0,4.8134232E2,4.7145696E0,8.7030035E2,1.424977E2,5.0320483E2,3.4891867E2,1.605242E0,5.8820257E0,2.5566447E0,4.7878568E2,3.4745219E0,1.2400478E0,8.000463E2,7.0254074E1,1.3358351E2,8.914192E0],"tree_param":{"num_deleted":"0","num_feature":"13","num_nodes":"25","size_leaf_vector":"1"}},{"base_weights":[2.9269431E-3,-6.0085636E-1,1.3322955E-1,-1.2381667E0,-1.2282891E-2,-1.2441212E0,-7.087101E-1,1.5616833E-1,-3.8139332E-2,-4.9701672E-2,-1.246976E-1,-1.0862042E-1,1.7463088E-2,4.511885E-2,3.5005813E-3,1.1945568E-3,-1.6110037E-2],"categories":[],"categories_nodes":[],"categories_segments":[],"categories_sizes":[],"default_left":[0,0,0,0,0,0,0,0,0,0,0,0,0,0,0,0,0],"id":7,"left_children":[1,3,-1,5,7,9,11,13,15,-1,-1,-1,-1,-1,-1,-1,-1],"loss_changes":[2.267797E3,7.287865E2,0E0,2.059204E0,4.409845E0,1.3449707E0,4.4239326E0,4.8006372E0,5.405112E0,0E0,0E0,0E0,0E0,0E0,0E0,0E0,0E0],"parents":[2147483647,0,0,1,1,3,3,4,4,5,5,6,6,7,7,8,8],"right_children":[2,4,-1,6,8,10,12,14,16,-1,-1,-1,-1,-1,-1,-1,-1],"split_conditions":[1E0,9.0332436E1,1.3322955E-1,8.951075E1,1.6567284E1,2.8073383E1,4.146473E1,5.8794147E1,1.4079385E2,-4.9701672E-2,-1.246976E-1,-1.0862042E-1,1.7463088E-2,4.511885E-2,3.5005813E-3,1.1945568E-3,-1.6110037E-2],"split_indices":[11,7,0,7,4,1,1,5,8,0,0,0,0,0,0,0,0],"split_type":[0,0,0,0,0,0,0,0,0,0,0,0,0,0,0,0,0],"sum_hessian":[2.8233877E3,1.9419329E3,8.814547E2,9.318344E2,1.0100985E3,9.2013635E2,1.1698069E1,1.3374275E2,8.763558E2,4.1691885E0,9.1596716E2,8.03477E0,3.6632986E0,3.8143303E1,9.559944E1,6.2335254E2,2.5300322E2],"tree_param":{"num_deleted":"0","num_feature":"13","num_nodes":"17","size_leaf_vector":"1"}},{"base_weights":[6.8036914E-3,-5.5300003E-1,1.2906155E-1,-1.1866443E0,1.2285777E-1,-1.1898586E0,-4.702399E-1,-1.163696E0,1.3291241E-1,-9.9611215E-2,-1.198769E-1,-9.046638E-2,2.4498293E-2,-1.1773946E-1,-5.02998E-4],"categories":[],"categories_nodes":[],"categories_segments":[],"categories_sizes":[],"default_left":[0,0,0,0,0,0,0,0,0,0,0,0,0,0,0],"id":8,"left_children":[1,3,-1,5,7,9,11,13,-1,-1,-1,-1,-1,-1,-1],"loss_changes":[1.9600168E3,8.134565E2,0E0,1.697876E0,1.429106E3,4.8950195E-1,2.09585E0,7.067444E0,0E0,0E0,0E0,0E0,0E0,0E0,0E0],"parents":[2147483647,0,0,1,1,3,3,4,4,5,5,6,6,7,7],"right_children":[2,4,-1,6,8,10,12,14,-1,-1,-1,-1,-1,-1,-1],"split_conditions":[1E0,1E0,1.2906155E-1,1.9914597E2,9.0332436E1,1.06449375E1,8.203019E1,8.951075E1,1.3291241E-1,-9.9611215E-2,-1.198769E-1,-9.046638E-2,2.4498293E-2,-1.1773946E-1,-5.02998E-4],"split_indices":[11,10,0,7,7,7,4,7,0,0,0,0,0,0,0],"split_type":[0,0,0,0,0,0,0,0,0,0,0,0,0,0,0],"sum_hessian":[2.725243E3,1.8981342E3,8.271087E2,9.7927155E2,9.188627E2,9.7423944E2,5.032068E0,4.4465125E2,4.742114E2,4.7794262E1,9.264452E2,2.9657881E0,2.0662796E0,4.3943976E2,5.211504E0],"tree_param":{"num_deleted":"0","num_feature":"13","num_nodes":"15","size_leaf_vector":"1"}},{"base_weights":[3.2217363E-3,-5.314662E-1,1.2551448E-1,-1.1332377E0,1.1191478E-1,-9.0147656E-1,-1.1437536E0,-1.1149113E0,1.2877208E-1,-1.0536038E-1,-9.344093E-3,-3.3100467E-2,-1.1459052E-1,-1.1287494E-1,-4.6078485E-4],"categories":[],"categories_nodes":[],"categories_segments":[],"categories_sizes":[],"default_left":[0,0,0,0,0,0,0,0,0,0,0,0,0,0,0],"id":9,"left_children":[1,3,-1,5,7,9,11,13,-1,-1,-1,-1,-1,-1,-1],"loss_changes":[1.7046741E3,6.9102155E2,0E0,1.2163086E0,1.2468042E3,5.401947E0,1.1567383E0,6.494507E0,0E0,0E0,0E0,0E0,0E0,0E0,0E0],"parents":[2147483647,0,0,1,1,3,3,4,4,5,5,6,6,7,7],"right_children":[2,4,-1,6,8,10,12,14,-1,-1,-1,-1,-1,-1,-1],"split_conditions":[1E0,1E0,1.2551448E-1,9.861228E0,9.0332436E1,1.7563484E2,2.8073383E1,8.951075E1,1.2877208E-1,-1.0536038E-1,-9.344093E-3,-3.3100467E-2,-1.1459052E-1,-1.1287494E-1,-4.6078485E-4],"split_indices":[11,10,0,7,7,5,1,7,0,0,0,0,0,0,0],"split_type":[0,0,0,0,0,0,0,0,0,0,0,0,0,0,0],"sum_hessian":[2.544619E3,1.7834814E3,7.611375E2,9.211468E2,8.623347E2,4.374622E1,8.774006E2,4.2203683E2,4.4029788E2,3.6559357E1,7.1868625E0,2.7254128E0,8.746751E2,4.168252E2,5.2116346E0],"tree_param":{"num_deleted":"0","num_feature":"13","num_nodes":"15","size_leaf_vector":"1"}},{"base_weights":[5.630362E-3,-3.9456025E-1,3.559992E-1,-1.5801826E-2,-1.0674746E0,-6.1795127E-2,1.2524192E-1,9.201995E-3,-1.6596457E-1,-1.0803494E0,-1.5266933E-1,1.2433635E-1,-7.5415924E-2,1.6249722E-3,-6.998615E-2,-6.477043E-3,-4.850126E-2,7.0264316E-3,-1.0844952E-1,-6.02849E-2,7.3342554E-2,3.066656E-2,-1.3341163E-2,-9.557516E-3,6.9411956E-3],"categories":[],"categories_nodes":[],"categories_segments":[],"categories_sizes":[],"default_left":[0,0,0,0,0,0,0,0,0,0,0,0,0,0,0,0,0,0,0,0,0,0,0,0,0],"id":10,"left_children":[1,3,5,7,9,11,-1,13,15,17,19,21,23,-1,-1,-1,-1,-1,-1,-1,-1,-1,-1,-1,-1],"loss_changes":[3.3340036E2,2.828869E2,4.7489484E2,2.6719785E0,4.543213E0,2.204196E0,0E0,3.063028E0,3.2480822E0,1.9558411E0,3.1197522E0,2.8328626E0,2.363666E0,0E0,0E0,0E0,0E0,0E0,0E0,0E0,0E0,0E0,0E0,0E0,0E0],"parents":[2147483647,0,0,1,1,2,2,3,3,4,4,5,5,7,7,8,8,9,9,10,10,11,11,12,12],"right_children":[2,4,6,8,10,12,-1,14,16,18,20,22,24,-1,-1,-1,-1,-1,-1,-1,-1,-1,-1,-1,-1],"split_conditions":[9.0332436E1,1E0,1E0,1.6968054E2,8.951075E1,2.9162222E1,1.2524192E-1,8.951075E1,4.2634323E1,1.0575544E0,4.146473E1,1.18268265E2,1.7493636E2,1.6249722E-3,-6.998615E-2,-6.477043E-3,-4.850126E-2,7.0264316E-3,-1.0844952E-1,-6.02849E-2,7.3342554E-2,3.066656E-2,-1.3341163E-2,-9.557516E-3,6.9411956E-3],"split_indices":[7,10,10,8,7,1,0,7,1,9,1,5,5,0,0,0,0,0,0,0,0,0,0,0,0],"split_type":[0,0,0,0,0,0,0,0,0,0,0,0,0,0,0,0,0,0,0,0,0,0,0,0,0],"sum_hessian":[2.3757893E3,1.1089838E3,1.2668054E3,7.1023975E2,3.9874405E2,8.6471765E2,4.0208774E2,6.0966266E2,1.0057711E2,3.9303162E2,5.7124453E0,5.8409508E1,8.0630817E2,6.0463E2,5.0326285E0,7.727151E1,2.3305601E1,1.353769E0,3.9167783E2,3.999937E0,1.7125082E0,3.409859E1,2.4310915E1,7.0808655E2,9.822162E1],"tree_param":{"num_deleted":"0","num_feature":"13","num_nodes":"25","size_leaf_vector":"1"}},{"base_weights":[5.592727E-3,-5.312537E-1,1.22554384E-1,-1.0800444E0,1.0301281E-1,-2.671994E-1,-1.0829028E0,-1.0171143E0,1.222219E-1,5.6293394E-2,-9.5310256E-2,-7.438221E-2,-1.087928E-1,-1.0287992E-1,-1.5122819E-2],"categories":[],"categories_nodes":[],"categories_segments":[],"categories_sizes":[],"default_left":[0,0,0,0,0,0,0,0,0,0,0,0,0,0,0],"id":11,"left_children":[1,3,-1,5,7,9,11,13,-1,-1,-1,-1,-1,-1,-1],"loss_changes":[1.5286549E3,5.642919E2,0E0,1.7298584E0,9.4496735E2,3.0264192E0,6.658325E-1,3.6565857E0,0E0,0E0,0E0,0E0,0E0,0E0,0E0],"parents":[2147483647,0,0,1,1,3,3,4,4,5,5,6,6,7,7],"right_children":[2,4,-1,6,8,10,12,14,-1,-1,-1,-1,-1,-1,-1],"split_conditions":[1E0,1E0,1.22554384E-1,2.8073383E1,9.0332436E1,3.070743E1,4.167227E0,8.951075E1,1.222219E-1,5.6293394E-2,-9.5310256E-2,-7.438221E-2,-1.087928E-1,-1.0287992E-1,-1.5122819E-2],"split_indices":[11,10,0,1,7,3,6,7,0,0,0,0,0,0,0],"split_type":[0,0,0,0,0,0,0,0,0,0,0,0,0,0,0],"sum_hessian":[2.3320928E3,1.6198381E3,7.1225446E2,8.680589E2,7.517793E2,3.3728921E0,8.64686E2,3.7578067E2,3.7599866E2,1.607116E0,1.7657762E0,1.4803845E1,8.4988214E2,3.705915E2,5.189178E0],"tree_param":{"num_deleted":"0","num_feature":"13","num_nodes":"15","size_leaf_vector":"1"}},{"base_weights":[5.418182E-3,-5.030465E-1,1.19927526E-1,-1.0270401E0,1.0773754E-1,-1.0311996E0,-9.361456E-2,-9.593466E-1,1.19610526E-1,-8.1411876E-2,-1.04105055E-1,-6.012664E-2,4.99099E-2,-9.739919E-2,-7.4067423E-3],"categories":[],"categories_nodes":[],"categories_segments":[],"categories_sizes":[],"default_left":[0,0,0,0,0,0,0,0,0,0,0,0,0,0,0],"id":12,"left_children":[1,3,-1,5,7,9,11,13,-1,-1,-1,-1,-1,-1,-1],"loss_changes":[1.329457E3,4.9168332E2,0E0,3.1135864E0,8.2588806E2,9.1241455E-1,1.7346824E0,4.5840454E0,0E0,0E0,0E0,0E0,0E0,0E0,0E0],"parents":[2147483647,0,0,1,1,3,3,4,4,5,5,6,6,7,7],"right_children":[2,4,-1,6,8,10,12,14,-1,-1,-1,-1,-1,-1,-1],"split_conditions":[1E0,1E0,1.19927526E-1,1.9914597E2,9.0332436E1,9.861228E0,7.886237E1,8.951075E1,1.19610526E-1,-8.1411876E-2,-1.04105055E-1,-6.012664E-2,4.99099E-2,-9.739919E-2,-7.4067423E-3],"split_indices":[11,10,0,7,7,7,4,7,0,0,0,0,0,0,0],"split_type":[0,0,0,0,0,0,0,0,0,0,0,0,0,0,0],"sum_hessian":[2.1880923E3,1.5349391E3,6.531532E2,8.258006E2,7.091385E2,8.220328E2,3.7677917E0,3.5813025E2,3.5100827E2,3.931512E1,7.8271765E2,2.0217543E0,1.7460374E0,3.522035E2,5.926752E0],"tree_param":{"num_deleted":"0","num_feature":"13","num_nodes":"15","size_leaf_vector":"1"}},{"base_weights":[7.589903E-3,-4.8282787E-1,1.17642894E-1,-9.847637E-1,1.1211055E-1,-2.0845443E-1,-9.8704815E-1,-9.1560596E-1,1.1734062E-1,-8.421731E-2,6.264777E-2,-7.575531E-2,-9.979985E-2,-9.3397476E-2,9.15466E-3],"categories":[],"categories_nodes":[],"categories_segments":[],"categories_sizes":[],"default_left":[0,0,0,0,0,0,0,0,0,0,0,0,0,0,0],"id":13,"left_children":[1,3,-1,5,7,9,11,13,-1,-1,-1,-1,-1,-1,-1],"loss_changes":[1.1737183E3,4.3084274E2,0E0,1.1818237E0,7.219804E2,2.4131029E0,1.2039795E0,6.308014E0,0E0,0E0,0E0,0E0,0E0,0E0,0E0],"parents":[2147483647,0,0,1,1,3,3,4,4,5,5,6,6,7,7],"right_children":[2,4,-1,6,8,10,12,14,-1,-1,-1,-1,-1,-1,-1],"split_conditions":[1E0,1E0,1.17642894E-1,2.8073383E1,9.0332436E1,1.3504842E2,9.861228E0,8.951075E1,1.1734062E-1,-8.421731E-2,6.264777E-2,-7.575531E-2,-9.979985E-2,-9.3397476E-2,9.15466E-3],"split_indices":[11,10,0,1,7,6,7,7,0,0,0,0,0,0,0],"split_type":[0,0,0,0,0,0,0,0,0,0,0,0,0,0,0],"sum_hessian":[2.0455986E3,1.4414053E3,6.0419336E2,7.814547E2,6.5995056E2,2.563518E0,7.7889124E2,3.353491E2,3.2460147E2,1.4524369E0,1.1110811E0,3.866832E1,7.402229E2,3.294138E2,5.935291E0],"tree_param":{"num_deleted":"0","num_feature":"13","num_nodes":"15","size_leaf_vector":"1"}},{"base_weights":[8.775433E-3,-4.5903644E-1,1.1564814E-1,-9.263445E-1,1.0636424E-1,-4.0667534E-2,-9.2963433E-1,-9.067802E-1,1.1372273E0,5.7894416E-2,-7.535091E-2,-9.323239E-2,-2.1988874E-2,-9.135911E-3,-9.228548E-2,1.6480198E-2,1.1535195E-1],"categories":[],"categories_nodes":[],"categories_segments":[],"categories_sizes":[],"default_left":[0,0,0,0,0,0,0,0,0,0,0,0,0,0,0,0,0],"id":14,"left_children":[1,3,-1,5,7,9,11,13,15,-1,-1,-1,-1,-1,-1,-1,-1],"loss_changes":[1.0231359E3,3.5779465E2,0E0,2.1221313E0,6.417801E2,2.1098256E0,1.204773E0,3.978592E0,4.6345825E0,0E0,0E0,0E0,0E0,0E0,0E0,0E0,0E0],"parents":[2147483647,0,0,1,1,3,3,4,4,5,5,6,6,7,7,8,8],"right_children":[2,4,-1,6,8,10,12,14,16,-1,-1,-1,-1,-1,-1,-1,-1],"split_conditions":[1E0,1E0,1.1564814E-1,2.8073383E1,8.951075E1,3.070743E1,6.976896E1,2.8251652E1,9.0332436E1,5.7894416E-2,-7.535091E-2,-9.323239E-2,-2.1988874E-2,-9.135911E-3,-9.228548E-2,1.6480198E-2,1.1535195E-1],"split_indices":[11,10,0,1,7,3,0,1,7,0,0,0,0,0,0,0,0],"split_type":[0,0,0,0,0,0,0,0,0,0,0,0,0,0,0,0,0],"sum_hessian":[1.9036099E3,1.3528004E3,5.508095E2,7.402991E2,6.1250134E2,2.7890942E0,7.3750995E2,3.0896613E2,3.035352E2,1.592611E0,1.1964831E0,7.3441327E2,3.0966742E0,6.1021733E0,3.0286395E2,5.184859E0,2.9835034E2],"tree_param":{"num_deleted":"0","num_feature":"13","num_nodes":"17","size_leaf_vector":"1"}},{"base_weights":[1.0631562E-2,-4.4398388E-1,1.13902666E-1,-8.989315E-1,1.0789814E-1,-6.449484E-1,-9.1088504E-1,-8.431662E-1,1.1361294E-1,-9.124555E-3,-8.307758E-2,-9.1443084E-2,-1.8941473E-2,-8.5784934E-2,-9.719829E-4],"categories":[],"categories_nodes":[],"categories_segments":[],"categories_sizes":[],"default_left":[0,0,0,0,0,0,0,0,0,0,0,0,0,0,0],"id":15,"left_children":[1,3,-1,5,7,9,11,13,-1,-1,-1,-1,-1,-1,-1],"loss_changes":[9.119983E2,3.182818E2,0E0,1.5218506E0,5.61818E2,3.4897966E0,1.5180054E0,3.6448212E0,0E0,0E0,0E0,0E0,0E0,0E0,0E0],"parents":[2147483647,0,0,1,1,3,3,4,4,5,5,6,6,7,7],"right_children":[2,4,-1,6,8,10,12,14,-1,-1,-1,-1,-1,-1,-1],"split_conditions":[1E0,1E0,1.13902666E-1,9.861228E0,9.0332436E1,1.654937E1,1.9914597E2,8.951075E1,1.1361294E-1,-9.124555E-3,-8.307758E-2,-9.1443084E-2,-1.8941473E-2,-8.5784934E-2,-9.719829E-4],"split_indices":[11,10,0,7,7,3,7,7,0,0,0,0,0,0,0],"split_type":[0,0,0,0,0,0,0,0,0,0,0,0,0,0,0],"sum_hessian":[1.7758378E3,1.2662777E3,5.0956003E2,6.9375085E2,5.725269E2,3.365346E1,6.6009735E2,2.9751755E2,2.750094E2,8.83102E0,2.4822443E1,6.5660297E2,3.494416E0,2.92338E2,5.179525E0],"tree_param":{"num_deleted":"0","num_feature":"13","num_nodes":"15","size_leaf_vector":"1"}},{"base_weights":[3.2065997E-3,-4.357423E-1,1.1236153E-1,-8.5918105E-1,9.268812E-2,-8.234856E-1,-9.54463E-1,-8.1952876E-1,1.1207153E-1,-4.255172E-2,-8.415813E-2,-1.0448247E-1,-8.622153E-2,-8.348035E-2,-6.650358E-4],"categories":[],"categories_nodes":[],"categories_segments":[],"categories_sizes":[],"default_left":[0,0,0,0,0,0,0,0,0,0,0,0,0,0,0],"id":16,"left_children":[1,3,-1,5,7,9,11,13,-1,-1,-1,-1,-1,-1,-1],"loss_changes":[8.1180023E2,2.654607E2,0E0,1.4536743E0,4.9653964E2,3.144287E0,5.426941E-1,3.4785614E0,0E0,0E0,0E0,0E0,0E0,0E0,0E0],"parents":[2147483647,0,0,1,1,3,3,4,4,5,5,6,6,7,7],"right_children":[2,4,-1,6,8,10,12,14,-1,-1,-1,-1,-1,-1,-1],"split_conditions":[1E0,1E0,1.1236153E-1,4.1264866E1,9.0332436E1,1.1119702E1,4.348517E1,8.951075E1,1.1207153E-1,-4.255172E-2,-8.415813E-2,-1.0448247E-1,-8.622153E-2,-8.348035E-2,-6.650358E-4],"split_indices":[11,10,0,1,7,6,1,7,0,0,0,0,0,0,0],"split_type":[0,0,0,0,0,0,0,0,0,0,0,0,0,0,0],"sum_hessian":[1.648669E3,1.1850186E3,4.6365042E2,6.5751587E2,5.275026E2,4.8533716E2,1.7217874E2,2.796017E2,2.4790094E2,2.21747E1,4.6316245E2,8.176205E1,9.0416695E1,2.7441815E2,5.1835637E0],"tree_param":{"num_deleted":"0","num_feature":"13","num_nodes":"15","size_leaf_vector":"1"}},{"base_weights":[7.226531E-3,-2.9476336E-1,2.8166452E-1,-2.7607203E-2,-7.7435875E-1,-4.887152E-2,1.1070873E-1,4.5884572E-2,-9.457365E-2,-7.9145634E-1,9.390424E-2,-3.1856114E-1,-3.3343934E-2,5.648845E-2,2.0271542E-3,-2.4615116E-3,-2.266468E-2,-8.101373E-2,-3.7651222E-2,6.00361E-2,-8.530028E-2,-3.6978178E-2,5.002911E-2,1.7635234E-2,-4.911026E-3],"categories":[],"categories_nodes":[],"categories_segments":[],"categories_sizes":[],"default_left":[0,0,0,0,0,0,0,0,0,0,0,0,0,0,0,0,0,0,0,0,0,0,0,0,0],"id":17,"left_children":[1,3,5,7,9,11,-1,13,15,17,19,21,23,-1,-1,-1,-1,-1,-1,-1,-1,-1,-1,-1,-1],"loss_changes":[1.2720181E2,9.360605E1,2.1943161E2,2.3191547E0,3.9547272E0,2.397746E0,0E0,2.9784768E0,2.2713175E0,1.6828461E0,3.3615897E0,1.4933033E0,1.8102489E0,0E0,0E0,0E0,0E0,0E0,0E0,0E0,0E0,0E0,0E0,0E0,0E0],"parents":[2147483647,0,0,1,1,2,2,3,3,4,4,5,5,7,7,8,8,9,9,10,10,11,11,12,12],"right_children":[2,4,6,8,10,12,-1,14,16,18,20,22,24,-1,-1,-1,-1,-1,-1,-1,-1,-1,-1,-1,-1],"split_conditions":[9.0332436E1,1E0,1E0,3.6538567E1,8.951075E1,3.2603686E0,1.1070873E-1,1.1119702E1,3.687298E1,1.3417152E1,5.316848E1,1.3332606E1,2.9162222E1,5.648845E-2,2.0271542E-3,-2.4615116E-3,-2.266468E-2,-8.101373E-2,-3.7651222E-2,6.00361E-2,-8.530028E-2,-3.6978178E-2,5.002911E-2,1.7635234E-2,-4.911026E-3],"split_indices":[7,10,10,1,7,0,0,6,3,9,0,9,1,0,0,0,0,0,0,0,0,0,0,0,0],"split_type":[0,0,0,0,0,0,0,0,0,0,0,0,0,0,0,0,0,0,0,0,0,0,0,0,0],"sum_hessian":[1.5328156E3,7.2974005E2,8.030755E2,4.693491E2,2.6039093E2,5.7411505E2,2.2896046E2,2.2392227E2,2.4542683E2,2.5544917E2,4.941771E0,3.0193087E1,5.4392194E2,9.540824E0,2.1438144E2,1.612172E2,8.4209625E1,2.435328E2,1.1916355E1,3.4581459E0,1.4836253E0,2.8931768E1,1.2613177E0,3.7323555E1,5.0659842E2],"tree_param":{"num_deleted":"0","num_feature":"13","num_nodes":"25","size_leaf_vector":"1"}},{"base_weights":[8.427561E-3,-2.706129E-1,2.6348662E-1,-1.5621567E-2,-7.416629E-1,-3.853864E-2,1.0949751E-1,-7.5074146E-3,-4.2472342E-1,1.785697E-2,-7.588506E-1,-5.6220405E-2,1.2290049E-1,-6.8803327E-3,3.8413876E-3,3.1784378E-2,-5.985841E-2,-6.7666136E-2,7.253295E-2,-7.94635E-2,-4.530103E-2,5.785214E-4,-1.0795104E-2,6.6498085E-3,9.565883E-2],"categories":[],"categories_nodes":[],"categories_segments":[],"categories_sizes":[],"default_left":[0,0,0,0,0,0,0,0,0,0,0,0,0,0,0,0,0,0,0,0,0,0,0,0,0],"id":18,"left_children":[1,3,5,7,9,11,-1,13,15,17,19,21,23,-1,-1,-1,-1,-1,-1,-1,-1,-1,-1,-1,-1],"loss_changes":[1.0746403E2,8.659983E1,1.9814496E2,1.5531723E0,3.3192902E0,1.6614571E0,0E0,1.2995605E0,1.3651463E0,3.7242143E0,2.3503265E0,1.6784863E0,2.6415997E0,0E0,0E0,0E0,0E0,0E0,0E0,0E0,0E0,0E0,0E0,0E0,0E0],"parents":[2147483647,0,0,1,1,2,2,3,3,4,4,5,5,7,7,8,8,9,9,10,10,11,11,12,12],"right_children":[2,4,6,8,10,12,-1,14,16,18,20,22,24,-1,-1,-1,-1,-1,-1,-1,-1,-1,-1,-1,-1],"split_conditions":[9.0332436E1,1E0,1E0,8.8924515E1,2.8251652E1,4.771694E1,1.0949751E-1,8.427033E1,2.5382072E1,3.554657E1,8.21715E1,6.9985423E0,1.9397797E2,-6.8803327E-3,3.8413876E-3,3.1784378E-2,-5.985841E-2,-6.7666136E-2,7.253295E-2,-7.94635E-2,-4.530103E-2,5.785214E-4,-1.0795104E-2,6.6498085E-3,9.565883E-2],"split_indices":[7,10,10,7,1,3,0,8,8,0,7,9,7,0,0,0,0,0,0,0,0,0,0,0,0],"split_type":[0,0,0,0,0,0,0,0,0,0,0,0,0,0,0,0,0,0,0,0,0,0,0,0,0],"sum_hessian":[1.5079226E3,7.200789E2,7.878437E2,4.6785193E2,2.5222696E2,5.7862195E2,2.0922177E2,4.5975156E2,8.10039E0,5.5806346E0,2.4664632E2,5.220912E2,5.6530746E1,1.9669887E2,2.6305267E2,1.3796573E0,6.7207336E0,2.8380764E0,2.7425582E0,2.193799E2,2.7266417E1,2.3786658E2,2.842246E2,5.3959904E1,2.5708451E0],"tree_param":{"num_deleted":"0","num_feature":"13","num_nodes":"25","size_leaf_vector":"1"}},{"base_weights":[8.30954E-3,-4.489787E-1,1.1108035E-1,-8.23027E-1,9.2249736E-2,-8.282182E-1,7.438602E-2,-7.120628E-1,1.084149E-1,-1.5291542E-2,-8.307774E-2,-6.6345E-2,4.937981E-2,3.5488394E-3,-7.299456E-2],"categories":[],"categories_nodes":[],"categories_segments":[],"categories_sizes":[],"default_left":[0,0,0,0,0,0,0,0,0,0,0,0,0,0,0],"id":19,"left_children":[1,3,-1,5,7,9,11,13,-1,-1,-1,-1,-1,-1,-1],"loss_changes":[7.4489264E2,2.1149947E2,0E0,2.9390259E0,3.4198596E2,9.343872E-1,1.7108591E0,3.1913223E0,0E0,0E0,0E0,0E0,0E0,0E0,0E0],"parents":[2147483647,0,0,1,1,3,3,4,4,5,5,6,6,7,7],"right_children":[2,4,-1,6,8,10,12,14,-1,-1,-1,-1,-1,-1,-1],"split_conditions":[1E0,1E0,1.1108035E-1,1.9914597E2,9.0332436E1,2.8073383E1,5.3997906E1,2.8251652E1,1.084149E-1,-1.5291542E-2,-8.307774E-2,-6.6345E-2,4.937981E-2,3.5488394E-3,-7.299456E-2],"split_indices":[11,10,0,7,7,1,5,1,0,0,0,0,0,0,0],"split_type":[0,0,0,0,0,0,0,0,0,0,0,0,0,0,0],"sum_hessian":[1.4755106E3,1.0433477E3,4.32163E2,6.166524E2,4.2669525E2,6.131825E2,3.4699168E0,2.357843E2,1.9091095E2,2.544377E0,6.106381E2,1.0466962E0,2.4232206E0,5.485627E0,2.3029868E2],"tree_param":{"num_deleted":"0","num_feature":"13","num_nodes":"15","size_leaf_vector":"1"}},{"base_weights":[-1.8052771E-3,-4.3718687E-1,1.09863795E-1,-7.968022E-1,8.961973E-2,-5.527968E-1,-8.0879813E-1,-6.9860774E-1,1.048631E0,-7.402967E-2,3.4837298E-2,-8.126467E-2,-1.5204991E-2,-7.2349474E-2,-2.0075383E-2,2.1521354E-2,1.07441954E-1],"categories":[],"categories_nodes":[],"categories_segments":[],"categories_sizes":[],"default_left":[0,0,0,0,0,0,0,0,0,0,0,0,0,0,0,0,0],"id":20,"left_children":[1,3,-1,5,7,9,11,13,15,-1,-1,-1,-1,-1,-1,-1,-1],"loss_changes":[6.586819E2,1.8668877E2,0E0,1.2668152E0,3.0350153E2,5.4277697E0,1.2815857E0,2.5860367E0,3.6608734E0,0E0,0E0,0E0,0E0,0E0,0E0,0E0,0E0],"parents":[2147483647,0,0,1,1,3,3,4,4,5,5,6,6,7,7,8,8],"right_children":[2,4,-1,6,8,10,12,14,16,-1,-1,-1,-1,-1,-1,-1,-1],"split_conditions":[1E0,1E0,1.09863795E-1,9.861228E0,8.951075E1,1.7563484E2,1.9914597E2,1.3417152E1,9.0332436E1,-7.402967E-2,3.4837298E-2,-8.126467E-2,-1.5204991E-2,-7.2349474E-2,-2.0075383E-2,2.1521354E-2,1.07441954E-1],"split_indices":[11,10,0,7,7,5,7,9,7,0,0,0,0,0,0,0,0],"split_type":[0,0,0,0,0,0,0,0,0,0,0,0,0,0,0,0,0],"sum_hessian":[1.3727926E3,9.840599E2,3.8873273E2,5.8452893E2,3.9953098E2,2.9596527E1,5.549324E2,2.1944058E2,1.8009038E2,2.4646935E1,4.949594E0,5.5146344E2,3.4689076E0,2.0856166E2,1.0878926E1,5.685809E0,1.7440457E2],"tree_param":{"num_deleted":"0","num_feature":"13","num_nodes":"17","size_leaf_vector":"1"}},{"base_weights":[2.8355068E-3,-4.2057076E-1,1.0878574E-1,-7.491492E-1,6.875531E-2,-7.541462E-1,-2.6931845E-2,-6.8411803E-1,1.0656625E-1,-7.577162E-2,2.3520691E-3,-6.895173E-2,3.7590887E-2,-2.2278583E-2,-7.167649E-2],"categories":[],"categories_nodes":[],"categories_segments":[],"categories_sizes":[],"default_left":[0,0,0,0,0,0,0,0,0,0,0,0,0,0,0],"id":21,"left_children":[1,3,-1,5,7,9,11,13,-1,-1,-1,-1,-1,-1,-1],"loss_changes":[5.873221E2,1.4790584E2,0E0,1.9655151E0,2.7869086E2,1.5348816E0,1.545209E0,3.0273514E0,0E0,0E0,0E0,0E0,0E0,0E0,0E0],"parents":[2147483647,0,0,1,1,3,3,4,4,5,5,6,6,7,7],"right_children":[2,4,-1,6,8,10,12,14,-1,-1,-1,-1,-1,-1,-1],"split_conditions":[1E0,1E0,1.0878574E-1,1.9914597E2,9.0332436E1,6.976896E1,5.3997906E1,1.533679E1,1.0656625E-1,-7.577162E-2,2.3520691E-3,-6.895173E-2,3.7590887E-2,-2.2278583E-2,-7.167649E-2],"split_indices":[11,10,0,7,7,0,5,8,0,0,0,0,0,0,0],"split_type":[0,0,0,0,0,0,0,0,0,0,0,0,0,0,0],"sum_hessian":[1.2764447E3,9.1859515E2,3.578495E2,5.492484E2,3.6934677E2,5.4543036E2,3.818037E0,2.1060768E2,1.5873907E2,5.4296344E2,2.4668996E0,1.1745386E0,2.6434984E0,1.4436089E1,1.961716E2],"tree_param":{"num_deleted":"0","num_feature":"13","num_nodes":"15","size_leaf_vector":"1"}},{"base_weights":[9.579352E-3,-3.9824784E-1,1.07826345E-1,-7.2506946E-1,9.4721794E-2,-4.850584E-1,-7.435047E-1,-6.0423017E-1,1.05774604E-1,-9.478724E-2,-3.1698927E-2,-7.479931E-2,2.4196533E-2,-6.267936E-2,1.744569E-2],"categories":[],"categories_nodes":[],"categories_segments":[],"categories_sizes":[],"default_left":[0,0,0,0,0,0,0,0,0,0,0,0,0,0,0],"id":22,"left_children":[1,3,-1,5,7,9,11,13,-1,-1,-1,-1,-1,-1,-1],"loss_changes":[5.206676E2,1.393803E2,0E0,1.9405212E0,2.3326671E2,2.8089437E0,2.30896E0,3.639038E0,0E0,0E0,0E0,0E0,0E0,0E0,0E0],"parents":[2147483647,0,0,1,1,3,3,4,4,5,5,6,6,7,7],"right_children":[2,4,-1,6,8,10,12,14,-1,-1,-1,-1,-1,-1,-1],"split_conditions":[1E0,1E0,1.07826345E-1,2.9232983E1,9.0332436E1,1.5255911E1,6.976896E1,8.951075E1,1.05774604E-1,-9.478724E-2,-3.1698927E-2,-7.479931E-2,2.4196533E-2,-6.267936E-2,1.744569E-2],"split_indices":[11,10,0,1,7,0,0,7,0,0,0,0,0,0,0],"split_type":[0,0,0,0,0,0,0,0,0,0,0,0,0,0,0],"sum_hessian":[1.1926493E3,8.636817E2,3.289676E2,5.1907935E2,3.4460233E2,3.8974545E1,4.8010483E2,1.9989407E2,1.4470824E2,9.146884E0,2.982766E1,4.7816797E2,1.9368451E0,1.9445456E2,5.4395065E0],"tree_param":{"num_deleted":"0","num_feature":"13","num_nodes":"15","size_leaf_vector":"1"}},{"base_weights":[1.1032284E-2,-3.807928E-1,1.06965385E-1,-6.4001405E-1,-1.2942246E-1,-5.302231E-1,-7.695363E-1,-1.6166554E-1,6.8623144E-3,-5.4391652E-2,8.456647E-2,-5.5058897E-2,-8.233708E-2,-1.3152966E-2,-4.648472E-2,-2.3887752E-2,1.6942425E-2],"categories":[],"categories_nodes":[],"categories_segments":[],"categories_sizes":[],"default_left":[0,0,0,0,0,0,0,0,0,0,0,0,0,0,0,0,0],"id":23,"left_children":[1,3,-1,5,7,9,11,13,15,-1,-1,-1,-1,-1,-1,-1,-1],"loss_changes":[4.633765E2,5.304667E1,0E0,5.296585E0,1.8256135E0,4.611183E0,1.6898422E0,3.0070057E0,3.25216E0,0E0,0E0,0E0,0E0,0E0,0E0,0E0,0E0],"parents":[2147483647,0,0,1,1,3,3,4,4,5,5,6,6,7,7,8,8],"right_children":[2,4,-1,6,8,10,12,14,16,-1,-1,-1,-1,-1,-1,-1,-1],"split_conditions":[1E0,8.951075E1,1.06965385E-1,3.7712326E1,4.25727E1,6.976896E1,1.7250149E1,4.1264866E1,1.61E2,-5.4391652E-2,8.456647E-2,-5.5058897E-2,-8.233708E-2,-1.3152966E-2,-4.648472E-2,-2.3887752E-2,1.6942425E-2],"split_indices":[11,7,0,1,1,0,3,1,2,0,0,0,0,0,0,0,0],"split_type":[0,0,0,0,0,0,0,0,0,0,0,0,0,0,0,0,0],"sum_hessian":[1.115141E3,8.1436304E2,3.0077795E2,4.001595E2,4.1420352E2,2.193331E2,1.808264E2,3.348067E2,7.939684E1,2.1777043E2,1.5626658E0,3.7902534E1,1.4292386E2,3.0584036E2,2.8966322E1,3.1424282E1,4.7972565E1],"tree_param":{"num_deleted":"0","num_feature":"13","num_nodes":"17","size_leaf_vector":"1"}},{"base_weights":[1.1635993E-2,-3.4570742E-1,1.0618442E-1,-6.607431E-1,1.3101116E-1,-3.9759067E-1,-6.820749E-1,-5.440961E-1,1.0514176E-1,-7.8272544E-2,-2.099651E-3,-3.374554E-2,-6.978998E-2,-5.752789E-2,3.8056038E-3],"categories":[],"categories_nodes":[],"categories_segments":[],"categories_sizes":[],"default_left":[0,0,0,0,0,0,0,0,0,0,0,0,0,0,0],"id":24,"left_children":[1,3,-1,5,7,9,11,13,-1,-1,-1,-1,-1,-1,-1],"loss_changes":[4.004809E2,1.1966888E2,0E0,2.4209747E0,1.979549E2,5.54712E0,2.1761932E0,3.3603516E0,0E0,0E0,0E0,0E0,0E0,0E0,0E0],"parents":[2147483647,0,0,1,1,3,3,4,4,5,5,6,6,7,7],"right_children":[2,4,-1,6,8,10,12,14,-1,-1,-1,-1,-1,-1,-1],"split_conditions":[1E0,1E0,1.0618442E-1,2.9232983E1,9.0332436E1,1.31776E2,1.1119702E1,1.3417152E1,1.0514176E-1,-7.8272544E-2,-2.099651E-3,-3.374554E-2,-6.978998E-2,-5.752789E-2,3.8056038E-3],"split_indices":[11,10,0,1,7,6,6,9,0,0,0,0,0,0,0],"split_type":[0,0,0,0,0,0,0,0,0,0,0,0,0,0,0],"sum_hessian":[1.0651599E3,7.95242E2,2.699179E2,4.7858612E2,3.166559E2,3.73589E1,4.4122723E2,1.8290562E2,1.3375027E2,1.7936842E1,1.9422058E1,2.0351654E1,4.2087558E2,1.7361768E2,9.2879505E0],"tree_param":{"num_deleted":"0","num_feature":"13","num_nodes":"15","size_leaf_vector":"1"}},{"base_weights":[7.4565075E-3,-3.3660755E-1,1.0548852E-1,-6.37121E-1,1.2811853E-1,-6.432575E-1,1.557085E-1,-5.3225684E-1,1.0119511E0,-3.1635374E-2,-6.59483E-2,-4.5208212E-2,7.887351E-2,8.770427E-3,-5.6139182E-2,2.3070391E-2,1.0447271E-1],"categories":[],"categories_nodes":[],"categories_segments":[],"categories_sizes":[],"default_left":[0,0,0,0,0,0,0,0,0,0,0,0,0,0,0,0,0],"id":25,"left_children":[1,3,-1,5,7,9,11,13,15,-1,-1,-1,-1,-1,-1,-1,-1],"loss_changes":[3.6131308E2,1.0548001E2,0E0,2.3308105E0,1.7400635E2,2.2056427E0,2.0211992E0,3.1336327E0,3.0223389E0,0E0,0E0,0E0,0E0,0E0,0E0,0E0,0E0],"parents":[2147483647,0,0,1,1,3,3,4,4,5,5,6,6,7,7,8,8],"right_children":[2,4,-1,6,8,10,12,14,16,-1,-1,-1,-1,-1,-1,-1,-1],"split_conditions":[1E0,1E0,1.0548852E-1,1.9914597E2,8.951075E1,9.861228E0,8.203019E1,1.6236104E0,9.0332436E1,-3.1635374E-2,-6.59483E-2,-4.5208212E-2,7.887351E-2,8.770427E-3,-5.6139182E-2,2.3070391E-2,1.0447271E-1],"split_indices":[11,10,0,7,7,7,4,9,7,0,0,0,0,0,0,0,0],"split_type":[0,0,0,0,0,0,0,0,0,0,0,0,0,0,0,0,0],"sum_hessian":[1.0005968E3,7.536975E2,2.4689929E2,4.5749136E2,2.9620615E2,4.541648E2,3.3265407E0,1.6976225E2,1.264439E2,2.2445353E1,4.3171945E2,1.8429248E0,1.4836158E0,7.5296235E0,1.6223264E2,5.4148436E0,1.2102906E2],"tree_param":{"num_deleted":"0","num_feature":"13","num_nodes":"17","size_leaf_vector":"1"}},{"base_weights":[-5.261192E-3,-3.3830026E-1,1.0485601E-1,-6.0989344E-1,8.173875E-2,-2.692604E-1,-6.278828E-1,-5.3413355E-1,1.0385521E-1,-4.2565893E-2,9.919216E-2,-4.53763E-2,-6.578111E-2,3.565843E-2,-5.5924237E-2],"categories":[],"categories_nodes":[],"categories_segments":[],"categories_sizes":[],"default_left":[0,0,0,0,0,0,0,0,0,0,0,0,0,0,0],"id":26,"left_children":[1,3,-1,5,7,9,11,13,-1,-1,-1,-1,-1,-1,-1],"loss_changes":[3.292783E2,8.137716E1,0E0,2.4846954E0,1.6603844E2,5.0525537E0,1.8411865E0,4.03529E0,0E0,0E0,0E0,0E0,0E0,0E0,0E0],"parents":[2147483647,0,0,1,1,3,3,4,4,5,5,6,6,7,7],"right_children":[2,4,-1,6,8,10,12,14,-1,-1,-1,-1,-1,-1,-1],"split_conditions":[1E0,1E0,1.0485601E-1,9.861228E0,9.0332436E1,9.025351E0,3.114066E1,2.8251652E1,1.0385521E-1,-4.2565893E-2,9.919216E-2,-4.53763E-2,-6.578111E-2,3.565843E-2,-5.5924237E-2],"split_indices":[11,10,0,7,7,7,8,1,0,0,0,0,0,0,0],"split_type":[0,0,0,0,0,0,0,0,0,0,0,0,0,0,0],"sum_hessian":[9.362012E2,7.118988E2,2.2430237E2,4.3207275E2,2.7982605E2,2.2474792E1,4.0959796E2,1.705134E2,1.0931266E2,2.0584599E1,1.8901937E0,6.2447388E1,3.4715057E2,4.3129487E0,1.6620045E2],"tree_param":{"num_deleted":"0","num_feature":"13","num_nodes":"15","size_leaf_vector":"1"}},{"base_weights":[1.0699824E-2,-3.0423492E-1,1.0428621E-1,-5.6633455E-1,1.1007267E-1,-5.731919E-1,2.9179376E-1,-5.031371E-1,9.987792E-1,-2.9648095E-2,-5.900098E-2,-3.631334E-2,8.6029544E-2,4.3240506E-2,-5.315503E-2,3.22578E-2,1.0331048E-1],"categories":[],"categories_nodes":[],"categories_segments":[],"categories_sizes":[],"default_left":[0,0,0,0,0,0,0,0,0,0,0,0,0,0,0,0,0],"id":27,"left_children":[1,3,-1,5,7,9,11,13,15,-1,-1,-1,-1,-1,-1,-1,-1],"loss_changes":[2.8719E2,7.357396E1,0E0,2.6082E0,1.4391148E2,1.7417755E0,1.7835296E0,4.386612E0,2.1683502E0,0E0,0E0,0E0,0E0,0E0,0E0,0E0,0E0],"parents":[2147483647,0,0,1,1,3,3,4,4,5,5,6,6,7,7,8,8],"right_children":[2,4,-1,6,8,10,12,14,16,-1,-1,-1,-1,-1,-1,-1,-1],"split_conditions":[1E0,1E0,1.0428621E-1,1.9914597E2,8.951075E1,1.1441518E1,1.25525375E2,2.8251652E1,9.0332436E1,-2.9648095E-2,-5.900098E-2,-3.631334E-2,8.6029544E-2,4.3240506E-2,-5.315503E-2,3.22578E-2,1.0331048E-1],"split_indices":[11,10,0,7,7,7,5,1,7,0,0,0,0,0,0,0,0],"split_type":[0,0,0,0,0,0,0,0,0,0,0,0,0,0,0,0,0],"sum_hessian":[8.815122E2,6.759658E2,2.0554637E2,4.138125E2,2.6215335E2,4.1086133E2,2.9511697E0,1.553768E2,1.0677654E2,2.4607903E1,3.8625342E2,1.5392092E0,1.4119604E0,4.160728E0,1.5121608E2,5.6606913E0,1.0111585E2],"tree_param":{"num_deleted":"0","num_feature":"13","num_nodes":"17","size_leaf_vector":"1"}},{"base_weights":[8.282449E-3,-2.977701E-1,1.03764094E-1,-5.5333024E-1,1.19240895E-1,-6.613925E-1,-4.8987576E-1,3.294041E-1,6.120411E-2,-4.320142E-2,-8.2337104E-2,-4.4305824E-2,-8.291496E-2,-3.7694443E-2,4.0547848E-2,2.9868716E-2,-1.6626826E-3],"categories":[],"categories_nodes":[],"categories_segments":[],"categories_sizes":[],"default_left":[0,0,0,0,0,0,0,0,0,0,0,0,0,0,0,0,0],"id":28,"left_children":[1,3,-1,5,7,9,11,13,15,-1,-1,-1,-1,-1,-1,-1,-1],"loss_changes":[2.5907275E2,6.7622284E1,0E0,2.372284E0,2.927794E0,4.94318E0,3.6290054E0,2.9509478E0,3.5282779E0,0E0,0E0,0E0,0E0,0E0,0E0,0E0,0E0],"parents":[2147483647,0,0,1,1,3,3,4,4,5,5,6,6,7,7,8,8],"right_children":[2,4,-1,6,8,10,12,14,16,-1,-1,-1,-1,-1,-1,-1,-1],"split_conditions":[1E0,1E0,1.03764094E-1,7.3279015E1,1.5255911E1,2.9581453E1,1.252379E1,1.1580239E1,1.9216E1,-4.320142E-2,-8.2337104E-2,-4.4305824E-2,-8.291496E-2,-3.7694443E-2,4.0547848E-2,2.9868716E-2,-1.6626826E-3],"split_indices":[11,10,0,5,0,0,9,3,3,0,0,0,0,0,0,0,0],"split_type":[0,0,0,0,0,0,0,0,0,0,0,0,0,0,0,0,0],"sum_hessian":[8.203738E2,6.3290643E2,1.874673E2,3.922152E2,2.4069125E2,1.416181E2,2.505971E2,5.1072258E1,1.8961899E2,6.0132034E1,8.148607E1,2.2223592E2,2.8361185E1,4.581181E0,4.6491077E1,4.6104416E1,1.4351457E2],"tree_param":{"num_deleted":"0","num_feature":"13","num_nodes":"17","size_leaf_vector":"1"}},{"base_weights":[1.00160055E-2,-2.6925364E-1,1.0328311E-1,-5.2018446E-1,1.19190484E-1,-1.9272849E-2,-5.384664E-1,-4.4511208E-1,1.003191E0,3.660975E-2,-6.256537E-2,-9.087832E-2,-5.1935863E-2,-2.9067267E-2,-5.6610174E-2,4.1208237E-2,1.02727436E-1],"categories":[],"categories_nodes":[],"categories_segments":[],"categories_sizes":[],"default_left":[0,0,0,0,0,0,0,0,0,0,0,0,0,0,0,0,0],"id":29,"left_children":[1,3,-1,5,7,9,11,13,15,-1,-1,-1,-1,-1,-1,-1,-1],"loss_changes":[2.2698016E2,6.0907326E1,0E0,3.4643173E0,1.2306262E2,3.5935183E0,2.1180267E0,2.6517773E0,9.4444275E-1,0E0,0E0,0E0,0E0,0E0,0E0,0E0,0E0],"parents":[2147483647,0,0,1,1,3,3,4,4,5,5,6,6,7,7,8,8],"right_children":[2,4,-1,6,8,10,12,14,16,-1,-1,-1,-1,-1,-1,-1,-1],"split_conditions":[1E0,1E0,1.0328311E-1,2.8531584E1,8.951075E1,1.3237456E2,8.633854E0,3.1571358E1,9.0332436E1,3.660975E-2,-6.256537E-2,-9.087832E-2,-5.1935863E-2,-2.9067267E-2,-5.6610174E-2,4.1208237E-2,1.02727436E-1],"split_indices":[11,10,0,1,7,7,5,0,7,0,0,0,0,0,0,0,0],"split_type":[0,0,0,0,0,0,0,0,0,0,0,0,0,0,0,0,0],"sum_hessian":[7.926602E2,6.232301E2,1.6943013E2,3.784295E2,2.4480061E2,1.3397686E1,3.650318E2,1.4972194E2,9.507867E1,8.433953E0,4.9637322E0,1.5626317E1,3.494055E2,6.7264015E1,8.2457924E1,4.4311204E0,9.064755E1],"tree_param":{"num_deleted":"0","num_feature":"13","num_nodes":"17","size_leaf_vector":"1"}},{"base_weights":[-5.886636E-3,-2.7760676E-1,1.0284554E-1,-5.0563884E-1,7.911338E-2,-3.3825618E-1,-5.649739E-1,-4.4917664E-1,1.022441E-1,-4.4057485E-2,1.9691654E-3,-6.1350316E-2,-1.9647049E-2,-3.055535E-2,-6.0594596E-2],"categories":[],"categories_nodes":[],"categories_segments":[],"categories_sizes":[],"default_left":[0,0,0,0,0,0,0,0,0,0,0,0,0,0,0],"id":30,"left_children":[1,3,-1,5,7,9,11,13,-1,-1,-1,-1,-1,-1,-1],"loss_changes":[2.1015265E2,4.8208183E1,0E0,3.3979187E0,1.15969086E2,3.5637646E0,4.62397E0,3.175808E0,0E0,0E0,0E0,0E0,0E0,0E0,0E0],"parents":[2147483647,0,0,1,1,3,3,4,4,5,5,6,6,7,7],"right_children":[2,4,-1,6,8,10,12,14,-1,-1,-1,-1,-1,-1,-1],"split_conditions":[1E0,1E0,1.0284554E-1,3.2557564E1,9.0332436E1,3.1519274E1,1.7629666E2,3.732045E1,1.022441E-1,-4.4057485E-2,1.9691654E-3,-6.1350316E-2,-1.9647049E-2,-3.055535E-2,-6.0594596E-2],"split_indices":[11,10,0,1,7,1,5,1,0,0,0,0,0,0,0],"split_type":[0,0,0,0,0,0,0,0,0,0,0,0,0,0,0],"sum_hessian":[7.457211E2,5.9115674E2,1.5456439E2,3.6037247E2,2.3078427E2,9.606794E1,2.6430453E2,1.4827176E2,8.251252E1,7.453222E1,2.1535715E1,2.3296043E2,3.1344093E1,7.8919365E1,6.9352394E1],"tree_param":{"num_deleted":"0","num_feature":"13","num_nodes":"15","size_leaf_vector":"1"}},{"base_weights":[2.8444754E-2,-2.1855664E-1,1.0243636E-1,-4.23534E-1,1.1090426E-1,-1.2881371E-1,-4.5022976E-1,-3.6827034E-1,1.0178621E-1,-4.6616282E-2,4.8594583E-2,-5.393968E-2,-3.614096E-2,-6.4840503E-3,-4.6293687E-2],"categories":[],"categories_nodes":[],"categories_segments":[],"categories_sizes":[],"default_left":[0,0,0,0,0,0,0,0,0,0,0,0,0,0,0],"id":31,"left_children":[1,3,-1,5,7,9,11,13,-1,-1,-1,-1,-1,-1,-1],"loss_changes":[1.7452202E2,3.8443314E1,0E0,2.7012787E0,9.548891E1,6.5579576E0,2.3487244E0,4.104475E0,0E0,0E0,0E0,0E0,0E0,0E0,0E0],"parents":[2147483647,0,0,1,1,3,3,4,4,5,5,6,6,7,7],"right_children":[2,4,-1,6,8,10,12,14,-1,-1,-1,-1,-1,-1,-1],"split_conditions":[1E0,1E0,1.0243636E-1,2.9313255E1,9.0332436E1,1.6665686E2,9.883183E1,4.6017517E1,1.0178621E-1,-4.6616282E-2,4.8594583E-2,-5.393968E-2,-3.614096E-2,-6.4840503E-3,-4.6293687E-2],"split_indices":[11,10,0,1,7,6,8,8,0,0,0,0,0,0,0],"split_type":[0,0,0,0,0,0,0,0,0,0,0,0,0,0,0],"sum_hessian":[7.0754816E2,5.6756494E2,1.3998326E2,3.497062E2,2.178587E2,2.9529297E1,3.201769E2,1.4293536E2,7.492334E1,1.922261E1,1.0306686E1,1.5724496E2,1.6293196E2,3.439041E1,1.0854495E2],"tree_param":{"num_deleted":"0","num_feature":"13","num_nodes":"15","size_leaf_vector":"1"}},{"base_weights":[1.7647235E-2,-1.3824028E-1,1.8047097E-1,1.9466093E-2,-3.6918077E-1,-3.819705E-2,1.01329826E-1,1.19272426E-1,-1.8100439E-1,-6.0695328E-2,-4.6923643E-1,9.04532E-2,-1.2908706E-1,-5.0929346E-4,2.303737E-2,2.1255173E-2,-3.0513752E-2,-2.754723E-2,9.9928364E-2,-5.400121E-2,-5.5249054E-3,3.4564137E-3,6.260774E-2,4.4125314E-3,-2.302693E-2],"categories":[],"categories_nodes":[],"categories_segments":[],"categories_sizes":[],"default_left":[0,0,0,0,0,0,0,0,0,0,0,0,0,0,0,0,0,0,0,0,0,0,0,0,0],"id":32,"left_children":[1,3,5,7,9,11,-1,13,15,17,19,21,23,-1,-1,-1,-1,-1,-1,-1,-1,-1,-1,-1,-1],"loss_changes":[1.696876E1,1.2448673E1,5.9579243E1,4.102E0,4.251583E0,3.050882E0,0E0,1.8907344E0,3.3957725E0,8.268272E0,3.0337276E0,3.2171965E0,2.686778E0,0E0,0E0,0E0,0E0,0E0,0E0,0E0,0E0,0E0,0E0,0E0,0E0],"parents":[2147483647,0,0,1,1,2,2,3,3,4,4,5,5,7,7,8,8,9,9,10,10,11,11,12,12],"right_children":[2,4,6,8,10,12,-1,14,16,18,20,22,24,-1,-1,-1,-1,-1,-1,-1,-1,-1,-1,-1,-1],"split_conditions":[9.0332436E1,1E0,1E0,2.64E2,1.9216E1,6.4427977E0,1.01329826E-1,9.5447914E1,2.0441465E1,3.3E2,2.1983842E2,5.965372E0,3.75E-1,-5.0929346E-4,2.303737E-2,2.1255173E-2,-3.0513752E-2,-2.754723E-2,9.9928364E-2,-5.400121E-2,-5.5249054E-3,3.4564137E-3,6.260774E-2,4.4125314E-3,-2.302693E-2],"split_indices":[7,10,10,2,3,9,0,8,7,2,6,9,12,0,0,0,0,0,0,0,0,0,0,0,0],"split_type":[0,0,0,0,0,0,0,0,0,0,0,0,0,0,0,0,0,0,0,0,0,0,0,0,0],"sum_hessian":[6.6654736E2,3.4060397E2,3.259434E2,2.0293672E2,1.3766724E2,2.589162E2,6.702718E1,1.357548E2,6.7181915E1,3.4109512E1,1.03557724E2,1.071937E2,1.517225E2,6.4504005E1,7.125081E1,1.5938293E1,5.124362E1,2.8977997E1,5.1315165E0,8.8178276E1,1.5379453E1,9.8029465E1,9.164235E0,5.615518E1,9.556732E1],"tree_param":{"num_deleted":"0","num_feature":"13","num_nodes":"25","size_leaf_vector":"1"}},{"base_weights":[2.5018254E-2,-2.1551758E-1,1.0206427E-1,-2.3654857E-1,6.29097E-2,-2.2640903E-2,-2.7568132E-1,-3.8895538E-1,4.6856362E-1,1.6431876E-2,-4.668812E-2,-2.0360423E-2,-3.682266E-2,7.1089566E-2,-5.2136045E-2,2.3905117E-2,2.1046877E-1],"categories":[],"categories_nodes":[],"categories_segments":[],"categories_sizes":[],"default_left":[0,0,0,0,0,0,0,0,0,0,0,0,0,0,0,0,0],"id":33,"left_children":[1,3,-1,5,7,9,11,13,15,-1,-1,-1,-1,-1,-1,-1,-1],"loss_changes":[1.5803305E2,3.1275673E0,0E0,4.1327114E0,7.1701226E0,6.518172E0,2.712551E0,3.0764244E0,7.2106133E0,0E0,0E0,0E0,0E0,0E0,0E0,0E0,0E0],"parents":[2147483647,0,0,1,1,3,3,4,4,5,5,6,6,7,7,8,8],"right_children":[2,4,-1,6,8,10,12,14,16,-1,-1,-1,-1,-1,-1,-1,-1],"split_conditions":[1E0,1.2018781E2,1.0206427E-1,3.114066E1,1.31776E2,8.6031075E1,3.3111065E1,9.056818E0,1.8682216E2,1.6431876E-2,-4.668812E-2,-2.0360423E-2,-3.682266E-2,7.1089566E-2,-5.2136045E-2,2.3905117E-2,2.1046877E-1],"split_indices":[11,4,0,8,6,4,3,6,5,0,0,0,0,0,0,0,0],"split_type":[0,0,0,0,0,0,0,0,0,0,0,0,0,0,0,0,0],"sum_hessian":[6.5797314E2,5.305738E2,1.27399345E2,4.9345135E2,3.712243E1,7.655649E1,4.1689487E2,1.7580435E1,1.9541994E1,5.4324142E1,2.2232342E1,2.3616357E2,1.8073131E2,1.4195491E0,1.6160887E1,1.8143032E1,1.3989625E0],"tree_param":{"num_deleted":"0","num_feature":"13","num_nodes":"17","size_leaf_vector":"1"}},{"base_weights":[2.2844102E-2,-1.3843094E-1,1.8681881E-1,-1.8216407E-2,-3.1826723E-1,-3.0568374E-2,9.719618E-1,-3.994654E-2,6.465233E-1,6.119069E-1,-3.5024804E-1,-4.4619548E-1,-6.1981035E-3,4.426672E-1,1.01007275E-1,4.5092996E-2,-6.475892E-3,-3.629868E-2,1.2429909E-1,1.2880866E-1,-6.404577E-2,4.569771E-2,-3.9160978E-2,-5.1654965E-2,1.8903077E-2,-5.2294764E-3,2.3108838E-2,1.0626502E-1,-4.0163275E-2],"categories":[],"categories_nodes":[],"categories_segments":[],"categories_sizes":[],"default_left":[0,0,0,0,0,0,0,0,0,0,0,0,0,0,0,0,0,0,0,0,0,0,0,0,0,0,0,0,0],"id":34,"left_children":[1,3,5,7,9,11,13,15,17,19,21,23,25,27,-1,-1,-1,-1,-1,-1,-1,-1,-1,-1,-1,-1,-1,-1,-1],"loss_changes":[1.6927418E1,6.972514E0,5.419219E1,2.8357034E0,4.059602E0,2.5243332E0,9.4150543E-1,2.33494E0,4.193989E0,4.7716417E0,4.3725996E0,7.145853E-1,2.6010065E0,3.7789664E0,0E0,0E0,0E0,0E0,0E0,0E0,0E0,0E0,0E0,0E0,0E0,0E0,0E0,0E0,0E0],"parents":[2147483647,0,0,1,1,2,2,3,3,4,4,5,5,6,6,7,7,8,8,9,9,10,10,11,11,12,12,13,13],"right_children":[2,4,6,8,10,12,14,16,18,20,22,24,26,28,-1,-1,-1,-1,-1,-1,-1,-1,-1,-1,-1,-1,-1,-1,-1],"split_conditions":[8.951075E1,1E0,1E0,6.836224E1,2.8251652E1,3.2603686E0,9.0332436E1,1.1119702E1,6.1697397E0,7.547411E1,1.6236104E0,1.2689282E1,3.24E2,4.320714E1,1.01007275E-1,4.5092996E-2,-6.475892E-3,-3.629868E-2,1.2429909E-1,1.2880866E-1,-6.404577E-2,4.569771E-2,-3.9160978E-2,-5.1654965E-2,1.8903077E-2,-5.2294764E-3,2.3108838E-2,1.0626502E-1,-4.0163275E-2],"split_indices":[7,10,10,0,1,0,7,6,9,4,9,9,2,0,0,0,0,0,0,0,0,0,0,0,0,0,0,0,0],"split_type":[0,0,0,0,0,0,0,0,0,0,0,0,0,0,0,0,0,0,0,0,0,0,0,0,0,0,0,0,0],"sum_hessian":[6.381204E2,3.2178705E2,3.1633337E2,1.9352403E2,1.2826303E2,2.4849278E2,6.78406E1,1.883082E2,5.2158303E0,3.6605659E0,1.24602455E2,1.2804647E1,2.3568814E2,5.403976E0,6.2436626E1,8.234143E0,1.8007405E2,2.082566E0,3.1332645E0,2.3585877E0,1.3019781E0,5.5835867E0,1.19018875E2,1.1696079E1,1.1085683E0,1.9800261E2,3.768553E1,2.9667943E0,2.4371817E0],"tree_param":{"num_deleted":"0","num_feature":"13","num_nodes":"29","size_leaf_vector":"1"}},{"base_weights":[-1.753789E-3,-2.3497461E-1,1.01726845E-1,-4.053411E-1,6.2167138E-2,6.44236E-2,-4.129148E-1,-3.582185E-1,1.0062348E-1,-3.5901584E-2,-5.6859132E-2,5.6637363E-3,-4.3894604E-2],"categories":[],"categories_nodes":[],"categories_segments":[],"categories_sizes":[],"default_left":[0,0,0,0,0,0,0,0,0,0,0,0,0],"id":35,"left_children":[1,3,-1,5,7,-1,9,11,-1,-1,-1,-1,-1],"loss_changes":[1.5072272E2,2.6150757E1,0E0,2.8745193E0,7.534316E1,0E0,2.534668E0,4.427538E0,0E0,0E0,0E0,0E0,0E0],"parents":[2147483647,0,0,1,1,3,3,4,4,6,6,7,7],"right_children":[2,4,-1,6,8,-1,10,12,-1,-1,-1,-1,-1],"split_conditions":[1E0,1E0,1.01726845E-1,2.8073383E1,9.0332436E1,6.44236E-2,4.1264866E1,1.6076933E1,1.0062348E-1,-3.5901584E-2,-5.6859132E-2,5.6637363E-3,-4.3894604E-2],"split_indices":[11,10,0,1,7,0,1,7,0,0,0,0,0],"split_type":[0,0,0,0,0,0,0,0,0,0,0,0,0],"sum_hessian":[6.3219653E2,5.150808E2,1.17115715E2,3.2714676E2,1.8793404E2,1.7415308E0,3.2540524E2,1.3046126E2,5.7472775E1,2.4417279E2,8.123244E1,2.1299967E1,1.0916129E2],"tree_param":{"num_deleted":"0","num_feature":"13","num_nodes":"13","size_leaf_vector":"1"}},{"base_weights":[7.5929624E-4,-2.1704602E-1,1.01387516E-1,-3.8316196E-1,8.3740324E-2,-4.9307352E-1,-2.624035E-1,-2.9915756E-1,1.0020369E-1,1.1029805E-2,-5.2785046E-2,1.1188568E-3,-4.20245E-2,9.6912235E-3,-3.808093E-2],"categories":[],"categories_nodes":[],"categories_segments":[],"categories_sizes":[],"default_left":[0,0,0,0,0,0,0,0,0,0,0,0,0,0,0],"id":36,"left_children":[1,3,-1,5,7,9,11,13,-1,-1,-1,-1,-1,-1,-1],"loss_changes":[1.3337372E2,2.488879E1,0E0,4.1267014E0,6.2821976E1,3.5568542E0,6.695219E0,4.1201305E0,0E0,0E0,0E0,0E0,0E0,0E0,0E0],"parents":[2147483647,0,0,1,1,3,3,4,4,5,5,6,6,7,7],"right_children":[2,4,-1,6,8,10,12,14,-1,-1,-1,-1,-1,-1,-1],"split_conditions":[1E0,1E0,1.01387516E-1,1.06270966E2,9.0332436E1,2.879816E1,1.4079385E2,1.6076933E1,1.0020369E-1,1.1029805E-2,-5.2785046E-2,1.1188568E-3,-4.20245E-2,9.6912235E-3,-3.808093E-2],"split_indices":[11,10,0,8,7,1,8,7,0,0,0,0,0,0,0],"split_type":[0,0,0,0,0,0,0,0,0,0,0,0,0,0,0],"sum_hessian":[6.0242816E2,4.9647824E2,1.05949905E2,3.1966324E2,1.7681502E2,1.657334E2,1.5392982E2,1.2526011E2,5.1554905E1,8.913559E0,1.5681984E2,5.6655693E1,9.727413E1,2.13774E1,1.03882706E2],"tree_param":{"num_deleted":"0","num_feature":"13","num_nodes":"15","size_leaf_vector":"1"}},{"base_weights":[7.302198E-3,-1.9705755E-1,1.0106128E-1,-3.508642E-1,8.285854E-2,-1.9194275E-1,-4.0323094E-1,-2.8196856E-1,9.98353E-2,-3.5118063E-3,-6.0609467E-2,2.2617865E-2,-4.2447034E-2,-1.6040072E-2,-5.6102872E-2],"categories":[],"categories_nodes":[],"categories_segments":[],"categories_sizes":[],"default_left":[0,0,0,0,0,0,0,0,0,0,0,0,0,0,0],"id":37,"left_children":[1,3,-1,5,7,9,11,13,-1,-1,-1,-1,-1,-1,-1],"loss_changes":[1.1707553E2,2.0453632E1,0E0,2.4722176E0,5.6741234E1,5.0343E0,3.1643486E0,4.037081E0,0E0,0E0,0E0,0E0,0E0,0E0,0E0],"parents":[2147483647,0,0,1,1,3,3,4,4,5,5,6,6,7,7],"right_children":[2,4,-1,6,8,10,12,14,-1,-1,-1,-1,-1,-1,-1],"split_conditions":[1E0,1E0,1.0106128E-1,2.5E-1,9.0332436E1,4.0745804E1,2.8463594E1,1.3667647E2,9.98353E-2,-3.5118063E-3,-6.0609467E-2,2.2617865E-2,-4.2447034E-2,-1.6040072E-2,-5.6102872E-2],"split_indices":[11,10,0,12,7,3,1,8,0,0,0,0,0,0,0],"split_type":[0,0,0,0,0,0,0,0,0,0,0,0,0,0,0],"sum_hessian":[5.690278E2,4.7340555E2,9.562222E1,3.05363E2,1.6804254E2,7.6839005E1,2.28524E2,1.2065371E2,4.738884E1,5.6521214E1,2.031779E1,7.144823E0,2.2137917E2,8.5139084E1,3.551462E1],"tree_param":{"num_deleted":"0","num_feature":"13","num_nodes":"15","size_leaf_vector":"1"}},{"base_weights":[1.2503452E-2,-1.7589024E-1,1.0075154E-1,-3.1217885E-1,7.352011E-2,1.982915E-1,-3.376522E-1,1.7696428E-1,-1.4192255E-1,6.516448E-2,-8.555173E-2,-7.541877E-2,-3.0670693E-2,1.2142255E-2,9.871494E-2,-2.5361056E-2,2.7355617E-2],"categories":[],"categories_nodes":[],"categories_segments":[],"categories_sizes":[],"default_left":[0,0,0,0,0,0,0,0,0,0,0,0,0,0,0,0,0],"id":38,"left_children":[1,3,-1,5,7,9,11,13,15,-1,-1,-1,-1,-1,-1,-1,-1],"loss_changes":[1.0319963E2,1.5759343E1,0E0,3.9621544E0,3.6888452E0,7.66052E0,3.4511147E0,4.8980303E0,2.5697594E0,0E0,0E0,0E0,0E0,0E0,0E0,0E0,0E0],"parents":[2147483647,0,0,1,1,3,3,4,4,5,5,6,6,7,7,8,8],"right_children":[2,4,-1,6,8,10,12,14,16,-1,-1,-1,-1,-1,-1,-1,-1],"split_conditions":[1E0,1E0,1.0075154E-1,1.1119702E1,4.7371025E1,4.008008E1,2.7989492E1,1.3417152E1,1.5675475E2,6.516448E-2,-8.555173E-2,-7.541877E-2,-3.0670693E-2,1.2142255E-2,9.871494E-2,-2.5361056E-2,2.7355617E-2],"split_indices":[11,10,0,6,0,1,6,9,5,0,0,0,0,0,0,0,0],"split_type":[0,0,0,0,0,0,0,0,0,0,0,0,0,0,0,0,0],"sum_hessian":[5.4858777E2,4.6194684E2,8.6640915E1,2.9855295E2,1.633939E2,1.3867737E1,2.846852E2,1.1051099E2,5.2882927E1,9.963167E0,3.90457E0,1.8070995E1,2.666142E2,1.0449712E2,6.0138645E0,4.198596E1,1.089697E1],"tree_param":{"num_deleted":"0","num_feature":"13","num_nodes":"17","size_leaf_vector":"1"}},{"base_weights":[2.1398967E-2,-1.0139333E-1,1.1694423E-1,8.592802E-3,-2.5338987E-1,-3.275344E-2,6.3149124E-1,-9.4808914E-2,2.4968159E-1,2.6387906E-1,-3.3298278E-1,-2.7249416E-3,-5.290811E-1,-3.799243E-2,9.942245E-2,3.0972704E-3,-3.5219215E-2,4.2559415E-2,-1.385261E-2,-4.1272566E-3,1.4647093E-1,-3.8456157E-2,5.9685852E-2,7.0696585E-2,-2.6284265E-3,-6.062069E-2,1.587955E-2,1.4314894E-1,-1.835501E-2],"categories":[],"categories_nodes":[],"categories_segments":[],"categories_sizes":[],"default_left":[0,0,0,0,0,0,0,0,0,0,0,0,0,0,0,0,0,0,0,0,0,0,0,0,0,0,0,0,0],"id":39,"left_children":[1,3,5,7,9,11,13,15,17,19,21,23,25,27,-1,-1,-1,-1,-1,-1,-1,-1,-1,-1,-1,-1,-1,-1,-1],"loss_changes":[6.236807E0,3.8927052E0,2.3041126E1,3.4136958E0,4.111691E0,3.4631531E0,1.640615E1,3.1153972E0,2.865216E0,5.040682E0,4.3130198E0,3.7003634E0,7.9956937E-1,5.535108E0,0E0,0E0,0E0,0E0,0E0,0E0,0E0,0E0,0E0,0E0,0E0,0E0,0E0,0E0,0E0],"parents":[2147483647,0,0,1,1,2,2,3,3,4,4,5,5,6,6,7,7,8,8,9,9,10,10,11,11,12,12,13,13],"right_children":[2,4,6,8,10,12,14,16,18,20,22,24,26,28,-1,-1,-1,-1,-1,-1,-1,-1,-1,-1,-1,-1,-1,-1,-1],"split_conditions":[7.478553E1,1E0,1E0,1.0085291E1,1.25E-1,6.64063E1,9.0332436E1,2.66E2,3.820046E1,1.2689282E1,9.583333E-1,6.7830825E0,3.47E2,1.2019121E1,9.942245E-2,3.0972704E-3,-3.5219215E-2,4.2559415E-2,-1.385261E-2,-4.1272566E-3,1.4647093E-1,-3.8456157E-2,5.9685852E-2,7.0696585E-2,-2.6284265E-3,-6.062069E-2,1.587955E-2,1.4314894E-1,-1.835501E-2],"split_indices":[7,10,10,9,12,0,7,2,3,9,12,8,2,8,0,0,0,0,0,0,0,0,0,0,0,0,0,0,0],"split_type":[0,0,0,0,0,0,0,0,0,0,0,0,0,0,0,0,0,0,0,0,0,0,0,0,0,0,0,0,0],"sum_hessian":[5.295857E2,2.3172173E2,2.9786395E2,1.3498718E2,9.673454E1,2.3146109E2,6.640286E1,9.489427E1,4.009291E1,1.25910225E1,8.4143524E1,2.1920442E2,1.2256676E1,2.3649357E1,4.275351E1,6.43342E1,3.0560072E1,2.7524254E1,1.2568656E1,1.0809717E1,1.7813051E0,8.027694E1,3.8665817E0,6.1110134E0,2.1309341E2,1.1127744E1,1.1289321E0,1.3352077E0,2.231415E1],"tree_param":{"num_deleted":"0","num_feature":"13","num_nodes":"29","size_leaf_vector":"1"}},{"base_weights":[-8.510712E-3,-1.9176763E-1,1.004707E-1,-3.2565135E-1,5.597099E-2,-2.2253087E-1,-4.1723084E-1,-2.6430023E-1,9.905667E-2,-5.8652468E-2,-1.1664827E-2,-5.035689E-2,-7.963232E-3,6.96212E-3,-3.860852E-2],"categories":[],"categories_nodes":[],"categories_segments":[],"categories_sizes":[],"default_left":[0,0,0,0,0,0,0,0,0,0,0,0,0,0,0],"id":40,"left_children":[1,3,-1,5,7,9,11,13,-1,-1,-1,-1,-1,-1,-1],"loss_changes":[9.742784E1,1.4755007E1,0E0,2.6323967E0,4.717423E1,5.2455106E0,4.3815403E0,4.8058834E0,0E0,0E0,0E0,0E0,0E0,0E0,0E0],"parents":[2147483647,0,0,1,1,3,3,4,4,5,5,6,6,7,7],"right_children":[2,4,-1,6,8,10,12,14,-1,-1,-1,-1,-1,-1,-1],"split_conditions":[1E0,1E0,1.004707E-1,3.624703E1,9.0332436E1,1.5255911E1,1.5999455E2,1.9715904E1,9.905667E-2,-5.8652468E-2,-1.1664827E-2,-5.035689E-2,-7.963232E-3,6.96212E-3,-3.860852E-2],"split_indices":[11,10,0,1,7,0,7,3,0,0,0,0,0,0,0],"split_type":[0,0,0,0,0,0,0,0,0,0,0,0,0,0,0],"sum_hessian":[5.226731E2,4.4330493E2,7.936818E1,2.875771E2,1.5572784E2,1.3687868E2,1.506984E2,1.1651663E2,3.9211212E1,2.9821522E1,1.0705716E2,1.19615974E2,3.1082428E1,3.1252882E1,8.526375E1],"tree_param":{"num_deleted":"0","num_feature":"13","num_nodes":"15","size_leaf_vector":"1"}},{"base_weights":[3.0569185E-2,-1.3174486E-1,1.0017464E-1,-2.6893964E-1,1.2755957E-1,-5.863877E-1,-2.4016006E-1,-2.1118203E-1,8.496301E-1,-2.732006E-4,-8.6994246E-2,1.020589E-1,-2.556082E-2,1.757463E-2,-3.251669E-2,4.1821167E-2,9.862482E-2],"categories":[],"categories_nodes":[],"categories_segments":[],"categories_sizes":[],"default_left":[0,0,0,0,0,0,0,0,0,0,0,0,0,0,0,0,0],"id":41,"left_children":[1,3,-1,5,7,9,11,13,15,-1,-1,-1,-1,-1,-1,-1,-1],"loss_changes":[8.008119E1,1.5524963E1,0E0,2.4637508E0,3.719772E1,3.8047285E0,5.384777E0,4.6359367E0,2.4477043E0,0E0,0E0,0E0,0E0,0E0,0E0,0E0,0E0],"parents":[2147483647,0,0,1,1,3,3,4,4,5,5,6,6,7,7,8,8],"right_children":[2,4,-1,6,8,10,12,14,16,-1,-1,-1,-1,-1,-1,-1,-1],"split_conditions":[1E0,1E0,1.0017464E-1,6.1669784E0,8.363842E1,4.4537357E1,6.731632E0,1.5255911E1,9.0332436E1,-2.732006E-4,-8.6994246E-2,1.020589E-1,-2.556082E-2,1.757463E-2,-3.251669E-2,4.1821167E-2,9.862482E-2],"split_indices":[11,10,0,0,7,4,0,0,7,0,0,0,0,0,0,0,0],"split_type":[0,0,0,0,0,0,0,0,0,0,0,0,0,0,0,0,0],"sum_hessian":[5.0617706E2,4.3443393E2,7.174313E1,2.8408884E2,1.5034508E2,2.2003881E1,2.6208496E2,1.0281805E2,4.7527023E1,7.524808E0,1.4479074E1,2.3848875E0,2.5970007E2,2.3273376E1,7.954467E1,1.2407442E1,3.511958E1],"tree_param":{"num_deleted":"0","num_feature":"13","num_nodes":"17","size_leaf_vector":"1"}},{"base_weights":[3.1234521E-2,-1.17998816E-1,9.98725E-2,-2.2651635E-1,8.8129446E-2,-3.253692E-1,-1.1963177E-1,-1.6181871E-1,9.816319E-2,2.7618723E-3,-4.0490553E-2,-5.671522E-2,-2.6815655E-4,1.4018363E-3,-3.666701E-2],"categories":[],"categories_nodes":[],"categories_segments":[],"categories_sizes":[],"default_left":[0,0,0,0,0,0,0,0,0,0,0,0,0,0,0],"id":42,"left_children":[1,3,-1,5,7,9,11,13,-1,-1,-1,-1,-1,-1,-1],"loss_changes":[7.0738E1,9.518793E0,0E0,2.903391E0,3.3027794E1,4.0566015E0,7.084103E0,4.178614E0,0E0,0E0,0E0,0E0,0E0,0E0,0E0],"parents":[2147483647,0,0,1,1,3,3,4,4,5,5,6,6,7,7],"right_children":[2,4,-1,6,8,10,12,14,-1,-1,-1,-1,-1,-1,-1],"split_conditions":[1E0,1E0,9.98725E-2,1.0338079E2,9.0332436E1,2.3746574E1,1.6050127E1,3.732045E1,9.816319E-2,2.7618723E-3,-4.0490553E-2,-5.671522E-2,-2.6815655E-4,1.4018363E-3,-3.666701E-2],"split_indices":[11,10,0,5,7,4,0,1,0,0,0,0,0,0,0],"split_type":[0,0,0,0,0,0,0,0,0,0,0,0,0,0,0],"sum_hessian":[4.8812073E2,4.2365143E2,6.446929E1,2.7747437E2,1.4617706E2,1.4309135E2,1.3438303E2,1.14863945E2,3.1313118E1,2.6432922E1,1.1665843E2,2.7044664E1,1.0733836E2,6.2310455E1,5.2553486E1],"tree_param":{"num_deleted":"0","num_feature":"13","num_nodes":"15","size_leaf_vector":"1"}},{"base_weights":[1.8592669E-2,-9.9887386E-2,1.12623855E-1,-1.9478368E-2,-3.6486125E-1,-1.1324193E-2,5.9203696E-1,1.5615417E-1,-1.9474149E-1,3.2672462E-1,-4.5086095E-1,1.8708715E-2,-5.262942E-1,1.02422334E-1,9.782179E-2,9.747355E-3,1.20257914E-1,-2.8966708E-2,2.0771103E-2,-3.7661042E-2,1.3583983E-1,-6.4837776E-2,-2.6061986E-2,-3.1001586E-3,4.2408083E-2,2.157878E-2,-6.174413E-2,8.854019E-2,-1.2715543E-2],"categories":[],"categories_nodes":[],"categories_segments":[],"categories_sizes":[],"default_left":[0,0,0,0,0,0,0,0,0,0,0,0,0,0,0,0,0,0,0,0,0,0,0,0,0,0,0,0,0],"id":43,"left_children":[1,3,5,7,9,11,13,15,17,19,21,23,25,27,-1,-1,-1,-1,-1,-1,-1,-1,-1,-1,-1,-1,-1,-1,-1],"loss_changes":[5.2660375E0,4.450864E0,1.5660746E1,5.0040674E0,3.0411396E0,3.2623653E0,1.01359215E1,4.872454E0,3.1667905E0,4.8369756E0,1.472868E0,4.036882E0,9.1941E-1,4.604357E0,0E0,0E0,0E0,0E0,0E0,0E0,0E0,0E0,0E0,0E0,0E0,0E0,0E0,0E0,0E0],"parents":[2147483647,0,0,1,1,2,2,3,3,4,4,5,5,6,6,7,7,8,8,9,9,10,10,11,11,12,12,13,13],"right_children":[2,4,6,8,10,12,14,16,18,20,22,24,26,28,-1,-1,-1,-1,-1,-1,-1,-1,-1,-1,-1,-1,-1,-1,-1],"split_conditions":[7.478553E1,1.5134747E2,1E0,3.6387085E1,2.9005354E1,6.64063E1,9.0332436E1,3.604313E1,1.2467438E2,1.3498888E2,3.6387085E1,5.9391544E1,2.093518E1,1.673261E1,9.782179E-2,9.747355E-3,1.20257914E-1,-2.8966708E-2,2.0771103E-2,-3.7661042E-2,1.3583983E-1,-6.4837776E-2,-2.6061986E-2,-3.1001586E-3,4.2408083E-2,2.157878E-2,-6.174413E-2,8.854019E-2,-1.2715543E-2],"split_indices":[7,8,10,1,6,0,7,1,8,5,1,0,6,3,0,0,0,0,0,0,0,0,0,0,0,0,0,0,0],"split_type":[0,0,0,0,0,0,0,0,0,0,0,0,0,0,0,0,0,0,0,0,0,0,0,0,0,0,0,0,0],"sum_hessian":[4.7066974E2,2.0823264E2,2.6243707E2,1.6057732E2,4.7655315E1,2.0930063E2,5.313646E1,8.025859E1,8.031873E1,4.9610205E0,4.2694294E1,1.9867747E2,1.0623145E1,2.398835E1,2.9148111E1,7.7032E1,3.2265928E0,6.521651E1,1.510223E1,3.327486E0,1.6335343E0,1.9765097E1,2.29292E1,1.7779787E2,2.0879618E1,1.0124807E0,9.610664E0,4.7912025E0,1.9197147E1],"tree_param":{"num_deleted":"0","num_feature":"13","num_nodes":"29","size_leaf_vector":"1"}},{"base_weights":[1.277196E-2,-1.3331887E-1,9.962041E-2,-2.9377055E-1,-4.7202684E-2,-4.1887325E-1,-1.0891131E-1,-1.7995447E-1,3.2217592E-1,2.0767013E-2,-5.2199483E-2,5.998531E-2,-2.95585E-2,-1.2333966E-2,-6.1817598E-2,-1.5052244E-2,8.990556E-2],"categories":[],"categories_nodes":[],"categories_segments":[],"categories_sizes":[],"default_left":[0,0,0,0,0,0,0,0,0,0,0,0,0,0,0,0,0],"id":44,"left_children":[1,3,-1,5,7,9,11,13,15,-1,-1,-1,-1,-1,-1,-1,-1],"loss_changes":[6.722082E1,5.6159863E0,0E0,3.2409248E0,1.3117733E1,5.5617228E0,7.944938E0,4.800407E0,1.9433718E1,0E0,0E0,0E0,0E0,0E0,0E0,0E0,0E0],"parents":[2147483647,0,0,1,1,3,3,4,4,5,5,6,6,7,7,8,8],"right_children":[2,4,-1,6,8,10,12,14,16,-1,-1,-1,-1,-1,-1,-1,-1],"split_conditions":[1E0,5.630546E1,9.962041E-2,1.19897606E2,1E0,1.0299723E1,9.861228E0,1.252379E1,8.951075E1,2.0767013E-2,-5.2199483E-2,5.998531E-2,-2.95585E-2,-1.2333966E-2,-6.1817598E-2,-1.5052244E-2,8.990556E-2],"split_indices":[11,7,0,5,10,0,7,9,7,0,0,0,0,0,0,0,0],"split_type":[0,0,0,0,0,0,0,0,0,0,0,0,0,0,0,0,0],"sum_hessian":[4.659577E2,4.0644406E2,5.951365E1,1.4111229E2,2.6533176E2,8.340345E1,5.770884E1,1.9556136E2,6.97704E1,1.1643901E1,7.1759544E1,1.1569245E1,4.613959E1,1.743218E2,2.1239565E1,3.875413E1,3.1016272E1],"tree_param":{"num_deleted":"0","num_feature":"13","num_nodes":"17","size_leaf_vector":"1"}},{"base_weights":[1.3780667E-3,-1.3469785E-1,9.932057E-2,-4.6675593E-1,-1.03934154E-1,2.8243053E-1,-5.741816E-1,-4.7651362E-1,-7.991679E-2,1.3396727E-1,-3.8435005E-2,-7.4675135E-2,-2.5472863E-2,9.6657336E-2,-6.0242355E-2,3.419948E-2,-9.9497875E-3],"categories":[],"categories_nodes":[],"categories_segments":[],"categories_sizes":[],"default_left":[0,0,0,0,0,0,0,0,0,0,0,0,0,0,0,0,0],"id":45,"left_children":[1,3,-1,5,7,9,11,13,15,-1,-1,-1,-1,-1,-1,-1,-1],"loss_changes":[6.1144188E1,4.021207E0,0E0,2.8577728E0,3.2361264E0,3.948434E0,1.4428205E0,4.5718274E0,2.8837686E0,0E0,0E0,0E0,0E0,0E0,0E0,0E0,0E0],"parents":[2147483647,0,0,1,1,3,3,4,4,5,5,6,6,7,7,8,8],"right_children":[2,4,-1,6,8,10,12,14,16,-1,-1,-1,-1,-1,-1,-1,-1],"split_conditions":[1E0,6E1,9.932057E-2,9.110027E0,7.7196035E0,3.9266956E1,8.992299E0,1.30172825E1,2.8531584E1,1.3396727E-1,-3.8435005E-2,-7.4675135E-2,-2.5472863E-2,9.6657336E-2,-6.0242355E-2,3.419948E-2,-9.9497875E-3],"split_indices":[11,2,0,0,4,7,9,8,1,0,0,0,0,0,0,0,0],"split_type":[0,0,0,0,0,0,0,0,0,0,0,0,0,0,0,0,0],"sum_hessian":[4.5104993E2,3.9739294E2,5.365699E1,3.2493332E1,3.6489963E2,3.8706133E0,2.8622719E1,2.0956873E1,3.4394275E2,1.1066895E0,2.763924E0,1.771527E1,1.0907451E1,1.1459644E0,1.981091E1,1.4524273E1,3.2941846E2],"tree_param":{"num_deleted":"0","num_feature":"13","num_nodes":"17","size_leaf_vector":"1"}},{"base_weights":[1.703172E-2,-4.6054652E-1,3.302754E-2,-6.7998093E-1,1.1700294E-1,5.233252E-1,1.9917168E-2,-7.847243E-2,-3.6130002E-1,7.722667E-2,-4.620437E-2,8.613172E-1,-6.1746795E-2,-5.397572E-2,1.02782585E-1,-1.23604685E-2,-4.1700386E-2,1.015363E-2,1.493827E-1,-4.4028163E-2,-1.1440142E-3,-3.068944E-3,8.831508E-2],"categories":[],"categories_nodes":[],"categories_segments":[],"categories_sizes":[],"default_left":[0,0,0,0,0,0,0,0,0,0,0,0,0,0,0,0,0,0,0,0,0,0,0],"id":46,"left_children":[1,3,5,7,9,11,13,-1,15,-1,-1,17,-1,19,21,-1,-1,-1,-1,-1,-1,-1,-1],"loss_changes":[3.3953693E0,1.9053717E0,2.7476044E0,6.986475E-2,2.1855826E0,4.825137E0,2.5707304E0,0E0,7.6702833E-3,0E0,0E0,4.1769447E0,0E0,3.6446261E0,2.0631544E1,0E0,0E0,0E0,0E0,0E0,0E0,0E0,0E0],"parents":[2147483647,0,0,1,1,2,2,3,3,4,4,5,5,6,6,8,8,11,11,13,13,14,14],"right_children":[2,4,6,8,10,12,14,-1,16,-1,-1,18,-1,20,22,-1,-1,-1,-1,-1,-1,-1,-1],"split_conditions":[6.484424E0,2.73E2,2.8251652E1,1.02947426E2,3.0301842E1,4.2560604E1,8.951075E1,-7.847243E-2,3.1034037E1,7.722667E-2,-4.620437E-2,3.554657E1,-6.1746795E-2,2.9798143E1,1E0,-1.23604685E-2,-4.1700386E-2,1.015363E-2,1.493827E-1,-4.4028163E-2,-1.1440142E-3,-3.068944E-3,8.831508E-2],"split_indices":[5,2,1,7,0,3,7,0,0,0,0,0,0,1,10,0,0,0,0,0,0,0,0],"split_type":[0,0,0,0,0,0,0,0,0,0,0,0,0,0,0,0,0,0,0,0,0,0,0],"sum_hessian":[4.414722E2,1.340662E1,4.2806558E2,9.586838E0,3.819783E0,1.013469E1,4.1793088E2,6.114668E0,3.4721696E0,1.6354172E0,2.1843657E0,8.00729E0,2.1274006E0,2.2111049E2,1.9682039E2,1.2703567E0,2.201813E0,4.164888E0,3.842402E0,2.1003838E1,2.0010666E2,1.6889392E2,2.7926477E1],"tree_param":{"num_deleted":"0","num_feature":"13","num_nodes":"23","size_leaf_vector":"1"}},{"base_weights":[1.8646013E-2,-1.0570015E-1,9.9053316E-2,-1.9185683E-1,6.86405E-2,-1.0818065E-1,-3.046675E-1,1.1867727E-1,-4.1199484E-1,4.96546E-2,-1.7482115E-2,-4.6993654E-2,-2.0926797E-3,-3.4147955E-2,1.8562322E-2,-6.2883906E-2,4.432986E-2],"categories":[],"categories_nodes":[],"categories_segments":[],"categories_sizes":[],"default_left":[0,0,0,0,0,0,0,0,0,0,0,0,0,0,0,0,0],"id":47,"left_children":[1,3,-1,5,7,9,11,13,15,-1,-1,-1,-1,-1,-1,-1,-1],"loss_changes":[5.3512115E1,5.911841E0,0E0,2.4504557E0,3.1902208E0,6.2364054E0,5.21821E0,3.7317157E0,2.6044397E0,0E0,0E0,0E0,0E0,0E0,0E0,0E0,0E0],"parents":[2147483647,0,0,1,1,3,3,4,4,5,5,6,6,7,7,8,8],"right_children":[2,4,-1,6,8,10,12,14,16,-1,-1,-1,-1,-1,-1,-1,-1],"split_conditions":[1E0,1E0,9.9053316E-2,4.0489506E1,4.784931E1,2.2889938E0,5.9391544E1,2.5371466E1,2.2280899E2,4.96546E-2,-1.7482115E-2,-4.6993654E-2,-2.0926797E-3,-3.4147955E-2,1.8562322E-2,-6.2883906E-2,4.432986E-2],"split_indices":[11,10,0,0,3,9,0,5,6,0,0,0,0,0,0,0,0],"split_type":[0,0,0,0,0,0,0,0,0,0,0,0,0,0,0,0,0],"sum_hessian":[4.4092987E2,3.9170517E2,4.9224693E1,2.6208566E2,1.296195E2,1.5159819E2,1.1048747E2,1.18079834E2,1.1539675E1,1.4407428E1,1.3719077E2,6.940517E1,4.1082302E1,1.4476175E1,1.0360366E2,9.416946E0,2.1227288E0],"tree_param":{"num_deleted":"0","num_feature":"13","num_nodes":"17","size_leaf_vector":"1"}},{"base_weights":[-1.4078533E-2,-1.3121694E-1,9.873637E-2,-2.4887775E-1,-3.2190256E-2,-3.0841377E-1,1.1596608E-1,-1.7635809E-1,4.8248076E-1,-2.6448345E-2,-9.425124E-2,4.251956E-2,-7.638195E-2,-1.3949799E-2,-8.2512654E-2,-1.2832226E-3,9.662213E-2],"categories":[],"categories_nodes":[],"categories_segments":[],"categories_sizes":[],"default_left":[0,0,0,0,0,0,0,0,0,0,0,0,0,0,0,0,0],"id":48,"left_children":[1,3,-1,5,7,9,11,13,15,-1,-1,-1,-1,-1,-1,-1,-1],"loss_changes":[5.0745518E1,4.503231E0,0E0,3.8759537E0,1.5769721E1,3.992216E0,7.270072E0,3.8512797E0,1.1159546E1,0E0,0E0,0E0,0E0,0E0,0E0,0E0,0E0],"parents":[2147483647,0,0,1,1,3,3,4,4,5,5,6,6,7,7,8,8],"right_children":[2,4,-1,6,8,10,12,14,16,-1,-1,-1,-1,-1,-1,-1,-1],"split_conditions":[1E0,7.478553E1,9.873637E-2,1.22273035E1,1E0,3.59E2,5.208738E1,6.64063E1,9.0332436E1,-2.6448345E-2,-9.425124E-2,4.251956E-2,-7.638195E-2,-1.3949799E-2,-8.2512654E-2,-1.2832226E-3,9.662213E-2],"split_indices":[11,7,0,9,10,2,0,0,7,0,0,0,0,0,0,0,0],"split_type":[0,0,0,0,0,0,0,0,0,0,0,0,0,0,0,0,0],"sum_hessian":[4.304816E2,3.861793E2,4.4302315E1,1.7579327E2,2.1038602E2,1.5126431E2,2.4528967E1,1.6486263E2,4.55234E1,1.42789E2,8.475311E0,1.8531996E1,5.996972E0,1.5714914E2,7.7134843E0,2.2973639E1,2.2549759E1],"tree_param":{"num_deleted":"0","num_feature":"13","num_nodes":"17","size_leaf_vector":"1"}},{"base_weights":[8.72931E-3,-9.718364E-2,9.84252E-2,-5.076296E-2,-2.8667977E-1,1.256517E-1,-1.2083764E-1,2.5461656E-1,-3.9598706E-1,1.9211464E-1,3.856057E-3,-5.086791E-2,-6.9060656E-3,1.7562945E-1,-2.2637742E-2,-5.1850397E-2,-1.2777462E-2],"categories":[],"categories_nodes":[],"categories_segments":[],"categories_sizes":[],"default_left":[0,0,0,0,0,0,0,0,0,0,0,0,0,0,0,0,0],"id":49,"left_children":[1,3,-1,5,7,9,11,13,15,-1,-1,-1,-1,-1,-1,-1,-1],"loss_changes":[4.3458366E1,3.3237166E0,0E0,3.7985168E0,4.506303E0,1.3607619E1,4.373625E0,9.872829E0,1.9822559E0,0E0,0E0,0E0,0E0,0E0,0E0,0E0,0E0],"parents":[2147483647,0,0,1,1,3,3,4,4,5,5,6,6,7,7,8,8],"right_children":[2,4,-1,6,8,10,12,14,16,-1,-1,-1,-1,-1,-1,-1,-1],"split_conditions":[1E0,4.3036892E1,9.84252E-2,1.31E2,3.3676533E1,6.7830825E0,1.57E2,3.496322E0,1E0,1.9211464E-1,3.856057E-3,-5.086791E-2,-6.9060656E-3,1.7562945E-1,-2.2637742E-2,-5.1850397E-2,-1.2777462E-2],"split_indices":[11,3,0,2,8,8,2,9,10,0,0,0,0,0,0,0,0],"split_type":[0,0,0,0,0,0,0,0,0,0,0,0,0,0,0,0,0],"sum_hessian":[4.1869135E2,3.7849802E2,4.0193325E1,3.0504044E2,7.345757E1,8.649475E1,2.185457E2,1.2118191E1,6.133938E1,3.0271506E0,8.3467606E1,2.4700361E1,1.9384534E2,2.296636E0,9.821554E0,4.1465263E1,1.9874119E1],"tree_param":{"num_deleted":"0","num_feature":"13","num_nodes":"17","size_leaf_vector":"1"}},{"base_weights":[3.0170979E-2,-6.386616E-2,9.808816E-2,1.6252407E-3,-2.2754431E-1,-5.6652505E-2,3.672302E-1,-3.211894E-1,2.3343626E-1,-3.881595E-2,2.8475926E-3,5.12526E-2,-4.5387603E-2,-3.6082834E-2,4.858102E-2,6.8358995E-2,-2.3944212E-2],"categories":[],"categories_nodes":[],"categories_segments":[],"categories_sizes":[],"default_left":[0,0,0,0,0,0,0,0,0,0,0,0,0,0,0,0,0],"id":50,"left_children":[1,3,-1,5,7,9,11,13,15,-1,-1,-1,-1,-1,-1,-1,-1],"loss_changes":[3.7021267E1,4.0429854E0,0E0,5.780958E0,4.7277427E0,6.6159115E0,4.6829014E0,3.0543957E0,4.160769E0,0E0,0E0,0E0,0E0,0E0,0E0,0E0,0E0],"parents":[2147483647,0,0,1,1,3,3,4,4,5,5,6,6,7,7,8,8],"right_children":[2,4,-1,6,8,10,12,14,16,-1,-1,-1,-1,-1,-1,-1,-1],"split_conditions":[1E0,1.4226028E2,9.808816E-2,1.2467438E2,1.5758171E2,5.2259277E1,1.7437883E2,1.2448962E2,5.888076E1,-3.881595E-2,2.8475926E-3,5.12526E-2,-4.5387603E-2,-3.6082834E-2,4.858102E-2,6.8358995E-2,-2.3944212E-2],"split_indices":[11,8,0,8,7,6,7,4,4,0,0,0,0,0,0,0,0],"split_type":[0,0,0,0,0,0,0,0,0,0,0,0,0,0,0,0,0],"sum_hessian":[4.1239767E2,3.7612686E2,3.6270817E1,2.6934555E2,1.067813E2,2.330433E2,3.6302258E1,8.900399E1,1.7777315E1,4.688891E1,1.8615439E2,3.1163626E1,5.1386304E0,8.5363884E1,3.640103E0,8.87921E0,8.898104E0],"tree_param":{"num_deleted":"0","num_feature":"13","num_nodes":"17","size_leaf_vector":"1"}},{"base_weights":[8.1072905E-4,-8.8972084E-2,9.777207E-2,-3.4386665E-1,-5.1214177E-2,5.6043863E-1,-4.4594434E-1,1.9532089E-1,-6.565675E-2,-1.5054755E-2,1.3867135E-1,-4.9669515E-2,4.7156427E-2,-1.0735016E-2,2.2883778E-2],"categories":[],"categories_nodes":[],"categories_segments":[],"categories_sizes":[],"default_left":[0,0,0,0,0,0,0,0,0,0,0,0,0,0,0],"id":51,"left_children":[1,3,-1,5,7,9,11,-1,13,-1,-1,-1,-1,-1,-1],"loss_changes":[3.5621025E1,3.5621328E0,0E0,4.663581E0,9.540594E0,3.318172E0,2.2607403E0,0E0,4.0000534E0,0E0,0E0,0E0,0E0,0E0,0E0],"parents":[2147483647,0,0,1,1,3,3,4,4,5,5,6,6,8,8],"right_children":[2,4,-1,6,8,10,12,-1,14,-1,-1,-1,-1,-1,-1],"split_conditions":[1E0,7.4E1,9.777207E-2,8.3333336E-2,7.5E1,1.336799E2,1.9159604E2,1.9532089E-1,8.75E-1,-1.5054755E-2,1.3867135E-1,-4.9669515E-2,4.7156427E-2,-1.0735016E-2,2.2883778E-2],"split_indices":[11,2,0,12,2,8,8,0,12,0,0,0,0,0,0],"split_type":[0,0,0,0,0,0,0,0,0,0,0,0,0,0,0],"sum_hessian":[4.0413214E2,3.7094904E2,3.318311E1,4.681372E1,3.241353E2,4.292875E0,4.2520847E1,1.358477E0,3.2277686E2,2.7469778E0,1.5458971E0,4.072675E1,1.7940984E0,2.833033E2,3.9473526E1],"tree_param":{"num_deleted":"0","num_feature":"13","num_nodes":"15","size_leaf_vector":"1"}},{"base_weights":[-1.0357437E-2,-9.357271E-2,9.7456515E-2,-1.7325653E-1,6.280507E-2,1.8801036E-1,-2.1149379E-1,-1.2154207E-1,9.618364E-2,-3.8702305E-2,6.4890854E-2,4.7823478E-2,-2.3525797E-2,-1.7823946E-2,6.345805E-2],"categories":[],"categories_nodes":[],"categories_segments":[],"categories_sizes":[],"default_left":[0,0,0,0,0,0,0,0,0,0,0,0,0,0,0],"id":52,"left_children":[1,3,-1,5,7,9,11,13,-1,-1,-1,-1,-1,-1,-1],"loss_changes":[3.3140118E1,4.655356E0,0E0,3.4542365E0,2.1090528E1,6.661519E0,3.7838945E0,4.6532364E0,0E0,0E0,0E0,0E0,0E0,0E0,0E0],"parents":[2147483647,0,0,1,1,3,3,4,4,5,5,6,6,7,7],"right_children":[2,4,-1,6,8,10,12,14,-1,-1,-1,-1,-1,-1,-1],"split_conditions":[1E0,1E0,9.7456515E-2,2.9313255E1,9.0332436E1,1.31776E2,6.0724897E0,1.21647705E2,9.618364E-2,-3.8702305E-2,6.4890854E-2,4.7823478E-2,-2.3525797E-2,-1.7823946E-2,6.345805E-2],"split_indices":[11,10,0,1,7,6,6,4,0,0,0,0,0,0,0],"split_type":[0,0,0,0,0,0,0,0,0,0,0,0,0,0,0],"sum_hessian":[4.022294E2,3.7172748E2,3.0501944E1,2.4617743E2,1.2555004E2,2.318719E1,2.2299023E2,1.0490416E2,2.064588E1,1.03875675E1,1.2799622E1,6.7901287E0,2.162001E2,9.8297646E1,6.6065154E0],"tree_param":{"num_deleted":"0","num_feature":"13","num_nodes":"15","size_leaf_vector":"1"}},{"base_weights":[3.39814E-2,-8.9335956E-2,9.898887E-2,1.4489543E-1,-2.1985105E-1,-1.5782677E-1,1.5030985E-1,-8.295086E-2,8.9860296E-1,-2.7149577E-2,-5.6126946E-1,7.7952206E-1,-2.730412E-1,6.2710578E-3,3.2339135E-1,2.3744132E-2,-5.2807596E-2,-5.3711146E-2,1.16186105E-1,-1.6394982E-2,7.2329305E-2,-6.4393714E-2,9.560007E-2,-4.8896857E-2,1.3501225E-1,-3.37312E-2,8.7328166E-2,1.7872563E-2,-1.8539423E-2,2.4673892E-2,1.2468866E-1],"categories":[],"categories_nodes":[],"categories_segments":[],"categories_sizes":[],"default_left":[0,0,0,0,0,0,0,0,0,0,0,0,0,0,0,0,0,0,0,0,0,0,0,0,0,0,0,0,0,0,0],"id":53,"left_children":[1,3,5,7,9,11,13,15,17,19,21,23,25,27,29,-1,-1,-1,-1,-1,-1,-1,-1,-1,-1,-1,-1,-1,-1,-1,-1],"loss_changes":[3.1552205E0,4.1896834E0,3.417296E0,8.535525E0,5.7571745E0,4.896797E0,5.3606825E0,5.651414E0,4.9786787E0,5.984016E0,4.5795918E0,4.28416E0,3.1947625E0,3.9474437E0,6.607189E0,0E0,0E0,0E0,0E0,0E0,0E0,0E0,0E0,0E0,0E0,0E0,0E0,0E0,0E0,0E0,0E0],"parents":[2147483647,0,0,1,1,2,2,3,3,4,4,5,5,6,6,7,7,8,8,9,9,10,10,11,11,12,12,13,13,14,14],"right_children":[2,4,6,8,10,12,14,16,18,20,22,24,26,28,30,-1,-1,-1,-1,-1,-1,-1,-1,-1,-1,-1,-1,-1,-1,-1,-1],"split_conditions":[5.630546E1,3.4041775E1,3.5093533E1,3.2557564E1,8.4504265E1,8.3333336E-2,1.0966927E2,3.9892616E1,1.8524353E1,1.2320418E1,1.9466731E2,2.0494305E1,1.3478274E1,5.820492E1,1.21647705E2,2.3744132E-2,-5.2807596E-2,-5.3711146E-2,1.16186105E-1,-1.6394982E-2,7.2329305E-2,-6.4393714E-2,9.560007E-2,-4.8896857E-2,1.3501225E-1,-3.37312E-2,8.7328166E-2,1.7872563E-2,-1.8539423E-2,2.4673892E-2,1.2468866E-1],"split_indices":[7,1,5,1,4,12,8,0,4,9,8,3,9,8,4,0,0,0,0,0,0,0,0,0,0,0,0,0,0,0,0],"split_type":[0,0,0,0,0,0,0,0,0,0,0,0,0,0,0,0,0,0,0,0,0,0,0,0,0,0,0,0,0,0,0],"sum_hessian":[3.9148523E2,1.350068E2,2.564784E2,4.826927E1,8.673754E1,4.2371525E1,2.1410689E2,3.7747974E1,1.0521296E1,5.613414E1,3.0603401E1,4.006888E0,3.8364635E1,1.1742325E2,9.668364E1,2.2220602E1,1.5527372E1,1.4691018E0,9.052194E0,4.8140083E1,7.9940586E0,2.9567999E1,1.0354018E0,1.2875731E0,2.7193146E0,3.699612E1,1.368515E0,6.1844746E1,5.55785E1,9.0443756E1,6.2398796E0],"tree_param":{"num_deleted":"0","num_feature":"13","num_nodes":"31","size_leaf_vector":"1"}},{"base_weights":[2.2650307E-2,-5.1248856E-2,9.7055495E-2,-1.2844965E-1,1.0109455E-1,-3.466098E-1,-7.0490174E-2,-5.9206944E-2,9.560475E-2,2.5079666E-2,-6.2487133E-2,-3.02661E-2,3.5478265E-3,2.558138E-2,-1.568329E-2],"categories":[],"categories_nodes":[],"categories_segments":[],"categories_sizes":[],"default_left":[0,0,0,0,0,0,0,0,0,0,0,0,0,0,0],"id":54,"left_children":[1,3,-1,5,7,9,11,13,-1,-1,-1,-1,-1,-1,-1],"loss_changes":[2.7564579E1,4.309695E0,0E0,3.0469646E0,1.6972664E1,8.590185E0,4.763321E0,3.2657015E0,0E0,0E0,0E0,0E0,0E0,0E0,0E0],"parents":[2147483647,0,0,1,1,3,3,4,4,5,5,6,6,7,7],"right_children":[2,4,-1,6,8,10,12,14,-1,-1,-1,-1,-1,-1,-1],"split_conditions":[1E0,1E0,9.7055495E-2,4.5189236E1,9.0332436E1,4.052938E1,3.90401E1,1.5255911E1,9.560475E-2,2.5079666E-2,-6.2487133E-2,-3.02661E-2,3.5478265E-3,2.558138E-2,-1.568329E-2],"split_indices":[11,10,0,5,7,4,4,0,0,0,0,0,0,0,0],"split_type":[0,0,0,0,0,0,0,0,0,0,0,0,0,0,0],"sum_hessian":[3.9179214E2,3.6433438E2,2.7457773E1,2.4190477E2,1.2242962E2,4.9732147E1,1.921726E2,1.0388264E2,1.8546982E1,1.5834776E1,3.3897373E1,5.9642704E1,1.325299E2,2.4193705E1,7.9688934E1],"tree_param":{"num_deleted":"0","num_feature":"13","num_nodes":"15","size_leaf_vector":"1"}},{"base_weights":[-5.1023453E-3,-8.6543106E-2,9.749782E-2,-4.286039E-2,-5.533953E-1,-6.39528E-2,2.770626E-1,5.584892E-1,-8.1016675E-2,-6.452381E-1,3.2218587E-2,2.0463163E-1,-2.4794412E-1,1.7610354E0,1.9309214E-1,2.1099858E-1,1.6483316E-2,3.240412E-2,-1.4062397E-2,-7.5530946E-2,-1.2814613E-2,7.491299E-3,2.1308444E-1,1.8137043E-2,-3.9525155E-2,3.0406132E-1,3.9791718E-2,1.0064674E-2,1.1563032E-1],"categories":[],"categories_nodes":[],"categories_segments":[],"categories_sizes":[],"default_left":[0,0,0,0,0,0,0,0,0,0,0,0,0,0,0,0,0,0,0,0,0,0,0,0,0,0,0,0,0],"id":55,"left_children":[1,3,5,7,9,11,13,15,17,19,-1,21,23,25,27,-1,-1,-1,-1,-1,-1,-1,-1,-1,-1,-1,-1,-1,-1],"loss_changes":[3.2102852E0,4.3435416E0,4.947206E0,4.563437E0,1.674622E0,4.5154066E0,9.714669E0,6.9052196E0,4.5373E0,8.617401E-1,0E0,9.154749E0,3.491072E0,6.112549E0,6.783798E0,0E0,0E0,0E0,0E0,0E0,0E0,0E0,0E0,0E0,0E0,0E0,0E0,0E0,0E0],"parents":[2147483647,0,0,1,1,2,2,3,3,4,4,5,5,6,6,7,7,8,8,9,9,11,11,12,12,13,13,14,14],"right_children":[2,4,6,8,10,12,14,16,18,20,-1,22,24,26,28,-1,-1,-1,-1,-1,-1,-1,-1,-1,-1,-1,-1,-1,-1],"split_conditions":[1.4731396E2,1.3504842E2,1.0828208E2,1.0566009E1,1.21647705E2,5.273282E1,1.5181003E2,2.720448E0,1.9770348E1,5.641333E1,3.2218587E-2,5.0877422E1,2.5E-1,1.9216E1,1.21647705E2,2.1099858E-1,1.6483316E-2,3.240412E-2,-1.4062397E-2,-7.5530946E-2,-1.2814613E-2,7.491299E-3,2.1308444E-1,1.8137043E-2,-3.9525155E-2,3.0406132E-1,3.9791718E-2,1.0064674E-2,1.1563032E-1],"split_indices":[6,6,5,8,4,4,6,9,7,0,0,4,12,3,4,0,0,0,0,0,0,0,0,0,0,0,0,0,0],"split_type":[0,0,0,0,0,0,0,0,0,0,0,0,0,0,0,0,0,0,0,0,0,0,0,0,0,0,0,0,0],"sum_hessian":[3.8218698E2,2.13151E2,1.69036E2,1.9591162E2,1.7239374E1,8.9346466E1,7.968953E1,1.0875471E1,1.8503615E2,1.5840845E1,1.3985286E0,3.627754E1,5.306893E1,3.198139E0,7.649139E1,1.318593E0,9.556878E0,2.316737E1,1.6186877E2,1.2680839E1,3.1600065E0,3.4961956E1,1.3155824E0,1.3498245E1,3.9570686E1,1.0148525E0,2.1832864E0,7.08007E1,5.690696E0],"tree_param":{"num_deleted":"0","num_feature":"13","num_nodes":"29","size_leaf_vector":"1"}},{"base_weights":[-1.7799178E-2,-1.6081296E-1,4.5447297E-2,1.2538847E-1,-3.1936765E-1,-1.6700757E-1,9.9983856E-2,-1.1138772E-1,8.965674E-1,-3.5924307E-1,1.0236286E-1,1.5468955E-3,-4.912088E-1,1.7192297E-1,-8.908267E-2,7.940448E-3,-8.109724E-2,1.03735095E-2,1.8509267E-1,-1.8952738E-2,-6.959903E-2,-3.5891425E-2,3.0150289E-2,-6.2344857E-2,3.6609944E-2,1.3188663E-2,9.518479E-2,-2.963922E-2,2.1578427E-2],"categories":[],"categories_nodes":[],"categories_segments":[],"categories_sizes":[],"default_left":[0,0,0,0,0,0,0,0,0,0,0,0,0,0,0,0,0,0,0,0,0,0,0,0,0,0,0,0,0],"id":56,"left_children":[1,3,5,7,9,11,13,15,17,19,-1,21,23,25,27,-1,-1,-1,-1,-1,-1,-1,-1,-1,-1,-1,-1,-1,-1],"loss_changes":[3.4952896E0,5.415808E0,3.1236978E0,7.942498E0,4.465264E0,3.014399E0,2.9260805E0,4.5692697E0,7.5257225E0,4.1571884E0,0E0,4.13915E0,2.3672705E0,4.7257223E0,3.8335555E0,0E0,0E0,0E0,0E0,0E0,0E0,0E0,0E0,0E0,0E0,0E0,0E0,0E0,0E0],"parents":[2147483647,0,0,1,1,2,2,3,3,4,4,5,5,6,6,7,7,8,8,9,9,11,11,12,12,13,13,14,14],"right_children":[2,4,6,8,10,12,14,16,18,20,-1,22,24,26,28,-1,-1,-1,-1,-1,-1,-1,-1,-1,-1,-1,-1,-1,-1],"split_conditions":[5.0146523E1,3.3821285E1,5.3388203E1,3.2484344E1,1.9702496E2,3.633522E1,1.4330147E2,1.5287495E2,8.306355E1,8.8031746E1,1.0236286E-1,5.6608234E1,1.808856E2,1.911912E2,1.7675966E2,7.940448E-3,-8.109724E-2,1.03735095E-2,1.8509267E-1,-1.8952738E-2,-6.959903E-2,-3.5891425E-2,3.0150289E-2,-6.2344857E-2,3.6609944E-2,1.3188663E-2,9.518479E-2,-2.963922E-2,2.1578427E-2],"split_indices":[7,1,6,1,8,6,8,8,4,4,0,4,7,5,8,0,0,0,0,0,0,0,0,0,0,0,0,0,0],"split_type":[0,0,0,0,0,0,0,0,0,0,0,0,0,0,0,0,0,0,0,0,0,0,0,0,0,0,0,0,0],"sum_hessian":[3.8462033E2,1.17464775E2,2.6715555E2,4.1950535E1,7.551424E1,5.414883E1,2.1300671E2,3.2750626E1,9.19991E0,7.404815E1,1.4660859E0,3.6281208E1,1.7867622E1,1.5436288E2,5.8643833E1,2.6429276E1,6.3213496E0,5.630816E0,3.5690944E0,5.027374E1,2.3774412E1,1.6389349E1,1.989186E1,1.5716186E1,2.1514373E0,1.479378E2,6.4250765E0,3.4923588E1,2.3720243E1],"tree_param":{"num_deleted":"0","num_feature":"13","num_nodes":"29","size_leaf_vector":"1"}},{"base_weights":[1.6841093E-2,-5.235871E-2,9.668168E-2,-3.4339912E-2,-6.2298316E-1,-6.841303E-1,-2.1667048E-2,-1.753206E-3,-7.4793416E-1,-8.149325E-2,2.536655E-3,-3.1630345E-2,4.935466E-4,-8.866515E-4,-8.476437E-2],"categories":[],"categories_nodes":[],"categories_segments":[],"categories_sizes":[],"default_left":[0,0,0,0,0,0,0,0,0,0,0,0,0,0,0],"id":57,"left_children":[1,3,-1,5,7,9,11,-1,13,-1,-1,-1,-1,-1,-1],"loss_changes":[2.5220472E1,3.6578267E0,0E0,2.8503373E0,8.1112623E-1,6.353395E-1,2.6846414E0,0E0,6.5625143E-1,0E0,0E0,0E0,0E0,0E0,0E0],"parents":[2147483647,0,0,1,1,3,3,4,4,5,5,6,6,8,8],"right_children":[2,4,-1,6,8,10,12,-1,14,-1,-1,-1,-1,-1,-1],"split_conditions":[1E0,4.546126E1,9.668168E-2,8.688069E0,3.843274E1,2.1097058E2,6.1669784E0,-1.753206E-3,2.330974E0,-8.149325E-2,2.536655E-3,-3.1630345E-2,4.935466E-4,-8.866515E-4,-8.476437E-2],"split_indices":[11,1,0,3,5,6,0,0,9,0,0,0,0,0,0],"split_type":[0,0,0,0,0,0,0,0,0,0,0,0,0,0,0],"sum_hessian":[3.8188052E2,3.568324E2,2.504813E1,3.4693723E2,9.89517E0,5.6233015E0,3.4131393E2,1.8878567E0,8.007314E0,4.622496E0,1.0008055E0,2.736315E1,3.1395078E2,1.0813134E0,6.926E0],"tree_param":{"num_deleted":"0","num_feature":"13","num_nodes":"15","size_leaf_vector":"1"}},{"base_weights":[4.0472248E-3,-5.9196252E-2,9.622063E-2,-1.20763846E-1,9.894033E-2,-2.1351632E-2,-2.9112837E-1,-3.4786054E-1,2.4090768E-1,-6.084192E-3,1.0182208E-1,5.390488E-2,-3.2999318E-2,4.2453203E-2,-5.2288152E-2,1.4226373E-1,1.2434252E-2],"categories":[],"categories_nodes":[],"categories_segments":[],"categories_sizes":[],"default_left":[0,0,0,0,0,0,0,0,0,0,0,0,0,0,0,0,0],"id":58,"left_children":[1,3,-1,5,7,9,11,13,15,-1,-1,-1,-1,-1,-1,-1,-1],"loss_changes":[2.3027014E1,3.4831748E0,0E0,4.3476276E0,6.4561214E0,6.7708454E0,3.2317724E0,3.5519626E0,1.0405995E1,0E0,0E0,0E0,0E0,0E0,0E0,0E0,0E0],"parents":[2147483647,0,0,1,1,3,3,4,4,5,5,6,6,7,7,8,8],"right_children":[2,4,-1,6,8,10,12,14,16,-1,-1,-1,-1,-1,-1,-1,-1],"split_conditions":[1E0,1.4676135E2,9.622063E-2,2.49E2,1.8402514E1,2.43E2,9.056818E0,1.5596976E2,9.861228E0,-6.084192E-3,1.0182208E-1,5.390488E-2,-3.2999318E-2,4.2453203E-2,-5.2288152E-2,1.4226373E-1,1.2434252E-2],"split_indices":[11,5,0,2,0,2,6,5,7,0,0,0,0,0,0,0,0],"split_type":[0,0,0,0,0,0,0,0,0,0,0,0,0,0,0,0,0],"sum_hessian":[3.7806064E2,3.555319E2,2.2528734E1,2.5607147E2,9.946043E1,1.6242027E2,9.36512E1,2.36328E1,7.582763E1,1.5738322E2,5.03705E0,3.6126587E0,9.0038536E1,4.102459E0,1.953034E1,5.802064E0,7.0025566E1],"tree_param":{"num_deleted":"0","num_feature":"13","num_nodes":"17","size_leaf_vector":"1"}},{"base_weights":[1.1492273E-3,-5.6892943E-2,9.581153E-2,-8.439466E-2,-4.614235E-2,1.1327983E-1,-1.023979E-1,2.2631874E-2,-2.90577E-2,-3.1954024E-2,3.4865253E-3],"categories":[],"categories_nodes":[],"categories_segments":[],"categories_sizes":[],"default_left":[0,0,0,0,0,0,0,0,0,0,0],"id":59,"left_children":[1,3,-1,-1,5,7,9,-1,-1,-1,-1],"loss_changes":[2.1050085E1,2.98449E0,0E0,0E0,3.1825309E0,4.297496E0,7.8163867E0,0E0,0E0,0E0,0E0],"parents":[2147483647,0,0,1,1,4,4,5,5,6,6],"right_children":[2,4,-1,-1,6,8,10,-1,-1,-1,-1],"split_conditions":[1E0,1.8111128E0,9.581153E-2,-8.439466E-2,2.5E-1,1.5686322E2,5.416667E-1,2.2631874E-2,-2.90577E-2,-3.1954024E-2,3.4865253E-3],"split_indices":[11,7,0,0,12,8,12,0,0,0,0],"split_type":[0,0,0,0,0,0,0,0,0,0,0],"sum_hessian":[3.7699637E2,3.56325E2,2.0671373E1,3.7571979E0,3.525678E2,9.1696396E1,2.608714E2,7.198697E1,1.9709433E1,1.0052258E2,1.6034882E2],"tree_param":{"num_deleted":"0","num_feature":"13","num_nodes":"11","size_leaf_vector":"1"}},{"base_weights":[8.169881E-3,-4.4590965E-2,9.535111E-2,-1.13072254E-1,9.285475E-2,-2.1627884E-1,1.3772318E-2,-6.40089E-2,9.5243745E-2,-6.54572E-3,-3.8859237E-2,1.049035E-1,-3.8672213E-3,-6.1237495E-2,-1.0559189E-3],"categories":[],"categories_nodes":[],"categories_segments":[],"categories_sizes":[],"default_left":[0,0,0,0,0,0,0,0,0,0,0,0,0,0,0],"id":60,"left_children":[1,3,-1,5,7,9,11,13,-1,-1,-1,-1,-1,-1,-1],"loss_changes":[1.8742615E1,3.3619056E0,0E0,3.1200325E0,1.610087E1,3.3880143E0,5.8912215E0,2.9695652E0,0E0,0E0,0E0,0E0,0E0,0E0,0E0],"parents":[2147483647,0,0,1,1,3,3,4,4,5,5,6,6,7,7],"right_children":[2,4,-1,6,8,10,12,14,-1,-1,-1,-1,-1,-1,-1],"split_conditions":[1E0,1E0,9.535111E-2,1.1273503E2,9.0332436E1,5.905607E1,1.15914734E2,1.127086E1,9.5243745E-2,-6.54572E-3,-3.8859237E-2,1.049035E-1,-3.8672213E-3,-6.1237495E-2,-1.0559189E-3],"split_indices":[11,10,0,8,7,8,8,4,0,0,0,0,0,0,0],"split_type":[0,0,0,0,0,0,0,0,0,0,0,0,0,0,0],"sum_hessian":[3.7392422E2,3.550606E2,1.886361E1,2.371031E2,1.17957504E2,1.3034409E2,1.0675901E2,1.0053635E2,1.7421156E1,7.02425E1,6.010159E1,4.231227E0,1.0252779E2,8.000311E0,9.253603E1],"tree_param":{"num_deleted":"0","num_feature":"13","num_nodes":"15","size_leaf_vector":"1"}},{"base_weights":[-1.2370817E-2,-6.1636362E-2,9.479086E-2,9.578919E-2,-1.1735552E-1,2.4105372E-1,-3.5524145E-1,-2.6670727E-1,-2.512144E-2,1.4711599E-2,1.4224917E-1,-5.0706524E-2,4.1794937E-2,-2.5596435E-3,-4.207432E-2,5.789386E-2,-8.099457E-3],"categories":[],"categories_nodes":[],"categories_segments":[],"categories_sizes":[],"default_left":[0,0,0,0,0,0,0,0,0,0,0,0,0,0,0,0,0],"id":61,"left_children":[1,3,-1,5,7,9,11,13,15,-1,-1,-1,-1,-1,-1,-1,-1],"loss_changes":[1.7443707E1,3.0856209E0,0E0,6.124775E0,3.5654812E0,7.59443E0,2.895317E0,3.6623406E0,5.494854E0,0E0,0E0,0E0,0E0,0E0,0E0,0E0,0E0],"parents":[2147483647,0,0,1,1,3,3,4,4,5,5,6,6,7,7,8,8],"right_children":[2,4,-1,6,8,10,12,14,16,-1,-1,-1,-1,-1,-1,-1,-1],"split_conditions":[1E0,2.5E-1,9.479086E-2,4.0745804E1,5.416667E-1,3.8827965E1,5.0507725E1,3.75E-1,5.833333E-1,1.4711599E-2,1.4224917E-1,-5.0706524E-2,4.1794937E-2,-2.5596435E-3,-4.207432E-2,5.789386E-2,-8.099457E-3],"split_indices":[11,12,0,3,12,3,3,12,12,0,0,0,0,0,0,0,0],"split_type":[0,0,0,0,0,0,0,0,0,0,0,0,0,0,0,0,0],"sum_hessian":[3.6648596E2,3.494917E2,1.6994278E1,9.117427E1,2.583174E2,6.931528E1,2.185899E1,9.7899765E1,1.6041766E2,6.5251564E1,4.0637164E0,1.8558945E1,3.300045E0,3.8617832E1,5.9281933E1,1.278913E1,1.4762852E2],"tree_param":{"num_deleted":"0","num_feature":"13","num_nodes":"17","size_leaf_vector":"1"}},{"base_weights":[4.476574E-3,-4.061892E-2,9.431111E-2,-4.5802817E-1,-1.9618204E-2,9.23705E-2,-6.7928725E-1,-4.5908788E-1,3.2774934E-3,-8.232062E-2,-2.299255E-2,1.8008694E-2,-6.3892566E-2,3.0718386E-2,-3.4446304E-3],"categories":[],"categories_nodes":[],"categories_segments":[],"categories_sizes":[],"default_left":[0,0,0,0,0,0,0,0,0,0,0,0,0,0,0],"id":62,"left_children":[1,3,-1,5,7,-1,9,11,13,-1,-1,-1,-1,-1,-1],"loss_changes":[1.537939E1,3.030817E0,0E0,5.692197E0,3.3341243E0,0E0,7.7149296E-1,2.0011406E0,3.6310887E0,0E0,0E0,0E0,0E0,0E0,0E0],"parents":[2147483647,0,0,1,1,3,3,4,4,6,6,7,7,8,8],"right_children":[2,4,-1,6,8,-1,10,12,14,-1,-1,-1,-1,-1,-1],"split_conditions":[1E0,1.020315E1,9.431111E-2,1.7997173E1,6.5927424E0,9.23705E-2,1.2769255E2,1.6901215E1,1.6076933E1,-8.232062E-2,-2.299255E-2,1.8008694E-2,-6.3892566E-2,3.0718386E-2,-3.4446304E-3],"split_indices":[11,5,0,4,4,0,7,3,7,0,0,0,0,0,0],"split_type":[0,0,0,0,0,0,0,0,0,0,0,0,0,0,0],"sum_hessian":[3.6143182E2,3.4577618E2,1.5655649E1,1.5566525E1,3.3020966E2,1.7104199E0,1.3856106E1,1.5408135E1,3.148015E2,9.86474E0,3.9913657E0,3.3829951E0,1.2025141E1,3.397255E1,2.8082898E2],"tree_param":{"num_deleted":"0","num_feature":"13","num_nodes":"15","size_leaf_vector":"1"}},{"base_weights":[2.1255747E-3,-3.8852092E-2,9.37024E-2,-1.20746605E-1,6.639396E-2,-6.1719567E-1,-6.645521E-2,1.6430025E-1,4.328259E-2,-8.520198E-2,-1.6558614E-2,-1.4327605E-3,-6.3185304E-2,2.4378428E-3,1.3989888E-1],"categories":[],"categories_nodes":[],"categories_segments":[],"categories_sizes":[],"default_left":[0,0,0,0,0,0,0,0,0,0,0,0,0,0,0],"id":63,"left_children":[1,3,-1,5,7,9,11,-1,13,-1,-1,-1,-1,-1,-1],"loss_changes":[1.3859394E1,2.995637E0,0E0,5.222767E0,5.4795446E0,1.8877759E0,5.212477E0,0E0,3.8398886E0,0E0,0E0,0E0,0E0,0E0,0E0],"parents":[2147483647,0,0,1,1,3,3,4,4,5,5,6,6,8,8],"right_children":[2,4,-1,6,8,10,12,-1,14,-1,-1,-1,-1,-1,-1],"split_conditions":[1E0,1.4922302E2,9.37024E-2,2.1282932E1,2.8073383E1,3.907104E1,1.373729E2,1.6430025E-1,6.976896E1,-8.520198E-2,-1.6558614E-2,-1.4327605E-3,-6.3185304E-2,2.4378428E-3,1.3989888E-1],"split_indices":[11,6,0,5,1,1,6,0,0,0,0,0,0,0,0],"split_type":[0,0,0,0,0,0,0,0,0,0,0,0,0,0,0],"sum_hessian":[3.5981976E2,3.4562888E2,1.4190866E1,1.9429552E2,1.5133336E2,1.8131357E1,1.7616417E2,1.1737242E0,1.5015964E2,1.1345427E1,6.7859297E0,1.6223228E2,1.393188E1,1.4909857E2,1.06107E0],"tree_param":{"num_deleted":"0","num_feature":"13","num_nodes":"15","size_leaf_vector":"1"}},{"base_weights":[2.3949617E-3,-6.3618445E-1,1.4785177E-2,-7.581148E-2,9.333696E-4,8.8687524E-2,-8.2396775E-2,1.6449285E-1,-2.1454176E-1,-2.960017E-1,8.397107E-2,2.2578673E-2,-1.649365E-2,1.2823686E-1,-3.0430032E-2,-2.8510753E-3,-4.2559892E-2,3.1696953E-2,-1.2952096E-2],"categories":[],"categories_nodes":[],"categories_segments":[],"categories_sizes":[],"default_left":[0,0,0,0,0,0,0,0,0,0,0,0,0,0,0,0,0,0,0],"id":64,"left_children":[1,3,5,-1,-1,7,9,11,13,15,17,-1,-1,-1,-1,-1,-1,-1,-1],"loss_changes":[2.864947E0,5.495348E-1,2.5570123E0,0E0,0E0,4.681816E0,5.4930043E0,3.3140144E0,5.880411E0,2.3310342E0,4.3826246E0,0E0,0E0,0E0,0E0,0E0,0E0,0E0,0E0],"parents":[2147483647,0,0,1,1,2,2,5,5,6,6,7,7,8,8,9,9,10,10],"right_children":[2,4,6,-1,-1,8,10,12,14,16,18,-1,-1,-1,-1,-1,-1,-1,-1],"split_conditions":[8.688069E0,3.09E2,3.7712326E1,-7.581148E-2,9.333696E-4,1.5686322E2,7.478553E1,4.478524E1,2.8186544E1,1.48E2,3.403432E1,2.2578673E-2,-1.649365E-2,1.2823686E-1,-3.0430032E-2,-2.8510753E-3,-4.2559892E-2,3.1696953E-2,-1.2952096E-2],"split_indices":[3,2,1,0,0,8,7,3,1,2,0,0,0,0,0,0,0,0,0],"split_type":[0,0,0,0,0,0,0,0,0,0,0,0,0,0,0,0,0,0,0],"sum_hessian":[3.5990646E2,5.8920174E0,3.5401443E2,4.809192E0,1.0828251E0,2.0114241E2,1.5287202E2,1.612808E2,3.9861607E1,6.659255E1,8.627948E1,1.3624548E2,2.5035326E1,1.5033448E0,3.8358265E1,2.21319E1,4.4460648E1,4.1023277E1,4.5256203E1],"tree_param":{"num_deleted":"0","num_feature":"13","num_nodes":"19","size_leaf_vector":"1"}},{"base_weights":[1.6320504E-2,-2.0006321E-2,9.301648E-2,-4.9205706E-2,2.85004E-1,-2.6281965E-1,-1.0479392E-2,-2.6721725E-1,7.261403E-1,1.3537201E-2,-4.9045514E-2,5.848238E-2,-3.3679784E-3,9.5803894E-2,-4.9439743E-2,1.329089E-1,-5.6771496E-3],"categories":[],"categories_nodes":[],"categories_segments":[],"categories_sizes":[],"default_left":[0,0,0,0,0,0,0,0,0,0,0,0,0,0,0,0,0],"id":65,"left_children":[1,3,-1,5,7,9,11,13,15,-1,-1,-1,-1,-1,-1,-1,-1],"loss_changes":[1.1990723E1,3.111827E0,0E0,2.630313E0,7.6328754E0,4.4903274E0,3.755451E0,4.4518385E0,8.215894E0,0E0,0E0,0E0,0E0,0E0,0E0,0E0,0E0],"parents":[2147483647,0,0,1,1,3,3,4,4,5,5,6,6,7,7,8,8],"right_children":[2,4,-1,6,8,10,12,14,16,-1,-1,-1,-1,-1,-1,-1,-1],"split_conditions":[1E0,1.19142334E2,9.301648E-2,3.4264732E1,1.31776E2,4.0039738E1,4.0601505E1,1.475818E1,2.0141655E2,1.3537201E-2,-4.9045514E-2,5.848238E-2,-3.3679784E-3,9.5803894E-2,-4.9439743E-2,1.329089E-1,-5.6771496E-3],"split_indices":[11,4,0,5,6,4,5,6,6,0,0,0,0,0,0,0,0],"split_type":[0,0,0,0,0,0,0,0,0,0,0,0,0,0,0,0,0],"sum_hessian":[3.5963776E2,3.4682883E2,1.2808913E1,3.1729233E2,2.9536495E1,4.780636E1,2.69486E2,1.329183E1,1.6244665E1,1.7536291E1,3.0270065E1,9.200524E0,2.6028546E2,1.5758222E0,1.1716007E1,8.782965E0,7.4617004E0],"tree_param":{"num_deleted":"0","num_feature":"13","num_nodes":"17","size_leaf_vector":"1"}},{"base_weights":[4.5202393E-4,-3.3886775E-2,9.2435844E-2,2.672164E-1,-5.9125423E-2,8.0125237E-1,-1.739245E-1,-4.291629E-1,-2.973885E-2,6.707974E-3,1.9489186E-1,8.193737E-2,-3.647247E-2,1.4827862E-2,-6.0573865E-2,2.9311836E-2,-5.846841E-3],"categories":[],"categories_nodes":[],"categories_segments":[],"categories_sizes":[],"default_left":[0,0,0,0,0,0,0,0,0,0,0,0,0,0,0,0,0],"id":66,"left_children":[1,3,-1,5,7,9,11,13,15,-1,-1,-1,-1,-1,-1,-1,-1],"loss_changes":[1.1352839E1,2.6378453E0,0E0,6.46841E0,3.4578934E0,1.0259514E1,3.2428463E0,2.4764838E0,2.7697382E0,0E0,0E0,0E0,0E0,0E0,0E0,0E0,0E0],"parents":[2147483647,0,0,1,1,3,3,4,4,5,5,6,6,7,7,8,8],"right_children":[2,4,-1,6,8,10,12,14,16,-1,-1,-1,-1,-1,-1,-1,-1],"split_conditions":[1E0,1.4632017E1,9.2435844E-2,5.7490128E1,1.0246998E1,9.81691E0,3.310129E1,1.6901215E1,1.9010397E1,6.707974E-3,1.9489186E-1,8.193737E-2,-3.647247E-2,1.4827862E-2,-6.0573865E-2,2.9311836E-2,-5.846841E-3],"split_indices":[11,8,0,4,4,8,6,3,4,0,0,0,0,0,0,0,0],"split_type":[0,0,0,0,0,0,0,0,0,0,0,0,0,0,0,0,0],"sum_hessian":[3.558548E2,3.4403152E2,1.1823285E1,2.586525E1,3.1816626E2,1.1331389E1,1.4533861E1,2.2407366E1,2.957589E2,7.556119E0,3.7752702E0,1.811074E0,1.2722787E1,5.284885E0,1.712248E1,2.341565E1,2.7234326E2],"tree_param":{"num_deleted":"0","num_feature":"13","num_nodes":"17","size_leaf_vector":"1"}},{"base_weights":[-1.2607173E-2,-8.7587506E-2,9.945716E-2,-2.2184256E-1,6.857133E-2,-4.4383686E-3,9.422799E-2,-6.279949E-1,-1.4882699E-1,1.8211229E-1,-4.1388834E-1,-5.547184E-1,6.378422E-2,2.9483855E-2,-7.126529E-2,1.8937489E-2,-2.7654884E-2,-2.5920856E-3,4.881792E-2,7.7010505E-2,-5.409729E-2,-7.97015E-2,2.552635E-2,1.1283673E-1,1.7585868E-3],"categories":[],"categories_nodes":[],"categories_segments":[],"categories_sizes":[],"default_left":[0,0,0,0,0,0,0,0,0,0,0,0,0,0,0,0,0,0,0,0,0,0,0,0,0],"id":67,"left_children":[1,3,5,7,9,11,-1,13,15,17,19,21,23,-1,-1,-1,-1,-1,-1,-1,-1,-1,-1,-1,-1],"loss_changes":[2.9842029E0,4.474344E0,1.2475414E1,3.3051562E0,5.5033875E0,4.832712E0,0E0,1.5501733E0,4.305031E0,5.1641617E0,3.3029544E0,2.9899726E0,5.615864E0,0E0,0E0,0E0,0E0,0E0,0E0,0E0,0E0,0E0,0E0,0E0,0E0],"parents":[2147483647,0,0,1,1,2,2,3,3,4,4,5,5,7,7,8,8,9,9,10,10,11,11,12,12],"right_children":[2,4,6,8,10,12,-1,14,16,18,20,22,24,-1,-1,-1,-1,-1,-1,-1,-1,-1,-1,-1,-1],"split_conditions":[1.011284E2,5.416667E-1,1E0,3.0117569E1,4.2868565E1,6.9E1,9.422799E-2,2.8073383E1,3.4041775E1,1.237333E2,1.5937636E1,9.748832E1,1.0475442E2,2.9483855E-2,-7.126529E-2,1.8937489E-2,-2.7654884E-2,-2.5920856E-3,4.881792E-2,7.7010505E-2,-5.409729E-2,-7.97015E-2,2.552635E-2,1.1283673E-1,1.7585868E-3],"split_indices":[7,12,10,1,3,2,0,1,1,5,6,4,7,0,0,0,0,0,0,0,0,0,0,0,0],"split_type":[0,0,0,0,0,0,0,0,0,0,0,0,0,0,0,0,0,0,0,0,0,0,0,0,0],"sum_hessian":[3.531147E2,2.1169296E2,1.4142172E2,1.1360353E2,9.808943E1,1.2678728E2,1.4634449E1,1.6152683E1,9.745085E1,7.990687E1,1.8182566E1,1.3198425E1,1.1358885E2,1.1486675E0,1.5004016E1,2.6581493E1,7.0869354E1,4.811708E1,3.1789785E1,1.2720091E0,1.6910557E1,1.0171692E1,3.0267339E0,3.7500165E0,1.0983884E2],"tree_param":{"num_deleted":"0","num_feature":"13","num_nodes":"25","size_leaf_vector":"1"}},{"base_weights":[2.4947036E-2,-5.977037E-3,9.176561E-2,-2.2743395E-1,4.1066438E-2,-5.351825E-1,3.009878E-2,1.3979891E-1,-9.754633E-2,3.6766615E-2,-6.1356056E-2,4.7373265E-2,-2.9061316E-2,1.0030612E-2,1.1248058E-1,-4.049709E-2,3.987189E-3],"categories":[],"categories_nodes":[],"categories_segments":[],"categories_sizes":[],"default_left":[0,0,0,0,0,0,0,0,0,0,0,0,0,0,0,0,0],"id":68,"left_children":[1,3,-1,5,7,9,11,13,15,-1,-1,-1,-1,-1,-1,-1,-1],"loss_changes":[9.760364E0,3.577759E0,0E0,4.784541E0,3.891523E0,2.1690087E0,4.932724E0,6.34058E0,5.020626E0,0E0,0E0,0E0,0E0,0E0,0E0,0E0,0E0],"parents":[2147483647,0,0,1,1,3,3,4,4,5,5,6,6,7,7,8,8],"right_children":[2,4,-1,6,8,10,12,14,16,-1,-1,-1,-1,-1,-1,-1,-1],"split_conditions":[1E0,4.711396E1,9.176561E-2,5.7056725E1,4.0489506E1,9.861228E0,1.79803E1,3.9332905E1,1.15618324E2,3.6766615E-2,-6.1356056E-2,4.7373265E-2,-2.9061316E-2,1.0030612E-2,1.1248058E-1,-4.049709E-2,3.987189E-3],"split_indices":[11,6,0,4,0,7,6,0,6,0,0,0,0,0,0,0,0],"split_type":[0,0,0,0,0,0,0,0,0,0,0,0,0,0,0,0,0],"sum_hessian":[3.5235825E2,3.4152103E2,1.0837224E1,5.916545E1,2.823556E2,2.6463621E1,3.2701828E1,1.6489441E2,1.17461174E2,1.8190289E0,2.4644592E1,1.3521165E1,1.9180664E1,1.5959735E2,5.2970514E0,3.5683964E1,8.1777214E1],"tree_param":{"num_deleted":"0","num_feature":"13","num_nodes":"17","size_leaf_vector":"1"}},{"base_weights":[-2.553531E-2,-5.5052835E-2,9.091174E-2,-1.20434865E-1,7.9591885E-2,-3.6738774E-1,-7.180106E-2,-6.377555E-2,9.4326995E-2,-6.312132E-2,6.5981275E-3,5.6860086E-2,-1.1481964E-2,5.1816482E-2,-1.2778463E-2],"categories":[],"categories_nodes":[],"categories_segments":[],"categories_sizes":[],"default_left":[0,0,0,0,0,0,0,0,0,0,0,0,0,0,0],"id":69,"left_children":[1,3,-1,5,7,9,11,13,-1,-1,-1,-1,-1,-1,-1],"loss_changes":[9.708224E0,3.005395E0,0E0,2.7295861E0,1.3908048E1,4.3305507E0,5.3810525E0,3.6738665E0,0E0,0E0,0E0,0E0,0E0,0E0,0E0],"parents":[2147483647,0,0,1,1,3,3,4,4,5,5,6,6,7,7],"right_children":[2,4,-1,6,8,10,12,14,-1,-1,-1,-1,-1,-1,-1],"split_conditions":[1E0,1E0,9.091174E-2,1.4931047E1,9.0332436E1,1.2769255E2,1.6901215E1,1.6068052E1,9.4326995E-2,-6.312132E-2,6.5981275E-3,5.6860086E-2,-1.1481964E-2,5.1816482E-2,-1.2778463E-2],"split_indices":[11,10,0,3,7,7,3,8,0,0,0,0,0,0,0],"split_type":[0,0,0,0,0,0,0,0,0,0,0,0,0,0,0],"sum_hessian":[3.4907806E2,3.3930353E2,9.774541E0,2.2846764E2,1.10835884E2,3.651212E1,1.9195552E2,9.585111E1,1.4984778E1,2.241179E1,1.41003275E1,1.1313783E1,1.8064174E2,8.795093E0,8.7056015E1],"tree_param":{"num_deleted":"0","num_feature":"13","num_nodes":"15","size_leaf_vector":"1"}},{"base_weights":[6.4143427E-3,-1.9997727E-2,9.014873E-2,6.2149204E-2,-1.364885E-1,3.022921E-2,8.6437863E-1,4.3841273E-1,-1.9120403E-1,5.7076693E-2,-1.4001856E-3,-4.4950016E-2,1.563157E-1,1.3901947E-1,2.7338043E-3,-2.747259E-2,2.9125646E-2],"categories":[],"categories_nodes":[],"categories_segments":[],"categories_sizes":[],"default_left":[0,0,0,0,0,0,0,0,0,0,0,0,0,0,0,0,0],"id":70,"left_children":[1,3,-1,5,7,9,11,13,15,-1,-1,-1,-1,-1,-1,-1,-1],"loss_changes":[8.22643E0,3.24523E0,0E0,5.070921E0,4.4937353E0,4.6096063E0,7.6624913E0,4.847518E0,5.2663517E0,0E0,0E0,0E0,0E0,0E0,0E0,0E0,0E0],"parents":[2147483647,0,0,1,1,3,3,4,4,5,5,6,6,7,7,8,8],"right_children":[2,4,-1,6,8,10,12,14,16,-1,-1,-1,-1,-1,-1,-1,-1],"split_conditions":[1E0,3.3285954E1,9.014873E-2,3.2451294E1,1.4632017E1,9.861228E0,5.630546E1,1.03E2,2.2578365E2,5.7076693E-2,-1.4001856E-3,-4.4950016E-2,1.563157E-1,1.3901947E-1,2.7338043E-3,-2.747259E-2,2.9125646E-2],"split_indices":[11,3,0,3,8,7,7,2,6,0,0,0,0,0,0,0,0],"split_type":[0,0,0,0,0,0,0,0,0,0,0,0,0,0,0,0,0],"sum_hessian":[3.4621445E2,3.3724072E2,8.973738E0,1.9804787E2,1.3919284E2,1.9146724E2,6.580629E0,1.148685E1,1.2770599E2,1.3581887E1,1.7788535E2,2.4085965E0,4.1720324E0,2.7463145E0,8.740535E0,1.0922749E2,1.8478502E1],"tree_param":{"num_deleted":"0","num_feature":"13","num_nodes":"17","size_leaf_vector":"1"}},{"base_weights":[3.1274687E-2,7.613806E-3,8.931842E-2,4.3654525E-1,-5.04178E-3,8.480794E-1,-5.322417E-1,-2.1950034E-2,3.14594E-1,1.1954876E-1,-5.5028733E-2,-6.3411586E-2,-1.3934473E-2,2.035631E-2,-4.988284E-3,1.2528907E-1,-1.182029E-2],"categories":[],"categories_nodes":[],"categories_segments":[],"categories_sizes":[],"default_left":[0,0,0,0,0,0,0,0,0,0,0,0,0,0,0,0,0],"id":71,"left_children":[1,3,-1,5,7,9,11,13,15,-1,-1,-1,-1,-1,-1,-1,-1],"loss_changes":[7.0410523E0,1.8335595E0,0E0,4.310747E0,1.7832904E0,4.1457696E0,5.1749766E-2,1.982492E0,6.880592E0,0E0,0E0,0E0,0E0,0E0,0E0,0E0,0E0],"parents":[2147483647,0,0,1,1,3,3,4,4,5,5,6,6,7,7,8,8],"right_children":[2,4,-1,6,8,10,12,14,16,-1,-1,-1,-1,-1,-1,